Language model created by QuickLM on Thu Mar 15 09:03:35 EDT 2018
Copyright (c) 1996-2010 Carnegie Mellon University and Alexander I. Rudnicky

The model is in standard ARPA format, designed by Doug Paul while he was at MITRE.

The code that was used to produce this language model is available in Open Source.
Please visit http://www.speech.cs.cmu.edu/tools/ for more information

The (fixed) discount mass is 0.5. The backoffs are computed using the ratio method.
This model based on a corpus of 555 sentences and 505 words

\data\
ngram 1=505
ngram 2=1200
ngram 3=1244

\1-grams:
-3.7017 3FM -0.2503
-3.7017 538 -0.2503
-3.7017 61 -0.2503
-0.9574 </s> -0.3010
-0.9574 <s> -0.2263
-3.7017 A -0.2503
-3.7017 ABOVE -0.2503
-3.2246 ADD -0.2501
-3.2246 ADDRESS -0.2500
-3.4007 AFTER -0.2501
-3.7017 AIGHTY -0.3001
-3.7017 ALARM -0.2503
-3.4007 ALIGN -0.2999
-2.7987 ALL -0.2480
-3.7017 ALTERNATE -0.3007
-3.7017 ALTERNATIVES -0.2503
-3.7017 ALWAYS -0.3004
-3.7017 AM -0.3003
-2.9236 AND -0.2995
-3.7017 ANGLE -0.3009
-3.4007 APACHE -0.2499
-3.7017 APP -0.3009
-3.7017 APPEND -0.2995
-3.7017 APPLICATION -0.2503
-3.7017 APPLICATIONS -0.2503
-2.7987 APT -0.2993
-3.0997 ARE -0.2493
-3.7017 ARMITAGE -0.2503
-3.0028 ARROW -0.2502
-3.7017 ARTICLE -0.2997
-3.7017 AS -0.2503
-3.7017 ASIDE -0.2997
-3.7017 AUDIO -0.2503
-3.7017 AVAILABLE -0.2503
-3.7017 AWK -0.3008
-3.7017 B -0.2503
-2.7987 BACK -0.2497
-3.7017 BALL -0.2503
-3.7017 BANG -0.2503
-3.7017 BAR -0.2503
-3.4007 BASH -0.2493
-3.4007 BEEN -0.2992
-3.7017 BEFORE -0.2503
-3.7017 BELOW -0.2503
-3.7017 BERRY -0.2503
-3.0997 BIN -0.2501
-2.8566 BLADDER -0.2498
-3.7017 BLANK -0.2503
-3.7017 BLATHER -0.3009
-3.4007 BLOCK -0.2501
-3.7017 BOB -0.2503
-3.2246 BOLD -0.2503
-3.7017 BOOK -0.3009
-3.7017 BORED -0.2503
-3.7017 BRACKET -0.2992
-3.7017 BROWSER -0.3009
-3.2246 BUFFER -0.2503
-3.7017 BULLET -0.3009
-3.7017 BULLSHIT -0.2503
-3.7017 BUTTON -0.2503
-3.7017 BY -0.3009
-2.8566 C -0.2492
-3.7017 CAMEL -0.3009
-3.7017 CAN -0.3009
-3.7017 CANCEL -0.2503
-3.7017 CAPITALIZE -0.2992
-3.7017 CAPS -0.2992
-3.7017 CASH -0.3002
-3.7017 CATAPULT -0.2503
-3.7017 CD -0.3009
-3.2246 CEL -0.2503
-3.7017 CELL -0.3008
-3.0028 CENTER -0.2480
-3.7017 CHANGE -0.3005
-3.7017 CITATION -0.2997
-3.7017 CITY -0.2503
-3.0997 CLASS -0.2485
-3.7017 CLASSIC -0.3009
-2.9236 CLICK -0.2496
-2.8566 CLOSE -0.2956
-3.0997 CODE -0.2503
-3.0997 COLON -0.2496
-3.7017 COLUMN -0.3009
-3.7017 COMMA -0.2503
-3.4007 COMMANDO -0.2503
-3.7017 COMMANDS -0.2503
-3.7017 COMMENT -0.2503
-3.7017 COMMIT -0.3003
-3.4007 COMPUTER -0.2503
-3.0997 CONFIG -0.2499
-3.7017 CONFIRM -0.2503
-3.7017 CONFIRMATION -0.2503
-2.3795 CONTROL -0.2934
-3.0028 COPY -0.2482
-3.7017 CORPORATE -0.3009
-3.4007 COW -0.3007
-3.0997 CURRENT -0.2988
-3.7017 CURSOR -0.2503
-3.7017 CUT -0.2503
-2.8566 D -0.2485
-3.7017 DADS -0.3007
-3.7017 DANNY -0.2503
-3.4007 DATA -0.2997
-3.4007 DATE -0.2499
-3.7017 DAY -0.3001
-3.7017 DECORATION -0.2503
-3.4007 DEFINITION -0.3008
-3.0028 DELETE -0.2469
-3.0997 DERR -0.2503
-3.7017 DESIGNATION -0.2503
-3.4007 DESKTOP -0.2503
-3.4007 DESKTOPS -0.2503
-3.7017 DIALOG -0.2503
-3.7017 DISABLE -0.3003
-3.2246 DISPLAY -0.3007
-3.7017 DIST -0.3008
-3.4007 DO -0.3002
-3.7017 DOCUMENT -0.3003
-3.7017 DOLLAR -0.3009
-3.7017 DONT -0.3007
-3.7017 DOUBLE -0.3005
-2.9236 DOWN -0.2498
-3.7017 DOWNLOADS -0.2503
-3.4007 E -0.2503
-3.2246 ECHO -0.3003
-3.0997 EDIT -0.2495
-3.4007 EE -0.3008
-3.7017 EFF -0.3005
-3.0997 EIGHT -0.2492
-3.7017 EL -0.2503
-3.0997 EMAIL -0.2499
-3.4007 EMULATION -0.3009
-3.7017 ENABLE -0.3003
-3.7017 ENABLED -0.2503
-3.4007 END -0.2503
-3.4007 ENGINE -0.3009
-2.4976 ENTER -0.2484
-2.8566 EQUALS -0.2472
-3.4007 ESCAPE -0.2503
-3.7017 ET -0.3008
-3.4007 EX -0.2499
-3.7017 EXCLAMATION -0.3009
-3.7017 EXIT -0.2503
-3.2246 EXPRESSION -0.2503
-3.4007 EYE -0.2502
-3.0997 F -0.2493
-3.2246 FACE -0.2503
-3.7017 FIBER -0.3007
-3.2246 FIELD -0.2503
-3.7017 FIFTY -0.3001
-2.7017 FILE -0.2488
-3.4007 FILES -0.2499
-3.7017 FIND -0.3004
-3.7017 FIRST -0.3007
-3.2246 FIVE -0.2499
-3.7017 FIX -0.3009
-3.7017 FLAT -0.3008
-3.7017 FLUFFIEST -0.2503
-3.7017 FM -0.2503
-3.7017 FOLDER -0.2503
-3.7017 FORMAT -0.3003
-3.4007 FORTUNE -0.2503
-3.4007 FORWARD -0.2503
-3.0997 FOUR -0.2499
-3.7017 FOURTY -0.3001
-3.7017 FRAME -0.2503
-3.7017 FROWNEY -0.3008
-3.4007 FULL -0.3004
-3.7017 FUN -0.3009
-3.7017 FUNNY -0.2503
-3.2246 GAY -0.3007
-3.0028 GEE -0.3005
-3.0997 GET -0.2990
-2.9236 GIT -0.3002
-3.7017 GLADIS -0.2503
-3.7017 GLADOS -0.2503
-2.8566 GO -0.2986
-3.7017 GOOD -0.3009
-3.7017 GOOGLE -0.2992
-3.7017 GRAB -0.3006
-3.7017 GRIN -0.3008
-3.0997 GROUND -0.3003
-2.5556 H -0.2489
-3.7017 HAL -0.2503
-3.7017 HASH -0.3004
-3.4007 HAVE -0.3003
-2.7017 HEADER -0.2475
-3.0997 HELLO -0.2499
-3.7017 HELP -0.3003
-3.7017 HERE -0.2503
-3.4007 HISTORY -0.2503
-3.7017 HOLD -0.2503
-3.4007 HOME -0.2499
-3.4007 HOOS -0.3006
-3.0028 HOW -0.2997
-3.7017 HUGE -0.3009
-3.7017 HUNDERED -0.3001
-3.0997 HYPERLINK -0.2503
-3.7017 HYPHENATE -0.2992
-2.7987 I -0.2491
-3.7017 ICON -0.2503
-3.7017 IM -0.3009
-3.2246 IMAGE -0.2489
-3.0997 IN -0.2499
-3.7017 INBOX -0.2503
-3.7017 INFO -0.2503
-3.7017 INLINE -0.2503
-2.5556 INSERT -0.2982
-3.4007 INSTALL -0.2503
-2.6603 IS -0.2983
-3.0997 IT -0.2499
-3.7017 ITALICIZE -0.2503
-3.4007 ITALICS -0.2503
-3.4007 ITEM -0.2488
-3.4007 JAVASCRIPT -0.3000
-3.7017 JUST -0.3009
-3.7017 K -0.2503
-3.7017 KEEP -0.2503
-3.0997 KEY -0.2480
-3.2246 KILL -0.2983
-3.2246 KISS -0.3008
-2.9236 L -0.2486
-3.7017 LABELS -0.3002
-3.4007 LAST -0.2993
-3.7017 LAUNCHER -0.2503
-2.7987 LEFT -0.2490
-3.2246 LINE -0.2501
-3.4007 LINES -0.2503
-3.0997 LINK -0.2485
-3.2246 LIST -0.2996
-3.7017 LISTENING -0.2503
-3.7017 LOCAL -0.3007
-3.4007 LOCATION -0.2503
-3.7017 LOCK -0.3009
-3.7017 LOG -0.3007
-3.0997 LONG -0.2999
-3.7017 LOWER -0.2998
-3.7017 LOWERCASE -0.2503
-3.7017 M -0.2503
-3.4007 MAIL -0.2500
-2.9236 MAKE -0.3002
-3.7017 MAN -0.2503
-3.0997 MANAGER -0.2503
-3.4007 MAP -0.2503
-3.7017 MARK -0.2503
-2.9236 MARKDOWN -0.2990
-3.7017 MATRIX -0.2503
-3.7017 MAX -0.2503
-3.7017 MAXIMIZE -0.2996
-3.4007 ME -0.2498
-2.7987 MENU -0.2503
-3.7017 MERGE -0.2503
-3.7017 MET -0.2503
-2.6603 META -0.2983
-3.4007 METH -0.2501
-3.7017 MIDDLE -0.3005
-3.7017 MIN -0.2503
-3.7017 MINIMIZE -0.2996
-3.7017 MORNING -0.2503
-3.0997 MOUSE -0.3007
-2.5256 MOVE -0.2967
-2.7987 MUSIC -0.2488
-3.4007 MUTE -0.3009
-3.4007 N -0.2501
-3.0997 NAME -0.2503
-3.7017 NATURAL -0.3008
-3.7017 NET -0.3009
-2.7475 NEW -0.2963
-3.0997 NEXT -0.2985
-3.7017 NICK -0.3007
-3.4007 NINE -0.2503
-3.7017 NINETY -0.3001
-3.4007 NO -0.2502
-3.7017 NONE -0.2503
-3.4007 NOTE -0.2503
-3.7017 NOTES -0.2503
-3.2246 O -0.2502
-2.8566 OF -0.2977
-3.7017 OFF -0.2503
-3.7017 OFFICE -0.3008
-2.8566 ON -0.2468
-3.0997 ONE -0.2503
-3.7017 ONLY -0.2992
-2.7987 OP -0.2492
-2.5556 OPEN -0.2961
-3.7017 OPTIMAL -0.3009
-3.4007 OUT -0.2503
-3.0997 P -0.2496
-3.4007 PACKAGE -0.3001
-2.8566 PAGE -0.2474
-3.7017 PANEL -0.2503
-3.4007 PARAGRAPH -0.2997
-3.4007 PASTE -0.2503
-3.4007 PAUSE -0.2500
-3.7017 PERENTHESIZE -0.2992
-3.7017 PERFECT -0.2503
-3.7017 PERIOD -0.2503
-3.7017 PERMISSIONS -0.2503
-3.2246 PHONE -0.2502
-3.7017 PHOTO -0.3009
-3.7017 PHOTOS -0.2503
-3.4007 PID -0.2503
-3.7017 PING -0.3009
-3.2246 PLAY -0.2493
-3.4007 POINT -0.2503
-3.4007 POPUP -0.2501
-3.7017 PREFORMATTED -0.2503
-2.3593 PRESS -0.2412
-3.7017 PRETTY -0.3009
-3.7017 PREVIEW -0.2503
-2.9236 PREVIOUS -0.2980
-3.4007 PRINT -0.2996
-2.6603 PROCENT -0.2503
-3.7017 PROPERTIES -0.2503
-3.7017 PULL -0.2503
-3.4007 PUSH -0.2503
-3.4007 PUT -0.3008
-3.7017 Q -0.2503
-3.2246 QUA -0.3008
-3.7017 QUARTER -0.3009
-3.7017 QUESTION -0.3009
-2.6603 QUIT -0.2448
-3.4007 QUOTE -0.2979
-3.7017 QUOTES -0.2503
-2.7987 RADIO -0.2494
-3.7017 RAINING -0.2503
-3.7017 RAISE -0.2998
-3.7017 RASP -0.3009
-3.7017 RASPBIAN -0.2503
-3.7017 REBOOT -0.2503
-3.4007 REF -0.2503
-3.7017 REFRESH -0.3004
-3.4007 REGION -0.2497
-3.7017 REMOVE -0.3007
-3.7017 REPEAT -0.3009
-3.7017 REPLAY -0.3007
-3.7017 REPORT -0.2503
-3.0997 RESTART -0.2997
-3.7017 RESTORE -0.2996
-3.7017 RETURN -0.3007
-2.7017 RIGHT -0.2490
-3.7017 ROCK -0.2503
-3.7017 ROW -0.2503
-3.4007 RUDE -0.2503
-2.6603 S -0.2475
-3.4007 SAID -0.3006
-3.0997 SAVE -0.2489
-3.7017 SAY -0.3009
-3.7017 SCHOOL -0.3004
-3.7017 SCOOBY -0.2503
-3.7017 SCORE -0.2503
-3.7017 SCREEN -0.2503
-2.9236 SCREENSHOT -0.2490
-3.4007 SCROLL -0.2994
-2.7017 SEARCH -0.2487
-3.7017 SED -0.3008
-3.2246 SEE -0.2501
-2.8566 SELECT -0.2980
-3.4007 SELECTION -0.2503
-3.7017 SEMICOLON -0.2503
-2.9236 SENTENCE -0.2503
-3.4007 SET -0.3009
-3.4007 SEVEN -0.2503
-3.7017 SEVENTY -0.3001
-3.0997 SHARP -0.2498
-3.7017 SHE -0.3009
-2.9236 SHIFT -0.2990
-3.7017 SHORTEN -0.3003
-2.7017 SHOW -0.2992
-3.7017 SHUT -0.2999
-3.4007 SIDE -0.2503
-3.7017 SIGN -0.2503
-3.4007 SING -0.3009
-3.7017 SINGING -0.2503
-3.4007 SITES -0.3009
-3.4007 SIX -0.2503
-3.7017 SIXTY -0.3001
-3.7017 SKIP -0.3009
-3.7017 SLAM -0.3009
-3.7017 SLASH -0.3009
-3.7017 SLEEP -0.3009
-3.7017 SMART -0.3009
-3.7017 SMILEY -0.3008
-3.7017 SO -0.3009
-3.4007 SOFTWARE -0.3004
-3.7017 SONG -0.2503
-3.7017 SORT -0.2992
-3.4007 SOUND -0.2503
-3.4007 SPACE -0.2502
-3.0997 SPACES -0.2485
-3.7017 SPACING -0.2503
-3.4007 SPAN -0.2482
-3.7017 SPANDEX -0.2503
-3.2246 SPEAK -0.2482
-3.7017 SPEAKING -0.2503
-3.4007 SPECIALTY -0.3005
-3.7017 SPECIFICATIONS -0.2503
-3.7017 SPECS -0.2503
-3.7017 SPLIT -0.3008
-3.7017 STAR -0.3009
-2.9236 START -0.3003
-3.2246 STATE -0.3003
-3.4007 STATION -0.2503
-3.4007 STATUS -0.2502
-2.8566 STOP -0.2988
-3.7017 STREET -0.2503
-3.7017 SUDO -0.2503
-3.4007 SUPER -0.2499
-3.7017 SUPERSCRIPT -0.2503
-3.0997 SWITCH -0.2986
-3.2246 SYMBOL -0.2503
-3.7017 SYNAPTIC -0.2503
-3.4007 SYNC -0.3004
-3.2246 SYSTEM -0.2493
-2.6226 T -0.2980
-2.4976 TAB -0.2470
-3.0997 TABLE -0.2986
-2.8566 TAG -0.2503
-2.5256 TAGS -0.2503
-2.9236 TAKE -0.3005
-3.7017 TARGET -0.3004
-3.7017 TEE -0.3009
-3.7017 TELL -0.3009
-3.7017 TEMPLATE -0.2503
-3.2246 TEN -0.2491
-3.7017 TERM -0.2997
-3.7017 TEST -0.2503
-3.4007 TESTING -0.2501
-3.0997 TEXT -0.2494
-3.7017 THANK -0.3003
-3.0028 THAT -0.2492
-3.4007 THATS -0.3008
-3.0028 THE -0.3005
-3.2246 THINK -0.2501
-3.7017 THIRTY -0.3001
-2.3795 THIS -0.2476
-3.0997 THREE -0.2503
-3.7017 TILDE -0.2503
-2.6603 TIME -0.2492
-3.7017 TIMER -0.2503
-3.4007 TITLE -0.2496
-2.4465 TO -0.2951
-3.7017 TODAYS -0.3009
-3.7017 TODO -0.2503
-3.7017 TOOL -0.3007
-3.7017 TOOLS -0.3003
-3.4007 TOP -0.2500
-3.4007 TP -0.3007
-3.0997 TRACK -0.2503
-3.4007 TRANSFER -0.3006
-3.7017 TRASH -0.2503
-3.7017 TRUE -0.2503
-3.7017 TWENTY -0.3001
-2.9236 TWO -0.2503
-3.7017 TYPE -0.2503
-3.7017 U -0.3000
-3.7017 UN -0.3009
-3.7017 UNDERSCORES -0.2503
-3.7017 UNDO -0.2503
-3.7017 UNFORMATTED -0.3009
-3.2246 UNISON -0.2503
-3.7017 UNORDERED -0.3008
-3.7017 UNREAD -0.2503
-2.5878 UP -0.2487
-2.7475 UPDATE -0.2484
-3.7017 UPDATES -0.2503
-3.2246 UPGRADE -0.2503
-3.7017 UPPERCASE -0.2503
-3.4007 USER -0.3006
-3.7017 USERNAME -0.3008
-3.0028 V -0.2481
-3.7017 VERBATIM -0.3007
-3.7017 VIDEO -0.2503
-3.7017 VIDEOS -0.2503
-3.7017 VIEW -0.3003
-3.4007 VOICE -0.2493
-2.5556 VOLUME -0.2487
-3.2246 W -0.2503
-3.7017 WARS -0.2503
-3.7017 WE -0.3009
-3.4007 WEATHER -0.2503
-3.4007 WEB -0.3000
-3.7017 WEBSERVER -0.3009
-3.7017 WHADDAYA -0.3008
-2.9236 WHAT -0.2988
-3.7017 WHATS -0.3009
-3.4007 WHEEL -0.2994
-3.4007 WHO -0.3006
-3.7017 WIDTH -0.2503
-2.4976 WINDOW -0.2477
-3.0997 WINDOWS -0.2496
-3.4007 WOLFRAM -0.2482
-2.9236 WORD -0.2503
-3.7017 WORK -0.3007
-2.4976 WORKSPACE -0.2441
-3.7017 WRITE -0.3005
-3.4007 X -0.2496
-3.2246 YANK -0.2988
-3.7017 YES -0.2503
-2.7475 YOU -0.2490
-2.7987 YOUR -0.2990
-3.7017 ZEE -0.3009
-3.2246 ZERO -0.2492
-3.7017 ZIP -0.2503
-3.4007 ZOOM -0.3005

\2-grams:
-0.3010 3FM </s> -0.3010
-0.3010 538 </s> -0.3010
-0.3010 61 </s> -0.3010
-2.7443 <s> ADD -0.1249
-3.0453 <s> ADDRESS -0.2218
-3.0453 <s> ALTERNATE 0.0000
-3.0453 <s> ALWAYS 0.0000
-3.0453 <s> ANGLE 0.0000
-3.0453 <s> APACHE -0.1761
-3.0453 <s> APP 0.0000
-3.0453 <s> APPEND 0.0000
-2.1422 <s> APT 0.0000
-3.0453 <s> ARE -0.1761
-3.0453 <s> ARTICLE 0.0000
-3.0453 <s> ASIDE 0.0000
-2.5682 <s> BACK -0.1383
-3.0453 <s> BASH -0.1761
-3.0453 <s> BIN -0.2430
-3.0453 <s> BLATHER 0.0000
-3.0453 <s> BLOCK -0.1761
-3.0453 <s> BROWSER 0.0000
-2.7443 <s> C -0.1549
-3.0453 <s> CAMEL 0.0000
-3.0453 <s> CANCEL 0.0000
-3.0453 <s> CAPITALIZE 0.0000
-3.0453 <s> CATAPULT 0.0000
-3.0453 <s> CD 0.0000
-2.7443 <s> CENTER -0.2041
-3.0453 <s> CHANGE 0.0000
-3.0453 <s> CITATION 0.0000
-2.5682 <s> CLASS -0.0969
-2.7443 <s> CLICK -0.2218
-2.2002 <s> CLOSE -0.0000
-2.4433 <s> COLON 0.0000
-3.0453 <s> COMMA 0.0000
-3.0453 <s> COMPUTER 0.0000
-1.7231 <s> CONTROL 0.0000
-2.7443 <s> COPY 0.0000
-3.0453 <s> CORPORATE 0.0000
-2.7443 <s> COW 0.0000
-2.7443 <s> CURRENT -0.1761
-3.0453 <s> CUT 0.0000
-3.0453 <s> D -0.1549
-2.7443 <s> DEFINITION 0.0000
-2.4433 <s> DELETE -0.0792
-3.0453 <s> DISABLE 0.0000
-2.5682 <s> DISPLAY 0.0000
-3.0453 <s> DOCUMENT 0.0000
-3.0453 <s> DONT 0.0000
-3.0453 <s> DOUBLE 0.0000
-3.0453 <s> DOWN -0.2632
-3.0453 <s> DOWNLOADS 0.0000
-2.5682 <s> ECHO 0.0000
-3.0453 <s> EDIT -0.2430
-3.0453 <s> EIGHT -0.2430
-3.0453 <s> EMAIL -0.2430
-3.0453 <s> ENABLE 0.0000
-3.0453 <s> ENGINE 0.0000
-1.8992 <s> ENTER -0.0512
-3.0453 <s> EQUALS -0.2688
-3.0453 <s> ESCAPE 0.0000
-3.0453 <s> EXCLAMATION 0.0000
-3.0453 <s> EXIT 0.0000
-2.5682 <s> FILE -0.2304
-3.0453 <s> FIND 0.0000
-3.0453 <s> FIVE -0.2218
-3.0453 <s> FIX 0.0000
-3.0453 <s> FLAT 0.0000
-3.0453 <s> FORMAT 0.0000
-3.0453 <s> FOUR -0.2430
-3.0453 <s> FROWNEY 0.0000
-2.5682 <s> GET -0.0969
-2.2672 <s> GIT 0.0000
-2.2002 <s> GO 0.0000
-3.0453 <s> GOOD 0.0000
-3.0453 <s> GOOGLE 0.0000
-3.0453 <s> GRAB 0.0000
-2.0039 <s> H -0.0843
-3.0453 <s> HASH 0.0000
-2.4433 <s> HELLO 0.0000
-3.0453 <s> HELP 0.0000
-3.0453 <s> HOME -0.1761
-2.7443 <s> HOOS 0.0000
-2.3464 <s> HOW 0.0000
-3.0453 <s> HUGE 0.0000
-3.0453 <s> HYPHENATE 0.0000
-3.0453 <s> I -0.2730
-2.7443 <s> IMAGE -0.1249
-3.0453 <s> IN -0.2430
-1.8992 <s> INSERT -0.0000
-2.5682 <s> IS -0.1891
-3.0453 <s> ITALICIZE 0.0000
-3.0453 <s> JAVASCRIPT -0.1761
-2.5682 <s> KILL 0.0000
-3.0453 <s> L -0.2632
-3.0453 <s> LABELS 0.0000
-2.7443 <s> LEFT -0.2430
-3.0453 <s> LINK -0.2430
-3.0453 <s> LIST -0.1249
-3.0453 <s> LOCK 0.0000
-3.0453 <s> LOWER 0.0000
-2.2672 <s> MAKE 0.0000
-2.2672 <s> MARKDOWN 0.0000
-3.0453 <s> MAXIMIZE 0.0000
-2.0039 <s> META 0.0000
-3.0453 <s> MIDDLE 0.0000
-3.0453 <s> MINIMIZE 0.0000
-2.7443 <s> MOUSE -0.1761
-1.8692 <s> MOVE 0.0000
-3.0453 <s> MUTE 0.0000
-3.0453 <s> N -0.1761
-3.0453 <s> NATURAL 0.0000
-3.0453 <s> NET 0.0000
-2.0911 <s> NEW 0.0000
-2.4433 <s> NEXT 0.0000
-3.0453 <s> NO -0.1761
-3.0453 <s> OP -0.1383
-1.8992 <s> OPEN -0.0000
-3.0453 <s> OPTIMAL 0.0000
-2.7443 <s> PACKAGE 0.0000
-2.4433 <s> PAGE -0.1549
-2.7443 <s> PARAGRAPH 0.0000
-3.0453 <s> PASTE 0.0000
-3.0453 <s> PAUSE -0.1761
-3.0453 <s> PERENTHESIZE 0.0000
-3.0453 <s> PERFECT 0.0000
-3.0453 <s> PERIOD 0.0000
-3.0453 <s> PHOTO 0.0000
-3.0453 <s> PING 0.0000
-2.7443 <s> PLAY -0.1249
-3.0453 <s> POPUP -0.1761
-1.7231 <s> PRESS -0.0193
-2.4433 <s> PREVIOUS -0.1249
-3.0453 <s> PRINT -0.1761
-2.7443 <s> PUT 0.0000
-3.0453 <s> QUARTER 0.0000
-3.0453 <s> QUESTION 0.0000
-2.0453 <s> QUIT -0.0378
-3.0453 <s> QUOTE -0.1761
-2.3464 <s> RADIO -0.1383
-3.0453 <s> RAISE 0.0000
-3.0453 <s> RASP 0.0000
-3.0453 <s> REBOOT 0.0000
-3.0453 <s> REFRESH 0.0000
-3.0453 <s> REMOVE 0.0000
-3.0453 <s> REPEAT 0.0000
-3.0453 <s> REPLAY 0.0000
-2.4433 <s> RESTART 0.0000
-3.0453 <s> RESTORE 0.0000
-2.7443 <s> RIGHT -0.2553
-2.7443 <s> S -0.2596
-2.5682 <s> SAVE -0.0969
-3.0453 <s> SCHOOL 0.0000
-2.7443 <s> SCROLL 0.0000
-2.2672 <s> SEARCH -0.1461
-2.7443 <s> SEE -0.1249
-2.2002 <s> SELECT 0.0000
-3.0453 <s> SEMICOLON 0.0000
-2.7443 <s> SET 0.0000
-3.0453 <s> SHARP -0.2430
-3.0453 <s> SHE 0.0000
-3.0453 <s> SHORTEN 0.0000
-2.0453 <s> SHOW 0.0000
-3.0453 <s> SHUT 0.0000
-2.7443 <s> SING 0.0000
-2.7443 <s> SITES 0.0000
-3.0453 <s> SKIP 0.0000
-3.0453 <s> SLASH 0.0000
-3.0453 <s> SMART 0.0000
-3.0453 <s> SMILEY 0.0000
-2.7443 <s> SOFTWARE 0.0000
-3.0453 <s> SORT 0.0000
-3.0453 <s> SPACE -0.1761
-3.0453 <s> SPACES -0.2430
-3.0453 <s> SPAN -0.1761
-3.0453 <s> SPANDEX 0.0000
-3.0453 <s> SPEAK -0.2218
-2.7443 <s> SPECIALTY 0.0000
-3.0453 <s> SPLIT 0.0000
-3.0453 <s> STAR 0.0000
-2.2672 <s> START 0.0000
-2.5682 <s> STATE 0.0000
-3.0453 <s> STATUS -0.1761
-2.2002 <s> STOP -0.0000
-3.0453 <s> SUDO 0.0000
-3.0453 <s> SUPER -0.1761
-2.5682 <s> SWITCH 0.0000
-3.0453 <s> SYNAPTIC 0.0000
-2.7443 <s> SYNC 0.0000
-2.7443 <s> SYSTEM -0.1249
-2.0453 <s> TAB -0.1383
-2.5682 <s> TABLE -0.0969
-2.2672 <s> TAKE 0.0000
-3.0453 <s> TARGET 0.0000
-3.0453 <s> TELL 0.0000
-2.7443 <s> TESTING 0.0000
-2.7443 <s> TEXT -0.1761
-3.0453 <s> THANK 0.0000
-2.7443 <s> THATS 0.0000
-3.0453 <s> TILDE 0.0000
-3.0453 <s> TITLE -0.1761
-3.0453 <s> TOOLS 0.0000
-3.0453 <s> TOP -0.1761
-2.7443 <s> TRANSFER 0.0000
-3.0453 <s> U 0.0000
-3.0453 <s> UN 0.0000
-3.0453 <s> UNDO 0.0000
-3.0453 <s> UNFORMATTED 0.0000
-3.0453 <s> UNORDERED 0.0000
-2.7443 <s> UP -0.1871
-2.2672 <s> UPDATE -0.1249
-2.7443 <s> USER 0.0000
-3.0453 <s> USERNAME 0.0000
-3.0453 <s> VERBATIM 0.0000
-3.0453 <s> VIEW 0.0000
-3.0453 <s> VOICE -0.1761
-1.9661 <s> VOLUME -0.0580
-3.0453 <s> WEB -0.1761
-3.0453 <s> WEBSERVER 0.0000
-3.0453 <s> WHADDAYA 0.0000
-2.2672 <s> WHAT 0.0000
-3.0453 <s> WHATS 0.0000
-2.7443 <s> WHO 0.0000
-2.7443 <s> WOLFRAM 0.0000
-2.3464 <s> WORKSPACE -0.1383
-3.0453 <s> WRITE 0.0000
-3.0453 <s> X -0.1761
-2.5682 <s> YANK 0.0000
-2.7443 <s> YOU -0.2499
-3.0453 <s> YOUR -0.2730
-3.0453 <s> ZEE 0.0000
-2.7443 <s> ZOOM 0.0000
-0.3010 A </s> -0.3010
-0.3010 ABOVE </s> -0.3010
-0.7782 ADD </s> -0.3010
-0.7782 ADD CONFIRM 0.0000
-0.7782 ADD CONFIRMATION 0.0000
-0.4771 ADDRESS </s> -0.3010
-0.7782 ADDRESS FIELD 0.0000
-0.6021 AFTER </s> -0.3010
-0.6021 AFTER ME -0.1761
-0.3010 AIGHTY PROCENT 0.0000
-0.3010 ALARM </s> -0.3010
-0.6021 ALIGN CENTER -0.2553
-0.6021 ALIGN LEFT -0.1383
-0.7270 ALL </s> -0.3010
-0.9031 ALL DESKTOPS 0.0000
-1.2041 ALL UNREAD 0.0000
-1.2041 ALL WINDOWS -0.1761
-1.2041 ALL WORKSPACE -0.2730
-0.3010 ALTERNATE TEXT -0.2430
-0.3010 ALTERNATIVES </s> -0.3010
-0.3010 ALWAYS ON -0.2688
-0.3010 AM I -0.2109
-0.6021 AND COPY -0.0792
-1.0792 AND HOLD 0.0000
-1.0792 AND QUIT -0.2808
-1.0792 AND UPDATES 0.0000
-0.3010 ANGLE BRACKET 0.0000
-0.6021 APACHE </s> -0.3010
-0.6021 APACHE CONFIG -0.1761
-0.3010 APP LAUNCHER 0.0000
-0.3010 APPEND TO -0.2888
-0.3010 APPLICATION </s> -0.3010
-0.3010 APPLICATIONS </s> -0.3010
-1.2041 APT CASH 0.0000
-1.2041 APT DIST 0.0000
-1.2041 APT GET -0.2430
-1.2041 APT INSTALL 0.0000
-0.9031 APT UPDATE -0.2218
-0.9031 APT UPGRADE 0.0000
-0.9031 ARE </s> -0.3010
-0.9031 ARE EL 0.0000
-0.6021 ARE YOU -0.2218
-0.3010 ARMITAGE </s> -0.3010
-0.3979 ARROW </s> -0.3010
-1.0000 ARROW CLASSIC 0.0000
-0.3010 ARTICLE TAGS 0.0000
-0.3010 AS </s> -0.3010
-0.3010 ASIDE TAGS 0.0000
-0.3010 AUDIO </s> -0.3010
-0.3010 AVAILABLE </s> -0.3010
-0.3010 AWK EXPRESSION 0.0000
-0.3010 B </s> -0.3010
-0.7270 BACK </s> -0.3010
-0.6021 BACK GROUND 0.0000
-1.2041 BACK SPACE -0.1761
-0.3010 BALL </s> -0.3010
-0.3010 BANG </s> -0.3010
-0.3010 BAR </s> -0.3010
-0.6021 BASH </s> -0.3010
-0.6021 BASH HEADER -0.1461
-0.6021 BEEN OP -0.2109
-0.6021 BEEN UP -0.1648
-0.3010 BEFORE </s> -0.3010
-0.3010 BELOW </s> -0.3010
-0.3010 BERRY </s> -0.3010
-0.4260 BIN </s> -0.3010
-0.9031 BIN BASH -0.1761
-0.4472 BLADDER </s> -0.3010
-1.1461 BLADDER CONFIG -0.1761
-1.1461 BLADDER FOLDER 0.0000
-0.3010 BLANK </s> -0.3010
-0.3010 BLATHER HISTORY 0.0000
-0.6021 BLOCK </s> -0.3010
-0.6021 BLOCK QUOTE -0.1761
-0.3010 BOB </s> -0.3010
-0.3010 BOLD </s> -0.3010
-0.3010 BOOK TITLE -0.1761
-0.3010 BORED </s> -0.3010
-0.3010 BRACKET THIS -0.1091
-0.3010 BROWSER HISTORY 0.0000
-0.3010 BUFFER </s> -0.3010
-0.3010 BULLET POINT 0.0000
-0.3010 BULLSHIT </s> -0.3010
-0.3010 BUTTON </s> -0.3010
-0.3010 BY DANNY 0.0000
-0.6690 C </s> -0.3010
-0.5441 C S -0.2139
-0.3010 CAMEL CAPS 0.0000
-0.3010 CAN WE 0.0000
-0.3010 CANCEL </s> -0.3010
-0.3010 CAPITALIZE THIS -0.1091
-0.3010 CAPS THIS -0.1091
-0.3010 CASH SEARCH -0.2041
-0.3010 CATAPULT </s> -0.3010
-0.3010 CD MIN 0.0000
-0.3010 CEL </s> -0.3010
-0.3010 CELL PHONE -0.1249
-1.0000 CENTER </s> -0.3010
-1.0000 CENTER CURSOR 0.0000
-0.6990 CENTER TAG 0.0000
-1.0000 CENTER TAGS 0.0000
-0.3010 CHANGE WORD 0.0000
-0.3010 CITATION TAGS 0.0000
-0.3010 CITY </s> -0.3010
-0.9031 CLASS </s> -0.3010
-0.6021 CLASS EQUALS -0.1091
-0.9031 CLASS IS -0.2808
-0.3010 CLASSIC ROCK 0.0000
-0.4771 CLICK </s> -0.3010
-1.0792 CLICK AND -0.2632
-1.0792 CLICK HERE 0.0000
-1.1461 CLOSE CENTER -0.2041
-1.1461 CLOSE D -0.1549
-1.1461 CLOSE DIALOG 0.0000
-1.1461 CLOSE H -0.2688
-1.1461 CLOSE P -0.1761
-1.1461 CLOSE TAB -0.2109
-1.1461 CLOSE WINDOW -0.1181
-0.3010 CODE </s> -0.3010
-0.9031 COLON </s> -0.3010
-0.9031 COLON DOLLAR 0.0000
-0.9031 COLON W 0.0000
-0.9031 COLON ZERO -0.1249
-0.3010 COLUMN WIDTH 0.0000
-0.3010 COMMA </s> -0.3010
-0.3010 COMMANDO </s> -0.3010
-0.3010 COMMANDS </s> -0.3010
-0.3010 COMMENT </s> -0.3010
-0.3010 COMMIT ALL -0.2109
-0.3010 COMPUTER </s> -0.3010
-0.6021 CONFIG </s> -0.3010
-0.6021 CONFIG DERR 0.0000
-0.3010 CONFIRM </s> -0.3010
-0.3010 CONFIRMATION </s> -0.3010
-1.6232 CONTROL A 0.0000
-1.6232 CONTROL ARE -0.2430
-1.6232 CONTROL B 0.0000
-1.6232 CONTROL C -0.1963
-1.6232 CONTROL D -0.2688
-1.6232 CONTROL E 0.0000
-1.6232 CONTROL ENTER -0.2730
-1.6232 CONTROL F -0.1761
-1.6232 CONTROL H -0.2852
-1.6232 CONTROL I -0.2109
-1.6232 CONTROL IN -0.0969
-1.6232 CONTROL K 0.0000
-1.6232 CONTROL L -0.1249
-1.6232 CONTROL O -0.1249
-1.6232 CONTROL P -0.1761
-0.8451 CONTROL SHIFT 0.0000
-0.3979 COPY </s> -0.3010
-1.0000 COPY THIS -0.2576
-0.3010 CORPORATE BULLSHIT 0.0000
-0.6021 COW SAY 0.0000
-0.6021 COW THINK -0.2218
-0.9031 CURRENT DESKTOP 0.0000
-0.9031 CURRENT LINE -0.2218
-0.9031 CURRENT OP -0.1383
-0.9031 CURRENT UP -0.2083
-0.3010 CURSOR </s> -0.3010
-0.3010 CUT </s> -0.3010
-1.1461 D </s> -0.3010
-1.1461 D EQUALS -0.1549
-0.5441 D I -0.1761
-1.1461 D O -0.2218
-0.3010 DADS EMAIL -0.0969
-0.3010 DANNY </s> -0.3010
-0.3010 DATA TAGS 0.0000
-0.6021 DATE </s> -0.3010
-0.6021 DATE CODE 0.0000
-0.3010 DAY IS -0.2374
-0.3010 DECORATION </s> -0.3010
-0.6021 DEFINITION DATA 0.0000
-0.6021 DEFINITION TERM 0.0000
-1.0000 DELETE </s> -0.3010
-1.0000 DELETE LINES 0.0000
-1.0000 DELETE PREVIOUS -0.2218
-1.0000 DELETE THIS -0.2576
-1.0000 DELETE WORD 0.0000
-0.3010 DERR </s> -0.3010
-0.3010 DESIGNATION </s> -0.3010
-0.3010 DESKTOP </s> -0.3010
-0.3010 DESKTOPS </s> -0.3010
-0.3010 DIALOG </s> -0.3010
-0.3010 DISABLE BACK -0.1761
-0.7782 DISPLAY BLOCK -0.1761
-0.7782 DISPLAY INLINE 0.0000
-0.7782 DISPLAY NONE 0.0000
-0.3010 DIST UPGRADE 0.0000
-0.6021 DO IM 0.0000
-0.6021 DO YOU -0.2762
-0.3010 DOCUMENT MENU 0.0000
-0.3010 DOLLAR SIGN 0.0000
-0.3010 DONT SAVE -0.2430
-0.3010 DOUBLE CLICK -0.1249
-0.3802 DOWN </s> -0.3010
-1.0792 DOWN ARROW -0.0792
-0.3010 DOWNLOADS </s> -0.3010
-0.3010 E </s> -0.3010
-0.7782 ECHO EE 0.0000
-0.7782 ECHO MOUSE -0.1761
-0.7782 ECHO VOICE -0.1761
-0.4260 EDIT </s> -0.3010
-0.9031 EDIT MENU 0.0000
-0.3010 EE SPEAK -0.1249
-0.3010 EFF TWO 0.0000
-0.6021 EIGHT </s> -0.3010
-0.9031 EIGHT BALL 0.0000
-0.9031 EIGHT HEADER -0.1461
-0.3010 EL </s> -0.3010
-0.4260 EMAIL </s> -0.3010
-0.9031 EMAIL HYPERLINK 0.0000
-0.3010 EMULATION STATION 0.0000
-0.3010 ENABLE BACK -0.1761
-0.3010 ENABLED </s> -0.3010
-0.3010 END </s> -0.3010
-0.3010 ENGINE EX 0.0000
-1.2041 ENTER </s> -0.3010
-1.5051 ENTER CELL 0.0000
-1.5051 ENTER CITY 0.0000
-1.5051 ENTER DADS 0.0000
-1.5051 ENTER FIBER 0.0000
-1.5051 ENTER FIRST 0.0000
-1.2041 ENTER FULL 0.0000
-1.5051 ENTER GEE -0.2041
-1.5051 ENTER LAST -0.1761
-1.5051 ENTER NICK 0.0000
-1.5051 ENTER OFFICE 0.0000
-1.5051 ENTER STREET 0.0000
-1.5051 ENTER WORK 0.0000
-1.5051 ENTER ZIP 0.0000
-1.1461 EQUALS </s> -0.3010
-1.1461 EQUALS BLANK 0.0000
-1.1461 EQUALS RIGHT -0.1139
-0.5441 EQUALS THIS -0.1091
-0.3010 ESCAPE </s> -0.3010
-0.3010 ET SEE -0.2218
-0.6021 EX </s> -0.3010
-0.6021 EX CONFIG -0.1761
-0.3010 EXCLAMATION POINT 0.0000
-0.3010 EXIT </s> -0.3010
-0.3010 EXPRESSION </s> -0.3010
-0.6021 EYE </s> -0.3010
-0.6021 EYE FRAME 0.0000
-0.6021 F </s> -0.3010
-0.9031 F EIGHT -0.2430
-0.9031 F TWO 0.0000
-0.3010 FACE </s> -0.3010
-0.3010 FIBER EMAIL -0.0969
-0.3010 FIELD </s> -0.3010
-0.3010 FIFTY PROCENT 0.0000
-0.8239 FILE </s> -0.3010
-1.3010 FILE AS 0.0000
-0.8239 FILE MANAGER 0.0000
-1.3010 FILE MENU 0.0000
-1.3010 FILE SPECIFICATIONS 0.0000
-1.3010 FILE SPECS 0.0000
-0.6021 FILES </s> -0.3010
-0.6021 FILES DERR 0.0000
-0.3010 FIND ON -0.2688
-0.3010 FIRST NAME 0.0000
-0.4771 FIVE </s> -0.3010
-0.7782 FIVE SPACES -0.0969
-0.3010 FIX SPACING 0.0000
-0.3010 FLAT SYMBOL 0.0000
-0.3010 FLUFFIEST </s> -0.3010
-0.3010 FM </s> -0.3010
-0.3010 FOLDER </s> -0.3010
-0.3010 FORMAT MENU 0.0000
-0.3010 FORTUNE </s> -0.3010
-0.3010 FORWARD </s> -0.3010
-0.4260 FOUR </s> -0.3010
-0.9031 FOUR SPACES -0.0969
-0.3010 FOURTY PROCENT 0.0000
-0.3010 FRAME </s> -0.3010
-0.3010 FROWNEY FACE 0.0000
-0.6021 FULL ADDRESS -0.1249
-0.6021 FULL NAME 0.0000
-0.3010 FUN X -0.1761
-0.3010 FUNNY </s> -0.3010
-0.3010 GAY SHARP -0.0969
-0.5229 GEE EDIT -0.0969
-0.6990 GEE MAIL 0.0000
-0.9031 GET INSTALL 0.0000
-0.9031 GET MOUSE -0.1761
-0.9031 GET PUSH 0.0000
-0.9031 GET WINDOW -0.2730
-1.0792 GIT ADD -0.2218
-1.0792 GIT COMMIT 0.0000
-1.0792 GIT MERGE 0.0000
-1.0792 GIT PULL 0.0000
-1.0792 GIT PUSH 0.0000
-1.0792 GIT STATUS -0.1761
-0.3010 GLADIS </s> -0.3010
-0.3010 GLADOS </s> -0.3010
-1.1461 GO BACK -0.2109
-1.1461 GO FORWARD 0.0000
-0.4472 GO TO -0.2361
-0.3010 GOOD MORNING 0.0000
-0.3010 GOOGLE THIS -0.1091
-0.3010 GRAB THAT -0.1461
-0.3010 GRIN FACE 0.0000
-0.3010 GROUND MUSIC -0.0512
-1.4472 H </s> -0.3010
-1.1461 H REF 0.0000
-0.4058 H T -0.0348
-0.3010 HAL </s> -0.3010
-0.3010 HASH TAG 0.0000
-0.3010 HAVE YOU -0.2499
-0.5229 HEADER </s> -0.3010
-1.3010 HEADER ONE 0.0000
-1.3010 HEADER TAGS 0.0000
-1.3010 HEADER THREE 0.0000
-1.3010 HEADER TWO 0.0000
-0.9031 HELLO </s> -0.3010
-0.9031 HELLO COMPUTER 0.0000
-0.9031 HELLO HAL 0.0000
-0.9031 HELLO TEE 0.0000
-0.3010 HELP MENU 0.0000
-0.3010 HERE </s> -0.3010
-0.3010 HISTORY </s> -0.3010
-0.3010 HOLD </s> -0.3010
-0.6021 HOME </s> -0.3010
-0.6021 HOME BIN -0.0969
-0.3010 HOOS THE -0.2041
-1.0000 HOW IS -0.2808
-0.3979 HOW LONG 0.0000
-0.3010 HUGE GRIN 0.0000
-0.3010 HUNDERED PROCENT 0.0000
-0.3010 HYPERLINK </s> -0.3010
-0.3010 HYPHENATE THIS -0.1091
-0.7270 I </s> -0.3010
-1.2041 I D -0.2688
-0.6021 I V 0.0000
-0.3010 ICON </s> -0.3010
-0.3010 IM BORED 0.0000
-0.7782 IMAGE </s> -0.3010
-0.7782 IMAGE C -0.1549
-0.7782 IMAGE D -0.1549
-0.4260 IN </s> -0.3010
-0.9031 IN IT -0.2430
-0.3010 INBOX </s> -0.3010
-0.3010 INFO </s> -0.3010
-0.3010 INLINE </s> -0.3010
-1.4472 INSERT AUDIO 0.0000
-1.4472 INSERT AWK 0.0000
-1.4472 INSERT EYE -0.1761
-1.4472 INSERT HYPERLINK 0.0000
-1.4472 INSERT IMAGE -0.2218
-1.1461 INSERT KEY -0.1761
-1.4472 INSERT MENU 0.0000
-1.4472 INSERT PANEL 0.0000
-1.4472 INSERT PHONE -0.2218
-1.4472 INSERT POPUP -0.1761
-1.4472 INSERT PRINT -0.1761
-1.4472 INSERT SED 0.0000
-1.4472 INSERT VIDEO 0.0000
-0.3010 INSTALL </s> -0.3010
-0.8653 IS IT -0.0969
-1.3424 IS RIGHT -0.1139
-1.0414 IS THAT -0.2041
-1.3424 IS THE -0.2041
-0.7404 IS YOUR -0.0969
-0.6021 IT </s> -0.3010
-0.9031 IT EXPRESSION 0.0000
-0.9031 IT RAINING 0.0000
-0.3010 ITALICIZE </s> -0.3010
-0.3010 ITALICS </s> -0.3010
-0.6021 ITEM </s> -0.3010
-0.6021 ITEM TAGS 0.0000
-0.6021 JAVASCRIPT DATE -0.1761
-0.6021 JAVASCRIPT HEADER -0.1461
-0.3010 JUST SAID 0.0000
-0.3010 K </s> -0.3010
-0.3010 KEEP </s> -0.3010
-0.6021 KEY </s> -0.3010
-0.9031 KEY PRESS -0.2910
-0.9031 KEY TYPE 0.0000
-0.7782 KILL BLADDER -0.1091
-0.7782 KILL RADIO -0.2109
-0.7782 KILL WINDOW -0.1181
-0.7782 KISS MET 0.0000
-0.4771 KISS METH 0.0000
-0.4771 L </s> -0.3010
-1.0792 L L -0.1249
-1.0792 L S -0.2374
-0.3010 LABELS HEADER -0.1461
-0.6021 LAST NAME 0.0000
-0.6021 LAST TAB -0.2109
-0.3010 LAUNCHER </s> -0.3010
-0.5051 LEFT </s> -0.3010
-1.2041 LEFT ARROW -0.0792
-1.2041 LEFT CLICK -0.1249
-1.2041 LEFT SIDE 0.0000
-0.7782 LINE </s> -0.3010
-0.7782 LINE ABOVE 0.0000
-0.7782 LINE BELOW 0.0000
-0.3010 LINES </s> -0.3010
-0.4260 LINK </s> -0.3010
-0.9031 LINK TO -0.2888
-0.4771 LIST ITEM 0.0000
-0.7782 LIST TAGS 0.0000
-0.3010 LISTENING </s> -0.3010
-0.3010 LOCAL BIN -0.0969
-0.3010 LOCATION </s> -0.3010
-0.3010 LOCK SCREEN 0.0000
-0.3010 LOG DERR 0.0000
-0.6021 LONG HAVE 0.0000
-0.6021 LONG IS -0.2139
-0.3010 LOWER VOLUME -0.2688
-0.3010 LOWERCASE </s> -0.3010
-0.3010 M </s> -0.3010
-0.6021 MAIL </s> -0.3010
-0.6021 MAIL ADDRESS -0.1249
-1.0792 MAKE BOLD 0.0000
-1.0792 MAKE LOWERCASE 0.0000
-1.0792 MAKE NOTE 0.0000
-1.0792 MAKE SUPER -0.1761
-1.0792 MAKE SUPERSCRIPT 0.0000
-1.0792 MAKE UPPERCASE 0.0000
-0.3010 MAN </s> -0.3010
-0.3010 MANAGER </s> -0.3010
-0.3010 MAP </s> -0.3010
-0.3010 MARK </s> -0.3010
-1.0792 MARKDOWN BOLD 0.0000
-1.0792 MARKDOWN CODE 0.0000
-1.0792 MARKDOWN HEADER -0.1461
-1.0792 MARKDOWN HYPERLINK 0.0000
-1.0792 MARKDOWN ITALICS 0.0000
-1.0792 MARKDOWN PREVIEW 0.0000
-0.3010 MATRIX </s> -0.3010
-0.3010 MAX </s> -0.3010
-0.3010 MAXIMIZE WINDOW -0.1181
-0.6021 ME </s> -0.3010
-0.6021 ME THE -0.2041
-0.3010 MENU </s> -0.3010
-0.3010 MERGE </s> -0.3010
-0.3010 MET </s> -0.3010
-1.3424 META BOB 0.0000
-1.3424 META C -0.1963
-1.3424 META EFF 0.0000
-1.3424 META EYE -0.1761
-1.3424 META F -0.2430
-1.3424 META L -0.1249
-1.3424 META M 0.0000
-1.3424 META N -0.1761
-1.3424 META P -0.1761
-1.3424 META SCOOBY 0.0000
-1.3424 META W 0.0000
-0.6021 METH </s> -0.3010
-0.6021 METH TP 0.0000
-0.3010 MIDDLE CLICK -0.1249
-0.3010 MIN </s> -0.3010
-0.3010 MINIMIZE WINDOW -0.1181
-0.3010 MORNING </s> -0.3010
-0.6021 MOUSE LOCATION 0.0000
-0.6021 MOUSE WHEEL 0.0000
-0.6320 MOVE TO -0.1761
-1.0000 MOVE WINDOW -0.0746
-0.7782 MOVE WORKSPACE -0.1383
-0.5051 MUSIC </s> -0.3010
-1.2041 MUSIC C -0.1549
-1.2041 MUSIC OFF 0.0000
-1.2041 MUSIC ON -0.2688
-0.3010 MUTE SOUND 0.0000
-0.6021 N </s> -0.3010
-0.6021 N MAP 0.0000
-0.3010 NAME </s> -0.3010
-0.3010 NATURAL SYMBOL 0.0000
-0.3010 NET MAP 0.0000
-1.2553 NEW BULLET 0.0000
-1.2553 NEW FILE -0.2304
-0.9542 NEW LINE -0.1249
-1.2553 NEW LIST -0.1249
-1.2553 NEW TAB -0.2109
-1.2553 NEW TABLE -0.2430
-1.2553 NEW WEB -0.1761
-1.2553 NEW WINDOW -0.1181
-0.9031 NEXT BUFFER 0.0000
-0.9031 NEXT TAB -0.2109
-0.9031 NEXT TRACK 0.0000
-0.9031 NEXT WORD 0.0000
-0.3010 NICK NAME 0.0000
-0.3010 NINE </s> -0.3010
-0.3010 NINETY PROCENT 0.0000
-0.6021 NO </s> -0.3010
-0.6021 NO DECORATION 0.0000
-0.3010 NONE </s> -0.3010
-0.3010 NOTE </s> -0.3010
-0.3010 NOTES </s> -0.3010
-0.4771 O </s> -0.3010
-0.7782 O TOOL 0.0000
-1.1461 OF ALL -0.2430
-1.1461 OF CURRENT -0.2430
-1.1461 OF MUSIC -0.2730
-0.8451 OF REGION 0.0000
-0.8451 OF WINDOW -0.0969
-0.3010 OFF </s> -0.3010
-0.3010 OFFICE PHONE -0.1249
-1.1461 ON </s> -0.3010
-1.1461 ON ALL -0.2730
-1.1461 ON LEFT -0.1383
-1.1461 ON ONLY 0.0000
-1.1461 ON PAGE -0.2341
-1.1461 ON RIGHT -0.1139
-1.1461 ON TOP -0.1761
-0.3010 ONE </s> -0.3010
-0.3010 ONLY THIS -0.2906
-0.7270 OP </s> -0.3010
-0.5051 OP TIME -0.0378
-1.4472 OPEN CENTER -0.2041
-1.4472 OPEN D -0.1549
-1.4472 OPEN EMULATION 0.0000
-1.1461 OPEN FILE -0.1461
-1.1461 OPEN GEE 0.0000
-1.4472 OPEN H -0.2688
-1.4472 OPEN LAST -0.1761
-1.4472 OPEN NOTES 0.0000
-1.4472 OPEN P -0.1761
-1.4472 OPEN QUA 0.0000
-1.4472 OPEN TODO 0.0000
-1.4472 OPEN UNISON 0.0000
-0.3010 OPTIMAL COLUMN 0.0000
-0.3010 OUT </s> -0.3010
-0.6021 P </s> -0.3010
-0.6021 P TAG 0.0000
-0.6021 PACKAGE INFO 0.0000
-0.6021 PACKAGE SEARCH -0.2041
-0.8451 PAGE </s> -0.3010
-1.1461 PAGE BACK -0.2109
-1.1461 PAGE DOWN -0.0669
-1.1461 PAGE FORWARD 0.0000
-1.1461 PAGE TEMPLATE 0.0000
-1.1461 PAGE UP -0.1648
-0.3010 PANEL </s> -0.3010
-0.3010 PARAGRAPH TAGS 0.0000
-0.3010 PASTE </s> -0.3010
-0.6021 PAUSE </s> -0.3010
-0.6021 PAUSE PLAY -0.2218
-0.3010 PERENTHESIZE THIS -0.1091
-0.3010 PERFECT </s> -0.3010
-0.3010 PERIOD </s> -0.3010
-0.3010 PERMISSIONS </s> -0.3010
-0.4771 PHONE </s> -0.3010
-0.7782 PHONE ICON 0.0000
-0.3010 PHOTO BY 0.0000
-0.3010 PHOTOS </s> -0.3010
-0.3010 PID </s> -0.3010
-0.3010 PING TEST 0.0000
-0.7782 PLAY </s> -0.3010
-0.7782 PLAY MUSIC -0.1383
-0.7782 PLAY PAUSE -0.1761
-0.3010 POINT </s> -0.3010
-0.6021 POPUP </s> -0.3010
-0.6021 POPUP JAVASCRIPT -0.1761
-0.3010 PREFORMATTED </s> -0.3010
-1.6435 PRESS </s> -0.3010
-1.6435 PRESS DELETE -0.2553
-1.6435 PRESS EIGHT -0.1761
-1.6435 PRESS END 0.0000
-1.6435 PRESS ENTER -0.2730
-1.6435 PRESS ESCAPE 0.0000
-1.6435 PRESS F -0.1761
-1.6435 PRESS FIVE -0.1249
-1.6435 PRESS FOUR -0.0969
-1.6435 PRESS HOME -0.1761
-1.6435 PRESS I -0.2109
-1.6435 PRESS NINE 0.0000
-1.6435 PRESS NO -0.1761
-1.6435 PRESS ONE 0.0000
-1.6435 PRESS Q 0.0000
-1.6435 PRESS SEVEN 0.0000
-1.6435 PRESS SIX 0.0000
-1.6435 PRESS TAB -0.2109
-1.6435 PRESS THREE 0.0000
-1.6435 PRESS TWO 0.0000
-1.6435 PRESS YES 0.0000
-1.6435 PRESS ZERO -0.1249
-0.3010 PRETTY RUDE 0.0000
-0.3010 PREVIEW </s> -0.3010
-1.0792 PREVIOUS BUFFER 0.0000
-0.7782 PREVIOUS SENTENCE 0.0000
-1.0792 PREVIOUS TAB -0.2109
-1.0792 PREVIOUS TRACK 0.0000
-1.0792 PREVIOUS WORD 0.0000
-0.6021 PRINT BUTTON 0.0000
-0.6021 PRINT WINDOW -0.2730
-0.3010 PROCENT </s> -0.3010
-0.3010 PROPERTIES </s> -0.3010
-0.3010 PULL </s> -0.3010
-0.3010 PUSH </s> -0.3010
-0.6021 PUT AFTER -0.1761
-0.6021 PUT BEFORE 0.0000
-0.3010 Q </s> -0.3010
-0.3010 QUA CEL 0.0000
-0.3010 QUARTER NOTE 0.0000
-0.3010 QUESTION MARK 0.0000
-1.3424 QUIT </s> -0.3010
-1.3424 QUIT APPLICATION 0.0000
-1.3424 QUIT ARMITAGE 0.0000
-1.3424 QUIT BLADDER -0.1091
-1.3424 QUIT EMULATION 0.0000
-1.3424 QUIT FILE -0.2304
-1.3424 QUIT GEE -0.1461
-1.3424 QUIT QUA 0.0000
-1.3424 QUIT RADIO -0.2109
-1.3424 QUIT UNISON 0.0000
-1.3424 QUIT WINDOW -0.1181
-0.6021 QUOTE TAGS 0.0000
-0.6021 QUOTE THIS -0.1091
-0.3010 QUOTES </s> -0.3010
-1.2041 RADIO 3FM 0.0000
-1.2041 RADIO 538 0.0000
-0.7270 RADIO </s> -0.3010
-1.2041 RADIO ARROW -0.2553
-1.2041 RADIO FUN 0.0000
-1.2041 RADIO SLAM 0.0000
-0.3010 RAINING </s> -0.3010
-0.3010 RAISE VOLUME -0.2688
-0.3010 RASP BERRY 0.0000
-0.3010 RASPBIAN </s> -0.3010
-0.3010 REBOOT </s> -0.3010
-0.3010 REF </s> -0.3010
-0.3010 REFRESH PAGE -0.2341
-0.6021 REGION </s> -0.3010
-0.6021 REGION AND -0.1761
-0.3010 REMOVE SPACES -0.0969
-0.3010 REPEAT AFTER -0.1761
-0.3010 REPLAY TRACK 0.0000
-0.3010 REPORT </s> -0.3010
-0.9031 RESTART APACHE -0.1761
-0.9031 RESTART BLADDER -0.1091
-0.9031 RESTART ENGINE 0.0000
-0.9031 RESTART TRACK 0.0000
-0.3010 RESTORE WINDOW -0.1181
-0.3010 RETURN CODE 0.0000
-0.4559 RIGHT </s> -0.3010
-1.3010 RIGHT ARROW -0.0792
-1.3010 RIGHT CLICK -0.1249
-1.3010 RIGHT SIDE 0.0000
-0.3010 ROCK </s> -0.3010
-0.3010 ROW </s> -0.3010
-0.3010 RUDE </s> -0.3010
-0.8653 S </s> -0.3010
-1.3424 S COMMANDO 0.0000
-1.3424 S HEADER -0.1461
-1.0414 S L -0.0669
-0.7404 S S -0.1891
-0.3010 SAID THAT -0.1461
-0.9031 SAVE </s> -0.3010
-0.6021 SAVE FILE -0.2041
-0.9031 SAVE LINK -0.0969
-0.3010 SAY FORTUNE 0.0000
-0.3010 SCHOOL OF -0.2688
-0.3010 SCOOBY </s> -0.3010
-0.3010 SCORE </s> -0.3010
-0.3010 SCREEN </s> -0.3010
-1.0792 SCREENSHOT </s> -0.3010
-1.0792 SCREENSHOT AND -0.1761
-0.4771 SCREENSHOT OF -0.1549
-0.6021 SCROLL DOWN -0.0669
-0.6021 SCROLL UP -0.1648
-0.6990 SEARCH </s> -0.3010
-1.3010 SEARCH APPLICATIONS 0.0000
-1.3010 SEARCH FIELD 0.0000
-1.3010 SEARCH FILES -0.1761
-1.3010 SEARCH MUSIC -0.1383
-1.3010 SEARCH PHOTOS 0.0000
-1.3010 SEARCH VIDEOS 0.0000
-0.3010 SED EXPRESSION 0.0000
-0.7782 SEE </s> -0.3010
-0.7782 SEE MATRIX 0.0000
-0.7782 SEE RETURN 0.0000
-0.6690 SELECT ALL -0.1761
-1.1461 SELECT PREVIOUS -0.2218
-0.6690 SELECT THIS -0.2460
-0.3010 SELECTION </s> -0.3010
-0.3010 SEMICOLON </s> -0.3010
-0.3010 SENTENCE </s> -0.3010
-0.6021 SET ALARM 0.0000
-0.6021 SET SLEEP 0.0000
-0.3010 SEVEN </s> -0.3010
-0.3010 SEVENTY PROCENT 0.0000
-0.6021 SHARP </s> -0.3010
-0.9031 SHARP SYMBOL 0.0000
-0.9031 SHARP TP 0.0000
-0.3010 SHE BANG 0.0000
-1.0792 SHIFT C -0.1963
-1.0792 SHIFT E 0.0000
-1.0792 SHIFT IN -0.0969
-1.0792 SHIFT O -0.1249
-1.0792 SHIFT V -0.2041
-1.0792 SHIFT W 0.0000
-0.3010 SHORTEN YOU -0.2762
-1.0000 SHOW ALL -0.2109
-1.3010 SHOW DESKTOP 0.0000
-0.6990 SHOW ON -0.1549
-0.8239 SHOW WINDOWS 0.0000
-0.3010 SHUT UP -0.1648
-0.3010 SIDE </s> -0.3010
-0.3010 SIGN </s> -0.3010
-0.6021 SING GLADIS 0.0000
-0.6021 SING GLADOS 0.0000
-0.3010 SINGING </s> -0.3010
-0.6021 SITES AVAILABLE 0.0000
-0.6021 SITES ENABLED 0.0000
-0.3010 SIX </s> -0.3010
-0.3010 SIXTY PROCENT 0.0000
-0.3010 SKIP SONG 0.0000
-0.3010 SLAM FM 0.0000
-0.3010 SLASH ET 0.0000
-0.3010 SLEEP TIMER 0.0000
-0.3010 SMART QUOTES 0.0000
-0.3010 SMILEY FACE 0.0000
-0.3010 SO FUNNY 0.0000
-0.6021 SOFTWARE AND -0.2632
-0.6021 SOFTWARE PROPERTIES 0.0000
-0.3010 SONG </s> -0.3010
-0.3010 SORT THIS -0.1091
-0.3010 SOUND </s> -0.3010
-0.6021 SPACE </s> -0.3010
-0.6021 SPACE BAR 0.0000
-0.4260 SPACES </s> -0.3010
-0.9031 SPACES TO -0.2888
-0.3010 SPACING </s> -0.3010
-0.6021 SPAN </s> -0.3010
-0.6021 SPAN THIS -0.1091
-0.3010 SPANDEX </s> -0.3010
-0.4771 SPEAK </s> -0.3010
-0.7782 SPEAK THIS -0.1091
-0.3010 SPEAKING </s> -0.3010
-0.6021 SPECIALTY CLASS -0.2430
-0.6021 SPECIALTY SPAN -0.1761
-0.3010 SPECIFICATIONS </s> -0.3010
-0.3010 SPECS </s> -0.3010
-0.3010 SPLIT BUFFER 0.0000
-0.3010 STAR WARS 0.0000
-0.7782 START GAY 0.0000
-0.7782 START KISS -0.1249
-1.0792 START RASPBIAN 0.0000
-1.0792 START SELECTION 0.0000
-0.3010 STATE YOUR -0.0512
-0.3010 STATION </s> -0.3010
-0.6021 STATUS </s> -0.3010
-0.6021 STATUS REPORT 0.0000
-1.1461 STOP GAY 0.0000
-1.1461 STOP KISS -0.2218
-1.1461 STOP MUSIC -0.1383
-1.1461 STOP RADIO -0.2109
-1.1461 STOP SELECTION 0.0000
-1.1461 STOP SINGING 0.0000
-1.1461 STOP SPEAKING 0.0000
-0.3010 STREET </s> -0.3010
-0.3010 SUDO </s> -0.3010
-0.6021 SUPER </s> -0.3010
-0.6021 SUPER KEY -0.1761
-0.3010 SUPERSCRIPT </s> -0.3010
-0.9031 SWITCH BACK -0.2109
-0.9031 SWITCH SWITCH -0.1761
-0.6021 SWITCH WINDOW -0.1181
-0.3010 SYMBOL </s> -0.3010
-0.3010 SYNAPTIC </s> -0.3010
-0.3010 SYNC BLADDER -0.0580
-0.7782 SYSTEM </s> -0.3010
-0.7782 SYSTEM LOG 0.0000
-0.7782 SYSTEM UPDATE -0.2218
-1.3802 T BOLD 0.0000
-1.3802 T BOOK 0.0000
-1.3802 T CODE 0.0000
-1.3802 T COMMANDO 0.0000
-1.3802 T COMMENT 0.0000
-1.3802 T F -0.2430
-0.9031 T HEADER -0.2304
-1.3802 T ITALICS 0.0000
-1.3802 T PAGE -0.2688
-1.3802 T PREFORMATTED 0.0000
-0.7270 TAB </s> -0.3010
-1.5051 TAB EIGHT -0.1761
-1.5051 TAB FIVE -0.1249
-1.5051 TAB FOUR -0.0969
-1.5051 TAB NINE 0.0000
-1.5051 TAB ONE 0.0000
-1.5051 TAB SEVEN 0.0000
-1.5051 TAB SIX 0.0000
-1.5051 TAB TEN -0.2218
-1.5051 TAB THREE 0.0000
-1.5051 TAB TWO 0.0000
-0.9031 TABLE DATA 0.0000
-0.9031 TABLE HEADER -0.2788
-0.9031 TABLE ROW 0.0000
-0.9031 TABLE TAGS 0.0000
-0.3010 TAG </s> -0.3010
-0.3010 TAGS </s> -0.3010
-0.3010 TAKE SCREENSHOT 0.0000
-0.3010 TARGET EQUALS -0.2688
-0.3010 TEE 61 0.0000
-0.3010 TELL ME -0.1761
-0.3010 TEMPLATE </s> -0.3010
-0.7782 TEN </s> -0.3010
-0.7782 TEN COMMANDS 0.0000
-0.7782 TEN PROCENT 0.0000
-0.3010 TERM TAGS 0.0000
-0.3010 TEST </s> -0.3010
-0.6021 TESTING </s> -0.3010
-0.6021 TESTING EE 0.0000
-0.9031 TEXT </s> -0.3010
-0.6021 TEXT ALIGN 0.0000
-0.9031 TEXT EQUALS -0.1549
-0.3010 THANK YOU -0.2499
-0.5229 THAT </s> -0.3010
-1.0000 THAT RIGHT -0.1139
-1.0000 THAT TRUE 0.0000
-0.6021 THATS PRETTY 0.0000
-0.6021 THATS RUDE 0.0000
-1.0000 THE END 0.0000
-1.0000 THE FLUFFIEST 0.0000
-1.0000 THE MAN 0.0000
-0.6990 THE WEATHER 0.0000
-0.4771 THINK </s> -0.3010
-0.7782 THINK FORTUNE 0.0000
-0.3010 THIRTY PROCENT 0.0000
-0.4472 THIS </s> -0.3010
-1.0212 THIS SENTENCE 0.0000
-1.6232 THIS WORD 0.0000
-1.6232 THIS WORKSPACE -0.2730
-0.3010 THREE </s> -0.3010
-0.3010 TILDE </s> -0.3010
-0.3424 TIME </s> -0.3010
-1.3424 TIME IS -0.2374
-0.3010 TIMER </s> -0.3010
-0.6021 TITLE </s> -0.3010
-0.6021 TITLE EQUALS -0.1549
-1.5563 TO CURRENT -0.2430
-1.5563 TO FILE -0.2304
-1.5563 TO GEE -0.1461
-1.5563 TO INBOX 0.0000
-1.2553 TO LEFT -0.0969
-1.5563 TO QUA 0.0000
-1.2553 TO RIGHT -0.0792
-1.5563 TO SCORE 0.0000
-1.5563 TO THE -0.2553
-1.5563 TO TRASH 0.0000
-1.5563 TO UNDERSCORES 0.0000
-1.5563 TO UNISON 0.0000
-0.9542 TO WORKSPACE -0.2430
-0.3010 TODAYS DATE -0.1761
-0.3010 TODO </s> -0.3010
-0.3010 TOOL KEY -0.1761
-0.3010 TOOLS MENU 0.0000
-0.6021 TOP </s> -0.3010
-0.6021 TOP TEN -0.2218
-0.3010 TP LINK -0.0969
-0.3010 TRACK </s> -0.3010
-0.6021 TRANSFER KEEP 0.0000
-0.6021 TRANSFER TEXT -0.2430
-0.3010 TRASH </s> -0.3010
-0.3010 TRUE </s> -0.3010
-0.3010 TWENTY PROCENT 0.0000
-0.3010 TWO </s> -0.3010
-0.3010 TYPE </s> -0.3010
-0.3010 U T -0.2825
-0.3010 UN MUTE 0.0000
-0.3010 UNDERSCORES </s> -0.3010
-0.3010 UNDO </s> -0.3010
-0.3010 UNFORMATTED PASTE 0.0000
-0.3010 UNISON </s> -0.3010
-0.3010 UNORDERED LIST -0.2218
-0.3010 UNREAD </s> -0.3010
-0.5699 UP </s> -0.3010
-1.4150 UP ARROW -0.0792
-0.7160 UP TIME -0.0378
-0.7782 UPDATE </s> -0.3010
-1.2553 UPDATE ALTERNATIVES 0.0000
-0.9542 UPDATE BLADDER -0.0580
-1.2553 UPDATE CONFIG -0.1761
-1.2553 UPDATE MANAGER 0.0000
-1.2553 UPDATE SYSTEM -0.2218
-0.3010 UPDATES </s> -0.3010
-0.3010 UPGRADE </s> -0.3010
-0.3010 UPPERCASE </s> -0.3010
-0.6021 USER BIN -0.0969
-0.6021 USER LOCAL 0.0000
-0.3010 USERNAME FIELD 0.0000
-0.6990 V </s> -0.3010
-0.6990 V TAG 0.0000
-1.0000 V TAGS 0.0000
-0.3010 VERBATIM HYPERLINK 0.0000
-0.3010 VIDEO </s> -0.3010
-0.3010 VIDEOS </s> -0.3010
-0.3010 VIEW MENU 0.0000
-0.6021 VOICE </s> -0.3010
-0.6021 VOICE SEARCH -0.2041
-1.1461 VOLUME </s> -0.3010
-1.4472 VOLUME AIGHTY 0.0000
-1.4472 VOLUME FIFTY 0.0000
-1.4472 VOLUME FOURTY 0.0000
-1.4472 VOLUME HUNDERED 0.0000
-1.4472 VOLUME MAX 0.0000
-1.4472 VOLUME NINETY 0.0000
-1.4472 VOLUME SEVENTY 0.0000
-1.4472 VOLUME SIXTY 0.0000
-1.4472 VOLUME TEN -0.2218
-1.4472 VOLUME THIRTY 0.0000
-1.4472 VOLUME TWENTY 0.0000
-1.4472 VOLUME ZERO -0.2218
-0.3010 W </s> -0.3010
-0.3010 WARS </s> -0.3010
-0.3010 WE DO -0.1761
-0.3010 WEATHER </s> -0.3010
-0.6021 WEB FILES -0.1761
-0.6021 WEB SEARCH -0.2041
-0.3010 WEBSERVER PERMISSIONS 0.0000
-0.3010 WHADDAYA THINK -0.1249
-1.0792 WHAT CAN 0.0000
-1.0792 WHAT DAY 0.0000
-1.0792 WHAT DO -0.1761
-0.7782 WHAT IS -0.2139
-1.0792 WHAT TIME -0.2808
-0.3010 WHATS TODAYS 0.0000
-0.6021 WHEEL DOWN -0.0669
-0.6021 WHEEL UP -0.1648
-0.6021 WHO AM 0.0000
-0.6021 WHO ARE -0.1761
-0.3010 WIDTH </s> -0.3010
-0.4638 WINDOW </s> -0.3010
-1.5051 WINDOW AND -0.1761
-1.2041 WINDOW PID 0.0000
-1.2041 WINDOW TO -0.2499
-0.6021 WINDOWS </s> -0.3010
-0.6021 WINDOWS OF -0.2341
-0.6021 WOLFRAM </s> -0.3010
-0.6021 WOLFRAM THIS -0.1091
-0.3010 WORD </s> -0.3010
-0.3010 WORK EMAIL -0.0969
-1.2041 WORKSPACE </s> -0.3010
-1.2041 WORKSPACE DOWN -0.0669
-1.5051 WORKSPACE FOUR -0.0969
-1.2041 WORKSPACE LEFT -0.1383
-1.5051 WORKSPACE ONE 0.0000
-1.2041 WORKSPACE OP -0.2109
-1.2041 WORKSPACE RIGHT -0.1139
-1.5051 WORKSPACE THREE 0.0000
-1.5051 WORKSPACE TWO 0.0000
-1.2041 WORKSPACE UP -0.1648
-0.3010 WRITE AND -0.2632
-0.6021 X </s> -0.3010
-0.6021 X D -0.2688
-0.7782 YANK LINES 0.0000
-0.7782 YANK TO -0.2888
-0.7782 YANK WORD 0.0000
-0.3010 YES </s> -0.3010
-0.9542 YOU </s> -0.3010
-1.2553 YOU ARE -0.2430
-0.9542 YOU BEEN 0.0000
-1.2553 YOU JUST 0.0000
-1.2553 YOU LISTENING 0.0000
-1.2553 YOU SAID 0.0000
-1.2553 YOU THINK -0.1249
-1.2041 YOUR DESIGNATION 0.0000
-0.7270 YOUR OP -0.1383
-1.2041 YOUR SO 0.0000
-0.7270 YOUR UP -0.2083
-0.3010 ZEE OUT 0.0000
-0.4771 ZERO </s> -0.3010
-0.7782 ZERO PROCENT 0.0000
-0.3010 ZIP </s> -0.3010
-0.6021 ZOOM IN -0.0969
-0.6021 ZOOM OUT 0.0000

\3-grams:
-0.6021 <s> ADD CONFIRM
-0.6021 <s> ADD CONFIRMATION
-0.3010 <s> ADDRESS FIELD
-0.3010 <s> ALTERNATE TEXT
-0.3010 <s> ALWAYS ON
-0.3010 <s> ANGLE BRACKET
-0.3010 <s> APACHE CONFIG
-0.3010 <s> APP LAUNCHER
-0.3010 <s> APPEND TO
-1.2041 <s> APT CASH
-1.2041 <s> APT DIST
-1.2041 <s> APT GET
-1.2041 <s> APT INSTALL
-0.9031 <s> APT UPDATE
-0.9031 <s> APT UPGRADE
-0.3010 <s> ARE YOU
-0.3010 <s> ARTICLE TAGS
-0.3010 <s> ASIDE TAGS
-0.4771 <s> BACK GROUND
-0.7782 <s> BACK SPACE
-0.3010 <s> BASH HEADER
-0.3010 <s> BIN BASH
-0.3010 <s> BLATHER HISTORY
-0.3010 <s> BLOCK QUOTE
-0.3010 <s> BROWSER HISTORY
-0.3010 <s> C S
-0.3010 <s> CAMEL CAPS
-0.3010 <s> CANCEL </s>
-0.3010 <s> CAPITALIZE THIS
-0.3010 <s> CATAPULT </s>
-0.3010 <s> CD MIN
-0.6021 <s> CENTER CURSOR
-0.6021 <s> CENTER TAGS
-0.3010 <s> CHANGE WORD
-0.3010 <s> CITATION TAGS
-0.4771 <s> CLASS EQUALS
-0.7782 <s> CLASS IS
-0.6021 <s> CLICK AND
-0.6021 <s> CLICK HERE
-1.1461 <s> CLOSE CENTER
-1.1461 <s> CLOSE D
-1.1461 <s> CLOSE DIALOG
-1.1461 <s> CLOSE H
-1.1461 <s> CLOSE P
-1.1461 <s> CLOSE TAB
-1.1461 <s> CLOSE WINDOW
-0.9031 <s> COLON </s>
-0.9031 <s> COLON DOLLAR
-0.9031 <s> COLON W
-0.9031 <s> COLON ZERO
-0.3010 <s> COMMA </s>
-0.3010 <s> COMPUTER </s>
-1.6232 <s> CONTROL A
-1.6232 <s> CONTROL ARE
-1.6232 <s> CONTROL B
-1.6232 <s> CONTROL C
-1.6232 <s> CONTROL D
-1.6232 <s> CONTROL E
-1.6232 <s> CONTROL ENTER
-1.6232 <s> CONTROL F
-1.6232 <s> CONTROL H
-1.6232 <s> CONTROL I
-1.6232 <s> CONTROL IN
-1.6232 <s> CONTROL K
-1.6232 <s> CONTROL L
-1.6232 <s> CONTROL O
-1.6232 <s> CONTROL P
-0.8451 <s> CONTROL SHIFT
-0.6021 <s> COPY </s>
-0.6021 <s> COPY THIS
-0.3010 <s> CORPORATE BULLSHIT
-0.6021 <s> COW SAY
-0.6021 <s> COW THINK
-0.6021 <s> CURRENT OP
-0.6021 <s> CURRENT UP
-0.3010 <s> CUT </s>
-0.3010 <s> D I
-0.6021 <s> DEFINITION DATA
-0.6021 <s> DEFINITION TERM
-0.9031 <s> DELETE LINES
-0.9031 <s> DELETE PREVIOUS
-0.9031 <s> DELETE THIS
-0.9031 <s> DELETE WORD
-0.3010 <s> DISABLE BACK
-0.7782 <s> DISPLAY BLOCK
-0.7782 <s> DISPLAY INLINE
-0.7782 <s> DISPLAY NONE
-0.3010 <s> DOCUMENT MENU
-0.3010 <s> DONT SAVE
-0.3010 <s> DOUBLE CLICK
-0.3010 <s> DOWN ARROW
-0.3010 <s> DOWNLOADS </s>
-0.7782 <s> ECHO EE
-0.7782 <s> ECHO MOUSE
-0.7782 <s> ECHO VOICE
-0.3010 <s> EDIT MENU
-0.3010 <s> EIGHT BALL
-0.3010 <s> EMAIL HYPERLINK
-0.3010 <s> ENABLE BACK
-0.3010 <s> ENGINE EX
-1.4472 <s> ENTER CELL
-1.4472 <s> ENTER CITY
-1.4472 <s> ENTER DADS
-1.4472 <s> ENTER FIBER
-1.4472 <s> ENTER FIRST
-1.1461 <s> ENTER FULL
-1.4472 <s> ENTER GEE
-1.4472 <s> ENTER LAST
-1.4472 <s> ENTER NICK
-1.4472 <s> ENTER OFFICE
-1.4472 <s> ENTER STREET
-1.4472 <s> ENTER WORK
-1.4472 <s> ENTER ZIP
-0.3010 <s> EQUALS </s>
-0.3010 <s> ESCAPE </s>
-0.3010 <s> EXCLAMATION POINT
-0.3010 <s> EXIT </s>
-0.7782 <s> FILE MENU
-0.7782 <s> FILE SPECIFICATIONS
-0.7782 <s> FILE SPECS
-0.3010 <s> FIND ON
-0.3010 <s> FIVE SPACES
-0.3010 <s> FIX SPACING
-0.3010 <s> FLAT SYMBOL
-0.3010 <s> FORMAT MENU
-0.3010 <s> FOUR SPACES
-0.3010 <s> FROWNEY FACE
-0.7782 <s> GET MOUSE
-0.7782 <s> GET PUSH
-0.7782 <s> GET WINDOW
-1.0792 <s> GIT ADD
-1.0792 <s> GIT COMMIT
-1.0792 <s> GIT MERGE
-1.0792 <s> GIT PULL
-1.0792 <s> GIT PUSH
-1.0792 <s> GIT STATUS
-1.1461 <s> GO BACK
-1.1461 <s> GO FORWARD
-0.4472 <s> GO TO
-0.3010 <s> GOOD MORNING
-0.3010 <s> GOOGLE THIS
-0.3010 <s> GRAB THAT
-0.3010 <s> H T
-0.3010 <s> HASH TAG
-0.9031 <s> HELLO </s>
-0.9031 <s> HELLO COMPUTER
-0.9031 <s> HELLO HAL
-0.9031 <s> HELLO TEE
-0.3010 <s> HELP MENU
-0.3010 <s> HOME BIN
-0.3010 <s> HOOS THE
-1.0000 <s> HOW IS
-0.3979 <s> HOW LONG
-0.3010 <s> HUGE GRIN
-0.3010 <s> HYPHENATE THIS
-0.3010 <s> I D
-0.6021 <s> IMAGE C
-0.6021 <s> IMAGE D
-0.3010 <s> IN IT
-1.4472 <s> INSERT AUDIO
-1.4472 <s> INSERT AWK
-1.4472 <s> INSERT EYE
-1.4472 <s> INSERT HYPERLINK
-1.4472 <s> INSERT IMAGE
-1.1461 <s> INSERT KEY
-1.4472 <s> INSERT MENU
-1.4472 <s> INSERT PANEL
-1.4472 <s> INSERT PHONE
-1.4472 <s> INSERT POPUP
-1.4472 <s> INSERT PRINT
-1.4472 <s> INSERT SED
-1.4472 <s> INSERT VIDEO
-0.7782 <s> IS IT
-0.4771 <s> IS THAT
-0.3010 <s> ITALICIZE </s>
-0.3010 <s> JAVASCRIPT DATE
-0.7782 <s> KILL BLADDER
-0.7782 <s> KILL RADIO
-0.7782 <s> KILL WINDOW
-0.3010 <s> L S
-0.3010 <s> LABELS HEADER
-0.6021 <s> LEFT ARROW
-0.6021 <s> LEFT CLICK
-0.3010 <s> LINK TO
-0.3010 <s> LIST ITEM
-0.3010 <s> LOCK SCREEN
-0.3010 <s> LOWER VOLUME
-1.0792 <s> MAKE BOLD
-1.0792 <s> MAKE LOWERCASE
-1.0792 <s> MAKE NOTE
-1.0792 <s> MAKE SUPER
-1.0792 <s> MAKE SUPERSCRIPT
-1.0792 <s> MAKE UPPERCASE
-1.0792 <s> MARKDOWN BOLD
-1.0792 <s> MARKDOWN CODE
-1.0792 <s> MARKDOWN HEADER
-1.0792 <s> MARKDOWN HYPERLINK
-1.0792 <s> MARKDOWN ITALICS
-1.0792 <s> MARKDOWN PREVIEW
-0.3010 <s> MAXIMIZE WINDOW
-1.3424 <s> META BOB
-1.3424 <s> META C
-1.3424 <s> META EFF
-1.3424 <s> META EYE
-1.3424 <s> META F
-1.3424 <s> META L
-1.3424 <s> META M
-1.3424 <s> META N
-1.3424 <s> META P
-1.3424 <s> META SCOOBY
-1.3424 <s> META W
-0.3010 <s> MIDDLE CLICK
-0.3010 <s> MINIMIZE WINDOW
-0.3010 <s> MOUSE WHEEL
-0.6320 <s> MOVE TO
-1.0000 <s> MOVE WINDOW
-0.7782 <s> MOVE WORKSPACE
-0.3010 <s> MUTE SOUND
-0.3010 <s> N MAP
-0.3010 <s> NATURAL SYMBOL
-0.3010 <s> NET MAP
-1.2553 <s> NEW BULLET
-1.2553 <s> NEW FILE
-0.9542 <s> NEW LINE
-1.2553 <s> NEW LIST
-1.2553 <s> NEW TAB
-1.2553 <s> NEW TABLE
-1.2553 <s> NEW WEB
-1.2553 <s> NEW WINDOW
-0.9031 <s> NEXT BUFFER
-0.9031 <s> NEXT TAB
-0.9031 <s> NEXT TRACK
-0.9031 <s> NEXT WORD
-0.3010 <s> NO DECORATION
-0.3010 <s> OP TIME
-1.4472 <s> OPEN CENTER
-1.4472 <s> OPEN D
-1.4472 <s> OPEN EMULATION
-1.1461 <s> OPEN FILE
-1.1461 <s> OPEN GEE
-1.4472 <s> OPEN H
-1.4472 <s> OPEN LAST
-1.4472 <s> OPEN NOTES
-1.4472 <s> OPEN P
-1.4472 <s> OPEN QUA
-1.4472 <s> OPEN TODO
-1.4472 <s> OPEN UNISON
-0.3010 <s> OPTIMAL COLUMN
-0.6021 <s> PACKAGE INFO
-0.6021 <s> PACKAGE SEARCH
-0.9031 <s> PAGE BACK
-0.9031 <s> PAGE DOWN
-0.9031 <s> PAGE FORWARD
-0.9031 <s> PAGE UP
-0.3010 <s> PARAGRAPH TAGS
-0.3010 <s> PASTE </s>
-0.3010 <s> PAUSE PLAY
-0.3010 <s> PERENTHESIZE THIS
-0.3010 <s> PERFECT </s>
-0.3010 <s> PERIOD </s>
-0.3010 <s> PHOTO BY
-0.3010 <s> PING TEST
-0.6021 <s> PLAY MUSIC
-0.6021 <s> PLAY PAUSE
-0.3010 <s> POPUP JAVASCRIPT
-1.6232 <s> PRESS DELETE
-1.6232 <s> PRESS EIGHT
-1.6232 <s> PRESS END
-1.6232 <s> PRESS ENTER
-1.6232 <s> PRESS ESCAPE
-1.6232 <s> PRESS F
-1.6232 <s> PRESS FIVE
-1.6232 <s> PRESS FOUR
-1.6232 <s> PRESS HOME
-1.6232 <s> PRESS I
-1.6232 <s> PRESS NINE
-1.6232 <s> PRESS NO
-1.6232 <s> PRESS ONE
-1.6232 <s> PRESS Q
-1.6232 <s> PRESS SEVEN
-1.6232 <s> PRESS SIX
-1.6232 <s> PRESS TAB
-1.6232 <s> PRESS THREE
-1.6232 <s> PRESS TWO
-1.6232 <s> PRESS YES
-1.6232 <s> PRESS ZERO
-0.9031 <s> PREVIOUS BUFFER
-0.9031 <s> PREVIOUS TAB
-0.9031 <s> PREVIOUS TRACK
-0.9031 <s> PREVIOUS WORD
-0.3010 <s> PRINT WINDOW
-0.6021 <s> PUT AFTER
-0.6021 <s> PUT BEFORE
-0.3010 <s> QUARTER NOTE
-0.3010 <s> QUESTION MARK
-1.3010 <s> QUIT APPLICATION
-1.3010 <s> QUIT ARMITAGE
-1.3010 <s> QUIT BLADDER
-1.3010 <s> QUIT EMULATION
-1.3010 <s> QUIT FILE
-1.3010 <s> QUIT GEE
-1.3010 <s> QUIT QUA
-1.3010 <s> QUIT RADIO
-1.3010 <s> QUIT UNISON
-1.3010 <s> QUIT WINDOW
-0.3010 <s> QUOTE THIS
-1.0000 <s> RADIO 3FM
-1.0000 <s> RADIO 538
-1.0000 <s> RADIO ARROW
-1.0000 <s> RADIO FUN
-1.0000 <s> RADIO SLAM
-0.3010 <s> RAISE VOLUME
-0.3010 <s> RASP BERRY
-0.3010 <s> REBOOT </s>
-0.3010 <s> REFRESH PAGE
-0.3010 <s> REMOVE SPACES
-0.3010 <s> REPEAT AFTER
-0.3010 <s> REPLAY TRACK
-0.9031 <s> RESTART APACHE
-0.9031 <s> RESTART BLADDER
-0.9031 <s> RESTART ENGINE
-0.9031 <s> RESTART TRACK
-0.3010 <s> RESTORE WINDOW
-0.6021 <s> RIGHT ARROW
-0.6021 <s> RIGHT CLICK
-0.3010 <s> S L
-0.4771 <s> SAVE FILE
-0.7782 <s> SAVE LINK
-0.3010 <s> SCHOOL OF
-0.6021 <s> SCROLL DOWN
-0.6021 <s> SCROLL UP
-1.0792 <s> SEARCH APPLICATIONS
-1.0792 <s> SEARCH FIELD
-1.0792 <s> SEARCH FILES
-1.0792 <s> SEARCH MUSIC
-1.0792 <s> SEARCH PHOTOS
-1.0792 <s> SEARCH VIDEOS
-0.6021 <s> SEE MATRIX
-0.6021 <s> SEE RETURN
-0.6690 <s> SELECT ALL
-1.1461 <s> SELECT PREVIOUS
-0.6690 <s> SELECT THIS
-0.3010 <s> SEMICOLON </s>
-0.6021 <s> SET ALARM
-0.6021 <s> SET SLEEP
-0.3010 <s> SHARP SYMBOL
-0.3010 <s> SHE BANG
-0.3010 <s> SHORTEN YOU
-1.0000 <s> SHOW ALL
-1.3010 <s> SHOW DESKTOP
-0.6990 <s> SHOW ON
-0.8239 <s> SHOW WINDOWS
-0.3010 <s> SHUT UP
-0.6021 <s> SING GLADIS
-0.6021 <s> SING GLADOS
-0.6021 <s> SITES AVAILABLE
-0.6021 <s> SITES ENABLED
-0.3010 <s> SKIP SONG
-0.3010 <s> SLASH ET
-0.3010 <s> SMART QUOTES
-0.3010 <s> SMILEY FACE
-0.6021 <s> SOFTWARE AND
-0.6021 <s> SOFTWARE PROPERTIES
-0.3010 <s> SORT THIS
-0.3010 <s> SPACE BAR
-0.3010 <s> SPACES TO
-0.3010 <s> SPAN THIS
-0.3010 <s> SPANDEX </s>
-0.3010 <s> SPEAK THIS
-0.6021 <s> SPECIALTY CLASS
-0.6021 <s> SPECIALTY SPAN
-0.3010 <s> SPLIT BUFFER
-0.3010 <s> STAR WARS
-0.7782 <s> START GAY
-0.7782 <s> START KISS
-1.0792 <s> START RASPBIAN
-1.0792 <s> START SELECTION
-0.3010 <s> STATE YOUR
-0.3010 <s> STATUS REPORT
-1.1461 <s> STOP GAY
-1.1461 <s> STOP KISS
-1.1461 <s> STOP MUSIC
-1.1461 <s> STOP RADIO
-1.1461 <s> STOP SELECTION
-1.1461 <s> STOP SINGING
-1.1461 <s> STOP SPEAKING
-0.3010 <s> SUDO </s>
-0.3010 <s> SUPER KEY
-0.7782 <s> SWITCH BACK
-0.7782 <s> SWITCH SWITCH
-0.7782 <s> SWITCH WINDOW
-0.3010 <s> SYNAPTIC </s>
-0.3010 <s> SYNC BLADDER
-0.6021 <s> SYSTEM LOG
-0.6021 <s> SYSTEM UPDATE
-1.3010 <s> TAB EIGHT
-1.3010 <s> TAB FIVE
-1.3010 <s> TAB FOUR
-1.3010 <s> TAB NINE
-1.3010 <s> TAB ONE
-1.3010 <s> TAB SEVEN
-1.3010 <s> TAB SIX
-1.3010 <s> TAB TEN
-1.3010 <s> TAB THREE
-1.3010 <s> TAB TWO
-0.7782 <s> TABLE DATA
-0.7782 <s> TABLE HEADER
-0.7782 <s> TABLE TAGS
-0.3010 <s> TAKE SCREENSHOT
-0.3010 <s> TARGET EQUALS
-0.3010 <s> TELL ME
-0.6021 <s> TESTING </s>
-0.6021 <s> TESTING EE
-0.3010 <s> TEXT ALIGN
-0.3010 <s> THANK YOU
-0.6021 <s> THATS PRETTY
-0.6021 <s> THATS RUDE
-0.3010 <s> TILDE </s>
-0.3010 <s> TITLE EQUALS
-0.3010 <s> TOOLS MENU
-0.3010 <s> TOP TEN
-0.6021 <s> TRANSFER KEEP
-0.6021 <s> TRANSFER TEXT
-0.3010 <s> U T
-0.3010 <s> UN MUTE
-0.3010 <s> UNDO </s>
-0.3010 <s> UNFORMATTED PASTE
-0.3010 <s> UNORDERED LIST
-0.6021 <s> UP ARROW
-0.6021 <s> UP TIME
-1.0792 <s> UPDATE ALTERNATIVES
-0.7782 <s> UPDATE BLADDER
-1.0792 <s> UPDATE CONFIG
-1.0792 <s> UPDATE MANAGER
-1.0792 <s> UPDATE SYSTEM
-0.6021 <s> USER BIN
-0.6021 <s> USER LOCAL
-0.3010 <s> USERNAME FIELD
-0.3010 <s> VERBATIM HYPERLINK
-0.3010 <s> VIEW MENU
-0.3010 <s> VOICE SEARCH
-1.3802 <s> VOLUME AIGHTY
-1.3802 <s> VOLUME FIFTY
-1.3802 <s> VOLUME FOURTY
-1.3802 <s> VOLUME HUNDERED
-1.3802 <s> VOLUME MAX
-1.3802 <s> VOLUME NINETY
-1.3802 <s> VOLUME SEVENTY
-1.3802 <s> VOLUME SIXTY
-1.3802 <s> VOLUME TEN
-1.3802 <s> VOLUME THIRTY
-1.3802 <s> VOLUME TWENTY
-1.3802 <s> VOLUME ZERO
-0.3010 <s> WEB FILES
-0.3010 <s> WEBSERVER PERMISSIONS
-0.3010 <s> WHADDAYA THINK
-1.0792 <s> WHAT CAN
-1.0792 <s> WHAT DAY
-1.0792 <s> WHAT DO
-0.7782 <s> WHAT IS
-1.0792 <s> WHAT TIME
-0.3010 <s> WHATS TODAYS
-0.6021 <s> WHO AM
-0.6021 <s> WHO ARE
-0.6021 <s> WOLFRAM </s>
-0.6021 <s> WOLFRAM THIS
-1.0000 <s> WORKSPACE DOWN
-1.0000 <s> WORKSPACE LEFT
-1.0000 <s> WORKSPACE OP
-1.0000 <s> WORKSPACE RIGHT
-1.0000 <s> WORKSPACE UP
-0.3010 <s> WRITE AND
-0.3010 <s> X D
-0.7782 <s> YANK LINES
-0.7782 <s> YANK TO
-0.7782 <s> YANK WORD
-0.6021 <s> YOU JUST
-0.6021 <s> YOU SAID
-0.3010 <s> YOUR SO
-0.3010 <s> ZEE OUT
-0.6021 <s> ZOOM IN
-0.6021 <s> ZOOM OUT
-0.3010 ADD CONFIRM </s>
-0.3010 ADD CONFIRMATION </s>
-0.3010 ADDRESS FIELD </s>
-0.3010 AFTER ME </s>
-0.3010 AIGHTY PROCENT </s>
-0.3010 ALIGN CENTER </s>
-0.3010 ALIGN LEFT </s>
-0.3010 ALL DESKTOPS </s>
-0.3010 ALL UNREAD </s>
-0.3010 ALL WINDOWS </s>
-0.3010 ALL WORKSPACE </s>
-0.3010 ALTERNATE TEXT EQUALS
-0.3010 ALWAYS ON TOP
-0.3010 AM I </s>
-0.3010 AND COPY </s>
-0.3010 AND HOLD </s>
-0.3010 AND QUIT </s>
-0.3010 AND UPDATES </s>
-0.3010 ANGLE BRACKET THIS
-0.3010 APACHE CONFIG DERR
-0.3010 APP LAUNCHER </s>
-0.3010 APPEND TO CURRENT
-0.3010 APT CASH SEARCH
-0.3010 APT DIST UPGRADE
-0.3010 APT GET INSTALL
-0.3010 APT INSTALL </s>
-0.3010 APT UPDATE </s>
-0.3010 APT UPGRADE </s>
-0.3010 ARE EL </s>
-0.6021 ARE YOU </s>
-0.6021 ARE YOU LISTENING
-0.3010 ARROW CLASSIC ROCK
-0.3010 ARTICLE TAGS </s>
-0.3010 ASIDE TAGS </s>
-0.3010 AWK EXPRESSION </s>
-0.3010 BACK GROUND MUSIC
-0.3010 BACK SPACE </s>
-0.3010 BASH HEADER </s>
-0.3010 BEEN OP </s>
-0.3010 BEEN UP </s>
-0.3010 BIN BASH </s>
-0.3010 BLADDER CONFIG </s>
-0.3010 BLADDER FOLDER </s>
-0.3010 BLATHER HISTORY </s>
-0.3010 BLOCK QUOTE TAGS
-0.3010 BOOK TITLE </s>
-0.3010 BRACKET THIS </s>
-0.3010 BROWSER HISTORY </s>
-0.3010 BULLET POINT </s>
-0.3010 BY DANNY </s>
-0.3010 C S S
-0.3010 CAMEL CAPS THIS
-0.3010 CAN WE DO
-0.3010 CAPITALIZE THIS </s>
-0.3010 CAPS THIS </s>
-0.3010 CASH SEARCH </s>
-0.3010 CD MIN </s>
-0.3010 CELL PHONE </s>
-0.3010 CENTER CURSOR </s>
-0.3010 CENTER TAG </s>
-0.3010 CENTER TAGS </s>
-0.3010 CHANGE WORD </s>
-0.3010 CITATION TAGS </s>
-0.6021 CLASS EQUALS RIGHT
-0.6021 CLASS EQUALS THIS
-0.3010 CLASS IS RIGHT
-0.3010 CLASSIC ROCK </s>
-0.3010 CLICK AND HOLD
-0.3010 CLICK HERE </s>
-0.3010 CLOSE CENTER TAG
-0.3010 CLOSE D I
-0.3010 CLOSE DIALOG </s>
-0.3010 CLOSE H REF
-0.3010 CLOSE P TAG
-0.3010 CLOSE TAB </s>
-0.3010 CLOSE WINDOW </s>
-0.3010 COLON DOLLAR SIGN
-0.3010 COLON W </s>
-0.3010 COLON ZERO </s>
-0.3010 COLUMN WIDTH </s>
-0.3010 COMMIT ALL </s>
-0.3010 CONFIG DERR </s>
-0.3010 CONTROL A </s>
-0.3010 CONTROL ARE </s>
-0.3010 CONTROL B </s>
-0.3010 CONTROL C </s>
-0.3010 CONTROL D </s>
-0.3010 CONTROL E </s>
-0.3010 CONTROL ENTER </s>
-0.3010 CONTROL F </s>
-0.3010 CONTROL H </s>
-0.3010 CONTROL I </s>
-0.3010 CONTROL IN </s>
-0.3010 CONTROL K </s>
-0.3010 CONTROL L </s>
-0.3010 CONTROL O </s>
-0.3010 CONTROL P </s>
-1.0792 CONTROL SHIFT C
-1.0792 CONTROL SHIFT E
-1.0792 CONTROL SHIFT IN
-1.0792 CONTROL SHIFT O
-1.0792 CONTROL SHIFT V
-1.0792 CONTROL SHIFT W
-0.3010 COPY THIS SENTENCE
-0.3010 CORPORATE BULLSHIT </s>
-0.3010 COW SAY FORTUNE
-0.3010 COW THINK FORTUNE
-0.3010 CURRENT DESKTOP </s>
-0.3010 CURRENT LINE </s>
-0.3010 CURRENT OP TIME
-0.3010 CURRENT UP TIME
-0.3010 D EQUALS THIS
-0.3010 D I V
-0.3010 D O TOOL
-0.3010 DADS EMAIL </s>
-0.3010 DATA TAGS </s>
-0.3010 DATE CODE </s>
-0.3010 DAY IS IT
-0.3010 DEFINITION DATA TAGS
-0.3010 DEFINITION TERM TAGS
-0.3010 DELETE LINES </s>
-0.3010 DELETE PREVIOUS SENTENCE
-0.3010 DELETE THIS SENTENCE
-0.3010 DELETE WORD </s>
-0.3010 DISABLE BACK GROUND
-0.3010 DISPLAY BLOCK </s>
-0.3010 DISPLAY INLINE </s>
-0.3010 DISPLAY NONE </s>
-0.3010 DIST UPGRADE </s>
-0.3010 DO IM BORED
-0.3010 DO YOU THINK
-0.3010 DOCUMENT MENU </s>
-0.3010 DOLLAR SIGN </s>
-0.3010 DONT SAVE </s>
-0.3010 DOUBLE CLICK </s>
-0.3010 DOWN ARROW </s>
-0.3010 ECHO EE SPEAK
-0.3010 ECHO MOUSE LOCATION
-0.3010 ECHO VOICE </s>
-0.3010 EDIT MENU </s>
-0.3010 EE SPEAK </s>
-0.3010 EFF TWO </s>
-0.3010 EIGHT BALL </s>
-0.3010 EIGHT HEADER </s>
-0.3010 EMAIL HYPERLINK </s>
-0.3010 EMULATION STATION </s>
-0.3010 ENABLE BACK GROUND
-0.6021 ENGINE EX </s>
-0.6021 ENGINE EX CONFIG
-0.3010 ENTER CELL PHONE
-0.3010 ENTER CITY </s>
-0.3010 ENTER DADS EMAIL
-0.3010 ENTER FIBER EMAIL
-0.3010 ENTER FIRST NAME
-0.6021 ENTER FULL ADDRESS
-0.6021 ENTER FULL NAME
-0.3010 ENTER GEE MAIL
-0.3010 ENTER LAST NAME
-0.3010 ENTER NICK NAME
-0.3010 ENTER OFFICE PHONE
-0.3010 ENTER STREET </s>
-0.3010 ENTER WORK EMAIL
-0.3010 ENTER ZIP </s>
-0.3010 EQUALS BLANK </s>
-0.3010 EQUALS RIGHT </s>
-0.3010 EQUALS THIS </s>
-0.3010 ET SEE </s>
-0.3010 EX CONFIG DERR
-0.3010 EXCLAMATION POINT </s>
-0.3010 EYE FRAME </s>
-0.3010 F EIGHT HEADER
-0.3010 F TWO </s>
-0.3010 FIBER EMAIL </s>
-0.3010 FIFTY PROCENT </s>
-0.3010 FILE AS </s>
-0.3010 FILE MANAGER </s>
-0.3010 FILE MENU </s>
-0.3010 FILE SPECIFICATIONS </s>
-0.3010 FILE SPECS </s>
-0.3010 FILES DERR </s>
-0.3010 FIND ON PAGE
-0.3010 FIRST NAME </s>
-0.3010 FIVE SPACES </s>
-0.3010 FIX SPACING </s>
-0.3010 FLAT SYMBOL </s>
-0.3010 FORMAT MENU </s>
-0.3010 FOUR SPACES </s>
-0.3010 FOURTY PROCENT </s>
-0.3010 FROWNEY FACE </s>
-0.3010 FULL ADDRESS </s>
-0.3010 FULL NAME </s>
-0.3010 FUN X </s>
-0.4771 GAY SHARP </s>
-0.7782 GAY SHARP TP
-0.3010 GEE EDIT </s>
-0.6021 GEE MAIL </s>
-0.6021 GEE MAIL ADDRESS
-0.3010 GET INSTALL </s>
-0.3010 GET MOUSE LOCATION
-0.3010 GET PUSH </s>
-0.3010 GET WINDOW PID
-0.3010 GIT ADD </s>
-0.3010 GIT COMMIT ALL
-0.3010 GIT MERGE </s>
-0.3010 GIT PULL </s>
-0.3010 GIT PUSH </s>
-0.3010 GIT STATUS </s>
-0.3010 GO BACK </s>
-0.3010 GO FORWARD </s>
-1.0000 GO TO FILE
-1.0000 GO TO GEE
-1.0000 GO TO INBOX
-1.0000 GO TO QUA
-1.0000 GO TO UNISON
-0.3010 GOOD MORNING </s>
-0.3010 GOOGLE THIS </s>
-0.3010 GRAB THAT </s>
-0.3010 GRIN FACE </s>
-0.6021 GROUND MUSIC </s>
-0.9031 GROUND MUSIC OFF
-0.9031 GROUND MUSIC ON
-0.3010 H REF </s>
-1.3424 H T BOLD
-1.3424 H T BOOK
-1.3424 H T CODE
-1.3424 H T COMMANDO
-1.3424 H T COMMENT
-0.8653 H T HEADER
-1.3424 H T ITALICS
-1.3424 H T PAGE
-1.3424 H T PREFORMATTED
-0.3010 HASH TAG </s>
-0.3010 HAVE YOU BEEN
-0.3010 HEADER ONE </s>
-0.3010 HEADER TAGS </s>
-0.3010 HEADER THREE </s>
-0.3010 HEADER TWO </s>
-0.3010 HELLO COMPUTER </s>
-0.3010 HELLO HAL </s>
-0.3010 HELLO TEE 61
-0.3010 HELP MENU </s>
-0.3010 HOME BIN </s>
-0.6021 HOOS THE FLUFFIEST
-0.6021 HOOS THE MAN
-0.3010 HOW IS THE
-0.6021 HOW LONG HAVE
-0.6021 HOW LONG IS
-0.3010 HUGE GRIN FACE
-0.3010 HUNDERED PROCENT </s>
-0.3010 HYPHENATE THIS </s>
-0.3010 I D EQUALS
-0.9031 I V </s>
-0.6021 I V TAG
-0.9031 I V TAGS
-0.3010 IM BORED </s>
-0.3010 IMAGE C S
-0.3010 IMAGE D I
-0.3010 IN IT EXPRESSION
-0.3010 INSERT AUDIO </s>
-0.3010 INSERT AWK EXPRESSION
-0.3010 INSERT EYE FRAME
-0.3010 INSERT HYPERLINK </s>
-0.3010 INSERT IMAGE </s>
-0.6021 INSERT KEY PRESS
-0.6021 INSERT KEY TYPE
-0.3010 INSERT MENU </s>
-0.3010 INSERT PANEL </s>
-0.3010 INSERT PHONE ICON
-0.3010 INSERT POPUP </s>
-0.3010 INSERT PRINT BUTTON
-0.3010 INSERT SED EXPRESSION
-0.3010 INSERT VIDEO </s>
-0.4771 IS IT </s>
-0.7782 IS IT RAINING
-0.3010 IS RIGHT </s>
-0.6021 IS THAT RIGHT
-0.6021 IS THAT TRUE
-0.3010 IS THE WEATHER
-0.6021 IS YOUR OP
-0.6021 IS YOUR UP
-0.3010 IT EXPRESSION </s>
-0.3010 IT RAINING </s>
-0.3010 ITEM TAGS </s>
-0.3010 JAVASCRIPT DATE CODE
-0.3010 JAVASCRIPT HEADER </s>
-0.3010 JUST SAID THAT
-0.3010 KEY PRESS </s>
-0.3010 KEY TYPE </s>
-0.3010 KILL BLADDER </s>
-0.3010 KILL RADIO </s>
-0.3010 KILL WINDOW </s>
-0.3010 KISS MET </s>
-0.6021 KISS METH </s>
-0.6021 KISS METH TP
-0.3010 L L </s>
-0.3010 L S </s>
-0.3010 LABELS HEADER </s>
-0.3010 LAST NAME </s>
-0.3010 LAST TAB </s>
-0.3010 LEFT ARROW </s>
-0.3010 LEFT CLICK </s>
-0.3010 LEFT SIDE </s>
-0.3010 LINE ABOVE </s>
-0.3010 LINE BELOW </s>
-0.3010 LINK TO SCORE
-0.6021 LIST ITEM </s>
-0.6021 LIST ITEM TAGS
-0.3010 LIST TAGS </s>
-0.3010 LOCAL BIN </s>
-0.3010 LOCK SCREEN </s>
-0.3010 LOG DERR </s>
-0.3010 LONG HAVE YOU
-0.3010 LONG IS YOUR
-0.3010 LOWER VOLUME </s>
-0.3010 MAIL ADDRESS </s>
-0.3010 MAKE BOLD </s>
-0.3010 MAKE LOWERCASE </s>
-0.3010 MAKE NOTE </s>
-0.3010 MAKE SUPER </s>
-0.3010 MAKE SUPERSCRIPT </s>
-0.3010 MAKE UPPERCASE </s>
-0.3010 MARKDOWN BOLD </s>
-0.3010 MARKDOWN CODE </s>
-0.3010 MARKDOWN HEADER </s>
-0.3010 MARKDOWN HYPERLINK </s>
-0.3010 MARKDOWN ITALICS </s>
-0.3010 MARKDOWN PREVIEW </s>
-0.3010 MAXIMIZE WINDOW </s>
-0.3010 ME THE WEATHER
-0.3010 META BOB </s>
-0.3010 META C </s>
-0.3010 META EFF TWO
-0.3010 META EYE </s>
-0.3010 META F TWO
-0.3010 META L </s>
-0.3010 META M </s>
-0.3010 META N </s>
-0.3010 META P </s>
-0.3010 META SCOOBY </s>
-0.3010 META W </s>
-0.3010 METH TP LINK
-0.3010 MIDDLE CLICK </s>
-0.3010 MINIMIZE WINDOW </s>
-0.3010 MOUSE LOCATION </s>
-0.6021 MOUSE WHEEL DOWN
-0.6021 MOUSE WHEEL UP
-1.1461 MOVE TO LEFT
-1.1461 MOVE TO RIGHT
-1.1461 MOVE TO TRASH
-0.5441 MOVE TO WORKSPACE
-0.7782 MOVE WINDOW </s>
-0.4771 MOVE WINDOW TO
-1.0000 MOVE WORKSPACE DOWN
-1.0000 MOVE WORKSPACE LEFT
-1.0000 MOVE WORKSPACE OP
-1.0000 MOVE WORKSPACE RIGHT
-1.0000 MOVE WORKSPACE UP
-0.3010 MUSIC C S
-0.3010 MUSIC OFF </s>
-0.3010 MUSIC ON </s>
-0.3010 MUTE SOUND </s>
-0.3010 N MAP </s>
-0.3010 NATURAL SYMBOL </s>
-0.3010 NET MAP </s>
-0.3010 NEW BULLET POINT
-0.3010 NEW FILE </s>
-0.6021 NEW LINE ABOVE
-0.6021 NEW LINE BELOW
-0.3010 NEW LIST ITEM
-0.3010 NEW TAB </s>
-0.3010 NEW TABLE ROW
-0.3010 NEW WEB SEARCH
-0.3010 NEW WINDOW </s>
-0.3010 NEXT BUFFER </s>
-0.3010 NEXT TAB </s>
-0.3010 NEXT TRACK </s>
-0.3010 NEXT WORD </s>
-0.3010 NICK NAME </s>
-0.3010 NINETY PROCENT </s>
-0.3010 NO DECORATION </s>
-0.3010 O TOOL KEY
-0.3010 OF ALL DESKTOPS
-0.3010 OF CURRENT DESKTOP
-0.3010 OF MUSIC C
-0.6021 OF REGION </s>
-0.6021 OF REGION AND
-0.6021 OF WINDOW </s>
-0.6021 OF WINDOW AND
-0.3010 OFFICE PHONE </s>
-0.3010 ON ALL WORKSPACE
-0.3010 ON LEFT </s>
-0.3010 ON ONLY THIS
-0.3010 ON PAGE </s>
-0.3010 ON RIGHT </s>
-0.3010 ON TOP </s>
-0.3010 ONLY THIS WORKSPACE
-0.3010 OP TIME </s>
-0.3010 OPEN CENTER TAG
-0.3010 OPEN D I
-0.3010 OPEN EMULATION STATION
-0.6021 OPEN FILE </s>
-0.6021 OPEN FILE MANAGER
-0.6021 OPEN GEE EDIT
-0.6021 OPEN GEE MAIL
-0.3010 OPEN H REF
-0.3010 OPEN LAST TAB
-0.3010 OPEN NOTES </s>
-0.3010 OPEN P TAG
-0.3010 OPEN QUA CEL
-0.3010 OPEN TODO </s>
-0.3010 OPEN UNISON </s>
-0.3010 OPTIMAL COLUMN WIDTH
-0.3010 P TAG </s>
-0.3010 PACKAGE INFO </s>
-0.3010 PACKAGE SEARCH </s>
-0.3010 PAGE BACK </s>
-0.3010 PAGE DOWN </s>
-0.3010 PAGE FORWARD </s>
-0.3010 PAGE TEMPLATE </s>
-0.3010 PAGE UP </s>
-0.3010 PARAGRAPH TAGS </s>
-0.3010 PAUSE PLAY </s>
-0.3010 PERENTHESIZE THIS </s>
-0.3010 PHONE ICON </s>
-0.3010 PHOTO BY DANNY
-0.3010 PING TEST </s>
-0.3010 PLAY MUSIC </s>
-0.3010 PLAY PAUSE </s>
-0.3010 POPUP JAVASCRIPT HEADER
-0.3010 PRESS DELETE </s>
-0.3010 PRESS EIGHT </s>
-0.3010 PRESS END </s>
-0.3010 PRESS ENTER </s>
-0.3010 PRESS ESCAPE </s>
-0.3010 PRESS F </s>
-0.3010 PRESS FIVE </s>
-0.3010 PRESS FOUR </s>
-0.3010 PRESS HOME </s>
-0.3010 PRESS I </s>
-0.3010 PRESS NINE </s>
-0.3010 PRESS NO </s>
-0.3010 PRESS ONE </s>
-0.3010 PRESS Q </s>
-0.3010 PRESS SEVEN </s>
-0.3010 PRESS SIX </s>
-0.3010 PRESS TAB </s>
-0.3010 PRESS THREE </s>
-0.3010 PRESS TWO </s>
-0.3010 PRESS YES </s>
-0.3010 PRESS ZERO </s>
-0.3010 PRETTY RUDE </s>
-0.3010 PREVIOUS BUFFER </s>
-0.3010 PREVIOUS SENTENCE </s>
-0.3010 PREVIOUS TAB </s>
-0.3010 PREVIOUS TRACK </s>
-0.3010 PREVIOUS WORD </s>
-0.3010 PRINT BUTTON </s>
-0.3010 PRINT WINDOW PID
-0.3010 PUT AFTER </s>
-0.3010 PUT BEFORE </s>
-0.3010 QUA CEL </s>
-0.3010 QUARTER NOTE </s>
-0.3010 QUESTION MARK </s>
-0.3010 QUIT APPLICATION </s>
-0.3010 QUIT ARMITAGE </s>
-0.3010 QUIT BLADDER </s>
-0.3010 QUIT EMULATION STATION
-0.3010 QUIT FILE MANAGER
-0.3010 QUIT GEE EDIT
-0.3010 QUIT QUA CEL
-0.3010 QUIT RADIO </s>
-0.3010 QUIT UNISON </s>
-0.3010 QUIT WINDOW </s>
-0.3010 QUOTE TAGS </s>
-0.3010 QUOTE THIS </s>
-0.3010 RADIO 3FM </s>
-0.3010 RADIO 538 </s>
-0.3010 RADIO ARROW CLASSIC
-0.3010 RADIO FUN X
-0.3010 RADIO SLAM FM
-0.3010 RAISE VOLUME </s>
-0.3010 RASP BERRY </s>
-0.3010 REFRESH PAGE </s>
-0.3010 REGION AND COPY
-0.3010 REMOVE SPACES </s>
-0.3010 REPEAT AFTER ME
-0.3010 REPLAY TRACK </s>
-0.3010 RESTART APACHE </s>
-0.3010 RESTART BLADDER </s>
-0.3010 RESTART ENGINE EX
-0.3010 RESTART TRACK </s>
-0.3010 RESTORE WINDOW </s>
-0.3010 RETURN CODE </s>
-0.3010 RIGHT ARROW </s>
-0.3010 RIGHT CLICK </s>
-0.3010 RIGHT SIDE </s>
-0.3010 S COMMANDO </s>
-0.3010 S HEADER </s>
-0.6021 S L </s>
-0.6021 S L L
-0.6021 S S </s>
-0.9031 S S COMMANDO
-0.9031 S S HEADER
-0.3010 SAID THAT </s>
-0.6021 SAVE FILE </s>
-0.6021 SAVE FILE AS
-0.3010 SAVE LINK </s>
-0.3010 SAY FORTUNE </s>
-0.3010 SCHOOL OF MUSIC
-0.3010 SCREENSHOT AND COPY
-0.6021 SCREENSHOT OF REGION
-0.6021 SCREENSHOT OF WINDOW
-0.3010 SCROLL DOWN </s>
-0.3010 SCROLL UP </s>
-0.3010 SEARCH APPLICATIONS </s>
-0.3010 SEARCH FIELD </s>
-0.3010 SEARCH FILES </s>
-0.3010 SEARCH MUSIC </s>
-0.3010 SEARCH PHOTOS </s>
-0.3010 SEARCH VIDEOS </s>
-0.3010 SED EXPRESSION </s>
-0.3010 SEE MATRIX </s>
-0.3010 SEE RETURN CODE
-0.4771 SELECT ALL </s>
-0.7782 SELECT ALL UNREAD
-0.3010 SELECT PREVIOUS SENTENCE
-0.4771 SELECT THIS SENTENCE
-0.7782 SELECT THIS WORD
-0.3010 SET ALARM </s>
-0.3010 SET SLEEP TIMER
-0.3010 SEVENTY PROCENT </s>
-0.3010 SHARP SYMBOL </s>
-0.3010 SHARP TP LINK
-0.3010 SHE BANG </s>
-0.3010 SHIFT C </s>
-0.3010 SHIFT E </s>
-0.3010 SHIFT IN </s>
-0.3010 SHIFT O </s>
-0.3010 SHIFT V </s>
-0.3010 SHIFT W </s>
-0.3010 SHORTEN YOU ARE
-0.6021 SHOW ALL DESKTOPS
-0.6021 SHOW ALL WINDOWS
-0.3010 SHOW DESKTOP </s>
-0.9031 SHOW ON ALL
-0.9031 SHOW ON LEFT
-0.9031 SHOW ON ONLY
-0.9031 SHOW ON RIGHT
-0.7782 SHOW WINDOWS </s>
-0.4771 SHOW WINDOWS OF
-0.3010 SHUT UP </s>
-0.3010 SING GLADIS </s>
-0.3010 SING GLADOS </s>
-0.3010 SITES AVAILABLE </s>
-0.3010 SITES ENABLED </s>
-0.3010 SIXTY PROCENT </s>
-0.3010 SKIP SONG </s>
-0.3010 SLAM FM </s>
-0.3010 SLASH ET SEE
-0.3010 SLEEP TIMER </s>
-0.3010 SMART QUOTES </s>
-0.3010 SMILEY FACE </s>
-0.3010 SO FUNNY </s>
-0.3010 SOFTWARE AND UPDATES
-0.3010 SOFTWARE PROPERTIES </s>
-0.3010 SORT THIS </s>
-0.3010 SPACE BAR </s>
-0.3010 SPACES TO UNDERSCORES
-0.3010 SPAN THIS </s>
-0.3010 SPEAK THIS </s>
-0.3010 SPECIALTY CLASS </s>
-0.3010 SPECIALTY SPAN </s>
-0.3010 SPLIT BUFFER </s>
-0.3010 STAR WARS </s>
-0.3010 START GAY SHARP
-0.3010 START KISS METH
-0.3010 START RASPBIAN </s>
-0.3010 START SELECTION </s>
-0.7782 STATE YOUR DESIGNATION
-0.7782 STATE YOUR OP
-0.7782 STATE YOUR UP
-0.3010 STATUS REPORT </s>
-0.3010 STOP GAY SHARP
-0.3010 STOP KISS MET
-0.3010 STOP MUSIC </s>
-0.3010 STOP RADIO </s>
-0.3010 STOP SELECTION </s>
-0.3010 STOP SINGING </s>
-0.3010 STOP SPEAKING </s>
-0.3010 SUPER KEY </s>
-0.3010 SWITCH BACK </s>
-0.3010 SWITCH SWITCH WINDOW
-0.3010 SWITCH WINDOW </s>
-0.6021 SYNC BLADDER </s>
-0.6021 SYNC BLADDER FOLDER
-0.3010 SYSTEM LOG DERR
-0.3010 SYSTEM UPDATE </s>
-0.3010 T BOLD </s>
-0.3010 T BOOK TITLE
-0.3010 T CODE </s>
-0.3010 T COMMANDO </s>
-0.3010 T COMMENT </s>
-0.3010 T F EIGHT
-0.7782 T HEADER ONE
-0.7782 T HEADER THREE
-0.7782 T HEADER TWO
-0.3010 T ITALICS </s>
-0.3010 T PAGE TEMPLATE
-0.3010 T PREFORMATTED </s>
-0.3010 TAB EIGHT </s>
-0.3010 TAB FIVE </s>
-0.3010 TAB FOUR </s>
-0.3010 TAB NINE </s>
-0.3010 TAB ONE </s>
-0.3010 TAB SEVEN </s>
-0.3010 TAB SIX </s>
-0.3010 TAB TEN </s>
-0.3010 TAB THREE </s>
-0.3010 TAB TWO </s>
-0.3010 TABLE DATA TAGS
-0.3010 TABLE HEADER TAGS
-0.3010 TABLE ROW </s>
-0.3010 TABLE TAGS </s>
-1.0792 TAKE SCREENSHOT </s>
-1.0792 TAKE SCREENSHOT AND
-0.4771 TAKE SCREENSHOT OF
-0.3010 TARGET EQUALS BLANK
-0.3010 TEE 61 </s>
-0.3010 TELL ME THE
-0.3010 TEN COMMANDS </s>
-0.3010 TEN PROCENT </s>
-0.3010 TERM TAGS </s>
-0.3010 TESTING EE SPEAK
-0.6021 TEXT ALIGN CENTER
-0.6021 TEXT ALIGN LEFT
-0.3010 TEXT EQUALS THIS
-0.3010 THANK YOU </s>
-0.3010 THAT RIGHT </s>
-0.3010 THAT TRUE </s>
-0.3010 THATS PRETTY RUDE
-0.3010 THATS RUDE </s>
-0.3010 THE END </s>
-0.3010 THE FLUFFIEST </s>
-0.3010 THE MAN </s>
-0.3010 THE WEATHER </s>
-0.3010 THINK FORTUNE </s>
-0.3010 THIRTY PROCENT </s>
-0.3010 THIS SENTENCE </s>
-0.3010 THIS WORD </s>
-0.3010 THIS WORKSPACE </s>
-0.3010 TIME IS IT
-0.3010 TITLE EQUALS THIS
-0.3010 TO CURRENT LINE
-0.3010 TO FILE MANAGER
-0.3010 TO GEE EDIT
-0.3010 TO INBOX </s>
-0.6021 TO LEFT </s>
-0.6021 TO LEFT SIDE
-0.3010 TO QUA CEL
-0.6021 TO RIGHT </s>
-0.6021 TO RIGHT SIDE
-0.3010 TO SCORE </s>
-0.3010 TO THE END
-0.3010 TO TRASH </s>
-0.3010 TO UNDERSCORES </s>
-0.3010 TO UNISON </s>
-0.9031 TO WORKSPACE FOUR
-0.9031 TO WORKSPACE ONE
-0.9031 TO WORKSPACE THREE
-0.9031 TO WORKSPACE TWO
-0.3010 TODAYS DATE </s>
-0.3010 TOOL KEY </s>
-0.3010 TOOLS MENU </s>
-0.3010 TOP TEN COMMANDS
-0.3010 TP LINK </s>
-0.3010 TRANSFER KEEP </s>
-0.3010 TRANSFER TEXT </s>
-0.3010 TWENTY PROCENT </s>
-0.3010 U T F
-0.3010 UN MUTE SOUND
-0.3010 UNFORMATTED PASTE </s>
-0.3010 UNORDERED LIST TAGS
-0.3010 UP ARROW </s>
-0.3010 UP TIME </s>
-0.3010 UPDATE ALTERNATIVES </s>
-0.6021 UPDATE BLADDER </s>
-0.6021 UPDATE BLADDER CONFIG
-0.3010 UPDATE CONFIG </s>
-0.3010 UPDATE MANAGER </s>
-0.3010 UPDATE SYSTEM </s>
-0.3010 USER BIN </s>
-0.3010 USER LOCAL BIN
-0.3010 USERNAME FIELD </s>
-0.3010 V TAG </s>
-0.3010 V TAGS </s>
-0.3010 VERBATIM HYPERLINK </s>
-0.3010 VIEW MENU </s>
-0.3010 VOICE SEARCH </s>
-0.3010 VOLUME AIGHTY PROCENT
-0.3010 VOLUME FIFTY PROCENT
-0.3010 VOLUME FOURTY PROCENT
-0.3010 VOLUME HUNDERED PROCENT
-0.3010 VOLUME MAX </s>
-0.3010 VOLUME NINETY PROCENT
-0.3010 VOLUME SEVENTY PROCENT
-0.3010 VOLUME SIXTY PROCENT
-0.3010 VOLUME TEN PROCENT
-0.3010 VOLUME THIRTY PROCENT
-0.3010 VOLUME TWENTY PROCENT
-0.3010 VOLUME ZERO PROCENT
-0.3010 WE DO IM
-0.3010 WEB FILES DERR
-0.3010 WEB SEARCH </s>
-0.3010 WEBSERVER PERMISSIONS </s>
-0.3010 WHADDAYA THINK </s>
-0.3010 WHAT CAN WE
-0.3010 WHAT DAY IS
-0.3010 WHAT DO YOU
-0.3010 WHAT IS YOUR
-0.3010 WHAT TIME IS
-0.3010 WHATS TODAYS DATE
-0.3010 WHEEL DOWN </s>
-0.3010 WHEEL UP </s>
-0.3010 WHO AM I
-0.3010 WHO ARE YOU
-0.3010 WINDOW AND COPY
-0.3010 WINDOW PID </s>
-0.6021 WINDOW TO LEFT
-0.6021 WINDOW TO RIGHT
-0.6021 WINDOWS OF ALL
-0.6021 WINDOWS OF CURRENT
-0.3010 WOLFRAM THIS </s>
-0.3010 WORK EMAIL </s>
-0.3010 WORKSPACE DOWN </s>
-0.3010 WORKSPACE FOUR </s>
-0.3010 WORKSPACE LEFT </s>
-0.3010 WORKSPACE ONE </s>
-0.3010 WORKSPACE OP </s>
-0.3010 WORKSPACE RIGHT </s>
-0.3010 WORKSPACE THREE </s>
-0.3010 WORKSPACE TWO </s>
-0.3010 WORKSPACE UP </s>
-0.3010 WRITE AND QUIT
-0.3010 X D O
-0.3010 YANK LINES </s>
-0.3010 YANK TO THE
-0.3010 YANK WORD </s>
-0.3010 YOU ARE EL
-0.6021 YOU BEEN OP
-0.6021 YOU BEEN UP
-0.3010 YOU JUST SAID
-0.3010 YOU LISTENING </s>
-0.3010 YOU SAID THAT
-0.3010 YOU THINK </s>
-0.3010 YOUR DESIGNATION </s>
-0.3010 YOUR OP TIME
-0.3010 YOUR SO FUNNY
-0.3010 YOUR UP TIME
-0.3010 ZEE OUT </s>
-0.3010 ZERO PROCENT </s>
-0.3010 ZOOM IN </s>
-0.3010 ZOOM OUT </s>

\end\
