Language model created by QuickLM on Fri Jun  3 08:15:30 EDT 2016
Copyright (c) 1996-2010 Carnegie Mellon University and Alexander I. Rudnicky

The model is in standard ARPA format, designed by Doug Paul while he was at MITRE.

The code that was used to produce this language model is available in Open Source.
Please visit http://www.speech.cs.cmu.edu/tools/ for more information

The (fixed) discount mass is 0.5. The backoffs are computed using the ratio method.
This model based on a corpus of 820 sentences and 648 words

\data\
ngram 1=648
ngram 2=1656
ngram 3=1783

\1-grams:
-3.8655 3FM -0.2496
-3.8655 538 -0.2496
-0.9516 </s> -0.3010
-0.9516 <s> -0.2202
-3.8655 A -0.2496
-3.8655 AA -0.3010
-3.8655 ABOVE -0.2496
-3.3883 ADD -0.2494
-3.3883 ADDRESS -0.2494
-3.8655 ADVENTURE -0.2496
-3.5644 AFTER -0.2495
-3.8655 AIGHTY -0.2997
-3.8655 ALARM -0.2496
-3.3883 ALIGN -0.3002
-2.8655 ALL -0.2465
-3.5644 ALLOW -0.2494
-3.8655 ALTERNATE -0.3007
-3.8655 ALTERNATIVES -0.2496
-3.8655 ALWAYS -0.3006
-3.8655 AM -0.3006
-3.8655 AMAZON -0.2496
-3.8655 AMPLIFY -0.2997
-3.0873 AND -0.2984
-3.8655 ANGLE -0.3010
-3.5644 APACHE -0.2490
-3.8655 APP -0.3010
-3.8655 APPEND -0.2977
-3.8655 APPLICATION -0.2496
-3.8655 APPLICATIONS -0.2496
-2.9624 APT -0.2998
-3.8655 AQUARIUM -0.2496
-3.8655 ARCHIVE -0.2997
-3.2634 ARE -0.2490
-3.2634 ARENA -0.3004
-3.3883 ARMITAGE -0.2496
-3.1665 ARROW -0.2494
-3.8655 ARTICLE -0.3001
-3.8655 AS -0.2496
-3.8655 ASCI -0.3010
-3.8655 ASIDE -0.3001
-3.3883 ATOM -0.2496
-3.2634 ATTACK -0.2486
-3.5644 AUDACITY -0.2496
-3.3883 AUDIO -0.2494
-3.8655 AVAILABLE -0.2496
-3.8655 AWK -0.3009
-3.8655 B -0.2496
-3.1665 BACK -0.2494
-3.8655 BACKS -0.2496
-3.8655 BALL -0.2496
-3.8655 BANG -0.2496
-3.8655 BAR -0.2496
-3.3883 BASH -0.2488
-3.8655 BASIC -0.2496
-3.8655 BAUKE -0.2496
-3.8655 BAY -0.2496
-3.0873 BE -0.2492
-3.8655 BEFORE -0.2496
-3.8655 BELOW -0.2496
-3.8655 BEN -0.3010
-3.2634 BIN -0.2494
-3.3883 BIRD -0.2496
-3.8655 BLACKROCK -0.2496
-2.8655 BLADDER -0.2490
-3.8655 BLANK -0.2496
-3.8655 BLATHER -0.3009
-3.8655 BLIND -0.3004
-3.5644 BLOCK -0.2494
-3.8655 BOARD -0.2496
-3.8655 BOB -0.2496
-3.3883 BOLD -0.2496
-3.8655 BOOK -0.3009
-3.5644 BOOKS -0.2496
-3.8655 BORDER -0.3008
-3.8655 BORED -0.2496
-3.5644 BOX -0.2496
-3.8655 BRACKET -0.2997
-3.8655 BRAWL -0.2496
-2.7193 BRIGHTNESS -0.2984
-3.8655 BROWSER -0.3009
-3.3883 BUFFER -0.2496
-3.8655 BULLET -0.3009
-3.8655 BULLSHIT -0.2496
-3.0204 BUTTON -0.2496
-3.8655 BUY -0.3006
-3.8655 BY -0.3010
-2.8655 C -0.2488
-3.3883 CALCULATOR -0.2496
-3.8655 CAMEL -0.3010
-3.8655 CAN -0.3010
-3.5644 CANCEL -0.2495
-3.8655 CAPITALIZE -0.2997
-3.8655 CAPS -0.2997
-2.8655 CARD -0.2442
-3.0204 CARDS -0.2496
-3.8655 CASH -0.3003
-3.8655 CAT -0.2496
-3.8655 CATAPULT -0.2496
-3.8655 CD -0.3010
-3.3883 CEL -0.2496
-3.8655 CELL -0.3009
-3.1665 CENTER -0.2479
-3.8655 CHAN -0.2496
-3.8655 CHANGE -0.3007
-3.0873 CHAT -0.2495
-3.8655 CHECK -0.3009
-3.1665 CHOOSE -0.2457
-3.3883 CHROME -0.2496
-3.3883 CHROMIUM -0.2496
-3.8655 CITATION -0.3001
-3.8655 CITY -0.2496
-2.6894 CLASS -0.2481
-3.3883 CLASSIC -0.2492
-3.5644 CLEAN -0.3009
-3.8655 CLEAR -0.3003
-3.0873 CLICK -0.2491
-3.8655 CLIP -0.3010
-3.0204 CLOSE -0.2973
-3.8655 CLUB -0.2496
-3.2634 CODE -0.2496
-3.8655 COLLECTION -0.2496
-3.2634 COLON -0.2490
-3.8655 COLUMN -0.3010
-2.8655 COLUMNS -0.2496
-3.8655 COMMA -0.2496
-3.5644 COMMANDO -0.2496
-3.8655 COMMANDS -0.2496
-3.8655 COMMENT -0.2496
-3.8655 COMMIT -0.3004
-3.8655 COMPRESS -0.2997
-3.8655 COMPRESSION -0.3010
-3.5644 COMPUTER -0.2496
-3.5644 CONCEDE -0.2491
-2.9624 CONFIG -0.2481
-3.5644 CONFIRM -0.2496
-3.8655 CONFIRMATION -0.2496
-3.8655 CONSOLE -0.2496
-3.8655 CONTACTS -0.2496
-2.5037 CONTROL -0.2431
-2.8655 COPY -0.2443
-3.8655 CORPORATE -0.3010
-3.0873 COW -0.3005
-3.8655 CRAFTING -0.2496
-3.5644 CURRENT -0.3007
-3.5644 CURSOR -0.2496
-3.8655 CUT -0.2496
-3.0204 D -0.2483
-3.8655 DADS -0.3007
-3.8655 DANNY -0.2496
-3.5644 DATA -0.3001
-3.5644 DATE -0.2493
-3.8655 DAY -0.3006
-2.9112 DECK -0.2957
-3.8655 DECORATION -0.2496
-3.5644 DEFINITION -0.3009
-3.1665 DELETE -0.2469
-3.1665 DERR -0.2496
-3.8655 DESIGNATION -0.2496
-3.5644 DESKTOP -0.2496
-3.5644 DESKTOPS -0.2496
-3.8655 DIALOG -0.2496
-3.8655 DIAMOND -0.3010
-3.5644 DISENCHANT -0.2495
-3.3883 DISPLAY -0.3008
-3.8655 DIST -0.3009
-3.5644 DO -0.3005
-3.8655 DOCUMENT -0.3006
-3.8655 DOG -0.2496
-3.8655 DOLLAR -0.3010
-3.8655 DONT -0.3008
-3.8655 DOUBLE -0.3007
-3.0204 DOWN -0.2492
-3.8655 DOWNLOADS -0.2496
-3.8655 DROP -0.3004
-3.8655 DRUID -0.3001
-3.8655 DUMPERT -0.2496
-3.3883 E -0.2495
-3.3883 ECHO -0.3006
-3.2634 EDIT -0.2490
-3.5644 EE -0.3009
-3.8655 EFF -0.3003
-3.0204 EIGHT -0.2481
-3.8655 EIGHTY -0.2997
-3.8655 EL -0.2496
-3.1665 EMAIL -0.2493
-3.8655 EMOTE -0.2496
-3.8655 EMPTY -0.3009
-3.8655 ENABLED -0.2496
-3.3883 END -0.2495
-3.0873 ENEMY -0.2490
-3.5644 ENGINE -0.3006
-2.6613 ENTER -0.2480
-3.0204 EQUALS -0.2473
-3.5644 ESCAPE -0.2496
-3.8655 ET -0.3009
-3.3883 EVINCE -0.2496
-3.0204 EX -0.2486
-3.8655 EXCLAMATION -0.3009
-3.8655 EXIT -0.2496
-3.5644 EXPLORERS -0.2496
-3.3883 EXPRESSION -0.2496
-3.8655 EXTRA -0.3006
-3.5644 EYE -0.2495
-3.1665 F -0.2481
-2.9112 FACE -0.2478
-3.8655 FASTER -0.2496
-3.8655 FIBER -0.3007
-3.3883 FIELD -0.2496
-3.5644 FIFTY -0.2997
-2.7193 FILE -0.2483
-3.2634 FILES -0.2492
-2.6350 FILTER -0.2431
-3.8655 FIND -0.3006
-3.8655 FIRE -0.2496
-3.2634 FIREFOX -0.2494
-3.3883 FIRST -0.3005
-2.9624 FIVE -0.2481
-3.8655 FIX -0.3010
-3.8655 FLAT -0.3009
-3.8655 FLUFFIEST -0.2496
-3.8655 FM -0.2496
-3.8655 FOLDER -0.2496
-3.8655 FORMAT -0.3006
-3.5644 FORTUNE -0.2496
-3.5644 FORWARD -0.2496
-2.5230 FOUR -0.2468
-3.5644 FOURTY -0.2997
-3.8655 FRAME -0.2496
-3.8655 FRIENDS -0.2496
-3.8655 FROM -0.3006
-3.8655 FROWNEY -0.3005
-3.2634 FULL -0.3003
-3.8655 FUN -0.3006
-3.8655 FUNNY -0.2496
-3.8655 GAY -0.3008
-3.2634 GEANY -0.2493
-3.1665 GEE -0.3006
-3.2634 GET -0.2996
-3.0873 GIT -0.3004
-3.8655 GIVE -0.3005
-3.8655 GLADIS -0.2496
-3.8655 GLADOS -0.2496
-2.2634 GO -0.2973
-3.8655 GOBLINS -0.2496
-3.5644 GODS -0.2493
-3.8655 GOLDEN -0.3006
-3.8655 GOOD -0.3010
-3.8655 GOOGLE -0.2997
-3.8655 GRAB -0.3007
-3.5644 GRAND -0.3009
-3.8655 GREETINGS -0.2496
-3.8655 GRIN -0.3005
-2.7193 H -0.2486
-3.8655 HALF -0.3009
-3.8655 HASH -0.3006
-2.8655 HEADER -0.2462
-3.0873 HEARTHSTONE -0.2463
-3.8655 HELLO -0.2496
-3.8655 HELP -0.3006
-3.8655 HERE -0.2496
-2.5644 HERO -0.2412
-3.8655 HEROES -0.2496
-3.5644 HIGHLIGHTING -0.2496
-3.5644 HISTORY -0.2496
-3.8655 HOLD -0.2496
-3.5644 HOME -0.2493
-3.5644 HOOS -0.3008
-3.8655 HUGE -0.3010
-3.8655 HUNDERED -0.2997
-3.8655 HUNDRED -0.2997
-3.8655 HUNTER -0.3001
-3.2634 HYPERLINK -0.2496
-3.8655 HYPHENATE -0.2997
-2.9624 I -0.2486
-3.8655 ICON -0.2496
-3.8655 IK -0.3010
-3.8655 IM -0.3010
-3.3883 IMAGE -0.2484
-3.2634 IN -0.2494
-3.3883 INBOX -0.2496
-3.8655 INCLUDE -0.3010
-3.5644 INFO -0.2491
-3.8655 INLINE -0.2496
-2.7193 INSERT -0.2990
-3.5644 INSTALL -0.2496
-3.0204 IS -0.2484
-3.3883 IT -0.2494
-3.8655 ITALICIZE -0.2496
-3.5644 ITALICS -0.2496
-3.5644 ITEM -0.2486
-3.5644 JAVASCRIPT -0.3003
-3.8655 JUST -0.3009
-3.8655 K -0.2496
-3.8655 KEEP -0.2496
-3.2634 KEY -0.2480
-3.0873 KILL -0.2981
-2.9624 L -0.2479
-3.5644 LABEL -0.2496
-3.8655 LABELS -0.3004
-3.5644 LAST -0.2998
-3.8655 LATEX -0.3009
-3.8655 LAUNCHER -0.2496
-3.5644 LEAGUE -0.3000
-2.9624 LEFT -0.2487
-3.3883 LIBREOFFICE -0.2496
-3.3883 LINE -0.2494
-3.5644 LINES -0.2496
-3.5644 LINK -0.2458
-3.3883 LIST -0.3000
-3.8655 LISTENING -0.2496
-3.8655 LOCAL -0.3008
-3.5644 LOCATION -0.2496
-3.8655 LOCK -0.3009
-3.8655 LOG -0.3007
-3.8655 LOLCAT -0.2496
-3.8655 LOWER -0.3001
-3.8655 LOWERCASE -0.2496
-3.5644 M -0.2488
-3.8655 MAGE -0.3001
-3.3883 MAIL -0.2494
-3.0873 MAKE -0.3004
-3.8655 MAN -0.2496
-2.9624 MANA -0.2496
-3.1665 MANAGER -0.2496
-3.5644 MAP -0.2496
-3.8655 MARK -0.2496
-3.0873 MARKDOWN -0.2996
-3.8655 MATCH -0.2496
-3.8655 MATRIX -0.2496
-3.5644 MAX -0.2496
-3.8655 MAXIMIZE -0.3001
-3.8655 ME -0.2496
-2.9624 MENU -0.2496
-3.8655 MERGE -0.2496
-2.8241 META -0.2987
-3.8655 METAL -0.3008
-3.8655 MIDDLE -0.3007
-3.8655 MIN -0.2496
-3.8655 MINIMIZE -0.3001
-3.8655 MORNING -0.2496
-3.2634 MOUSE -0.3008
-2.6613 MOVE -0.2958
-3.3883 MUSIC -0.2489
-3.5644 MUTE -0.3009
-3.8655 MY -0.3010
-3.5644 N -0.2494
-3.2634 NAME -0.2496
-3.8655 NATURAL -0.3009
-3.8655 NET -0.3009
-3.8655 NETFLIX -0.2496
-3.5644 NEUTRAL -0.2997
-2.8655 NEW -0.2974
-3.0204 NEXT -0.2973
-3.8655 NICK -0.3008
-3.8655 NIGHT -0.3008
-3.1665 NINE -0.2489
-3.5644 NINETY -0.2997
-3.2634 NO -0.2494
-3.8655 NONE -0.2496
-3.8655 NORMAL -0.3010
-3.5644 NOTE -0.2496
-3.8655 NOTES -0.2496
-3.2634 O -0.2492
-3.8655 OEPS -0.2496
-2.6102 OF -0.2974
-3.8655 OFF -0.2496
-3.8655 OFFICE -0.3009
-3.5644 OLD -0.3009
-3.0204 ON -0.2984
-2.8241 ONE -0.2471
-3.0873 ONEKO -0.2493
-3.5644 ONLY -0.2996
-3.8655 OOPS -0.2496
-3.5644 OP -0.2496
-2.2422 OPEN -0.2906
-3.8655 OPTIMAL -0.3010
-3.8655 OPTIONS -0.2496
-3.5644 OUT -0.2496
-3.2634 P -0.2491
-3.2634 PACK -0.2496
-3.5644 PACKAGE -0.3002
-3.8655 PACKS -0.2496
-2.8241 PAGE -0.2479
-3.8655 PALADIN -0.3001
-3.8655 PANEL -0.2496
-3.5644 PARAGRAPH -0.3001
-3.8655 PASS -0.3000
-3.5644 PASTE -0.2496
-3.5644 PAUSE -0.2491
-3.8655 PERENTHESIZE -0.2997
-3.8655 PERFECT -0.2496
-3.8655 PERIOD -0.2496
-3.8655 PERMISSIONS -0.2496
-3.3883 PHONE -0.2495
-3.8655 PHOTO -0.3010
-3.8655 PHOTOS -0.2496
-3.5644 PID -0.2496
-3.8655 PING -0.3010
-3.0204 PLAY -0.2482
-3.8655 PLAYED -0.2496
-3.5644 POINT -0.2496
-3.5644 POPUP -0.2494
-3.8655 POST -0.3010
-3.3883 POWER -0.2478
-3.3883 PREFERENCES -0.2496
-3.5644 PREFORMATTED -0.2492
-2.5230 PRESS -0.2389
-3.8655 PRETTY -0.3009
-3.8655 PREVIEW -0.2496
-2.9624 PREVIOUS -0.2971
-3.8655 PRIEST -0.3001
-3.5644 PRINT -0.2997
-2.5230 PROCENT -0.2496
-3.8655 PROPERTIES -0.2496
-3.8655 PULL -0.2496
-3.5644 PUSH -0.2496
-3.5644 PUT -0.3009
-3.8655 Q -0.2496
-3.3883 QUA -0.3009
-3.8655 QUARTER -0.3009
-3.8655 QUESTION -0.3010
-3.8655 QUESTS -0.2496
-2.3603 QUIT -0.2394
-3.5644 QUOTE -0.2988
-3.8655 QUOTES -0.2496
-3.0873 R -0.3006
-2.9624 RADIO -0.2490
-3.8655 RAISE -0.3001
-3.8655 REBOOT -0.2496
-3.5644 RECENT -0.3003
-3.8655 RECIPIENT -0.2496
-3.5644 REF -0.2496
-3.8655 REFRESH -0.3004
-3.5644 REGION -0.2492
-3.8655 REMOVE -0.3008
-3.8655 REPEAT -0.3009
-3.8655 REPLACE -0.3004
-3.8655 REPLAY -0.3008
-3.8655 REPLY -0.2496
-3.8655 REPORT -0.2496
-3.2634 RESTART -0.3000
-3.8655 RESTORE -0.3001
-3.8655 RETURN -0.3008
-3.3883 RHYTHMBOX -0.2496
-2.8655 RIGHT -0.2487
-3.8655 ROCK -0.2496
-3.8655 ROGUE -0.3001
-3.8655 ROW -0.2496
-3.5644 RUDE -0.2496
-2.8241 S -0.2471
-3.5644 SAID -0.3007
-3.8655 SAKURA -0.2496
-3.2634 SAVE -0.2485
-3.5644 SAY -0.2496
-3.8655 SCHOOL -0.3000
-3.8655 SCOOBY -0.2496
-3.8655 SCORE -0.2496
-3.3883 SCREEN -0.2495
-3.0873 SCREENSHOT -0.2479
-3.5644 SCRIPT -0.3009
-3.5644 SCROLL -0.3001
-2.7863 SEARCH -0.2487
-3.5644 SECOND -0.3007
-3.5644 SECTION -0.3009
-3.8655 SED -0.3009
-3.3883 SEE -0.2494
-2.6613 SELECT -0.2974
-3.5644 SELECTION -0.2496
-3.8655 SELF -0.2496
-3.8655 SEMICOLON -0.2496
-3.8655 SEND -0.3007
-3.5644 SENT -0.3009
-3.0873 SENTENCE -0.2496
-3.5644 SET -0.3009
-3.0873 SEVEN -0.2484
-3.5644 SEVENTY -0.2997
-3.8655 SHAMAN -0.3001
-3.8655 SHARP -0.3009
-3.8655 SHE -0.3010
-3.0873 SHIFT -0.2991
-3.8655 SHOP -0.2496
-3.8655 SHOPPING -0.2496
-3.8655 SHORTEN -0.3006
-2.7863 SHOW -0.2995
-3.8655 SHUT -0.3005
-3.5644 SIDE -0.2496
-3.8655 SIGN -0.2496
-3.5644 SING -0.3009
-3.8655 SINGING -0.2496
-3.3883 SINK -0.2496
-3.5644 SITE -0.2492
-3.5644 SITES -0.3009
-3.0204 SIX -0.2484
-3.5644 SIXTY -0.2997
-3.5644 SIZE -0.2496
-3.8655 SLAM -0.3010
-3.8655 SLASH -0.3010
-3.8655 SLEEP -0.3010
-3.8655 SMART -0.3010
-3.8655 SMILEY -0.3005
-3.8655 SO -0.3010
-3.5644 SOFTWARE -0.3006
-3.8655 SOLO -0.3006
-3.8655 SORT -0.2997
-3.5644 SOUND -0.2496
-3.5644 SPACE -0.2495
-3.2634 SPACES -0.2458
-3.8655 SPACING -0.2496
-3.5644 SPAN -0.2480
-3.8655 SPANDEX -0.2496
-3.3883 SPEAK -0.2480
-3.8655 SPEAKING -0.2496
-3.5644 SPECIALTY -0.3000
-3.8655 SPECIFICATIONS -0.2496
-3.8655 SPECS -0.2496
-3.8655 SPEED -0.2496
-3.8655 SPLIT -0.3009
-3.8655 STANDARD -0.2496
-3.8655 STAR -0.3010
-3.8655 START -0.3009
-3.8655 STATE -0.3009
-3.5644 STATUS -0.2495
-3.2634 STOP -0.3003
-3.8655 STREET -0.2496
-3.8655 SUBJECT -0.2496
-3.5644 SUDO -0.2494
-3.5644 SUPER -0.2493
-3.8655 SUPERSCRIPT -0.2496
-3.1665 SWAP -0.2970
-3.2634 SWITCH -0.2995
-3.3883 SYMBOL -0.2496
-3.8655 SYNAPTIC -0.2496
-3.5644 SYNC -0.3004
-3.3883 SYSTEM -0.2489
-2.7863 T -0.2986
-2.6613 TAB -0.2432
-3.2634 TABLE -0.2994
-3.0204 TAG -0.2496
-2.6894 TAGS -0.2496
-3.0873 TAKE -0.3007
-3.8655 TARGET -0.3006
-3.8655 TAVERN -0.3010
-3.3883 TEE -0.3009
-3.8655 TEMPLATE -0.2496
-3.1665 TEN -0.2473
-3.8655 TERM -0.3001
-3.3883 TERMINAL -0.2496
-3.3883 TERMINATOR -0.2496
-3.8655 TEST -0.2496
-3.8655 TESTING -0.3009
-3.1665 TEXT -0.2489
-3.8655 THANK -0.3006
-3.8655 THANKS -0.2496
-3.1665 THAT -0.2488
-3.5644 THATS -0.3009
-3.2634 THE -0.3006
-3.1665 THINK -0.2494
-3.5644 THIRTY -0.2997
-2.5037 THIS -0.2477
-3.8655 THREATHEN -0.2496
-2.8241 THREE -0.2471
-3.0873 THUNDERBIRD -0.2494
-3.8655 TILDE -0.2496
-3.8655 TIME -0.3006
-3.8655 TIMER -0.2496
-3.5644 TITLE -0.2491
-2.1173 TO -0.2882
-3.8655 TODAYS -0.3009
-3.8655 TODO -0.2496
-3.2634 TOILET -0.2496
-3.8655 TOOL -0.3008
-3.8655 TOOLS -0.3006
-3.3883 TOP -0.2491
-3.8655 TORA -0.2496
-3.5644 TOURNAMENT -0.2493
-3.2634 TRACK -0.2496
-3.3883 TRACKER -0.2496
-3.5644 TRANSFER -0.3007
-3.5644 TRASH -0.2496
-3.8655 TRUE -0.2496
-3.8655 TUBE -0.2496
-3.8655 TURN -0.2496
-3.5644 TWENTY -0.2997
-3.8655 TWITCH -0.2496
-2.7515 TWO -0.2471
-3.8655 TYPE -0.2496
-3.8655 U -0.3003
-3.8655 UN -0.3009
-3.8655 UNCRAFTABLE -0.3006
-3.8655 UNDERSCORES -0.2496
-3.8655 UNDO -0.2496
-3.8655 UNFORMATTED -0.3009
-3.3883 UNISON -0.2496
-3.8655 UNORDERED -0.3009
-3.5644 UNREAD -0.2496
-2.9112 UP -0.2492
-2.9112 UPDATE -0.2477
-3.8655 UPDATES -0.2496
-3.3883 UPGRADE -0.2496
-3.8655 UPPERCASE -0.2496
-3.5644 USER -0.3007
-3.8655 USERNAME -0.3009
-2.9624 V -0.2475
-3.8655 VALUES -0.2496
-3.8655 VERBATIM -0.3008
-3.8655 VIDEO -0.2496
-3.8655 VIDEOS -0.2496
-3.8655 VIEW -0.3006
-3.2634 VOCAL -0.2496
-3.8655 VOICE -0.2496
-2.6613 VOLUME -0.2461
-3.3883 W -0.2496
-3.8655 WARLOCK -0.3001
-3.8655 WARRIOR -0.3001
-3.8655 WARS -0.2496
-3.8655 WE -0.3009
-3.5644 WEB -0.3001
-3.8655 WEBSERVER -0.3010
-3.8655 WELL -0.3010
-3.8655 WHADDAYA -0.3007
-3.2634 WHAT -0.3007
-3.8655 WHATS -0.3010
-3.5644 WHEEL -0.3001
-3.8655 WHISPERS -0.3000
-3.2634 WHO -0.3003
-3.8655 WHOOPS -0.2496
-3.8655 WIDTH -0.2496
-3.8655 WILD -0.2496
-2.6613 WINDOW -0.2453
-3.2634 WINDOWS -0.2484
-3.8655 WITH -0.3009
-3.0873 WORD -0.2496
-3.8655 WORK -0.3007
-2.6613 WORKSPACE -0.2433
-3.8655 WOW -0.2496
-3.8655 WRITE -0.3007
-3.3883 WRITER -0.2496
-3.0204 X -0.2484
-3.3883 YANK -0.2972
-3.8655 YES -0.2496
-2.9624 YOU -0.2486
-3.5644 YOUR -0.3009
-3.8655 YOUTUBE -0.3009
-3.8655 ZEE -0.3009
-3.1665 ZERO -0.2475
-3.3883 ZILLA -0.2496
-3.8655 ZIP -0.2496
-3.5644 ZOOM -0.3007

\2-grams:
-0.3010 3FM </s> -0.3010
-0.3010 538 </s> -0.3010
-3.2148 <s> AA 0.0000
-2.9138 <s> ADD -0.1249
-3.2148 <s> ADDRESS -0.2218
-3.2148 <s> ADVENTURE 0.0000
-3.2148 <s> ALIGN -0.2218
-3.2148 <s> ALTERNATE 0.0000
-3.2148 <s> ALWAYS 0.0000
-3.2148 <s> AMPLIFY 0.0000
-3.2148 <s> ANGLE 0.0000
-3.2148 <s> APACHE -0.1761
-3.2148 <s> APP 0.0000
-3.2148 <s> APPEND 0.0000
-2.3118 <s> APT 0.0000
-3.2148 <s> ARCHIVE 0.0000
-3.2148 <s> ARE -0.1761
-3.2148 <s> ARENA -0.2430
-3.2148 <s> ARTICLE 0.0000
-3.2148 <s> ASCI 0.0000
-3.2148 <s> ASIDE 0.0000
-2.9138 <s> ATTACK -0.0969
-3.2148 <s> AUDIO -0.1249
-2.9138 <s> BACK 0.0000
-2.9138 <s> BASH -0.1249
-3.2148 <s> BE -0.1761
-3.2148 <s> BIN -0.2430
-3.2148 <s> BLACKROCK 0.0000
-3.2148 <s> BLADDER -0.2041
-3.2148 <s> BLATHER 0.0000
-3.2148 <s> BLIND 0.0000
-3.2148 <s> BLOCK -0.1761
-3.2148 <s> BORDER 0.0000
-2.0687 <s> BRIGHTNESS -0.0000
-3.2148 <s> BROWSER 0.0000
-3.2148 <s> BUY 0.0000
-2.9138 <s> C -0.2041
-3.2148 <s> CAMEL 0.0000
-2.9138 <s> CANCEL 0.0000
-3.2148 <s> CAPITALIZE 0.0000
-2.3697 <s> CARD -0.1139
-3.2148 <s> CARDS 0.0000
-3.2148 <s> CATAPULT 0.0000
-3.2148 <s> CD 0.0000
-2.9138 <s> CENTER -0.2041
-3.2148 <s> CHANGE 0.0000
-3.2148 <s> CHECK 0.0000
-2.5159 <s> CHOOSE 0.0000
-3.2148 <s> CITATION 0.0000
-2.6128 <s> CLASS -0.2389
-3.2148 <s> CLASSIC -0.2218
-3.2148 <s> CLEAN 0.0000
-3.2148 <s> CLEAR 0.0000
-2.9138 <s> CLICK -0.2218
-2.3697 <s> CLOSE -0.0000
-2.6128 <s> COLON 0.0000
-3.2148 <s> COMMA 0.0000
-3.2148 <s> COMPRESS 0.0000
-3.2148 <s> COMPRESSION 0.0000
-2.9138 <s> CONCEDE 0.0000
-3.2148 <s> CONFIG -0.2730
-3.2148 <s> CONFIRM 0.0000
-1.8926 <s> CONTROL -0.0362
-2.4367 <s> COPY 0.0000
-3.2148 <s> CORPORATE 0.0000
-2.9138 <s> COW -0.0669
-3.2148 <s> CRAFTING 0.0000
-3.2148 <s> CUT 0.0000
-3.2148 <s> D -0.1549
-2.2606 <s> DECK 0.0000
-2.9138 <s> DEFINITION 0.0000
-2.6128 <s> DELETE -0.0792
-2.9138 <s> DISENCHANT 0.0000
-2.7377 <s> DISPLAY 0.0000
-3.2148 <s> DOCUMENT 0.0000
-3.2148 <s> DONT 0.0000
-3.2148 <s> DOUBLE 0.0000
-3.2148 <s> DOWN -0.2688
-3.2148 <s> DOWNLOADS 0.0000
-3.2148 <s> DROP 0.0000
-3.2148 <s> DRUID 0.0000
-2.7377 <s> ECHO 0.0000
-3.2148 <s> EDIT -0.2430
-2.9138 <s> EIGHT -0.2341
-3.2148 <s> EMAIL -0.2553
-3.2148 <s> EMOTE 0.0000
-3.2148 <s> EMPTY 0.0000
-3.2148 <s> END -0.2218
-2.9138 <s> ENEMY 0.0000
-3.2148 <s> ENGINE 0.0000
-2.0687 <s> ENTER -0.0512
-3.2148 <s> EQUALS -0.2688
-3.2148 <s> ESCAPE 0.0000
-3.2148 <s> EX -0.1091
-3.2148 <s> EXCLAMATION 0.0000
-3.2148 <s> EXIT 0.0000
-2.9138 <s> FACE -0.2499
-2.7377 <s> FILE -0.2518
-2.0107 <s> FILTER -0.0248
-3.2148 <s> FIND 0.0000
-3.2148 <s> FIREFOX -0.2430
-2.9138 <s> FIRST -0.1249
-2.9138 <s> FIVE -0.2430
-3.2148 <s> FIX 0.0000
-3.2148 <s> FLAT 0.0000
-3.2148 <s> FORMAT 0.0000
-2.9138 <s> FOUR -0.2808
-3.2148 <s> FRIENDS 0.0000
-3.2148 <s> FROWNEY 0.0000
-2.9138 <s> FULL -0.1761
-3.2148 <s> GAY 0.0000
-2.7377 <s> GET -0.0969
-2.4367 <s> GIT 0.0000
-3.2148 <s> GIVE 0.0000
-1.6128 <s> GO 0.0000
-3.2148 <s> GOOD 0.0000
-3.2148 <s> GOOGLE 0.0000
-3.2148 <s> GRAB 0.0000
-3.2148 <s> GRAND 0.0000
-3.2148 <s> GREETINGS 0.0000
-2.1735 <s> H -0.0843
-3.2148 <s> HALF 0.0000
-3.2148 <s> HASH 0.0000
-2.7377 <s> HEARTHSTONE -0.1761
-3.2148 <s> HELLO 0.0000
-3.2148 <s> HELP 0.0000
-2.3697 <s> HERO -0.1903
-3.2148 <s> HEROES 0.0000
-3.2148 <s> HOME -0.1761
-2.9138 <s> HOOS 0.0000
-3.2148 <s> HUGE 0.0000
-3.2148 <s> HUNTER 0.0000
-3.2148 <s> HYPHENATE 0.0000
-3.2148 <s> I -0.2730
-3.2148 <s> IK 0.0000
-2.9138 <s> IMAGE -0.1249
-3.2148 <s> IN -0.2430
-3.2148 <s> INCLUDE 0.0000
-3.2148 <s> INFO -0.1761
-2.0687 <s> INSERT -0.0000
-2.9138 <s> IS -0.2341
-3.2148 <s> ITALICIZE 0.0000
-3.2148 <s> JAVASCRIPT -0.1761
-2.4367 <s> KILL 0.0000
-3.2148 <s> L -0.2730
-3.2148 <s> LABELS 0.0000
-3.2148 <s> LATEX 0.0000
-3.2148 <s> LEAGUE 0.0000
-2.9138 <s> LEFT -0.2430
-3.2148 <s> LINK -0.1761
-3.2148 <s> LIST -0.1249
-3.2148 <s> LOCK 0.0000
-3.2148 <s> LOWER 0.0000
-3.2148 <s> M -0.1761
-3.2148 <s> MAGE 0.0000
-2.4367 <s> MAKE 0.0000
-2.4367 <s> MARKDOWN 0.0000
-3.2148 <s> MAXIMIZE 0.0000
-2.1735 <s> META 0.0000
-3.2148 <s> METAL 0.0000
-3.2148 <s> MIDDLE 0.0000
-3.2148 <s> MINIMIZE 0.0000
-2.9138 <s> MOUSE -0.1761
-2.0107 <s> MOVE 0.0000
-3.2148 <s> MUTE 0.0000
-3.2148 <s> MY 0.0000
-3.2148 <s> N -0.1761
-3.2148 <s> NATURAL 0.0000
-3.2148 <s> NET 0.0000
-2.9138 <s> NEUTRAL 0.0000
-2.2148 <s> NEW 0.0000
-2.3697 <s> NEXT -0.0000
-3.2148 <s> NINE -0.2553
-2.7377 <s> NO -0.0969
-3.2148 <s> NORMAL 0.0000
-3.2148 <s> OEPS 0.0000
-3.2148 <s> ONE -0.2808
-2.6128 <s> ONEKO -0.1249
-3.2148 <s> OOPS 0.0000
-1.6021 <s> OPEN -0.0102
-3.2148 <s> OPTIMAL 0.0000
-2.9138 <s> PACKAGE 0.0000
-2.6128 <s> PAGE -0.2139
-3.2148 <s> PALADIN 0.0000
-2.9138 <s> PARAGRAPH 0.0000
-3.2148 <s> PASS 0.0000
-3.2148 <s> PASTE 0.0000
-3.2148 <s> PAUSE -0.1761
-3.2148 <s> PERENTHESIZE 0.0000
-3.2148 <s> PERFECT 0.0000
-3.2148 <s> PERIOD 0.0000
-3.2148 <s> PHOTO 0.0000
-3.2148 <s> PING 0.0000
-2.5159 <s> PLAY -0.0580
-3.2148 <s> POPUP -0.1761
-3.2148 <s> POST 0.0000
-3.2148 <s> PREFORMATTED -0.1761
-1.8926 <s> PRESS -0.0193
-2.4367 <s> PREVIOUS -0.0969
-3.2148 <s> PRIEST 0.0000
-3.2148 <s> PRINT -0.1761
-2.9138 <s> PUT 0.0000
-3.2148 <s> QUARTER 0.0000
-3.2148 <s> QUESTION 0.0000
-3.2148 <s> QUESTS 0.0000
-1.7235 <s> QUIT -0.0134
-3.2148 <s> QUOTE -0.1761
-2.5159 <s> RADIO -0.1383
-3.2148 <s> RAISE 0.0000
-3.2148 <s> REBOOT 0.0000
-2.9138 <s> RECENT 0.0000
-3.2148 <s> REFRESH 0.0000
-3.2148 <s> REMOVE 0.0000
-3.2148 <s> REPEAT 0.0000
-3.2148 <s> REPLACE 0.0000
-3.2148 <s> REPLAY 0.0000
-2.6128 <s> RESTART 0.0000
-3.2148 <s> RESTORE 0.0000
-2.9138 <s> RIGHT -0.2553
-3.2148 <s> ROGUE 0.0000
-3.2148 <s> S -0.2808
-2.7377 <s> SAVE -0.0969
-3.2148 <s> SCHOOL 0.0000
-3.2148 <s> SCREEN -0.2218
-2.9138 <s> SCROLL 0.0000
-2.3118 <s> SEARCH 0.0000
-2.9138 <s> SECOND 0.0000
-3.2148 <s> SECTION 0.0000
-2.9138 <s> SEE -0.1249
-2.0107 <s> SELECT 0.0000
-3.2148 <s> SEMICOLON 0.0000
-3.2148 <s> SEND 0.0000
-2.9138 <s> SET 0.0000
-3.2148 <s> SEVEN -0.2632
-3.2148 <s> SHAMAN 0.0000
-3.2148 <s> SHARP 0.0000
-3.2148 <s> SHE 0.0000
-3.2148 <s> SHOP 0.0000
-3.2148 <s> SHORTEN 0.0000
-2.1357 <s> SHOW 0.0000
-3.2148 <s> SHUT 0.0000
-2.9138 <s> SING 0.0000
-3.2148 <s> SITE -0.1761
-2.9138 <s> SITES 0.0000
-3.2148 <s> SIX -0.2688
-3.2148 <s> SLASH 0.0000
-3.2148 <s> SMART 0.0000
-3.2148 <s> SMILEY 0.0000
-2.9138 <s> SOFTWARE 0.0000
-3.2148 <s> SOLO 0.0000
-3.2148 <s> SORT 0.0000
-3.2148 <s> SPACE -0.1761
-3.2148 <s> SPACES -0.2430
-3.2148 <s> SPAN -0.1761
-3.2148 <s> SPANDEX 0.0000
-3.2148 <s> SPEAK -0.2218
-2.9138 <s> SPECIALTY 0.0000
-3.2148 <s> SPLIT 0.0000
-3.2148 <s> STAR 0.0000
-3.2148 <s> START 0.0000
-3.2148 <s> STATE 0.0000
-3.2148 <s> STATUS -0.1761
-2.6128 <s> STOP 0.0000
-2.9138 <s> SUDO 0.0000
-3.2148 <s> SUPER -0.1761
-2.5159 <s> SWAP 0.0000
-2.7377 <s> SWITCH 0.0000
-3.2148 <s> SYNAPTIC 0.0000
-2.9138 <s> SYNC 0.0000
-2.9138 <s> SYSTEM -0.1249
-2.2148 <s> TAB -0.1383
-2.7377 <s> TABLE -0.0969
-2.4367 <s> TAKE 0.0000
-3.2148 <s> TARGET 0.0000
-3.2148 <s> TAVERN 0.0000
-3.2148 <s> TEN -0.2553
-3.2148 <s> TESTING 0.0000
-2.9138 <s> TEXT -0.2041
-3.2148 <s> THANK 0.0000
-3.2148 <s> THANKS 0.0000
-2.9138 <s> THATS 0.0000
-3.2148 <s> THREATHEN 0.0000
-3.2148 <s> THREE -0.2808
-2.9138 <s> THUNDERBIRD -0.2218
-3.2148 <s> TILDE 0.0000
-3.2148 <s> TITLE -0.1761
-3.2148 <s> TOILET 0.0000
-3.2148 <s> TOOLS 0.0000
-3.2148 <s> TOP -0.2218
-2.9138 <s> TRANSFER 0.0000
-3.2148 <s> TWO -0.2840
-3.2148 <s> U 0.0000
-3.2148 <s> UN 0.0000
-3.2148 <s> UNDO 0.0000
-3.2148 <s> UNFORMATTED 0.0000
-3.2148 <s> UNORDERED 0.0000
-3.2148 <s> UP -0.2762
-2.4367 <s> UPDATE -0.1249
-2.9138 <s> USER 0.0000
-3.2148 <s> USERNAME 0.0000
-3.2148 <s> VERBATIM 0.0000
-3.2148 <s> VIEW 0.0000
-2.1357 <s> VOLUME -0.0969
-3.2148 <s> WARLOCK 0.0000
-3.2148 <s> WARRIOR 0.0000
-3.2148 <s> WEB -0.1761
-3.2148 <s> WEBSERVER 0.0000
-3.2148 <s> WELL 0.0000
-3.2148 <s> WHADDAYA 0.0000
-2.6128 <s> WHAT 0.0000
-3.2148 <s> WHATS 0.0000
-3.2148 <s> WHISPERS 0.0000
-2.7377 <s> WHO 0.0000
-3.2148 <s> WHOOPS 0.0000
-2.5159 <s> WORKSPACE -0.1383
-3.2148 <s> WOW 0.0000
-3.2148 <s> WRITE 0.0000
-2.4367 <s> X -0.0580
-2.7377 <s> YANK 0.0000
-2.9138 <s> YOU -0.2430
-3.2148 <s> YOUR -0.1761
-3.2148 <s> YOUTUBE 0.0000
-3.2148 <s> ZEE 0.0000
-2.9138 <s> ZOOM 0.0000
-0.3010 A </s> -0.3010
-0.3010 AA FIRE 0.0000
-0.3010 ABOVE </s> -0.3010
-0.7782 ADD </s> -0.3010
-0.7782 ADD CONFIRM 0.0000
-0.7782 ADD CONFIRMATION 0.0000
-0.4771 ADDRESS </s> -0.3010
-0.7782 ADDRESS FIELD 0.0000
-0.3010 ADVENTURE </s> -0.3010
-0.6021 AFTER </s> -0.3010
-0.6021 AFTER ME 0.0000
-0.3010 AIGHTY PROCENT 0.0000
-0.3010 ALARM </s> -0.3010
-0.7782 ALIGN CENTER -0.2553
-0.7782 ALIGN LEFT -0.1383
-0.7782 ALIGN WITH 0.0000
-0.8239 ALL </s> -0.3010
-1.0000 ALL DESKTOPS 0.0000
-1.0000 ALL FOUR -0.1047
-1.3010 ALL UNREAD 0.0000
-1.3010 ALL WINDOWS -0.1761
-1.3010 ALL WORKSPACE -0.2730
-0.6021 ALLOW </s> -0.3010
-0.6021 ALLOW TOP -0.2218
-0.3010 ALTERNATE TEXT -0.2553
-0.3010 ALTERNATIVES </s> -0.3010
-0.3010 ALWAYS ON -0.2688
-0.3010 AM I -0.2109
-0.3010 AMAZON </s> -0.3010
-0.3010 AMPLIFY THIS -0.1007
-0.6021 AND COPY -0.1761
-1.0792 AND HOLD 0.0000
-1.0792 AND QUIT -0.2942
-1.0792 AND UPDATES 0.0000
-0.3010 ANGLE BRACKET 0.0000
-0.6021 APACHE </s> -0.3010
-0.6021 APACHE CONFIG -0.2109
-0.3010 APP LAUNCHER 0.0000
-0.3010 APPEND TO -0.2971
-0.3010 APPLICATION </s> -0.3010
-0.3010 APPLICATIONS </s> -0.3010
-1.2041 APT CASH 0.0000
-1.2041 APT DIST 0.0000
-1.2041 APT GET -0.2430
-1.2041 APT INSTALL 0.0000
-0.9031 APT UPDATE -0.2218
-0.9031 APT UPGRADE 0.0000
-0.3010 AQUARIUM </s> -0.3010
-0.3010 ARCHIVE THIS -0.1007
-0.9031 ARE </s> -0.3010
-0.9031 ARE EL 0.0000
-0.6021 ARE YOU -0.2109
-0.9031 ARENA BUTTON 0.0000
-0.4260 ARENA TRACKER 0.0000
-0.3010 ARMITAGE </s> -0.3010
-0.3979 ARROW </s> -0.3010
-1.0000 ARROW CLASSIC -0.2218
-0.3010 ARTICLE TAGS 0.0000
-0.3010 AS </s> -0.3010
-0.3010 ASCI AQUARIUM 0.0000
-0.3010 ASIDE TAGS 0.0000
-0.3010 ATOM </s> -0.3010
-0.9031 ATTACK </s> -0.3010
-0.6021 ATTACK ENEMY 0.0000
-0.9031 ATTACK FACE -0.0872
-0.3010 AUDACITY </s> -0.3010
-0.7782 AUDIO </s> -0.3010
-0.4771 AUDIO BOOKS 0.0000
-0.3010 AVAILABLE </s> -0.3010
-0.3010 AWK EXPRESSION 0.0000
-0.3010 B </s> -0.3010
-0.3979 BACK </s> -0.3010
-1.0000 BACK SPACE -0.1761
-0.3010 BACKS </s> -0.3010
-0.3010 BALL </s> -0.3010
-0.3010 BANG </s> -0.3010
-0.3010 BAR </s> -0.3010
-0.7782 BASH </s> -0.3010
-0.7782 BASH HEADER -0.1461
-0.7782 BASH LOLCAT 0.0000
-0.3010 BASIC </s> -0.3010
-0.3010 BAUKE </s> -0.3010
-0.3010 BAY </s> -0.3010
-0.6021 BE </s> -0.3010
-0.6021 BE BE -0.1761
-0.3010 BEFORE </s> -0.3010
-0.3010 BELOW </s> -0.3010
-0.3010 BEN BAUKE 0.0000
-0.4260 BIN </s> -0.3010
-0.9031 BIN BASH -0.2218
-0.3010 BIRD </s> -0.3010
-0.3010 BLACKROCK </s> -0.3010
-0.6021 BLADDER </s> -0.3010
-0.6990 BLADDER CONFIG -0.0512
-1.3010 BLADDER FOLDER 0.0000
-0.3010 BLANK </s> -0.3010
-0.3010 BLATHER HISTORY 0.0000
-0.3010 BLIND COPY -0.1761
-0.6021 BLOCK </s> -0.3010
-0.6021 BLOCK QUOTE -0.1761
-0.3010 BOARD </s> -0.3010
-0.3010 BOB </s> -0.3010
-0.3010 BOLD </s> -0.3010
-0.3010 BOOK TITLE -0.1761
-0.3010 BOOKS </s> -0.3010
-0.3010 BORDER TOILET 0.0000
-0.3010 BORED </s> -0.3010
-0.3010 BOX </s> -0.3010
-0.3010 BRACKET THIS -0.1007
-0.3010 BRAWL </s> -0.3010
-1.4472 BRIGHTNESS DOWN -0.0580
-1.4472 BRIGHTNESS EIGHTY 0.0000
-1.4472 BRIGHTNESS FIFTY 0.0000
-1.4472 BRIGHTNESS FOURTY 0.0000
-1.4472 BRIGHTNESS HUNDRED 0.0000
-1.4472 BRIGHTNESS MAX 0.0000
-1.4472 BRIGHTNESS NINETY 0.0000
-1.4472 BRIGHTNESS SEVENTY 0.0000
-1.4472 BRIGHTNESS SIXTY 0.0000
-1.4472 BRIGHTNESS TEN -0.2041
-1.4472 BRIGHTNESS THIRTY 0.0000
-1.4472 BRIGHTNESS TWENTY 0.0000
-1.4472 BRIGHTNESS UP -0.0458
-1.4472 BRIGHTNESS ZERO -0.2041
-0.3010 BROWSER HISTORY 0.0000
-0.3010 BUFFER </s> -0.3010
-0.3010 BULLET POINT 0.0000
-0.3010 BULLSHIT </s> -0.3010
-0.3010 BUTTON </s> -0.3010
-0.3010 BUY BUTTON 0.0000
-0.3010 BY DANNY 0.0000
-0.5229 C </s> -0.3010
-0.6990 C S -0.2139
-0.3010 CALCULATOR </s> -0.3010
-0.3010 CAMEL CAPS 0.0000
-0.3010 CAN WE 0.0000
-0.6021 CANCEL </s> -0.3010
-0.6021 CANCEL MATCH 0.0000
-0.3010 CAPITALIZE THIS -0.1007
-0.3010 CAPS THIS -0.1007
-1.0000 CARD </s> -0.3010
-1.3010 CARD BACKS 0.0000
-1.3010 CARD FIVE -0.1383
-1.3010 CARD FOUR -0.1047
-1.3010 CARD ON -0.2688
-1.3010 CARD ONE -0.1347
-1.3010 CARD SIX -0.1091
-1.3010 CARD THREE -0.1347
-1.3010 CARD TWO -0.1165
-0.3010 CARDS </s> -0.3010
-0.3010 CASH SEARCH -0.1996
-0.3010 CAT </s> -0.3010
-0.3010 CATAPULT </s> -0.3010
-0.3010 CD MIN 0.0000
-0.3010 CEL </s> -0.3010
-0.3010 CELL PHONE -0.1249
-1.0000 CENTER </s> -0.3010
-1.0000 CENTER CURSOR 0.0000
-0.6990 CENTER TAG 0.0000
-1.0000 CENTER TAGS 0.0000
-0.3010 CHAN </s> -0.3010
-0.3010 CHANGE WORD 0.0000
-0.3802 CHAT </s> -0.3010
-1.0792 CHAT REPLY 0.0000
-0.3010 CHECK MAIL -0.1249
-1.0000 CHOOSE </s> -0.3010
-1.0000 CHOOSE FOUR -0.2808
-1.0000 CHOOSE ONE -0.2596
-1.0000 CHOOSE THREE -0.2596
-1.0000 CHOOSE TWO -0.2663
-0.3010 CHROME </s> -0.3010
-0.3010 CHROMIUM </s> -0.3010
-0.3010 CITATION TAGS 0.0000
-0.3010 CITY </s> -0.3010
-0.4357 CLASS </s> -0.3010
-1.4771 CLASS CARDS 0.0000
-1.1761 CLASS EQUALS -0.1091
-1.4771 CLASS IS -0.2688
-0.7782 CLASSIC </s> -0.3010
-0.7782 CLASSIC PACK 0.0000
-0.7782 CLASSIC ROCK 0.0000
-0.3010 CLEAN COMPUTER 0.0000
-0.3010 CLEAR SEARCH -0.1996
-0.4771 CLICK </s> -0.3010
-1.0792 CLICK AND -0.2632
-1.0792 CLICK HERE 0.0000
-0.3010 CLIP BOARD 0.0000
-1.1461 CLOSE CENTER -0.2041
-1.1461 CLOSE D -0.1549
-1.1461 CLOSE DIALOG 0.0000
-1.1461 CLOSE H -0.2688
-1.1461 CLOSE P -0.1761
-1.1461 CLOSE TAB -0.2109
-1.1461 CLOSE WINDOW -0.1181
-0.3010 CLUB </s> -0.3010
-0.3010 CODE </s> -0.3010
-0.3010 COLLECTION </s> -0.3010
-0.9031 COLON </s> -0.3010
-0.9031 COLON DOLLAR 0.0000
-0.9031 COLON W 0.0000
-0.9031 COLON ZERO -0.2041
-0.3010 COLUMN WIDTH 0.0000
-0.3010 COLUMNS </s> -0.3010
-0.3010 COMMA </s> -0.3010
-0.3010 COMMANDO </s> -0.3010
-0.3010 COMMANDS </s> -0.3010
-0.3010 COMMENT </s> -0.3010
-0.3010 COMMIT ALL -0.2304
-0.3010 COMPRESS THIS -0.1007
-0.3010 COMPRESSION VALUES 0.0000
-0.3010 COMPUTER </s> -0.3010
-0.6021 CONCEDE </s> -0.3010
-0.6021 CONCEDE BUTTON 0.0000
-0.7270 CONFIG </s> -0.3010
-0.7270 CONFIG DERR 0.0000
-1.2041 CONFIG FILE -0.2341
-1.2041 CONFIG HIGHLIGHTING 0.0000
-0.3010 CONFIRM </s> -0.3010
-0.3010 CONFIRMATION </s> -0.3010
-0.3010 CONSOLE </s> -0.3010
-0.3010 CONTACTS </s> -0.3010
-1.3617 CONTROL </s> -0.3010
-1.6628 CONTROL A 0.0000
-1.6628 CONTROL ARE -0.2430
-1.6628 CONTROL B 0.0000
-1.6628 CONTROL C -0.1461
-1.6628 CONTROL D -0.2688
-1.6628 CONTROL E -0.1249
-1.6628 CONTROL ENTER -0.2730
-1.6628 CONTROL F -0.2041
-1.6628 CONTROL H -0.2852
-1.6628 CONTROL I -0.2109
-1.6628 CONTROL IN -0.0969
-1.6628 CONTROL K 0.0000
-1.6628 CONTROL L -0.2109
-1.6628 CONTROL O -0.1761
-1.6628 CONTROL P -0.1761
-0.8846 CONTROL SHIFT 0.0000
-0.6021 COPY </s> -0.3010
-1.3010 COPY THIS -0.2615
-0.6990 COPY TO -0.2771
-0.3010 CORPORATE BULLSHIT 0.0000
-1.0792 COW FORTUNE 0.0000
-0.7782 COW SAY 0.0000
-0.6021 COW THINK 0.0000
-0.3010 CRAFTING </s> -0.3010
-0.6021 CURRENT DESKTOP 0.0000
-0.6021 CURRENT LINE -0.2218
-0.3010 CURSOR </s> -0.3010
-0.3010 CUT </s> -0.3010
-1.1461 D </s> -0.3010
-1.1461 D EQUALS -0.1549
-0.5441 D I -0.1761
-1.1461 D O -0.2430
-0.3010 DADS EMAIL -0.0792
-0.3010 DANNY </s> -0.3010
-0.3010 DATA TAGS 0.0000
-0.6021 DATE </s> -0.3010
-0.6021 DATE CODE 0.0000
-0.3010 DAY IS -0.2341
-1.2553 DECK EIGHT -0.1549
-1.2553 DECK FIVE -0.1383
-1.2553 DECK FOUR -0.1047
-1.2553 DECK NINE -0.0792
-1.2553 DECK ONE -0.1347
-1.2553 DECK SEVEN -0.1249
-1.2553 DECK SIX -0.1091
-1.2553 DECK THREE -0.1347
-1.2553 DECK TWO -0.1165
-0.3010 DECORATION </s> -0.3010
-0.6021 DEFINITION DATA 0.0000
-0.6021 DEFINITION TERM 0.0000
-1.0000 DELETE </s> -0.3010
-1.0000 DELETE LINES 0.0000
-1.0000 DELETE PREVIOUS -0.2430
-1.0000 DELETE THIS -0.2615
-1.0000 DELETE WORD 0.0000
-0.3010 DERR </s> -0.3010
-0.3010 DESIGNATION </s> -0.3010
-0.3010 DESKTOP </s> -0.3010
-0.3010 DESKTOPS </s> -0.3010
-0.3010 DIALOG </s> -0.3010
-0.3010 DIAMOND CLUB 0.0000
-0.6021 DISENCHANT </s> -0.3010
-0.6021 DISENCHANT EXTRA 0.0000
-0.7782 DISPLAY BLOCK -0.1761
-0.7782 DISPLAY INLINE 0.0000
-0.7782 DISPLAY NONE 0.0000
-0.3010 DIST UPGRADE 0.0000
-0.6021 DO IM 0.0000
-0.6021 DO YOU -0.2730
-0.3010 DOCUMENT MENU 0.0000
-0.3010 DOG </s> -0.3010
-0.3010 DOLLAR SIGN 0.0000
-0.3010 DONT SAVE -0.2430
-0.3010 DOUBLE CLICK -0.1249
-0.3680 DOWN </s> -0.3010
-1.1461 DOWN ARROW -0.0792
-0.3010 DOWNLOADS </s> -0.3010
-0.3010 DROP CARD -0.2553
-0.3010 DRUID CLASS -0.1027
-0.3010 DUMPERT </s> -0.3010
-0.4771 E </s> -0.3010
-0.7782 E BAY 0.0000
-0.7782 ECHO EE 0.0000
-0.7782 ECHO MOUSE -0.1761
-0.7782 ECHO VOICE 0.0000
-0.4260 EDIT </s> -0.3010
-0.9031 EDIT MENU 0.0000
-0.3010 EE SPEAK -0.1249
-0.3010 EFF TWO -0.1165
-0.5441 EIGHT </s> -0.3010
-1.1461 EIGHT BALL 0.0000
-1.1461 EIGHT COLUMNS 0.0000
-1.1461 EIGHT HEADER -0.1461
-0.3010 EIGHTY PROCENT 0.0000
-0.3010 EL </s> -0.3010
-0.3979 EMAIL </s> -0.3010
-1.0000 EMAIL HYPERLINK 0.0000
-0.3010 EMOTE </s> -0.3010
-0.3010 EMPTY TRASH 0.0000
-0.3010 ENABLED </s> -0.3010
-0.4771 END </s> -0.3010
-0.7782 END TURN 0.0000
-0.4771 ENEMY </s> -0.3010
-0.7782 ENEMY FACE -0.0872
-0.3010 ENGINE EX -0.2341
-1.2041 ENTER </s> -0.3010
-1.5051 ENTER CELL 0.0000
-1.5051 ENTER CITY 0.0000
-1.5051 ENTER DADS 0.0000
-1.5051 ENTER FIBER 0.0000
-1.5051 ENTER FIRST -0.2218
-1.2041 ENTER FULL -0.1761
-1.5051 ENTER GEE -0.2041
-1.5051 ENTER LAST -0.1761
-1.5051 ENTER NICK 0.0000
-1.5051 ENTER OFFICE 0.0000
-1.5051 ENTER STREET 0.0000
-1.5051 ENTER WORK 0.0000
-1.5051 ENTER ZIP 0.0000
-1.1461 EQUALS </s> -0.3010
-1.1461 EQUALS BLANK 0.0000
-1.1461 EQUALS RIGHT -0.1139
-0.5441 EQUALS THIS -0.1007
-0.3010 ESCAPE </s> -0.3010
-0.3010 ET SEE -0.2218
-0.3010 EVINCE </s> -0.3010
-1.1461 EX </s> -0.3010
-0.4472 EX CHAT 0.0000
-1.1461 EX CONFIG -0.2109
-0.3010 EXCLAMATION POINT 0.0000
-0.3010 EXIT </s> -0.3010
-0.3010 EXPLORERS </s> -0.3010
-0.3010 EXPRESSION </s> -0.3010
-0.3010 EXTRA CARDS 0.0000
-0.6021 EYE </s> -0.3010
-0.6021 EYE FRAME 0.0000
-0.6990 F </s> -0.3010
-1.0000 F CONSOLE 0.0000
-1.0000 F EIGHT -0.2688
-1.0000 F TWO -0.1165
-0.4102 FACE </s> -0.3010
-1.2553 FACE ENEMY -0.1249
-1.2553 FACE HERO -0.2672
-0.3010 FASTER </s> -0.3010
-0.3010 FIBER EMAIL -0.0792
-0.3010 FIELD </s> -0.3010
-0.3010 FIFTY PROCENT 0.0000
-0.8451 FILE </s> -0.3010
-1.4472 FILE AS 0.0000
-0.9700 FILE MANAGER 0.0000
-1.4472 FILE MENU 0.0000
-1.4472 FILE SPECIFICATIONS 0.0000
-1.4472 FILE SPECS 0.0000
-0.9700 FILE ZILLA 0.0000
-0.4260 FILES </s> -0.3010
-0.9031 FILES DERR 0.0000
-1.5315 FILTER </s> -0.3010
-1.5315 FILTER BASIC 0.0000
-1.5315 FILTER CLASSIC -0.2218
-1.5315 FILTER FIVE -0.2730
-1.5315 FILTER FOUR -0.2910
-1.5315 FILTER GOBLINS 0.0000
-1.5315 FILTER GRAND 0.0000
-1.5315 FILTER LEAGUE 0.0000
-1.5315 FILTER OLD 0.0000
-1.5315 FILTER ONE -0.2808
-1.5315 FILTER SEVEN -0.2632
-1.5315 FILTER SIX -0.2688
-1.5315 FILTER STANDARD 0.0000
-1.5315 FILTER THREE -0.2808
-1.5315 FILTER TWO -0.2840
-1.5315 FILTER WILD 0.0000
-1.5315 FILTER ZERO -0.2553
-0.3010 FIND ON -0.2688
-0.3010 FIRE </s> -0.3010
-0.4260 FIREFOX </s> -0.3010
-0.9031 FIREFOX PREFERENCES 0.0000
-0.7782 FIRST INBOX 0.0000
-0.7782 FIRST NAME 0.0000
-0.7782 FIRST SENT 0.0000
-0.5051 FIVE </s> -0.3010
-1.2041 FIVE COLUMNS 0.0000
-1.2041 FIVE MANA 0.0000
-1.2041 FIVE SPACES -0.0969
-0.3010 FIX SPACING 0.0000
-0.3010 FLAT SYMBOL 0.0000
-0.3010 FLUFFIEST </s> -0.3010
-0.3010 FM </s> -0.3010
-0.3010 FOLDER </s> -0.3010
-0.3010 FORMAT MENU 0.0000
-0.3010 FORTUNE </s> -0.3010
-0.3010 FORWARD </s> -0.3010
-0.4393 FOUR </s> -0.3010
-1.6435 FOUR CHAN 0.0000
-1.6435 FOUR COLUMNS 0.0000
-1.6435 FOUR MANA 0.0000
-1.3424 FOUR OF -0.1919
-1.6435 FOUR SPACES -0.0969
-0.3010 FOURTY PROCENT 0.0000
-0.3010 FRAME </s> -0.3010
-0.3010 FRIENDS </s> -0.3010
-0.3010 FROM EX -0.1091
-0.3010 FROWNEY FACE -0.0872
-0.9031 FULL ADDRESS -0.1249
-0.9031 FULL NAME 0.0000
-0.9031 FULL SCREEN -0.1249
-0.9031 FULL SIZE 0.0000
-0.3010 FUN X -0.2688
-0.3010 FUNNY </s> -0.3010
-0.3010 GAY TOILET 0.0000
-0.4260 GEANY </s> -0.3010
-0.9031 GEANY FILES -0.0969
-0.5229 GEE EDIT -0.0969
-0.6990 GEE MAIL 0.0000
-0.9031 GET INSTALL 0.0000
-0.9031 GET MOUSE -0.1761
-0.9031 GET PUSH 0.0000
-0.9031 GET WINDOW -0.2730
-1.0792 GIT ADD -0.2218
-1.0792 GIT COMMIT 0.0000
-1.0792 GIT MERGE 0.0000
-1.0792 GIT PULL 0.0000
-1.0792 GIT PUSH 0.0000
-1.0792 GIT STATUS -0.1761
-0.3010 GIVE UP -0.0458
-0.3010 GLADIS </s> -0.3010
-0.3010 GLADOS </s> -0.3010
-1.9031 GO BACK -0.0792
-1.9031 GO FORWARD 0.0000
-0.3233 GO TO -0.1091
-0.3010 GOBLINS </s> -0.3010
-0.6021 GODS </s> -0.3010
-0.6021 GODS PACK 0.0000
-0.3010 GOLDEN CARDS 0.0000
-0.3010 GOOD MORNING 0.0000
-0.3010 GOOGLE THIS -0.1007
-0.3010 GRAB THAT -0.1461
-0.3010 GRAND TOURNAMENT 0.0000
-0.3010 GREETINGS </s> -0.3010
-0.3010 GRIN FACE -0.0872
-1.4472 H </s> -0.3010
-1.1461 H REF 0.0000
-0.4058 H T -0.0348
-0.3010 HALF SIZE 0.0000
-0.3010 HASH TAG 0.0000
-0.5229 HEADER </s> -0.3010
-1.3010 HEADER ONE -0.1347
-1.3010 HEADER TAGS 0.0000
-1.3010 HEADER THREE -0.1347
-1.3010 HEADER TWO -0.1165
-0.6021 HEARTHSTONE </s> -0.3010
-1.0792 HEARTHSTONE CHAT -0.0669
-1.0792 HEARTHSTONE OPEN -0.2958
-1.0792 HEARTHSTONE OPTIONS 0.0000
-0.3010 HELLO </s> -0.3010
-0.3010 HELP MENU 0.0000
-0.3010 HERE </s> -0.3010
-1.1249 HERO </s> -0.3010
-1.6021 HERO ATTACK -0.1761
-1.6021 HERO CARDS 0.0000
-1.6021 HERO EIGHT -0.1549
-1.6021 HERO FACE -0.0872
-1.6021 HERO FIVE -0.1383
-1.6021 HERO FOUR -0.1047
-1.6021 HERO NINE -0.0792
-1.6021 HERO ONE -0.1347
-1.3010 HERO PAGE -0.1627
-1.1249 HERO POWER 0.0000
-1.6021 HERO SEVEN -0.1249
-1.6021 HERO SIX -0.1091
-1.6021 HERO THREE -0.1347
-1.6021 HERO TWO -0.1165
-0.3010 HEROES </s> -0.3010
-0.3010 HIGHLIGHTING </s> -0.3010
-0.3010 HISTORY </s> -0.3010
-0.3010 HOLD </s> -0.3010
-0.6021 HOME </s> -0.3010
-0.6021 HOME BIN -0.0969
-0.3010 HOOS THE -0.1761
-0.3010 HUGE GRIN 0.0000
-0.3010 HUNDERED PROCENT 0.0000
-0.3010 HUNDRED PROCENT 0.0000
-0.3010 HUNTER CLASS -0.1027
-0.3010 HYPERLINK </s> -0.3010
-0.3010 HYPHENATE THIS -0.1007
-0.7270 I </s> -0.3010
-1.2041 I D -0.2688
-0.6021 I V -0.1383
-0.3010 ICON </s> -0.3010
-0.3010 IK BEN 0.0000
-0.3010 IM BORED 0.0000
-0.7782 IMAGE </s> -0.3010
-0.7782 IMAGE C -0.2041
-0.7782 IMAGE D -0.1549
-0.4260 IN </s> -0.3010
-0.9031 IN IT -0.2218
-0.3010 INBOX </s> -0.3010
-0.3010 INCLUDE UNCRAFTABLE 0.0000
-0.6021 INFO </s> -0.3010
-0.6021 INFO BUTTON 0.0000
-0.3010 INLINE </s> -0.3010
-1.4472 INSERT AUDIO -0.2218
-1.4472 INSERT AWK 0.0000
-1.4472 INSERT EYE -0.1761
-1.4472 INSERT HYPERLINK 0.0000
-1.4472 INSERT IMAGE -0.2218
-1.1461 INSERT KEY -0.1761
-1.4472 INSERT MENU 0.0000
-1.4472 INSERT PANEL 0.0000
-1.4472 INSERT PHONE -0.2218
-1.4472 INSERT POPUP -0.1761
-1.4472 INSERT PRINT -0.1761
-1.4472 INSERT SED 0.0000
-1.4472 INSERT VIDEO 0.0000
-0.3010 INSTALL </s> -0.3010
-0.8451 IS </s> -0.3010
-0.8451 IS IT -0.1249
-1.1461 IS RIGHT -0.1139
-0.8451 IS THAT -0.2041
-0.4771 IT </s> -0.3010
-0.7782 IT EXPRESSION 0.0000
-0.3010 ITALICIZE </s> -0.3010
-0.3010 ITALICS </s> -0.3010
-0.6021 ITEM </s> -0.3010
-0.6021 ITEM TAGS 0.0000
-0.6021 JAVASCRIPT DATE -0.1761
-0.6021 JAVASCRIPT HEADER -0.1461
-0.3010 JUST SAID 0.0000
-0.3010 K </s> -0.3010
-0.3010 KEEP </s> -0.3010
-0.6021 KEY </s> -0.3010
-0.9031 KEY PRESS -0.2910
-0.9031 KEY TYPE 0.0000
-1.0792 KILL BE -0.1761
-1.0792 KILL BLADDER -0.1761
-1.0792 KILL ONEKO -0.2218
-1.0792 KILL RADIO -0.2109
-1.0792 KILL VOCAL 0.0000
-1.0792 KILL WINDOW -0.1181
-0.7270 L </s> -0.3010
-0.7270 L C -0.1461
-1.2041 L O -0.2430
-1.2041 L S -0.2374
-0.3010 LABEL </s> -0.3010
-0.3010 LABELS HEADER -0.1461
-0.6021 LAST NAME 0.0000
-0.6021 LAST TAB -0.2109
-0.3010 LATEX HIGHLIGHTING 0.0000
-0.3010 LAUNCHER </s> -0.3010
-0.3010 LEAGUE OF -0.2762
-0.5051 LEFT </s> -0.3010
-1.2041 LEFT ARROW -0.0792
-1.2041 LEFT CLICK -0.1249
-1.2041 LEFT SIDE 0.0000
-0.3010 LIBREOFFICE </s> -0.3010
-0.7782 LINE </s> -0.3010
-0.7782 LINE ABOVE 0.0000
-0.7782 LINE BELOW 0.0000
-0.3010 LINES </s> -0.3010
-0.6021 LINK </s> -0.3010
-0.6021 LINK TO -0.2971
-0.4771 LIST ITEM 0.0000
-0.7782 LIST TAGS 0.0000
-0.3010 LISTENING </s> -0.3010
-0.3010 LOCAL BIN -0.0969
-0.3010 LOCATION </s> -0.3010
-0.3010 LOCK SCREEN -0.1249
-0.3010 LOG DERR 0.0000
-0.3010 LOLCAT </s> -0.3010
-0.3010 LOWER VOLUME -0.2730
-0.3010 LOWERCASE </s> -0.3010
-0.6021 M </s> -0.3010
-0.6021 M S -0.2808
-0.3010 MAGE CLASS -0.1027
-0.4771 MAIL </s> -0.3010
-0.7782 MAIL ADDRESS -0.1249
-1.0792 MAKE BOLD 0.0000
-1.0792 MAKE LOWERCASE 0.0000
-1.0792 MAKE NOTE 0.0000
-1.0792 MAKE SUPER -0.1761
-1.0792 MAKE SUPERSCRIPT 0.0000
-1.0792 MAKE UPPERCASE 0.0000
-0.3010 MAN </s> -0.3010
-0.3010 MANA </s> -0.3010
-0.3010 MANAGER </s> -0.3010
-0.3010 MAP </s> -0.3010
-0.3010 MARK </s> -0.3010
-1.0792 MARKDOWN BOLD 0.0000
-1.0792 MARKDOWN CODE 0.0000
-1.0792 MARKDOWN HEADER -0.1461
-1.0792 MARKDOWN HYPERLINK 0.0000
-1.0792 MARKDOWN ITALICS 0.0000
-1.0792 MARKDOWN PREVIEW 0.0000
-0.3010 MATCH </s> -0.3010
-0.3010 MATRIX </s> -0.3010
-0.3010 MAX </s> -0.3010
-0.3010 MAXIMIZE WINDOW -0.1181
-0.3010 ME </s> -0.3010
-0.3010 MENU </s> -0.3010
-0.3010 MERGE </s> -0.3010
-1.3424 META BOB 0.0000
-1.3424 META C -0.1461
-1.3424 META EFF 0.0000
-1.3424 META EYE -0.1761
-1.3424 META F -0.2553
-1.3424 META L -0.2109
-1.3424 META M -0.1761
-1.3424 META N -0.1761
-1.3424 META P -0.1761
-1.3424 META SCOOBY 0.0000
-1.3424 META W 0.0000
-0.3010 METAL TOILET 0.0000
-0.3010 MIDDLE CLICK -0.1249
-0.3010 MIN </s> -0.3010
-0.3010 MINIMIZE WINDOW -0.1181
-0.3010 MORNING </s> -0.3010
-0.6021 MOUSE LOCATION 0.0000
-0.6021 MOUSE WHEEL 0.0000
-0.6021 MOVE TO -0.2604
-1.0280 MOVE WINDOW -0.0746
-0.8062 MOVE WORKSPACE -0.1383
-0.4771 MUSIC </s> -0.3010
-0.7782 MUSIC C -0.2041
-0.3010 MUTE SOUND 0.0000
-0.3010 MY COLLECTION 0.0000
-0.6021 N </s> -0.3010
-0.6021 N MAP 0.0000
-0.3010 NAME </s> -0.3010
-0.3010 NATURAL SYMBOL 0.0000
-0.3010 NET MAP 0.0000
-0.3010 NETFLIX </s> -0.3010
-0.6021 NEUTRAL CARDS 0.0000
-0.6021 NEUTRAL CLASS -0.1027
-1.3010 NEW BULLET 0.0000
-1.3010 NEW FILE -0.2341
-1.0000 NEW LINE -0.1249
-1.3010 NEW LIST -0.1249
-1.3010 NEW SECTION 0.0000
-1.3010 NEW TAB -0.2109
-1.3010 NEW TABLE -0.2430
-1.3010 NEW WEB -0.1761
-1.3010 NEW WINDOW -0.1181
-1.1461 NEXT BUFFER 0.0000
-1.1461 NEXT HERO -0.2788
-1.1461 NEXT PAGE -0.1627
-1.1461 NEXT TAB -0.2109
-1.1461 NEXT TRACK 0.0000
-1.1461 NEXT UNREAD 0.0000
-1.1461 NEXT WORD 0.0000
-0.3010 NICK NAME 0.0000
-0.3010 NIGHT ATTACK -0.2430
-0.3979 NINE </s> -0.3010
-1.0000 NINE COLUMNS 0.0000
-0.3010 NINETY PROCENT 0.0000
-0.9031 NO </s> -0.3010
-0.9031 NO DECORATION 0.0000
-0.6021 NO SCRIPT 0.0000
-0.3010 NONE </s> -0.3010
-0.3010 NORMAL SPEED 0.0000
-0.3010 NOTE </s> -0.3010
-0.3010 NOTES </s> -0.3010
-0.6021 O </s> -0.3010
-0.9031 O FILES -0.0969
-0.9031 O TOOL 0.0000
-0.3010 OEPS </s> -0.3010
-1.5563 OF ALL -0.2553
-1.5563 OF CURRENT -0.1761
-1.2553 OF EXPLORERS 0.0000
-0.6532 OF FOUR -0.1047
-1.5563 OF MUSIC -0.2218
-1.2553 OF REGION 0.0000
-1.5563 OF THE -0.2430
-1.2553 OF WINDOW -0.0969
-0.3010 OFF </s> -0.3010
-0.3010 OFFICE PHONE -0.1249
-0.3010 OLD GODS 0.0000
-1.1461 ON ALL -0.2788
-1.1461 ON LEFT -0.1383
-1.1461 ON ONLY -0.1761
-1.1461 ON PAGE -0.1627
-1.1461 ON RIGHT -0.1139
-1.1461 ON SELF 0.0000
-1.1461 ON TOP -0.2218
-0.4973 ONE </s> -0.3010
-1.3424 ONE COLUMNS 0.0000
-1.3424 ONE MANA 0.0000
-1.0414 ONE OF -0.1919
-0.7782 ONEKO </s> -0.3010
-1.0792 ONEKO CAT 0.0000
-1.0792 ONEKO DOG 0.0000
-1.0792 ONEKO SAKURA 0.0000
-1.0792 ONEKO TORA 0.0000
-0.6021 ONLY GOLDEN 0.0000
-0.6021 ONLY THIS -0.2915
-0.3010 OOPS </s> -0.3010
-0.3010 OP </s> -0.3010
-1.9243 OPEN ARMITAGE 0.0000
-1.9243 OPEN ATOM 0.0000
-1.9243 OPEN AUDACITY 0.0000
-1.6232 OPEN BLADDER -0.2041
-1.9243 OPEN CALCULATOR 0.0000
-1.9243 OPEN CENTER -0.2041
-1.9243 OPEN CHROME 0.0000
-1.9243 OPEN CHROMIUM 0.0000
-1.9243 OPEN CONTACTS 0.0000
-1.9243 OPEN D -0.1549
-1.9243 OPEN EVINCE 0.0000
-1.9243 OPEN EX -0.1091
-1.4472 OPEN FILE -0.1091
-1.9243 OPEN FIREFOX -0.0969
-1.9243 OPEN GEANY -0.0969
-1.6232 OPEN GEE 0.0000
-1.9243 OPEN H -0.2688
-1.9243 OPEN HEARTHSTONE -0.1761
-1.9243 OPEN LAST -0.1761
-1.9243 OPEN LIBREOFFICE 0.0000
-1.9243 OPEN NOTES 0.0000
-1.9243 OPEN P -0.1761
-1.9243 OPEN PACK 0.0000
-1.9243 OPEN PACKS 0.0000
-1.9243 OPEN QUA 0.0000
-1.6232 OPEN R 0.0000
-1.9243 OPEN RHYTHMBOX 0.0000
-1.9243 OPEN TEE 0.0000
-1.9243 OPEN TERMINAL 0.0000
-1.9243 OPEN TERMINATOR 0.0000
-1.9243 OPEN THUNDERBIRD -0.1249
-1.9243 OPEN TODO 0.0000
-1.9243 OPEN UNISON 0.0000
-1.9243 OPEN V -0.2109
-1.9243 OPEN VOCAL 0.0000
-1.9243 OPEN VOLUME -0.2730
-1.9243 OPEN WRITER 0.0000
-0.3010 OPTIMAL COLUMN 0.0000
-0.3010 OPTIONS </s> -0.3010
-0.3010 OUT </s> -0.3010
-0.6021 P </s> -0.3010
-0.6021 P TAG 0.0000
-0.3010 PACK </s> -0.3010
-0.6021 PACKAGE INFO -0.1761
-0.6021 PACKAGE SEARCH -0.1996
-0.3010 PACKS </s> -0.3010
-0.5643 PAGE </s> -0.3010
-1.3424 PAGE BACK -0.0792
-1.3424 PAGE DOWN -0.0580
-1.3424 PAGE FORWARD 0.0000
-1.3424 PAGE TEMPLATE 0.0000
-1.3424 PAGE UP -0.0458
-0.3010 PALADIN CLASS -0.1027
-0.3010 PANEL </s> -0.3010
-0.3010 PARAGRAPH TAGS 0.0000
-0.3010 PASS FILTER -0.2881
-0.3010 PASTE </s> -0.3010
-0.6021 PAUSE </s> -0.3010
-0.6021 PAUSE PLAY -0.2688
-0.3010 PERENTHESIZE THIS -0.1007
-0.3010 PERFECT </s> -0.3010
-0.3010 PERIOD </s> -0.3010
-0.3010 PERMISSIONS </s> -0.3010
-0.4771 PHONE </s> -0.3010
-0.7782 PHONE ICON 0.0000
-0.3010 PHOTO BY 0.0000
-0.3010 PHOTOS </s> -0.3010
-0.3010 PID </s> -0.3010
-0.3010 PING TEST 0.0000
-1.1461 PLAY </s> -0.3010
-0.8451 PLAY BUTTON 0.0000
-0.8451 PLAY CARD -0.2304
-1.1461 PLAY FASTER 0.0000
-1.1461 PLAY PAUSE -0.1761
-0.3010 PLAYED </s> -0.3010
-0.3010 POINT </s> -0.3010
-0.6021 POPUP </s> -0.3010
-0.6021 POPUP JAVASCRIPT -0.1761
-0.3010 POST FROM 0.0000
-0.7782 POWER </s> -0.3010
-0.7782 POWER ENEMY -0.1249
-0.7782 POWER HERO -0.2672
-0.3010 PREFERENCES </s> -0.3010
-0.6021 PREFORMATTED </s> -0.3010
-0.6021 PREFORMATTED TEXT -0.2041
-1.6435 PRESS </s> -0.3010
-1.6435 PRESS DELETE -0.2553
-1.6435 PRESS EIGHT -0.1549
-1.6435 PRESS END -0.1249
-1.6435 PRESS ENTER -0.2730
-1.6435 PRESS ESCAPE 0.0000
-1.6435 PRESS F -0.2041
-1.6435 PRESS FIVE -0.1383
-1.6435 PRESS FOUR -0.1047
-1.6435 PRESS HOME -0.1761
-1.6435 PRESS I -0.2109
-1.6435 PRESS NINE -0.0792
-1.6435 PRESS NO -0.2430
-1.6435 PRESS ONE -0.1347
-1.6435 PRESS Q 0.0000
-1.6435 PRESS SEVEN -0.1249
-1.6435 PRESS SIX -0.1091
-1.6435 PRESS TAB -0.2109
-1.6435 PRESS THREE -0.1347
-1.6435 PRESS TWO -0.1165
-1.6435 PRESS YES 0.0000
-1.6435 PRESS ZERO -0.2041
-0.3010 PRETTY RUDE 0.0000
-0.3010 PREVIEW </s> -0.3010
-1.2041 PREVIOUS BUFFER 0.0000
-1.2041 PREVIOUS HERO -0.2788
-1.2041 PREVIOUS PAGE -0.1627
-0.9031 PREVIOUS SENTENCE 0.0000
-1.2041 PREVIOUS TAB -0.2109
-1.2041 PREVIOUS TRACK 0.0000
-1.2041 PREVIOUS WORD 0.0000
-0.3010 PRIEST CLASS -0.1027
-0.6021 PRINT BUTTON 0.0000
-0.6021 PRINT WINDOW -0.2730
-0.3010 PROCENT </s> -0.3010
-0.3010 PROPERTIES </s> -0.3010
-0.3010 PULL </s> -0.3010
-0.3010 PUSH </s> -0.3010
-0.6021 PUT AFTER -0.1761
-0.6021 PUT BEFORE 0.0000
-0.3010 Q </s> -0.3010
-0.3010 QUA CEL 0.0000
-0.3010 QUARTER NOTE 0.0000
-0.3010 QUESTION MARK 0.0000
-0.3010 QUESTS </s> -0.3010
-1.8062 QUIT </s> -0.3010
-1.8062 QUIT APPLICATION 0.0000
-1.8062 QUIT ARMITAGE 0.0000
-1.8062 QUIT ATOM 0.0000
-1.8062 QUIT BE -0.1761
-1.8062 QUIT BLADDER -0.1761
-1.8062 QUIT CALCULATOR 0.0000
-1.8062 QUIT CHROME 0.0000
-1.8062 QUIT CHROMIUM 0.0000
-1.8062 QUIT EVINCE 0.0000
-1.8062 QUIT EX -0.1091
-1.5051 QUIT FILE -0.1963
-1.8062 QUIT FIREFOX -0.0969
-1.8062 QUIT GEANY -0.0969
-1.8062 QUIT GEE -0.1461
-1.8062 QUIT HEARTHSTONE -0.1761
-1.8062 QUIT LIBREOFFICE 0.0000
-1.8062 QUIT ONEKO -0.2218
-1.8062 QUIT QUA 0.0000
-1.5051 QUIT R 0.0000
-1.8062 QUIT RADIO -0.2109
-1.8062 QUIT RHYTHMBOX 0.0000
-1.8062 QUIT TERMINAL 0.0000
-1.8062 QUIT TERMINATOR 0.0000
-1.8062 QUIT THUNDERBIRD -0.1249
-1.8062 QUIT UNISON 0.0000
-1.8062 QUIT V -0.2109
-1.8062 QUIT VOCAL 0.0000
-1.8062 QUIT WINDOW -0.1181
-1.8062 QUIT WRITER 0.0000
-0.6021 QUOTE TAGS 0.0000
-0.6021 QUOTE THIS -0.1007
-0.3010 QUOTES </s> -0.3010
-0.6021 R ARENA -0.0969
-0.6021 R SINK 0.0000
-1.2041 RADIO 3FM 0.0000
-1.2041 RADIO 538 0.0000
-0.7270 RADIO </s> -0.3010
-1.2041 RADIO ARROW -0.2553
-1.2041 RADIO FUN 0.0000
-1.2041 RADIO SLAM 0.0000
-0.3010 RAISE VOLUME -0.2730
-0.3010 REBOOT </s> -0.3010
-0.6021 RECENT GEANY -0.2430
-0.6021 RECENT L -0.2730
-0.3010 RECIPIENT </s> -0.3010
-0.3010 REF </s> -0.3010
-0.3010 REFRESH PAGE -0.1627
-0.6021 REGION </s> -0.3010
-0.6021 REGION AND -0.1761
-0.3010 REMOVE SPACES -0.0969
-0.3010 REPEAT AFTER -0.1761
-0.3010 REPLACE ALL -0.2553
-0.3010 REPLAY TRACK 0.0000
-0.3010 REPLY </s> -0.3010
-0.3010 REPORT </s> -0.3010
-0.9031 RESTART APACHE -0.1761
-0.9031 RESTART BLADDER -0.1761
-0.9031 RESTART ENGINE 0.0000
-0.9031 RESTART TRACK 0.0000
-0.3010 RESTORE WINDOW -0.1181
-0.3010 RETURN CODE 0.0000
-0.3010 RHYTHMBOX </s> -0.3010
-0.4559 RIGHT </s> -0.3010
-1.3010 RIGHT ARROW -0.0792
-1.3010 RIGHT CLICK -0.1249
-1.3010 RIGHT SIDE 0.0000
-0.3010 ROCK </s> -0.3010
-0.3010 ROGUE CLASS -0.1027
-0.3010 ROW </s> -0.3010
-0.3010 RUDE </s> -0.3010
-0.8653 S </s> -0.3010
-1.3424 S COMMANDO 0.0000
-1.3424 S F -0.2553
-1.3424 S HEADER -0.1461
-1.3424 S L -0.2109
-0.7404 S S -0.1891
-0.3010 SAID THAT -0.1461
-0.3010 SAKURA </s> -0.3010
-0.9031 SAVE </s> -0.3010
-0.6021 SAVE FILE -0.2156
-0.9031 SAVE LINK -0.1761
-0.3010 SAY </s> -0.3010
-0.3010 SCHOOL OF -0.2888
-0.3010 SCOOBY </s> -0.3010
-0.3010 SCORE </s> -0.3010
-0.4771 SCREEN </s> -0.3010
-0.7782 SCREEN OFF 0.0000
-1.0792 SCREENSHOT </s> -0.3010
-1.0792 SCREENSHOT AND -0.1761
-0.4771 SCREENSHOT OF -0.2499
-0.3010 SCRIPT ALLOW 0.0000
-0.6021 SCROLL DOWN -0.0580
-0.6021 SCROLL UP -0.0458
-0.6812 SEARCH </s> -0.3010
-1.3802 SEARCH APPLICATIONS 0.0000
-1.3802 SEARCH FIELD 0.0000
-1.3802 SEARCH FILES -0.0969
-1.0792 SEARCH MUSIC -0.1249
-1.3802 SEARCH PHOTOS 0.0000
-1.3802 SEARCH VIDEOS 0.0000
-0.6021 SECOND INBOX 0.0000
-0.6021 SECOND SENT 0.0000
-0.3010 SECTION LABEL 0.0000
-0.3010 SED EXPRESSION 0.0000
-0.7782 SEE </s> -0.3010
-0.7782 SEE MATRIX 0.0000
-0.7782 SEE RETURN 0.0000
-1.0280 SELECT ALL -0.2041
-0.5509 SELECT HERO -0.1903
-1.5051 SELECT PREVIOUS -0.2430
-1.0280 SELECT THIS -0.2511
-0.3010 SELECTION </s> -0.3010
-0.3010 SELF </s> -0.3010
-0.3010 SEMICOLON </s> -0.3010
-0.3010 SEND EMAIL -0.0792
-0.3010 SENT BOX 0.0000
-0.3010 SENTENCE </s> -0.3010
-0.6021 SET ALARM 0.0000
-0.6021 SET SLEEP 0.0000
-0.4771 SEVEN </s> -0.3010
-1.0792 SEVEN COLUMNS 0.0000
-1.0792 SEVEN MANA 0.0000
-0.3010 SEVENTY PROCENT 0.0000
-0.3010 SHAMAN CLASS -0.1027
-0.3010 SHARP SYMBOL 0.0000
-0.3010 SHE BANG 0.0000
-1.0792 SHIFT C -0.1461
-1.0792 SHIFT E -0.1249
-1.0792 SHIFT IN -0.0969
-1.0792 SHIFT O -0.1761
-1.0792 SHIFT V -0.2430
-1.0792 SHIFT W 0.0000
-0.3010 SHOP </s> -0.3010
-0.3010 SHOPPING </s> -0.3010
-0.3010 SHORTEN YOU -0.2730
-1.0792 SHOW ALL -0.2304
-1.3802 SHOW CLIP 0.0000
-1.3802 SHOW DESKTOP 0.0000
-0.7782 SHOW ON -0.1549
-1.3802 SHOW ONLY -0.1761
-0.9031 SHOW WINDOWS 0.0000
-0.3010 SHUT UP -0.0458
-0.3010 SIDE </s> -0.3010
-0.3010 SIGN </s> -0.3010
-0.6021 SING GLADIS 0.0000
-0.6021 SING GLADOS 0.0000
-0.3010 SINGING </s> -0.3010
-0.3010 SINK </s> -0.3010
-0.6021 SITE </s> -0.3010
-0.6021 SITE MANAGER 0.0000
-0.6021 SITES AVAILABLE 0.0000
-0.6021 SITES ENABLED 0.0000
-0.4472 SIX </s> -0.3010
-1.1461 SIX COLUMNS 0.0000
-1.1461 SIX MANA 0.0000
-0.3010 SIXTY PROCENT 0.0000
-0.3010 SIZE </s> -0.3010
-0.3010 SLAM FM 0.0000
-0.3010 SLASH ET 0.0000
-0.3010 SLEEP TIMER 0.0000
-0.3010 SMART QUOTES 0.0000
-0.3010 SMILEY FACE -0.0872
-0.3010 SO FUNNY 0.0000
-0.6021 SOFTWARE AND -0.2632
-0.6021 SOFTWARE PROPERTIES 0.0000
-0.3010 SOLO PLAY -0.2341
-0.3010 SORT THIS -0.1007
-0.3010 SOUND </s> -0.3010
-0.6021 SPACE </s> -0.3010
-0.6021 SPACE BAR 0.0000
-0.4260 SPACES </s> -0.3010
-0.9031 SPACES TO -0.2971
-0.3010 SPACING </s> -0.3010
-0.6021 SPAN </s> -0.3010
-0.6021 SPAN THIS -0.1007
-0.3010 SPANDEX </s> -0.3010
-0.4771 SPEAK </s> -0.3010
-0.7782 SPEAK THIS -0.1007
-0.3010 SPEAKING </s> -0.3010
-0.6021 SPECIALTY CLASS -0.1027
-0.6021 SPECIALTY SPAN -0.1761
-0.3010 SPECIFICATIONS </s> -0.3010
-0.3010 SPECS </s> -0.3010
-0.3010 SPEED </s> -0.3010
-0.3010 SPLIT BUFFER 0.0000
-0.3010 STANDARD </s> -0.3010
-0.3010 STAR WARS 0.0000
-0.3010 START SELECTION 0.0000
-0.3010 STATE YOUR -0.1761
-0.6021 STATUS </s> -0.3010
-0.6021 STATUS REPORT 0.0000
-0.9031 STOP RADIO -0.2109
-0.9031 STOP SELECTION 0.0000
-0.9031 STOP SINGING 0.0000
-0.9031 STOP SPEAKING 0.0000
-0.3010 STREET </s> -0.3010
-0.3010 SUBJECT </s> -0.3010
-0.6021 SUDO </s> -0.3010
-0.6021 SUDO CLEAN 0.0000
-0.6021 SUPER </s> -0.3010
-0.6021 SUPER KEY -0.1761
-0.3010 SUPERSCRIPT </s> -0.3010
-1.0000 SWAP ALL -0.2553
-1.0000 SWAP FOUR -0.2808
-1.0000 SWAP ONE -0.2596
-1.0000 SWAP THREE -0.2596
-1.0000 SWAP TWO -0.2663
-0.9031 SWITCH BACK -0.0792
-0.9031 SWITCH SWITCH -0.1761
-0.6021 SWITCH WINDOW -0.1181
-0.3010 SYMBOL </s> -0.3010
-0.3010 SYNAPTIC </s> -0.3010
-0.3010 SYNC BLADDER -0.1461
-0.7782 SYSTEM </s> -0.3010
-0.7782 SYSTEM LOG 0.0000
-0.7782 SYSTEM UPDATE -0.2218
-1.3802 T BOLD 0.0000
-1.3802 T BOOK 0.0000
-1.3802 T CODE 0.0000
-1.3802 T COMMANDO 0.0000
-1.3802 T COMMENT 0.0000
-1.3802 T F -0.2553
-0.9031 T HEADER -0.2304
-1.3802 T ITALICS 0.0000
-1.3802 T PAGE -0.2808
-1.3802 T PREFORMATTED -0.1761
-0.7270 TAB </s> -0.3010
-1.5051 TAB EIGHT -0.1549
-1.5051 TAB FIVE -0.1383
-1.5051 TAB FOUR -0.1047
-1.5051 TAB NINE -0.0792
-1.5051 TAB ONE -0.1347
-1.5051 TAB SEVEN -0.1249
-1.5051 TAB SIX -0.1091
-1.5051 TAB TEN -0.2553
-1.5051 TAB THREE -0.1347
-1.5051 TAB TWO -0.1165
-0.9031 TABLE DATA 0.0000
-0.9031 TABLE HEADER -0.2788
-0.9031 TABLE ROW 0.0000
-0.9031 TABLE TAGS 0.0000
-0.3010 TAG </s> -0.3010
-0.3010 TAGS </s> -0.3010
-0.3010 TAKE SCREENSHOT 0.0000
-0.3010 TARGET EQUALS -0.2688
-0.3010 TAVERN BRAWL 0.0000
-0.3010 TEE BIRD 0.0000
-0.3010 TEMPLATE </s> -0.3010
-1.0000 TEN </s> -0.3010
-1.0000 TEN COLUMNS 0.0000
-1.0000 TEN COMMANDS 0.0000
-0.6990 TEN PROCENT 0.0000
-0.3010 TERM TAGS 0.0000
-0.3010 TERMINAL </s> -0.3010
-0.3010 TERMINATOR </s> -0.3010
-0.3010 TEST </s> -0.3010
-0.3010 TESTING EE 0.0000
-0.6990 TEXT </s> -0.3010
-0.6990 TEXT ALIGN -0.1249
-1.0000 TEXT EQUALS -0.1549
-0.3010 THANK YOU -0.2430
-0.3010 THANKS </s> -0.3010
-0.5229 THAT </s> -0.3010
-1.0000 THAT RIGHT -0.1139
-1.0000 THAT TRUE 0.0000
-0.6021 THATS PRETTY 0.0000
-0.6021 THATS RUDE 0.0000
-0.9031 THE END -0.1249
-0.9031 THE FLUFFIEST 0.0000
-0.9031 THE MAN 0.0000
-0.9031 THE OLD 0.0000
-0.3979 THINK </s> -0.3010
-1.0000 THINK FORTUNE 0.0000
-0.3010 THIRTY PROCENT 0.0000
-0.4323 THIS </s> -0.3010
-1.0607 THIS SENTENCE 0.0000
-1.6628 THIS WORD 0.0000
-1.6628 THIS WORKSPACE -0.2730
-0.3010 THREATHEN </s> -0.3010
-0.4973 THREE </s> -0.3010
-1.3424 THREE COLUMNS 0.0000
-1.3424 THREE MANA 0.0000
-1.0414 THREE OF -0.1919
-0.4771 THUNDERBIRD </s> -0.3010
-0.7782 THUNDERBIRD PREFERENCES 0.0000
-0.3010 TILDE </s> -0.3010
-0.3010 TIME IS -0.2341
-0.3010 TIMER </s> -0.3010
-0.6021 TITLE </s> -0.3010
-0.6021 TITLE EQUALS -0.1549
-2.0492 TO AMAZON 0.0000
-2.0492 TO ARMITAGE 0.0000
-2.0492 TO ATOM 0.0000
-2.0492 TO AUDACITY 0.0000
-2.0492 TO CALCULATOR 0.0000
-2.0492 TO CHROME 0.0000
-2.0492 TO CHROMIUM 0.0000
-2.0492 TO CURRENT -0.1761
-2.0492 TO DIAMOND 0.0000
-2.0492 TO DUMPERT 0.0000
-2.0492 TO E -0.2218
-2.0492 TO EVINCE 0.0000
-2.0492 TO EX -0.1091
-1.7482 TO FILE -0.1963
-2.0492 TO FIREFOX -0.0969
-2.0492 TO FOUR -0.2910
-2.0492 TO GEANY -0.0969
-2.0492 TO GEE -0.1461
-2.0492 TO HEARTHSTONE -0.1761
-2.0492 TO INBOX 0.0000
-1.7482 TO LEFT -0.0969
-2.0492 TO LIBREOFFICE 0.0000
-2.0492 TO NETFLIX 0.0000
-2.0492 TO NIGHT 0.0000
-2.0492 TO QUA 0.0000
-1.7482 TO R 0.0000
-2.0492 TO RECIPIENT 0.0000
-2.0492 TO RHYTHMBOX 0.0000
-1.7482 TO RIGHT -0.0792
-2.0492 TO SCORE 0.0000
-2.0492 TO SHOPPING 0.0000
-2.0492 TO SUBJECT 0.0000
-1.7482 TO TEE 0.0000
-2.0492 TO TERMINAL 0.0000
-2.0492 TO TERMINATOR 0.0000
-2.0492 TO THE -0.2430
-1.7482 TO THUNDERBIRD -0.1249
-2.0492 TO TRASH 0.0000
-2.0492 TO TWITCH 0.0000
-2.0492 TO UNDERSCORES 0.0000
-2.0492 TO UNISON 0.0000
-2.0492 TO V -0.2109
-2.0492 TO VOCAL 0.0000
-2.0492 TO VOLUME -0.2730
-1.4472 TO WORKSPACE -0.2430
-2.0492 TO WRITER 0.0000
-2.0492 TO YOU -0.2730
-0.3010 TODAYS DATE -0.1761
-0.3010 TODO </s> -0.3010
-0.3010 TOILET </s> -0.3010
-0.3010 TOOL KEY -0.1761
-0.3010 TOOLS MENU 0.0000
-0.7782 TOP </s> -0.3010
-0.7782 TOP SITE -0.1761
-0.7782 TOP TEN -0.2553
-0.3010 TORA </s> -0.3010
-0.6021 TOURNAMENT </s> -0.3010
-0.6021 TOURNAMENT PACK 0.0000
-0.3010 TRACK </s> -0.3010
-0.3010 TRACKER </s> -0.3010
-0.6021 TRANSFER KEEP 0.0000
-0.6021 TRANSFER TEXT -0.2041
-0.3010 TRASH </s> -0.3010
-0.3010 TRUE </s> -0.3010
-0.3010 TUBE </s> -0.3010
-0.3010 TURN </s> -0.3010
-0.3010 TWENTY PROCENT 0.0000
-0.3010 TWITCH </s> -0.3010
-0.4607 TWO </s> -0.3010
-1.4150 TWO COLUMNS 0.0000
-1.4150 TWO MANA 0.0000
-1.1139 TWO OF -0.1919
-0.3010 TYPE </s> -0.3010
-0.3010 U T -0.2825
-0.3010 UN MUTE 0.0000
-0.3010 UNCRAFTABLE CARDS 0.0000
-0.3010 UNDERSCORES </s> -0.3010
-0.3010 UNDO </s> -0.3010
-0.3010 UNFORMATTED PASTE 0.0000
-0.3010 UNISON </s> -0.3010
-0.3010 UNORDERED LIST -0.2218
-0.3010 UNREAD </s> -0.3010
-0.3522 UP </s> -0.3010
-1.2553 UP ARROW -0.0792
-0.7782 UPDATE </s> -0.3010
-1.2553 UPDATE ALTERNATIVES 0.0000
-0.9542 UPDATE BLADDER -0.0414
-1.2553 UPDATE CONFIG -0.2109
-1.2553 UPDATE MANAGER 0.0000
-1.2553 UPDATE SYSTEM -0.2218
-0.3010 UPDATES </s> -0.3010
-0.3010 UPGRADE </s> -0.3010
-0.3010 UPPERCASE </s> -0.3010
-0.6021 USER BIN -0.0969
-0.6021 USER LOCAL 0.0000
-0.3010 USERNAME FIELD 0.0000
-0.9031 V </s> -0.3010
-0.7270 V L -0.2109
-0.9031 V TAG 0.0000
-1.2041 V TAGS 0.0000
-0.3010 VALUES </s> -0.3010
-0.3010 VERBATIM HYPERLINK 0.0000
-0.3010 VIDEO </s> -0.3010
-0.3010 VIDEOS </s> -0.3010
-0.3010 VIEW MENU 0.0000
-0.3010 VOCAL </s> -0.3010
-0.3010 VOICE </s> -0.3010
-1.2041 VOLUME </s> -0.3010
-1.5051 VOLUME AIGHTY 0.0000
-1.2041 VOLUME CONTROL -0.2817
-1.5051 VOLUME FIFTY 0.0000
-1.5051 VOLUME FOURTY 0.0000
-1.5051 VOLUME HUNDERED 0.0000
-1.5051 VOLUME MAX 0.0000
-1.5051 VOLUME NINETY 0.0000
-1.5051 VOLUME SEVENTY 0.0000
-1.5051 VOLUME SIXTY 0.0000
-1.5051 VOLUME TEN -0.2041
-1.5051 VOLUME THIRTY 0.0000
-1.5051 VOLUME TWENTY 0.0000
-1.5051 VOLUME ZERO -0.2041
-0.3010 W </s> -0.3010
-0.3010 WARLOCK CLASS -0.1027
-0.3010 WARRIOR CLASS -0.1027
-0.3010 WARS </s> -0.3010
-0.3010 WE DO -0.1761
-0.6021 WEB FILES -0.2430
-0.6021 WEB SEARCH -0.1996
-0.3010 WEBSERVER PERMISSIONS 0.0000
-0.3010 WELL PLAYED 0.0000
-0.3010 WHADDAYA THINK -0.0792
-0.9031 WHAT CAN 0.0000
-0.9031 WHAT DAY 0.0000
-0.9031 WHAT DO -0.1761
-0.9031 WHAT TIME 0.0000
-0.3010 WHATS TODAYS 0.0000
-0.6021 WHEEL DOWN -0.0580
-0.6021 WHEEL UP -0.0458
-0.3010 WHISPERS OF -0.2888
-0.9031 WHO AM 0.0000
-0.9031 WHO ARE -0.1761
-0.6021 WHO IS -0.2341
-0.3010 WHOOPS </s> -0.3010
-0.3010 WIDTH </s> -0.3010
-0.3010 WILD </s> -0.3010
-0.4638 WINDOW </s> -0.3010
-1.5051 WINDOW AND -0.1761
-1.2041 WINDOW PID 0.0000
-1.2041 WINDOW TO -0.2852
-0.6021 WINDOWS </s> -0.3010
-0.6021 WINDOWS OF -0.2762
-0.3010 WITH CURSOR 0.0000
-0.3010 WORD </s> -0.3010
-0.3010 WORK EMAIL -0.0792
-1.2041 WORKSPACE </s> -0.3010
-1.2041 WORKSPACE DOWN -0.0580
-1.5051 WORKSPACE FOUR -0.1047
-1.2041 WORKSPACE LEFT -0.1383
-1.5051 WORKSPACE ONE -0.1347
-1.2041 WORKSPACE OP 0.0000
-1.2041 WORKSPACE RIGHT -0.1139
-1.5051 WORKSPACE THREE -0.1347
-1.5051 WORKSPACE TWO -0.1165
-1.2041 WORKSPACE UP -0.0458
-0.3010 WOW </s> -0.3010
-0.3010 WRITE AND -0.2632
-0.3010 WRITER </s> -0.3010
-1.1461 X </s> -0.3010
-0.5441 X COW 0.0000
-1.1461 X D -0.2688
-1.1461 X WHO -0.1761
-0.7782 YANK LINES 0.0000
-0.7782 YANK TO -0.2971
-0.7782 YANK WORD 0.0000
-0.3010 YES </s> -0.3010
-0.9031 YOU </s> -0.3010
-1.2041 YOU ARE -0.2430
-1.2041 YOU JUST 0.0000
-1.2041 YOU LISTENING 0.0000
-1.2041 YOU SAID 0.0000
-1.2041 YOU THINK -0.0792
-1.2041 YOU TUBE 0.0000
-0.6021 YOUR DESIGNATION 0.0000
-0.6021 YOUR SO 0.0000
-0.3010 YOUTUBE AUDIO -0.1249
-0.3010 ZEE OUT 0.0000
-0.6990 ZERO </s> -0.3010
-1.0000 ZERO MANA 0.0000
-0.6990 ZERO PROCENT 0.0000
-0.3010 ZILLA </s> -0.3010
-0.3010 ZIP </s> -0.3010
-0.6021 ZOOM IN -0.0969
-0.6021 ZOOM OUT 0.0000

\3-grams:
-0.3010 <s> AA FIRE
-0.6021 <s> ADD CONFIRM
-0.6021 <s> ADD CONFIRMATION
-0.3010 <s> ADDRESS FIELD
-0.3010 <s> ADVENTURE </s>
-0.3010 <s> ALIGN WITH
-0.3010 <s> ALTERNATE TEXT
-0.3010 <s> ALWAYS ON
-0.3010 <s> AMPLIFY THIS
-0.3010 <s> ANGLE BRACKET
-0.3010 <s> APACHE CONFIG
-0.3010 <s> APP LAUNCHER
-0.3010 <s> APPEND TO
-1.2041 <s> APT CASH
-1.2041 <s> APT DIST
-1.2041 <s> APT GET
-1.2041 <s> APT INSTALL
-0.9031 <s> APT UPDATE
-0.9031 <s> APT UPGRADE
-0.3010 <s> ARCHIVE THIS
-0.3010 <s> ARE YOU
-0.3010 <s> ARENA BUTTON
-0.3010 <s> ARTICLE TAGS
-0.3010 <s> ASCI AQUARIUM
-0.3010 <s> ASIDE TAGS
-0.6021 <s> ATTACK ENEMY
-0.6021 <s> ATTACK FACE
-0.3010 <s> AUDIO BOOKS
-0.6021 <s> BACK </s>
-0.6021 <s> BACK SPACE
-0.6021 <s> BASH HEADER
-0.6021 <s> BASH LOLCAT
-0.3010 <s> BE BE
-0.3010 <s> BIN BASH
-0.3010 <s> BLACKROCK </s>
-0.3010 <s> BLADDER CONFIG
-0.3010 <s> BLATHER HISTORY
-0.3010 <s> BLIND COPY
-0.3010 <s> BLOCK QUOTE
-0.3010 <s> BORDER TOILET
-1.4472 <s> BRIGHTNESS DOWN
-1.4472 <s> BRIGHTNESS EIGHTY
-1.4472 <s> BRIGHTNESS FIFTY
-1.4472 <s> BRIGHTNESS FOURTY
-1.4472 <s> BRIGHTNESS HUNDRED
-1.4472 <s> BRIGHTNESS MAX
-1.4472 <s> BRIGHTNESS NINETY
-1.4472 <s> BRIGHTNESS SEVENTY
-1.4472 <s> BRIGHTNESS SIXTY
-1.4472 <s> BRIGHTNESS TEN
-1.4472 <s> BRIGHTNESS THIRTY
-1.4472 <s> BRIGHTNESS TWENTY
-1.4472 <s> BRIGHTNESS UP
-1.4472 <s> BRIGHTNESS ZERO
-0.3010 <s> BROWSER HISTORY
-0.3010 <s> BUY BUTTON
-0.3010 <s> C S
-0.3010 <s> CAMEL CAPS
-0.6021 <s> CANCEL </s>
-0.6021 <s> CANCEL MATCH
-0.3010 <s> CAPITALIZE THIS
-1.1461 <s> CARD BACKS
-1.1461 <s> CARD FIVE
-1.1461 <s> CARD FOUR
-1.1461 <s> CARD ONE
-1.1461 <s> CARD SIX
-1.1461 <s> CARD THREE
-1.1461 <s> CARD TWO
-0.3010 <s> CARDS </s>
-0.3010 <s> CATAPULT </s>
-0.3010 <s> CD MIN
-0.6021 <s> CENTER CURSOR
-0.6021 <s> CENTER TAGS
-0.3010 <s> CHANGE WORD
-0.3010 <s> CHECK MAIL
-1.0000 <s> CHOOSE </s>
-1.0000 <s> CHOOSE FOUR
-1.0000 <s> CHOOSE ONE
-1.0000 <s> CHOOSE THREE
-1.0000 <s> CHOOSE TWO
-0.3010 <s> CITATION TAGS
-0.9031 <s> CLASS CARDS
-0.6021 <s> CLASS EQUALS
-0.9031 <s> CLASS IS
-0.3010 <s> CLASSIC PACK
-0.3010 <s> CLEAN COMPUTER
-0.3010 <s> CLEAR SEARCH
-0.6021 <s> CLICK AND
-0.6021 <s> CLICK HERE
-1.1461 <s> CLOSE CENTER
-1.1461 <s> CLOSE D
-1.1461 <s> CLOSE DIALOG
-1.1461 <s> CLOSE H
-1.1461 <s> CLOSE P
-1.1461 <s> CLOSE TAB
-1.1461 <s> CLOSE WINDOW
-0.9031 <s> COLON </s>
-0.9031 <s> COLON DOLLAR
-0.9031 <s> COLON W
-0.9031 <s> COLON ZERO
-0.3010 <s> COMMA </s>
-0.3010 <s> COMPRESS THIS
-0.3010 <s> COMPRESSION VALUES
-0.6021 <s> CONCEDE </s>
-0.6021 <s> CONCEDE BUTTON
-0.3010 <s> CONFIG HIGHLIGHTING
-0.3010 <s> CONFIRM </s>
-1.6232 <s> CONTROL A
-1.6232 <s> CONTROL ARE
-1.6232 <s> CONTROL B
-1.6232 <s> CONTROL C
-1.6232 <s> CONTROL D
-1.6232 <s> CONTROL E
-1.6232 <s> CONTROL ENTER
-1.6232 <s> CONTROL F
-1.6232 <s> CONTROL H
-1.6232 <s> CONTROL I
-1.6232 <s> CONTROL IN
-1.6232 <s> CONTROL K
-1.6232 <s> CONTROL L
-1.6232 <s> CONTROL O
-1.6232 <s> CONTROL P
-0.8451 <s> CONTROL SHIFT
-1.0792 <s> COPY </s>
-1.0792 <s> COPY THIS
-0.4771 <s> COPY TO
-0.3010 <s> CORPORATE BULLSHIT
-0.6021 <s> COW SAY
-0.6021 <s> COW THINK
-0.3010 <s> CRAFTING </s>
-0.3010 <s> CUT </s>
-0.3010 <s> D I
-1.2553 <s> DECK EIGHT
-1.2553 <s> DECK FIVE
-1.2553 <s> DECK FOUR
-1.2553 <s> DECK NINE
-1.2553 <s> DECK ONE
-1.2553 <s> DECK SEVEN
-1.2553 <s> DECK SIX
-1.2553 <s> DECK THREE
-1.2553 <s> DECK TWO
-0.6021 <s> DEFINITION DATA
-0.6021 <s> DEFINITION TERM
-0.9031 <s> DELETE LINES
-0.9031 <s> DELETE PREVIOUS
-0.9031 <s> DELETE THIS
-0.9031 <s> DELETE WORD
-0.6021 <s> DISENCHANT </s>
-0.6021 <s> DISENCHANT EXTRA
-0.7782 <s> DISPLAY BLOCK
-0.7782 <s> DISPLAY INLINE
-0.7782 <s> DISPLAY NONE
-0.3010 <s> DOCUMENT MENU
-0.3010 <s> DONT SAVE
-0.3010 <s> DOUBLE CLICK
-0.3010 <s> DOWN ARROW
-0.3010 <s> DOWNLOADS </s>
-0.3010 <s> DROP CARD
-0.3010 <s> DRUID CLASS
-0.7782 <s> ECHO EE
-0.7782 <s> ECHO MOUSE
-0.7782 <s> ECHO VOICE
-0.3010 <s> EDIT MENU
-0.6021 <s> EIGHT BALL
-0.6021 <s> EIGHT COLUMNS
-0.3010 <s> EMAIL HYPERLINK
-0.3010 <s> EMOTE </s>
-0.3010 <s> EMPTY TRASH
-0.3010 <s> END TURN
-0.6021 <s> ENEMY </s>
-0.6021 <s> ENEMY FACE
-0.3010 <s> ENGINE EX
-1.4472 <s> ENTER CELL
-1.4472 <s> ENTER CITY
-1.4472 <s> ENTER DADS
-1.4472 <s> ENTER FIBER
-1.4472 <s> ENTER FIRST
-1.1461 <s> ENTER FULL
-1.4472 <s> ENTER GEE
-1.4472 <s> ENTER LAST
-1.4472 <s> ENTER NICK
-1.4472 <s> ENTER OFFICE
-1.4472 <s> ENTER STREET
-1.4472 <s> ENTER WORK
-1.4472 <s> ENTER ZIP
-0.3010 <s> EQUALS </s>
-0.3010 <s> ESCAPE </s>
-0.3010 <s> EX CHAT
-0.3010 <s> EXCLAMATION POINT
-0.3010 <s> EXIT </s>
-0.6021 <s> FACE ENEMY
-0.6021 <s> FACE HERO
-0.7782 <s> FILE MENU
-0.7782 <s> FILE SPECIFICATIONS
-0.7782 <s> FILE SPECS
-1.5051 <s> FILTER BASIC
-1.5051 <s> FILTER CLASSIC
-1.5051 <s> FILTER FIVE
-1.5051 <s> FILTER FOUR
-1.5051 <s> FILTER GOBLINS
-1.5051 <s> FILTER GRAND
-1.5051 <s> FILTER LEAGUE
-1.5051 <s> FILTER OLD
-1.5051 <s> FILTER ONE
-1.5051 <s> FILTER SEVEN
-1.5051 <s> FILTER SIX
-1.5051 <s> FILTER STANDARD
-1.5051 <s> FILTER THREE
-1.5051 <s> FILTER TWO
-1.5051 <s> FILTER WILD
-1.5051 <s> FILTER ZERO
-0.3010 <s> FIND ON
-0.3010 <s> FIREFOX PREFERENCES
-0.6021 <s> FIRST INBOX
-0.6021 <s> FIRST SENT
-0.6021 <s> FIVE COLUMNS
-0.6021 <s> FIVE SPACES
-0.3010 <s> FIX SPACING
-0.3010 <s> FLAT SYMBOL
-0.3010 <s> FORMAT MENU
-0.6021 <s> FOUR COLUMNS
-0.6021 <s> FOUR SPACES
-0.3010 <s> FRIENDS </s>
-0.3010 <s> FROWNEY FACE
-0.6021 <s> FULL SCREEN
-0.6021 <s> FULL SIZE
-0.3010 <s> GAY TOILET
-0.7782 <s> GET MOUSE
-0.7782 <s> GET PUSH
-0.7782 <s> GET WINDOW
-1.0792 <s> GIT ADD
-1.0792 <s> GIT COMMIT
-1.0792 <s> GIT MERGE
-1.0792 <s> GIT PULL
-1.0792 <s> GIT PUSH
-1.0792 <s> GIT STATUS
-0.3010 <s> GIVE UP
-1.9031 <s> GO BACK
-1.9031 <s> GO FORWARD
-0.3233 <s> GO TO
-0.3010 <s> GOOD MORNING
-0.3010 <s> GOOGLE THIS
-0.3010 <s> GRAB THAT
-0.3010 <s> GRAND TOURNAMENT
-0.3010 <s> GREETINGS </s>
-0.3010 <s> H T
-0.3010 <s> HALF SIZE
-0.3010 <s> HASH TAG
-0.7782 <s> HEARTHSTONE CHAT
-0.7782 <s> HEARTHSTONE OPEN
-0.7782 <s> HEARTHSTONE OPTIONS
-0.3010 <s> HELLO </s>
-0.3010 <s> HELP MENU
-1.1461 <s> HERO </s>
-1.1461 <s> HERO ATTACK
-1.1461 <s> HERO CARDS
-1.1461 <s> HERO FACE
-0.6690 <s> HERO POWER
-0.3010 <s> HEROES </s>
-0.3010 <s> HOME BIN
-0.3010 <s> HOOS THE
-0.3010 <s> HUGE GRIN
-0.3010 <s> HUNTER CLASS
-0.3010 <s> HYPHENATE THIS
-0.3010 <s> I D
-0.3010 <s> IK BEN
-0.6021 <s> IMAGE C
-0.6021 <s> IMAGE D
-0.3010 <s> IN IT
-0.3010 <s> INCLUDE UNCRAFTABLE
-0.3010 <s> INFO BUTTON
-1.4472 <s> INSERT AUDIO
-1.4472 <s> INSERT AWK
-1.4472 <s> INSERT EYE
-1.4472 <s> INSERT HYPERLINK
-1.4472 <s> INSERT IMAGE
-1.1461 <s> INSERT KEY
-1.4472 <s> INSERT MENU
-1.4472 <s> INSERT PANEL
-1.4472 <s> INSERT PHONE
-1.4472 <s> INSERT POPUP
-1.4472 <s> INSERT PRINT
-1.4472 <s> INSERT SED
-1.4472 <s> INSERT VIDEO
-0.3010 <s> IS THAT
-0.3010 <s> ITALICIZE </s>
-0.3010 <s> JAVASCRIPT DATE
-1.0792 <s> KILL BE
-1.0792 <s> KILL BLADDER
-1.0792 <s> KILL ONEKO
-1.0792 <s> KILL RADIO
-1.0792 <s> KILL VOCAL
-1.0792 <s> KILL WINDOW
-0.3010 <s> L S
-0.3010 <s> LABELS HEADER
-0.3010 <s> LATEX HIGHLIGHTING
-0.3010 <s> LEAGUE OF
-0.6021 <s> LEFT ARROW
-0.6021 <s> LEFT CLICK
-0.3010 <s> LINK TO
-0.3010 <s> LIST ITEM
-0.3010 <s> LOCK SCREEN
-0.3010 <s> LOWER VOLUME
-0.3010 <s> M S
-0.3010 <s> MAGE CLASS
-1.0792 <s> MAKE BOLD
-1.0792 <s> MAKE LOWERCASE
-1.0792 <s> MAKE NOTE
-1.0792 <s> MAKE SUPER
-1.0792 <s> MAKE SUPERSCRIPT
-1.0792 <s> MAKE UPPERCASE
-1.0792 <s> MARKDOWN BOLD
-1.0792 <s> MARKDOWN CODE
-1.0792 <s> MARKDOWN HEADER
-1.0792 <s> MARKDOWN HYPERLINK
-1.0792 <s> MARKDOWN ITALICS
-1.0792 <s> MARKDOWN PREVIEW
-0.3010 <s> MAXIMIZE WINDOW
-1.3424 <s> META BOB
-1.3424 <s> META C
-1.3424 <s> META EFF
-1.3424 <s> META EYE
-1.3424 <s> META F
-1.3424 <s> META L
-1.3424 <s> META M
-1.3424 <s> META N
-1.3424 <s> META P
-1.3424 <s> META SCOOBY
-1.3424 <s> META W
-0.3010 <s> METAL TOILET
-0.3010 <s> MIDDLE CLICK
-0.3010 <s> MINIMIZE WINDOW
-0.3010 <s> MOUSE WHEEL
-0.6021 <s> MOVE TO
-1.0280 <s> MOVE WINDOW
-0.8062 <s> MOVE WORKSPACE
-0.3010 <s> MUTE SOUND
-0.3010 <s> MY COLLECTION
-0.3010 <s> N MAP
-0.3010 <s> NATURAL SYMBOL
-0.3010 <s> NET MAP
-0.6021 <s> NEUTRAL CARDS
-0.6021 <s> NEUTRAL CLASS
-1.3010 <s> NEW BULLET
-1.3010 <s> NEW FILE
-1.0000 <s> NEW LINE
-1.3010 <s> NEW LIST
-1.3010 <s> NEW SECTION
-1.3010 <s> NEW TAB
-1.3010 <s> NEW TABLE
-1.3010 <s> NEW WEB
-1.3010 <s> NEW WINDOW
-1.1461 <s> NEXT BUFFER
-1.1461 <s> NEXT HERO
-1.1461 <s> NEXT PAGE
-1.1461 <s> NEXT TAB
-1.1461 <s> NEXT TRACK
-1.1461 <s> NEXT UNREAD
-1.1461 <s> NEXT WORD
-0.3010 <s> NINE COLUMNS
-0.7782 <s> NO DECORATION
-0.4771 <s> NO SCRIPT
-0.3010 <s> NORMAL SPEED
-0.3010 <s> OEPS </s>
-0.3010 <s> ONE COLUMNS
-0.9031 <s> ONEKO CAT
-0.9031 <s> ONEKO DOG
-0.9031 <s> ONEKO SAKURA
-0.9031 <s> ONEKO TORA
-0.3010 <s> OOPS </s>
-1.9138 <s> OPEN ARMITAGE
-1.9138 <s> OPEN ATOM
-1.9138 <s> OPEN AUDACITY
-1.6128 <s> OPEN BLADDER
-1.9138 <s> OPEN CALCULATOR
-1.9138 <s> OPEN CENTER
-1.9138 <s> OPEN CHROME
-1.9138 <s> OPEN CHROMIUM
-1.9138 <s> OPEN CONTACTS
-1.9138 <s> OPEN D
-1.9138 <s> OPEN EVINCE
-1.9138 <s> OPEN EX
-1.4367 <s> OPEN FILE
-1.9138 <s> OPEN FIREFOX
-1.9138 <s> OPEN GEANY
-1.6128 <s> OPEN GEE
-1.9138 <s> OPEN H
-1.9138 <s> OPEN HEARTHSTONE
-1.9138 <s> OPEN LAST
-1.9138 <s> OPEN LIBREOFFICE
-1.9138 <s> OPEN NOTES
-1.9138 <s> OPEN P
-1.9138 <s> OPEN PACKS
-1.9138 <s> OPEN QUA
-1.6128 <s> OPEN R
-1.9138 <s> OPEN RHYTHMBOX
-1.9138 <s> OPEN TEE
-1.9138 <s> OPEN TERMINAL
-1.9138 <s> OPEN TERMINATOR
-1.9138 <s> OPEN THUNDERBIRD
-1.9138 <s> OPEN TODO
-1.9138 <s> OPEN UNISON
-1.9138 <s> OPEN V
-1.9138 <s> OPEN VOCAL
-1.9138 <s> OPEN VOLUME
-1.9138 <s> OPEN WRITER
-0.3010 <s> OPTIMAL COLUMN
-0.6021 <s> PACKAGE INFO
-0.6021 <s> PACKAGE SEARCH
-0.9031 <s> PAGE BACK
-0.9031 <s> PAGE DOWN
-0.9031 <s> PAGE FORWARD
-0.9031 <s> PAGE UP
-0.3010 <s> PALADIN CLASS
-0.3010 <s> PARAGRAPH TAGS
-0.3010 <s> PASS FILTER
-0.3010 <s> PASTE </s>
-0.3010 <s> PAUSE PLAY
-0.3010 <s> PERENTHESIZE THIS
-0.3010 <s> PERFECT </s>
-0.3010 <s> PERIOD </s>
-0.3010 <s> PHOTO BY
-0.3010 <s> PING TEST
-1.0000 <s> PLAY BUTTON
-0.6990 <s> PLAY CARD
-1.0000 <s> PLAY FASTER
-1.0000 <s> PLAY PAUSE
-0.3010 <s> POPUP JAVASCRIPT
-0.3010 <s> POST FROM
-0.3010 <s> PREFORMATTED TEXT
-1.6232 <s> PRESS DELETE
-1.6232 <s> PRESS EIGHT
-1.6232 <s> PRESS END
-1.6232 <s> PRESS ENTER
-1.6232 <s> PRESS ESCAPE
-1.6232 <s> PRESS F
-1.6232 <s> PRESS FIVE
-1.6232 <s> PRESS FOUR
-1.6232 <s> PRESS HOME
-1.6232 <s> PRESS I
-1.6232 <s> PRESS NINE
-1.6232 <s> PRESS NO
-1.6232 <s> PRESS ONE
-1.6232 <s> PRESS Q
-1.6232 <s> PRESS SEVEN
-1.6232 <s> PRESS SIX
-1.6232 <s> PRESS TAB
-1.6232 <s> PRESS THREE
-1.6232 <s> PRESS TWO
-1.6232 <s> PRESS YES
-1.6232 <s> PRESS ZERO
-1.0792 <s> PREVIOUS BUFFER
-1.0792 <s> PREVIOUS HERO
-1.0792 <s> PREVIOUS PAGE
-1.0792 <s> PREVIOUS TAB
-1.0792 <s> PREVIOUS TRACK
-1.0792 <s> PREVIOUS WORD
-0.3010 <s> PRIEST CLASS
-0.3010 <s> PRINT WINDOW
-0.6021 <s> PUT AFTER
-0.6021 <s> PUT BEFORE
-0.3010 <s> QUARTER NOTE
-0.3010 <s> QUESTION MARK
-0.3010 <s> QUESTS </s>
-1.7924 <s> QUIT APPLICATION
-1.7924 <s> QUIT ARMITAGE
-1.7924 <s> QUIT ATOM
-1.7924 <s> QUIT BE
-1.7924 <s> QUIT BLADDER
-1.7924 <s> QUIT CALCULATOR
-1.7924 <s> QUIT CHROME
-1.7924 <s> QUIT CHROMIUM
-1.7924 <s> QUIT EVINCE
-1.7924 <s> QUIT EX
-1.4914 <s> QUIT FILE
-1.7924 <s> QUIT FIREFOX
-1.7924 <s> QUIT GEANY
-1.7924 <s> QUIT GEE
-1.7924 <s> QUIT HEARTHSTONE
-1.7924 <s> QUIT LIBREOFFICE
-1.7924 <s> QUIT ONEKO
-1.7924 <s> QUIT QUA
-1.4914 <s> QUIT R
-1.7924 <s> QUIT RADIO
-1.7924 <s> QUIT RHYTHMBOX
-1.7924 <s> QUIT TERMINAL
-1.7924 <s> QUIT TERMINATOR
-1.7924 <s> QUIT THUNDERBIRD
-1.7924 <s> QUIT UNISON
-1.7924 <s> QUIT V
-1.7924 <s> QUIT VOCAL
-1.7924 <s> QUIT WINDOW
-1.7924 <s> QUIT WRITER
-0.3010 <s> QUOTE THIS
-1.0000 <s> RADIO 3FM
-1.0000 <s> RADIO 538
-1.0000 <s> RADIO ARROW
-1.0000 <s> RADIO FUN
-1.0000 <s> RADIO SLAM
-0.3010 <s> RAISE VOLUME
-0.3010 <s> REBOOT </s>
-0.6021 <s> RECENT GEANY
-0.6021 <s> RECENT L
-0.3010 <s> REFRESH PAGE
-0.3010 <s> REMOVE SPACES
-0.3010 <s> REPEAT AFTER
-0.3010 <s> REPLACE ALL
-0.3010 <s> REPLAY TRACK
-0.9031 <s> RESTART APACHE
-0.9031 <s> RESTART BLADDER
-0.9031 <s> RESTART ENGINE
-0.9031 <s> RESTART TRACK
-0.3010 <s> RESTORE WINDOW
-0.6021 <s> RIGHT ARROW
-0.6021 <s> RIGHT CLICK
-0.3010 <s> ROGUE CLASS
-0.3010 <s> S L
-0.4771 <s> SAVE FILE
-0.7782 <s> SAVE LINK
-0.3010 <s> SCHOOL OF
-0.3010 <s> SCREEN OFF
-0.6021 <s> SCROLL DOWN
-0.6021 <s> SCROLL UP
-1.2041 <s> SEARCH </s>
-1.2041 <s> SEARCH APPLICATIONS
-1.2041 <s> SEARCH FIELD
-1.2041 <s> SEARCH FILES
-0.9031 <s> SEARCH MUSIC
-1.2041 <s> SEARCH PHOTOS
-1.2041 <s> SEARCH VIDEOS
-0.6021 <s> SECOND INBOX
-0.6021 <s> SECOND SENT
-0.3010 <s> SECTION LABEL
-0.6021 <s> SEE MATRIX
-0.6021 <s> SEE RETURN
-1.0280 <s> SELECT ALL
-0.5509 <s> SELECT HERO
-1.5051 <s> SELECT PREVIOUS
-1.0280 <s> SELECT THIS
-0.3010 <s> SEMICOLON </s>
-0.3010 <s> SEND EMAIL
-0.6021 <s> SET ALARM
-0.6021 <s> SET SLEEP
-0.3010 <s> SEVEN COLUMNS
-0.3010 <s> SHAMAN CLASS
-0.3010 <s> SHARP SYMBOL
-0.3010 <s> SHE BANG
-0.3010 <s> SHOP </s>
-0.3010 <s> SHORTEN YOU
-1.0792 <s> SHOW ALL
-1.3802 <s> SHOW CLIP
-1.3802 <s> SHOW DESKTOP
-0.7782 <s> SHOW ON
-1.3802 <s> SHOW ONLY
-0.9031 <s> SHOW WINDOWS
-0.3010 <s> SHUT UP
-0.6021 <s> SING GLADIS
-0.6021 <s> SING GLADOS
-0.3010 <s> SITE MANAGER
-0.6021 <s> SITES AVAILABLE
-0.6021 <s> SITES ENABLED
-0.3010 <s> SIX COLUMNS
-0.3010 <s> SLASH ET
-0.3010 <s> SMART QUOTES
-0.3010 <s> SMILEY FACE
-0.6021 <s> SOFTWARE AND
-0.6021 <s> SOFTWARE PROPERTIES
-0.3010 <s> SOLO PLAY
-0.3010 <s> SORT THIS
-0.3010 <s> SPACE BAR
-0.3010 <s> SPACES TO
-0.3010 <s> SPAN THIS
-0.3010 <s> SPANDEX </s>
-0.3010 <s> SPEAK THIS
-0.6021 <s> SPECIALTY CLASS
-0.6021 <s> SPECIALTY SPAN
-0.3010 <s> SPLIT BUFFER
-0.3010 <s> STAR WARS
-0.3010 <s> START SELECTION
-0.3010 <s> STATE YOUR
-0.3010 <s> STATUS REPORT
-0.9031 <s> STOP RADIO
-0.9031 <s> STOP SELECTION
-0.9031 <s> STOP SINGING
-0.9031 <s> STOP SPEAKING
-0.6021 <s> SUDO </s>
-0.6021 <s> SUDO CLEAN
-0.3010 <s> SUPER KEY
-1.0000 <s> SWAP ALL
-1.0000 <s> SWAP FOUR
-1.0000 <s> SWAP ONE
-1.0000 <s> SWAP THREE
-1.0000 <s> SWAP TWO
-0.7782 <s> SWITCH BACK
-0.7782 <s> SWITCH SWITCH
-0.7782 <s> SWITCH WINDOW
-0.3010 <s> SYNAPTIC </s>
-0.3010 <s> SYNC BLADDER
-0.6021 <s> SYSTEM LOG
-0.6021 <s> SYSTEM UPDATE
-1.3010 <s> TAB EIGHT
-1.3010 <s> TAB FIVE
-1.3010 <s> TAB FOUR
-1.3010 <s> TAB NINE
-1.3010 <s> TAB ONE
-1.3010 <s> TAB SEVEN
-1.3010 <s> TAB SIX
-1.3010 <s> TAB TEN
-1.3010 <s> TAB THREE
-1.3010 <s> TAB TWO
-0.7782 <s> TABLE DATA
-0.7782 <s> TABLE HEADER
-0.7782 <s> TABLE TAGS
-0.3010 <s> TAKE SCREENSHOT
-0.3010 <s> TARGET EQUALS
-0.3010 <s> TAVERN BRAWL
-0.3010 <s> TEN COLUMNS
-0.3010 <s> TESTING EE
-0.3010 <s> TEXT ALIGN
-0.3010 <s> THANK YOU
-0.3010 <s> THANKS </s>
-0.6021 <s> THATS PRETTY
-0.6021 <s> THATS RUDE
-0.3010 <s> THREATHEN </s>
-0.3010 <s> THREE COLUMNS
-0.3010 <s> THUNDERBIRD PREFERENCES
-0.3010 <s> TILDE </s>
-0.3010 <s> TITLE EQUALS
-0.3010 <s> TOILET </s>
-0.3010 <s> TOOLS MENU
-0.3010 <s> TOP TEN
-0.6021 <s> TRANSFER KEEP
-0.6021 <s> TRANSFER TEXT
-0.3010 <s> TWO COLUMNS
-0.3010 <s> U T
-0.3010 <s> UN MUTE
-0.3010 <s> UNDO </s>
-0.3010 <s> UNFORMATTED PASTE
-0.3010 <s> UNORDERED LIST
-0.3010 <s> UP ARROW
-1.0792 <s> UPDATE ALTERNATIVES
-0.7782 <s> UPDATE BLADDER
-1.0792 <s> UPDATE CONFIG
-1.0792 <s> UPDATE MANAGER
-1.0792 <s> UPDATE SYSTEM
-0.6021 <s> USER BIN
-0.6021 <s> USER LOCAL
-0.3010 <s> USERNAME FIELD
-0.3010 <s> VERBATIM HYPERLINK
-0.3010 <s> VIEW MENU
-1.3802 <s> VOLUME AIGHTY
-1.3802 <s> VOLUME FIFTY
-1.3802 <s> VOLUME FOURTY
-1.3802 <s> VOLUME HUNDERED
-1.3802 <s> VOLUME MAX
-1.3802 <s> VOLUME NINETY
-1.3802 <s> VOLUME SEVENTY
-1.3802 <s> VOLUME SIXTY
-1.3802 <s> VOLUME TEN
-1.3802 <s> VOLUME THIRTY
-1.3802 <s> VOLUME TWENTY
-1.3802 <s> VOLUME ZERO
-0.3010 <s> WARLOCK CLASS
-0.3010 <s> WARRIOR CLASS
-0.3010 <s> WEB FILES
-0.3010 <s> WEBSERVER PERMISSIONS
-0.3010 <s> WELL PLAYED
-0.3010 <s> WHADDAYA THINK
-0.9031 <s> WHAT CAN
-0.9031 <s> WHAT DAY
-0.9031 <s> WHAT DO
-0.9031 <s> WHAT TIME
-0.3010 <s> WHATS TODAYS
-0.3010 <s> WHISPERS OF
-0.7782 <s> WHO AM
-0.7782 <s> WHO ARE
-0.7782 <s> WHO IS
-0.3010 <s> WHOOPS </s>
-1.0000 <s> WORKSPACE DOWN
-1.0000 <s> WORKSPACE LEFT
-1.0000 <s> WORKSPACE OP
-1.0000 <s> WORKSPACE RIGHT
-1.0000 <s> WORKSPACE UP
-0.3010 <s> WOW </s>
-0.3010 <s> WRITE AND
-0.4771 <s> X COW
-1.0792 <s> X D
-1.0792 <s> X WHO
-0.7782 <s> YANK LINES
-0.7782 <s> YANK TO
-0.7782 <s> YANK WORD
-0.6021 <s> YOU JUST
-0.6021 <s> YOU SAID
-0.3010 <s> YOUR SO
-0.3010 <s> YOUTUBE AUDIO
-0.3010 <s> ZEE OUT
-0.6021 <s> ZOOM IN
-0.6021 <s> ZOOM OUT
-0.3010 AA FIRE </s>
-0.3010 ADD CONFIRM </s>
-0.3010 ADD CONFIRMATION </s>
-0.3010 ADDRESS FIELD </s>
-0.3010 AFTER ME </s>
-0.3010 AIGHTY PROCENT </s>
-0.3010 ALIGN CENTER </s>
-0.3010 ALIGN LEFT </s>
-0.3010 ALIGN WITH CURSOR
-0.3010 ALL DESKTOPS </s>
-0.3010 ALL FOUR </s>
-0.3010 ALL UNREAD </s>
-0.3010 ALL WINDOWS </s>
-0.3010 ALL WORKSPACE </s>
-0.3010 ALLOW TOP SITE
-0.3010 ALTERNATE TEXT EQUALS
-0.3010 ALWAYS ON TOP
-0.3010 AM I </s>
-0.3010 AMPLIFY THIS </s>
-0.3010 AND COPY </s>
-0.3010 AND HOLD </s>
-0.3010 AND QUIT </s>
-0.3010 AND UPDATES </s>
-0.3010 ANGLE BRACKET THIS
-0.3010 APACHE CONFIG DERR
-0.3010 APP LAUNCHER </s>
-0.3010 APPEND TO CURRENT
-0.3010 APT CASH SEARCH
-0.3010 APT DIST UPGRADE
-0.3010 APT GET INSTALL
-0.3010 APT INSTALL </s>
-0.3010 APT UPDATE </s>
-0.3010 APT UPGRADE </s>
-0.3010 ARCHIVE THIS </s>
-0.3010 ARE EL </s>
-0.6021 ARE YOU </s>
-0.6021 ARE YOU LISTENING
-0.3010 ARENA BUTTON </s>
-0.3010 ARENA TRACKER </s>
-0.3010 ARROW CLASSIC ROCK
-0.3010 ARTICLE TAGS </s>
-0.3010 ASCI AQUARIUM </s>
-0.3010 ASIDE TAGS </s>
-0.6021 ATTACK ENEMY </s>
-0.6021 ATTACK ENEMY FACE
-0.3010 ATTACK FACE </s>
-0.3010 AUDIO BOOKS </s>
-0.3010 AWK EXPRESSION </s>
-0.3010 BACK SPACE </s>
-0.3010 BASH HEADER </s>
-0.3010 BASH LOLCAT </s>
-0.3010 BE BE </s>
-0.3010 BEN BAUKE </s>
-0.3010 BIN BASH </s>
-0.6021 BLADDER CONFIG </s>
-0.9031 BLADDER CONFIG DERR
-0.9031 BLADDER CONFIG FILE
-0.3010 BLADDER FOLDER </s>
-0.3010 BLATHER HISTORY </s>
-0.3010 BLIND COPY </s>
-0.3010 BLOCK QUOTE TAGS
-0.3010 BOOK TITLE </s>
-0.3010 BORDER TOILET </s>
-0.3010 BRACKET THIS </s>
-0.3010 BRIGHTNESS DOWN </s>
-0.3010 BRIGHTNESS EIGHTY PROCENT
-0.3010 BRIGHTNESS FIFTY PROCENT
-0.3010 BRIGHTNESS FOURTY PROCENT
-0.3010 BRIGHTNESS HUNDRED PROCENT
-0.3010 BRIGHTNESS MAX </s>
-0.3010 BRIGHTNESS NINETY PROCENT
-0.3010 BRIGHTNESS SEVENTY PROCENT
-0.3010 BRIGHTNESS SIXTY PROCENT
-0.3010 BRIGHTNESS TEN PROCENT
-0.3010 BRIGHTNESS THIRTY PROCENT
-0.3010 BRIGHTNESS TWENTY PROCENT
-0.3010 BRIGHTNESS UP </s>
-0.3010 BRIGHTNESS ZERO PROCENT
-0.3010 BROWSER HISTORY </s>
-0.3010 BULLET POINT </s>
-0.3010 BUY BUTTON </s>
-0.3010 BY DANNY </s>
-0.3010 C S S
-0.3010 CAMEL CAPS THIS
-0.3010 CAN WE DO
-0.3010 CANCEL MATCH </s>
-0.3010 CAPITALIZE THIS </s>
-0.3010 CAPS THIS </s>
-0.3010 CARD BACKS </s>
-0.3010 CARD FIVE </s>
-0.3010 CARD FOUR </s>
-0.3010 CARD ON SELF
-0.3010 CARD ONE </s>
-0.3010 CARD SIX </s>
-0.3010 CARD THREE </s>
-0.3010 CARD TWO </s>
-0.3010 CASH SEARCH </s>
-0.3010 CD MIN </s>
-0.3010 CELL PHONE </s>
-0.3010 CENTER CURSOR </s>
-0.3010 CENTER TAG </s>
-0.3010 CENTER TAGS </s>
-0.3010 CHANGE WORD </s>
-0.3010 CHAT REPLY </s>
-0.3010 CHECK MAIL </s>
-0.3010 CHOOSE FOUR OF
-0.3010 CHOOSE ONE OF
-0.3010 CHOOSE THREE OF
-0.3010 CHOOSE TWO OF
-0.3010 CITATION TAGS </s>
-0.3010 CLASS CARDS </s>
-0.6021 CLASS EQUALS RIGHT
-0.6021 CLASS EQUALS THIS
-0.3010 CLASS IS RIGHT
-0.3010 CLASSIC PACK </s>
-0.3010 CLASSIC ROCK </s>
-0.3010 CLEAN COMPUTER </s>
-0.3010 CLEAR SEARCH </s>
-0.3010 CLICK AND HOLD
-0.3010 CLICK HERE </s>
-0.3010 CLIP BOARD </s>
-0.3010 CLOSE CENTER TAG
-0.3010 CLOSE D I
-0.3010 CLOSE DIALOG </s>
-0.3010 CLOSE H REF
-0.3010 CLOSE P TAG
-0.3010 CLOSE TAB </s>
-0.3010 CLOSE WINDOW </s>
-0.3010 COLON DOLLAR SIGN
-0.3010 COLON W </s>
-0.3010 COLON ZERO </s>
-0.3010 COLUMN WIDTH </s>
-0.3010 COMMIT ALL </s>
-0.3010 COMPRESS THIS </s>
-0.3010 COMPRESSION VALUES </s>
-0.3010 CONCEDE BUTTON </s>
-0.3010 CONFIG DERR </s>
-0.3010 CONFIG FILE </s>
-0.3010 CONFIG HIGHLIGHTING </s>
-0.3010 CONTROL A </s>
-0.3010 CONTROL ARE </s>
-0.3010 CONTROL B </s>
-0.3010 CONTROL C </s>
-0.3010 CONTROL D </s>
-0.3010 CONTROL E </s>
-0.3010 CONTROL ENTER </s>
-0.3010 CONTROL F </s>
-0.3010 CONTROL H </s>
-0.3010 CONTROL I </s>
-0.3010 CONTROL IN </s>
-0.3010 CONTROL K </s>
-0.3010 CONTROL L </s>
-0.3010 CONTROL O </s>
-0.3010 CONTROL P </s>
-1.0792 CONTROL SHIFT C
-1.0792 CONTROL SHIFT E
-1.0792 CONTROL SHIFT IN
-1.0792 CONTROL SHIFT O
-1.0792 CONTROL SHIFT V
-1.0792 CONTROL SHIFT W
-0.3010 COPY THIS SENTENCE
-0.9031 COPY TO RECIPIENT
-0.9031 COPY TO SUBJECT
-0.9031 COPY TO TEE
-0.9031 COPY TO THUNDERBIRD
-0.3010 CORPORATE BULLSHIT </s>
-0.3010 COW FORTUNE </s>
-0.3010 COW SAY </s>
-0.4771 COW THINK </s>
-0.7782 COW THINK FORTUNE
-0.3010 CURRENT DESKTOP </s>
-0.3010 CURRENT LINE </s>
-0.3010 D EQUALS THIS
-0.3010 D I V
-0.3010 D O TOOL
-0.3010 DADS EMAIL </s>
-0.3010 DATA TAGS </s>
-0.3010 DATE CODE </s>
-0.3010 DAY IS IT
-0.3010 DECK EIGHT </s>
-0.3010 DECK FIVE </s>
-0.3010 DECK FOUR </s>
-0.3010 DECK NINE </s>
-0.3010 DECK ONE </s>
-0.3010 DECK SEVEN </s>
-0.3010 DECK SIX </s>
-0.3010 DECK THREE </s>
-0.3010 DECK TWO </s>
-0.3010 DEFINITION DATA TAGS
-0.3010 DEFINITION TERM TAGS
-0.3010 DELETE LINES </s>
-0.3010 DELETE PREVIOUS SENTENCE
-0.3010 DELETE THIS SENTENCE
-0.3010 DELETE WORD </s>
-0.3010 DIAMOND CLUB </s>
-0.3010 DISENCHANT EXTRA CARDS
-0.3010 DISPLAY BLOCK </s>
-0.3010 DISPLAY INLINE </s>
-0.3010 DISPLAY NONE </s>
-0.3010 DIST UPGRADE </s>
-0.3010 DO IM BORED
-0.3010 DO YOU THINK
-0.3010 DOCUMENT MENU </s>
-0.3010 DOLLAR SIGN </s>
-0.3010 DONT SAVE </s>
-0.3010 DOUBLE CLICK </s>
-0.3010 DOWN ARROW </s>
-0.3010 DROP CARD </s>
-0.3010 DRUID CLASS </s>
-0.3010 E BAY </s>
-0.3010 ECHO EE SPEAK
-0.3010 ECHO MOUSE LOCATION
-0.3010 ECHO VOICE </s>
-0.3010 EDIT MENU </s>
-0.3010 EE SPEAK </s>
-0.3010 EFF TWO </s>
-0.3010 EIGHT BALL </s>
-0.3010 EIGHT COLUMNS </s>
-0.3010 EIGHT HEADER </s>
-0.3010 EIGHTY PROCENT </s>
-0.3010 EMAIL HYPERLINK </s>
-0.3010 EMPTY TRASH </s>
-0.3010 END TURN </s>
-0.3010 ENEMY FACE </s>
-0.6021 ENGINE EX </s>
-0.6021 ENGINE EX CONFIG
-0.3010 ENTER CELL PHONE
-0.3010 ENTER CITY </s>
-0.3010 ENTER DADS EMAIL
-0.3010 ENTER FIBER EMAIL
-0.3010 ENTER FIRST NAME
-0.6021 ENTER FULL ADDRESS
-0.6021 ENTER FULL NAME
-0.3010 ENTER GEE MAIL
-0.3010 ENTER LAST NAME
-0.3010 ENTER NICK NAME
-0.3010 ENTER OFFICE PHONE
-0.3010 ENTER STREET </s>
-0.3010 ENTER WORK EMAIL
-0.3010 ENTER ZIP </s>
-0.3010 EQUALS BLANK </s>
-0.3010 EQUALS RIGHT </s>
-0.3010 EQUALS THIS </s>
-0.3010 ET SEE </s>
-0.3979 EX CHAT </s>
-1.0000 EX CHAT REPLY
-0.3010 EX CONFIG DERR
-0.3010 EXCLAMATION POINT </s>
-0.3010 EXTRA CARDS </s>
-0.3010 EYE FRAME </s>
-0.3010 F CONSOLE </s>
-0.3010 F EIGHT HEADER
-0.3010 F TWO </s>
-0.3010 FACE ENEMY </s>
-0.3010 FACE HERO </s>
-0.3010 FIBER EMAIL </s>
-0.3010 FIFTY PROCENT </s>
-0.3010 FILE AS </s>
-0.3010 FILE MANAGER </s>
-0.3010 FILE MENU </s>
-0.3010 FILE SPECIFICATIONS </s>
-0.3010 FILE SPECS </s>
-0.3010 FILE ZILLA </s>
-0.3010 FILES DERR </s>
-0.3010 FILTER BASIC </s>
-0.3010 FILTER CLASSIC </s>
-0.3010 FILTER FIVE MANA
-0.3010 FILTER FOUR MANA
-0.3010 FILTER GOBLINS </s>
-0.3010 FILTER GRAND TOURNAMENT
-0.3010 FILTER LEAGUE OF
-0.3010 FILTER OLD GODS
-0.3010 FILTER ONE MANA
-0.3010 FILTER SEVEN MANA
-0.3010 FILTER SIX MANA
-0.3010 FILTER STANDARD </s>
-0.3010 FILTER THREE MANA
-0.3010 FILTER TWO MANA
-0.3010 FILTER WILD </s>
-0.3010 FILTER ZERO MANA
-0.3010 FIND ON PAGE
-0.3010 FIREFOX PREFERENCES </s>
-0.3010 FIRST INBOX </s>
-0.3010 FIRST NAME </s>
-0.3010 FIRST SENT BOX
-0.3010 FIVE COLUMNS </s>
-0.3010 FIVE MANA </s>
-0.3010 FIVE SPACES </s>
-0.3010 FIX SPACING </s>
-0.3010 FLAT SYMBOL </s>
-0.3010 FORMAT MENU </s>
-0.3010 FOUR CHAN </s>
-0.3010 FOUR COLUMNS </s>
-0.3010 FOUR MANA </s>
-0.3010 FOUR OF FOUR
-0.3010 FOUR SPACES </s>
-0.3010 FOURTY PROCENT </s>
-0.3010 FROM EX CHAT
-0.3010 FROWNEY FACE </s>
-0.3010 FULL ADDRESS </s>
-0.3010 FULL NAME </s>
-0.3010 FULL SCREEN </s>
-0.3010 FULL SIZE </s>
-0.3010 FUN X </s>
-0.3010 GAY TOILET </s>
-0.3010 GEANY FILES </s>
-0.3010 GEE EDIT </s>
-0.6021 GEE MAIL </s>
-0.6021 GEE MAIL ADDRESS
-0.3010 GET INSTALL </s>
-0.3010 GET MOUSE LOCATION
-0.3010 GET PUSH </s>
-0.3010 GET WINDOW PID
-0.3010 GIT ADD </s>
-0.3010 GIT COMMIT ALL
-0.3010 GIT MERGE </s>
-0.3010 GIT PULL </s>
-0.3010 GIT PUSH </s>
-0.3010 GIT STATUS </s>
-0.3010 GIVE UP </s>
-0.3010 GO BACK </s>
-0.3010 GO FORWARD </s>
-1.8808 GO TO AMAZON
-1.8808 GO TO ARMITAGE
-1.8808 GO TO ATOM
-1.8808 GO TO AUDACITY
-1.8808 GO TO CALCULATOR
-1.8808 GO TO CHROME
-1.8808 GO TO CHROMIUM
-1.8808 GO TO DIAMOND
-1.8808 GO TO DUMPERT
-1.8808 GO TO E
-1.8808 GO TO EVINCE
-1.8808 GO TO EX
-1.5798 GO TO FILE
-1.8808 GO TO FIREFOX
-1.8808 GO TO FOUR
-1.8808 GO TO GEANY
-1.8808 GO TO GEE
-1.8808 GO TO HEARTHSTONE
-1.8808 GO TO INBOX
-1.8808 GO TO LIBREOFFICE
-1.8808 GO TO NETFLIX
-1.8808 GO TO NIGHT
-1.8808 GO TO QUA
-1.5798 GO TO R
-1.8808 GO TO RHYTHMBOX
-1.8808 GO TO TEE
-1.8808 GO TO TERMINAL
-1.8808 GO TO TERMINATOR
-1.8808 GO TO THUNDERBIRD
-1.8808 GO TO TWITCH
-1.8808 GO TO UNISON
-1.8808 GO TO V
-1.8808 GO TO VOCAL
-1.8808 GO TO VOLUME
-1.8808 GO TO WRITER
-1.8808 GO TO YOU
-0.3010 GODS PACK </s>
-0.3010 GOLDEN CARDS </s>
-0.3010 GOOD MORNING </s>
-0.3010 GOOGLE THIS </s>
-0.3010 GRAB THAT </s>
-0.6021 GRAND TOURNAMENT </s>
-0.6021 GRAND TOURNAMENT PACK
-0.3010 GRIN FACE </s>
-0.3010 H REF </s>
-1.3424 H T BOLD
-1.3424 H T BOOK
-1.3424 H T CODE
-1.3424 H T COMMANDO
-1.3424 H T COMMENT
-0.8653 H T HEADER
-1.3424 H T ITALICS
-1.3424 H T PAGE
-1.3424 H T PREFORMATTED
-0.3010 HALF SIZE </s>
-0.3010 HASH TAG </s>
-0.3010 HEADER ONE </s>
-0.3010 HEADER TAGS </s>
-0.3010 HEADER THREE </s>
-0.3010 HEADER TWO </s>
-0.3010 HEARTHSTONE CHAT </s>
-0.3010 HEARTHSTONE OPEN PACK
-0.3010 HEARTHSTONE OPTIONS </s>
-0.3010 HELP MENU </s>
-0.3010 HERO ATTACK ENEMY
-0.3010 HERO CARDS </s>
-0.3010 HERO EIGHT </s>
-0.3010 HERO FACE </s>
-0.3010 HERO FIVE </s>
-0.3010 HERO FOUR </s>
-0.3010 HERO NINE </s>
-0.3010 HERO ONE </s>
-0.3010 HERO PAGE </s>
-0.7782 HERO POWER </s>
-0.7782 HERO POWER ENEMY
-0.7782 HERO POWER HERO
-0.3010 HERO SEVEN </s>
-0.3010 HERO SIX </s>
-0.3010 HERO THREE </s>
-0.3010 HERO TWO </s>
-0.3010 HOME BIN </s>
-0.6021 HOOS THE FLUFFIEST
-0.6021 HOOS THE MAN
-0.3010 HUGE GRIN FACE
-0.3010 HUNDERED PROCENT </s>
-0.3010 HUNDRED PROCENT </s>
-0.3010 HUNTER CLASS </s>
-0.3010 HYPHENATE THIS </s>
-0.3010 I D EQUALS
-0.9031 I V </s>
-0.6021 I V TAG
-0.9031 I V TAGS
-0.3010 IK BEN BAUKE
-0.3010 IM BORED </s>
-0.3010 IMAGE C S
-0.3010 IMAGE D I
-0.3010 IN IT EXPRESSION
-0.3010 INCLUDE UNCRAFTABLE CARDS
-0.3010 INFO BUTTON </s>
-0.3010 INSERT AUDIO </s>
-0.3010 INSERT AWK EXPRESSION
-0.3010 INSERT EYE FRAME
-0.3010 INSERT HYPERLINK </s>
-0.3010 INSERT IMAGE </s>
-0.6021 INSERT KEY PRESS
-0.6021 INSERT KEY TYPE
-0.3010 INSERT MENU </s>
-0.3010 INSERT PANEL </s>
-0.3010 INSERT PHONE ICON
-0.3010 INSERT POPUP </s>
-0.3010 INSERT PRINT BUTTON
-0.3010 INSERT SED EXPRESSION
-0.3010 INSERT VIDEO </s>
-0.3010 IS IT </s>
-0.3010 IS RIGHT </s>
-0.6021 IS THAT RIGHT
-0.6021 IS THAT TRUE
-0.3010 IT EXPRESSION </s>
-0.3010 ITEM TAGS </s>
-0.3010 JAVASCRIPT DATE CODE
-0.3010 JAVASCRIPT HEADER </s>
-0.3010 JUST SAID THAT
-0.3010 KEY PRESS </s>
-0.3010 KEY TYPE </s>
-0.3010 KILL BE BE
-0.3010 KILL BLADDER </s>
-0.3010 KILL ONEKO </s>
-0.3010 KILL RADIO </s>
-0.3010 KILL VOCAL </s>
-0.3010 KILL WINDOW </s>
-0.3010 L C </s>
-0.3010 L O FILES
-0.3010 L S </s>
-0.3010 LABELS HEADER </s>
-0.3010 LAST NAME </s>
-0.3010 LAST TAB </s>
-0.3010 LATEX HIGHLIGHTING </s>
-0.3010 LEAGUE OF EXPLORERS
-0.3010 LEFT ARROW </s>
-0.3010 LEFT CLICK </s>
-0.3010 LEFT SIDE </s>
-0.3010 LINE ABOVE </s>
-0.3010 LINE BELOW </s>
-0.3010 LINK TO SCORE
-0.6021 LIST ITEM </s>
-0.6021 LIST ITEM TAGS
-0.3010 LIST TAGS </s>
-0.3010 LOCAL BIN </s>
-0.3010 LOCK SCREEN </s>
-0.3010 LOG DERR </s>
-0.3010 LOWER VOLUME </s>
-0.3010 M S F
-0.3010 MAGE CLASS </s>
-0.3010 MAIL ADDRESS </s>
-0.3010 MAKE BOLD </s>
-0.3010 MAKE LOWERCASE </s>
-0.3010 MAKE NOTE </s>
-0.3010 MAKE SUPER </s>
-0.3010 MAKE SUPERSCRIPT </s>
-0.3010 MAKE UPPERCASE </s>
-0.3010 MARKDOWN BOLD </s>
-0.3010 MARKDOWN CODE </s>
-0.3010 MARKDOWN HEADER </s>
-0.3010 MARKDOWN HYPERLINK </s>
-0.3010 MARKDOWN ITALICS </s>
-0.3010 MARKDOWN PREVIEW </s>
-0.3010 MAXIMIZE WINDOW </s>
-0.3010 META BOB </s>
-0.3010 META C </s>
-0.3010 META EFF TWO
-0.3010 META EYE </s>
-0.3010 META F TWO
-0.3010 META L </s>
-0.3010 META M </s>
-0.3010 META N </s>
-0.3010 META P </s>
-0.3010 META SCOOBY </s>
-0.3010 META W </s>
-0.3010 METAL TOILET </s>
-0.3010 MIDDLE CLICK </s>
-0.3010 MINIMIZE WINDOW </s>
-0.3010 MOUSE LOCATION </s>
-0.6021 MOUSE WHEEL DOWN
-0.6021 MOUSE WHEEL UP
-1.2041 MOVE TO LEFT
-1.2041 MOVE TO RIGHT
-1.2041 MOVE TO SHOPPING
-1.2041 MOVE TO TRASH
-0.6021 MOVE TO WORKSPACE
-0.7782 MOVE WINDOW </s>
-0.4771 MOVE WINDOW TO
-1.0000 MOVE WORKSPACE DOWN
-1.0000 MOVE WORKSPACE LEFT
-1.0000 MOVE WORKSPACE OP
-1.0000 MOVE WORKSPACE RIGHT
-1.0000 MOVE WORKSPACE UP
-0.3010 MUSIC C S
-0.3010 MUTE SOUND </s>
-0.3010 MY COLLECTION </s>
-0.3010 N MAP </s>
-0.3010 NATURAL SYMBOL </s>
-0.3010 NET MAP </s>
-0.3010 NEUTRAL CARDS </s>
-0.3010 NEUTRAL CLASS </s>
-0.3010 NEW BULLET POINT
-0.3010 NEW FILE </s>
-0.6021 NEW LINE ABOVE
-0.6021 NEW LINE BELOW
-0.3010 NEW LIST ITEM
-0.3010 NEW SECTION LABEL
-0.3010 NEW TAB </s>
-0.3010 NEW TABLE ROW
-0.3010 NEW WEB SEARCH
-0.3010 NEW WINDOW </s>
-0.3010 NEXT BUFFER </s>
-0.3010 NEXT HERO PAGE
-0.3010 NEXT PAGE </s>
-0.3010 NEXT TAB </s>
-0.3010 NEXT TRACK </s>
-0.3010 NEXT UNREAD </s>
-0.3010 NEXT WORD </s>
-0.3010 NICK NAME </s>
-0.3010 NIGHT ATTACK </s>
-0.3010 NINE COLUMNS </s>
-0.3010 NINETY PROCENT </s>
-0.3010 NO DECORATION </s>
-0.3010 NO SCRIPT ALLOW
-0.3010 NORMAL SPEED </s>
-0.3010 O FILES </s>
-0.3010 O TOOL KEY
-0.3010 OF ALL DESKTOPS
-0.3010 OF CURRENT DESKTOP
-0.3010 OF EXPLORERS </s>
-0.3010 OF FOUR </s>
-0.3010 OF MUSIC C
-0.6021 OF REGION </s>
-0.6021 OF REGION AND
-0.3010 OF THE OLD
-0.6021 OF WINDOW </s>
-0.6021 OF WINDOW AND
-0.3010 OFFICE PHONE </s>
-0.6021 OLD GODS </s>
-0.6021 OLD GODS PACK
-0.3010 ON ALL WORKSPACE
-0.3010 ON LEFT </s>
-0.3010 ON ONLY THIS
-0.3010 ON PAGE </s>
-0.3010 ON RIGHT </s>
-0.3010 ON SELF </s>
-0.3010 ON TOP </s>
-0.3010 ONE COLUMNS </s>
-0.3010 ONE MANA </s>
-0.3010 ONE OF FOUR
-0.3010 ONEKO CAT </s>
-0.3010 ONEKO DOG </s>
-0.3010 ONEKO SAKURA </s>
-0.3010 ONEKO TORA </s>
-0.3010 ONLY GOLDEN CARDS
-0.3010 ONLY THIS WORKSPACE
-0.3010 OPEN ARMITAGE </s>
-0.3010 OPEN ATOM </s>
-0.3010 OPEN AUDACITY </s>
-0.3010 OPEN BLADDER CONFIG
-0.3010 OPEN CALCULATOR </s>
-0.3010 OPEN CENTER TAG
-0.3010 OPEN CHROME </s>
-0.3010 OPEN CHROMIUM </s>
-0.3010 OPEN CONTACTS </s>
-0.3010 OPEN D I
-0.3010 OPEN EVINCE </s>
-0.3010 OPEN EX CHAT
-0.7782 OPEN FILE </s>
-0.7782 OPEN FILE MANAGER
-0.7782 OPEN FILE ZILLA
-0.3010 OPEN FIREFOX </s>
-0.3010 OPEN GEANY </s>
-0.6021 OPEN GEE EDIT
-0.6021 OPEN GEE MAIL
-0.3010 OPEN H REF
-0.3010 OPEN HEARTHSTONE </s>
-0.3010 OPEN LAST TAB
-0.3010 OPEN LIBREOFFICE </s>
-0.3010 OPEN NOTES </s>
-0.3010 OPEN P TAG
-0.3010 OPEN PACK </s>
-0.3010 OPEN PACKS </s>
-0.3010 OPEN QUA CEL
-0.6021 OPEN R ARENA
-0.6021 OPEN R SINK
-0.3010 OPEN RHYTHMBOX </s>
-0.3010 OPEN TEE BIRD
-0.3010 OPEN TERMINAL </s>
-0.3010 OPEN TERMINATOR </s>
-0.3010 OPEN THUNDERBIRD </s>
-0.3010 OPEN TODO </s>
-0.3010 OPEN UNISON </s>
-0.3010 OPEN V L
-0.3010 OPEN VOCAL </s>
-0.3010 OPEN VOLUME CONTROL
-0.3010 OPEN WRITER </s>
-0.3010 OPTIMAL COLUMN WIDTH
-0.3010 P TAG </s>
-0.3010 PACKAGE INFO </s>
-0.3010 PACKAGE SEARCH </s>
-0.3010 PAGE BACK </s>
-0.3010 PAGE DOWN </s>
-0.3010 PAGE FORWARD </s>
-0.3010 PAGE TEMPLATE </s>
-0.3010 PAGE UP </s>
-0.3010 PALADIN CLASS </s>
-0.3010 PARAGRAPH TAGS </s>
-0.3010 PASS FILTER </s>
-0.3010 PAUSE PLAY </s>
-0.3010 PERENTHESIZE THIS </s>
-0.3010 PHONE ICON </s>
-0.3010 PHOTO BY DANNY
-0.3010 PING TEST </s>
-0.3010 PLAY BUTTON </s>
-0.6021 PLAY CARD </s>
-0.6021 PLAY CARD ON
-0.3010 PLAY FASTER </s>
-0.3010 PLAY PAUSE </s>
-0.3010 POPUP JAVASCRIPT HEADER
-0.3010 POST FROM EX
-0.3010 POWER ENEMY </s>
-0.3010 POWER HERO </s>
-0.3010 PREFORMATTED TEXT </s>
-0.3010 PRESS DELETE </s>
-0.3010 PRESS EIGHT </s>
-0.3010 PRESS END </s>
-0.3010 PRESS ENTER </s>
-0.3010 PRESS ESCAPE </s>
-0.3010 PRESS F </s>
-0.3010 PRESS FIVE </s>
-0.3010 PRESS FOUR </s>
-0.3010 PRESS HOME </s>
-0.3010 PRESS I </s>
-0.3010 PRESS NINE </s>
-0.3010 PRESS NO </s>
-0.3010 PRESS ONE </s>
-0.3010 PRESS Q </s>
-0.3010 PRESS SEVEN </s>
-0.3010 PRESS SIX </s>
-0.3010 PRESS TAB </s>
-0.3010 PRESS THREE </s>
-0.3010 PRESS TWO </s>
-0.3010 PRESS YES </s>
-0.3010 PRESS ZERO </s>
-0.3010 PRETTY RUDE </s>
-0.3010 PREVIOUS BUFFER </s>
-0.3010 PREVIOUS HERO PAGE
-0.3010 PREVIOUS PAGE </s>
-0.3010 PREVIOUS SENTENCE </s>
-0.3010 PREVIOUS TAB </s>
-0.3010 PREVIOUS TRACK </s>
-0.3010 PREVIOUS WORD </s>
-0.3010 PRIEST CLASS </s>
-0.3010 PRINT BUTTON </s>
-0.3010 PRINT WINDOW PID
-0.3010 PUT AFTER </s>
-0.3010 PUT BEFORE </s>
-0.3010 QUA CEL </s>
-0.3010 QUARTER NOTE </s>
-0.3010 QUESTION MARK </s>
-0.3010 QUIT APPLICATION </s>
-0.3010 QUIT ARMITAGE </s>
-0.3010 QUIT ATOM </s>
-0.3010 QUIT BE BE
-0.3010 QUIT BLADDER </s>
-0.3010 QUIT CALCULATOR </s>
-0.3010 QUIT CHROME </s>
-0.3010 QUIT CHROMIUM </s>
-0.3010 QUIT EVINCE </s>
-0.3010 QUIT EX CHAT
-0.6021 QUIT FILE MANAGER
-0.6021 QUIT FILE ZILLA
-0.3010 QUIT FIREFOX </s>
-0.3010 QUIT GEANY </s>
-0.3010 QUIT GEE EDIT
-0.3010 QUIT HEARTHSTONE </s>
-0.3010 QUIT LIBREOFFICE </s>
-0.3010 QUIT ONEKO </s>
-0.3010 QUIT QUA CEL
-0.6021 QUIT R ARENA
-0.6021 QUIT R SINK
-0.3010 QUIT RADIO </s>
-0.3010 QUIT RHYTHMBOX </s>
-0.3010 QUIT TERMINAL </s>
-0.3010 QUIT TERMINATOR </s>
-0.3010 QUIT THUNDERBIRD </s>
-0.3010 QUIT UNISON </s>
-0.3010 QUIT V L
-0.3010 QUIT VOCAL </s>
-0.3010 QUIT WINDOW </s>
-0.3010 QUIT WRITER </s>
-0.3010 QUOTE TAGS </s>
-0.3010 QUOTE THIS </s>
-0.3010 R ARENA TRACKER
-0.3010 R SINK </s>
-0.3010 RADIO 3FM </s>
-0.3010 RADIO 538 </s>
-0.3010 RADIO ARROW CLASSIC
-0.3010 RADIO FUN X
-0.3010 RADIO SLAM FM
-0.3010 RAISE VOLUME </s>
-0.3010 RECENT GEANY FILES
-0.3010 RECENT L O
-0.3010 REFRESH PAGE </s>
-0.3010 REGION AND COPY
-0.3010 REMOVE SPACES </s>
-0.3010 REPEAT AFTER ME
-0.3010 REPLACE ALL FOUR
-0.3010 REPLAY TRACK </s>
-0.3010 RESTART APACHE </s>
-0.3010 RESTART BLADDER </s>
-0.3010 RESTART ENGINE EX
-0.3010 RESTART TRACK </s>
-0.3010 RESTORE WINDOW </s>
-0.3010 RETURN CODE </s>
-0.3010 RIGHT ARROW </s>
-0.3010 RIGHT CLICK </s>
-0.3010 RIGHT SIDE </s>
-0.3010 ROGUE CLASS </s>
-0.3010 S COMMANDO </s>
-0.3010 S F CONSOLE
-0.3010 S HEADER </s>
-0.3010 S L </s>
-0.6021 S S </s>
-0.9031 S S COMMANDO
-0.9031 S S HEADER
-0.3010 SAID THAT </s>
-0.6021 SAVE FILE </s>
-0.6021 SAVE FILE AS
-0.3010 SAVE LINK </s>
-0.3010 SCHOOL OF MUSIC
-0.3010 SCREEN OFF </s>
-0.3010 SCREENSHOT AND COPY
-0.6021 SCREENSHOT OF REGION
-0.6021 SCREENSHOT OF WINDOW
-0.6021 SCRIPT ALLOW </s>
-0.6021 SCRIPT ALLOW TOP
-0.3010 SCROLL DOWN </s>
-0.3010 SCROLL UP </s>
-0.3010 SEARCH APPLICATIONS </s>
-0.3010 SEARCH FIELD </s>
-0.3010 SEARCH FILES </s>
-0.3010 SEARCH MUSIC </s>
-0.3010 SEARCH PHOTOS </s>
-0.3010 SEARCH VIDEOS </s>
-0.3010 SECOND INBOX </s>
-0.3010 SECOND SENT BOX
-0.3010 SECTION LABEL </s>
-0.3010 SED EXPRESSION </s>
-0.3010 SEE MATRIX </s>
-0.3010 SEE RETURN CODE
-0.4771 SELECT ALL </s>
-0.7782 SELECT ALL UNREAD
-1.2553 SELECT HERO EIGHT
-1.2553 SELECT HERO FIVE
-1.2553 SELECT HERO FOUR
-1.2553 SELECT HERO NINE
-1.2553 SELECT HERO ONE
-1.2553 SELECT HERO SEVEN
-1.2553 SELECT HERO SIX
-1.2553 SELECT HERO THREE
-1.2553 SELECT HERO TWO
-0.3010 SELECT PREVIOUS SENTENCE
-0.4771 SELECT THIS SENTENCE
-0.7782 SELECT THIS WORD
-0.3010 SEND EMAIL </s>
-0.3010 SENT BOX </s>
-0.3010 SET ALARM </s>
-0.3010 SET SLEEP TIMER
-0.3010 SEVEN COLUMNS </s>
-0.3010 SEVEN MANA </s>
-0.3010 SEVENTY PROCENT </s>
-0.3010 SHAMAN CLASS </s>
-0.3010 SHARP SYMBOL </s>
-0.3010 SHE BANG </s>
-0.3010 SHIFT C </s>
-0.3010 SHIFT E </s>
-0.3010 SHIFT IN </s>
-0.3010 SHIFT O </s>
-0.3010 SHIFT V </s>
-0.3010 SHIFT W </s>
-0.3010 SHORTEN YOU ARE
-0.6021 SHOW ALL DESKTOPS
-0.6021 SHOW ALL WINDOWS
-0.3010 SHOW CLIP BOARD
-0.3010 SHOW DESKTOP </s>
-0.9031 SHOW ON ALL
-0.9031 SHOW ON LEFT
-0.9031 SHOW ON ONLY
-0.9031 SHOW ON RIGHT
-0.3010 SHOW ONLY GOLDEN
-0.7782 SHOW WINDOWS </s>
-0.4771 SHOW WINDOWS OF
-0.3010 SHUT UP </s>
-0.3010 SING GLADIS </s>
-0.3010 SING GLADOS </s>
-0.3010 SITE MANAGER </s>
-0.3010 SITES AVAILABLE </s>
-0.3010 SITES ENABLED </s>
-0.3010 SIX COLUMNS </s>
-0.3010 SIX MANA </s>
-0.3010 SIXTY PROCENT </s>
-0.3010 SLAM FM </s>
-0.3010 SLASH ET SEE
-0.3010 SLEEP TIMER </s>
-0.3010 SMART QUOTES </s>
-0.3010 SMILEY FACE </s>
-0.3010 SO FUNNY </s>
-0.3010 SOFTWARE AND UPDATES
-0.3010 SOFTWARE PROPERTIES </s>
-0.3010 SOLO PLAY BUTTON
-0.3010 SORT THIS </s>
-0.3010 SPACE BAR </s>
-0.3010 SPACES TO UNDERSCORES
-0.3010 SPAN THIS </s>
-0.3010 SPEAK THIS </s>
-0.3010 SPECIALTY CLASS </s>
-0.3010 SPECIALTY SPAN </s>
-0.3010 SPLIT BUFFER </s>
-0.3010 STAR WARS </s>
-0.3010 START SELECTION </s>
-0.3010 STATE YOUR DESIGNATION
-0.3010 STATUS REPORT </s>
-0.3010 STOP RADIO </s>
-0.3010 STOP SELECTION </s>
-0.3010 STOP SINGING </s>
-0.3010 STOP SPEAKING </s>
-0.3010 SUDO CLEAN COMPUTER
-0.3010 SUPER KEY </s>
-0.3010 SWAP ALL FOUR
-0.3010 SWAP FOUR OF
-0.3010 SWAP ONE OF
-0.3010 SWAP THREE OF
-0.3010 SWAP TWO OF
-0.3010 SWITCH BACK </s>
-0.3010 SWITCH SWITCH WINDOW
-0.3010 SWITCH WINDOW </s>
-0.6021 SYNC BLADDER </s>
-0.6021 SYNC BLADDER FOLDER
-0.3010 SYSTEM LOG DERR
-0.3010 SYSTEM UPDATE </s>
-0.3010 T BOLD </s>
-0.3010 T BOOK TITLE
-0.3010 T CODE </s>
-0.3010 T COMMANDO </s>
-0.3010 T COMMENT </s>
-0.3010 T F EIGHT
-0.7782 T HEADER ONE
-0.7782 T HEADER THREE
-0.7782 T HEADER TWO
-0.3010 T ITALICS </s>
-0.3010 T PAGE TEMPLATE
-0.3010 T PREFORMATTED </s>
-0.3010 TAB EIGHT </s>
-0.3010 TAB FIVE </s>
-0.3010 TAB FOUR </s>
-0.3010 TAB NINE </s>
-0.3010 TAB ONE </s>
-0.3010 TAB SEVEN </s>
-0.3010 TAB SIX </s>
-0.3010 TAB TEN </s>
-0.3010 TAB THREE </s>
-0.3010 TAB TWO </s>
-0.3010 TABLE DATA TAGS
-0.3010 TABLE HEADER TAGS
-0.3010 TABLE ROW </s>
-0.3010 TABLE TAGS </s>
-1.0792 TAKE SCREENSHOT </s>
-1.0792 TAKE SCREENSHOT AND
-0.4771 TAKE SCREENSHOT OF
-0.3010 TARGET EQUALS BLANK
-0.3010 TAVERN BRAWL </s>
-0.3010 TEE BIRD </s>
-0.3010 TEN COLUMNS </s>
-0.3010 TEN COMMANDS </s>
-0.3010 TEN PROCENT </s>
-0.3010 TERM TAGS </s>
-0.3010 TESTING EE SPEAK
-0.6021 TEXT ALIGN CENTER
-0.6021 TEXT ALIGN LEFT
-0.3010 TEXT EQUALS THIS
-0.3010 THANK YOU </s>
-0.3010 THAT RIGHT </s>
-0.3010 THAT TRUE </s>
-0.3010 THATS PRETTY RUDE
-0.3010 THATS RUDE </s>
-0.3010 THE END </s>
-0.3010 THE FLUFFIEST </s>
-0.3010 THE MAN </s>
-0.3010 THE OLD GODS
-0.3010 THINK FORTUNE </s>
-0.3010 THIRTY PROCENT </s>
-0.3010 THIS SENTENCE </s>
-0.3010 THIS WORD </s>
-0.3010 THIS WORKSPACE </s>
-0.3010 THREE COLUMNS </s>
-0.3010 THREE MANA </s>
-0.3010 THREE OF FOUR
-0.3010 THUNDERBIRD PREFERENCES </s>
-0.3010 TIME IS IT
-0.3010 TITLE EQUALS THIS
-0.3010 TO AMAZON </s>
-0.3010 TO ARMITAGE </s>
-0.3010 TO ATOM </s>
-0.3010 TO AUDACITY </s>
-0.3010 TO CALCULATOR </s>
-0.3010 TO CHROME </s>
-0.3010 TO CHROMIUM </s>
-0.3010 TO CURRENT LINE
-0.3010 TO DIAMOND CLUB
-0.3010 TO DUMPERT </s>
-0.3010 TO E BAY
-0.3010 TO EVINCE </s>
-0.3010 TO EX CHAT
-0.6021 TO FILE MANAGER
-0.6021 TO FILE ZILLA
-0.3010 TO FIREFOX </s>
-0.3010 TO FOUR CHAN
-0.3010 TO GEANY </s>
-0.3010 TO GEE EDIT
-0.3010 TO HEARTHSTONE </s>
-0.3010 TO INBOX </s>
-0.6021 TO LEFT </s>
-0.6021 TO LEFT SIDE
-0.3010 TO LIBREOFFICE </s>
-0.3010 TO NETFLIX </s>
-0.3010 TO NIGHT ATTACK
-0.3010 TO QUA CEL
-0.6021 TO R ARENA
-0.6021 TO R SINK
-0.3010 TO RECIPIENT </s>
-0.3010 TO RHYTHMBOX </s>
-0.6021 TO RIGHT </s>
-0.6021 TO RIGHT SIDE
-0.3010 TO SCORE </s>
-0.3010 TO SHOPPING </s>
-0.3010 TO SUBJECT </s>
-0.3010 TO TEE BIRD
-0.3010 TO TERMINAL </s>
-0.3010 TO TERMINATOR </s>
-0.3010 TO THE END
-0.3010 TO THUNDERBIRD </s>
-0.3010 TO TRASH </s>
-0.3010 TO TWITCH </s>
-0.3010 TO UNDERSCORES </s>
-0.3010 TO UNISON </s>
-0.3010 TO V L
-0.3010 TO VOCAL </s>
-0.3010 TO VOLUME CONTROL
-0.9031 TO WORKSPACE FOUR
-0.9031 TO WORKSPACE ONE
-0.9031 TO WORKSPACE THREE
-0.9031 TO WORKSPACE TWO
-0.3010 TO WRITER </s>
-0.3010 TO YOU TUBE
-0.3010 TODAYS DATE </s>
-0.3010 TOOL KEY </s>
-0.3010 TOOLS MENU </s>
-0.3010 TOP SITE </s>
-0.3010 TOP TEN COMMANDS
-0.3010 TOURNAMENT PACK </s>
-0.3010 TRANSFER KEEP </s>
-0.3010 TRANSFER TEXT </s>
-0.3010 TWENTY PROCENT </s>
