Language model created by QuickLM on Mon May 30 19:33:08 EDT 2016
Copyright (c) 1996-2010 Carnegie Mellon University and Alexander I. Rudnicky

The model is in standard ARPA format, designed by Doug Paul while he was at MITRE.

The code that was used to produce this language model is available in Open Source.
Please visit http://www.speech.cs.cmu.edu/tools/ for more information

The (fixed) discount mass is 0.5. The backoffs are computed using the ratio method.
This model based on a corpus of 654 sentences and 561 words

\data\
ngram 1=561
ngram 2=1361
ngram 3=1429

\1-grams:
-3.7698 3FM -0.2499
-3.7698 538 -0.2499
-0.9542 </s> -0.3010
-0.9542 <s> -0.2243
-3.7698 A -0.2499
-3.7698 AA -0.3010
-3.7698 ABOVE -0.2499
-3.4688 ADD -0.3009
-3.2927 ADDRESS -0.2496
-3.4688 AFTER -0.2498
-3.7698 AIGHTY -0.3002
-3.7698 ALARM -0.2499
-3.2927 ALIGN -0.3000
-2.8667 ALL -0.2479
-3.4688 ALLOW -0.2496
-3.7698 ALTERNATE -0.3007
-3.7698 ALTERNATIVES -0.2499
-3.7698 ALWAYS -0.3006
-3.7698 AM -0.3004
-3.7698 AMAZON -0.2499
-3.7698 AMPLIFY -0.2993
-3.0709 AND -0.2979
-3.7698 ANGLE -0.3010
-3.4688 APACHE -0.2492
-3.7698 APP -0.3010
-3.7698 APPEND -0.2971
-3.7698 APPLICATION -0.2499
-3.7698 APPLICATIONS -0.2499
-2.8667 APT -0.2999
-3.7698 AQUARIUM -0.2499
-3.7698 ARCHIVE -0.2993
-3.1678 ARE -0.2491
-3.2927 ARENA -0.3008
-3.7698 ARMITAGE -0.2499
-3.0709 ARROW -0.2498
-3.7698 ARTICLE -0.2999
-3.7698 AS -0.2499
-3.7698 ASCI -0.3010
-3.7698 ASIDE -0.2999
-3.2927 ATOM -0.2499
-3.7698 ATTACK -0.2499
-3.4688 AUDACITY -0.2499
-3.2927 AUDIO -0.2497
-3.7698 AVAILABLE -0.2499
-3.7698 AWK -0.3008
-3.7698 B -0.2499
-3.1678 BACK -0.2497
-3.7698 BALL -0.2499
-3.7698 BANG -0.2499
-3.7698 BAR -0.2499
-3.4688 BASH -0.2490
-3.7698 BAUKE -0.2499
-3.7698 BAY -0.2499
-2.9917 BE -0.2494
-3.7698 BEFORE -0.2499
-3.7698 BELOW -0.2499
-3.7698 BEN -0.3010
-3.1678 BIN -0.2497
-3.2927 BIRD -0.2499
-2.8667 BLADDER -0.2492
-3.7698 BLANK -0.2499
-3.7698 BLIND -0.3003
-3.4688 BLOCK -0.2497
-3.7698 BOARD -0.2499
-3.7698 BOB -0.2499
-3.2927 BOLD -0.2499
-3.7698 BOOK -0.3009
-3.4688 BOOKS -0.2499
-3.7698 BORDER -0.3007
-3.7698 BORED -0.2499
-3.4688 BOX -0.2499
-3.7698 BRACKET -0.2993
-3.7698 BROWSER -0.3009
-3.2927 BUFFER -0.2499
-3.7698 BULLET -0.3009
-3.7698 BULLSHIT -0.2499
-3.7698 BUTTON -0.2499
-3.7698 BY -0.3010
-2.7698 C -0.2490
-3.2927 CALCULATOR -0.2499
-3.7698 CAMEL -0.3010
-3.7698 CAN -0.3010
-3.4688 CANCEL -0.2498
-3.7698 CAPITALIZE -0.2993
-3.7698 CAPS -0.2993
-3.7698 CASH -0.3003
-3.7698 CAT -0.2499
-3.7698 CATAPULT -0.2499
-3.7698 CD -0.3010
-3.2927 CEL -0.2499
-3.7698 CELL -0.3008
-3.0709 CENTER -0.2479
-3.7698 CHANGE -0.3006
-3.0709 CHAT -0.2498
-3.7698 CHECK -0.3009
-3.2927 CHROME -0.2499
-3.2927 CHROMIUM -0.2499
-3.7698 CITATION -0.2999
-3.7698 CITY -0.2499
-3.1678 CLASS -0.2487
-3.7698 CLASSIC -0.3010
-3.4688 CLEAN -0.3009
-2.9917 CLICK -0.2494
-3.7698 CLIP -0.3010
-2.9247 CLOSE -0.2966
-3.7698 CLUB -0.2499
-3.1678 CODE -0.2499
-3.1678 COLON -0.2493
-3.7698 COLUMN -0.3010
-2.7698 COLUMNS -0.2499
-3.7698 COMMA -0.2499
-3.4688 COMMANDO -0.2499
-3.7698 COMMANDS -0.2499
-3.7698 COMMENT -0.2499
-3.7698 COMMIT -0.3004
-3.7698 COMPRESS -0.2993
-3.7698 COMPRESSION -0.3010
-3.4688 COMPUTER -0.2499
-3.7698 CONCEDE -0.2499
-2.8667 CONFIG -0.2481
-3.7698 CONFIRM -0.2499
-3.7698 CONFIRMATION -0.2499
-3.7698 CONTACTS -0.2499
-2.4081 CONTROL -0.2419
-2.7698 COPY -0.2435
-3.7698 CORPORATE -0.3010
-2.9917 COW -0.3004
-3.4688 CURRENT -0.3007
-3.4688 CURSOR -0.2499
-3.7698 CUT -0.2499
-2.9247 D -0.2483
-3.7698 DADS -0.3007
-3.7698 DANNY -0.2499
-3.4688 DATA -0.2999
-3.4688 DATE -0.2495
-3.7698 DAY -0.3005
-3.7698 DECORATION -0.2499
-3.4688 DEFINITION -0.3008
-3.0709 DELETE -0.2468
-3.0709 DERR -0.2499
-3.7698 DESIGNATION -0.2499
-3.4688 DESKTOP -0.2499
-3.4688 DESKTOPS -0.2499
-3.7698 DIALOG -0.2499
-3.7698 DIAMOND -0.3010
-3.2927 DISPLAY -0.3007
-3.7698 DIST -0.3008
-3.4688 DO -0.3004
-3.7698 DOCUMENT -0.3004
-3.7698 DOG -0.2499
-3.7698 DOLLAR -0.3010
-3.7698 DONT -0.3007
-3.7698 DOUBLE -0.3006
-2.9917 DOWN -0.2495
-3.7698 DOWNLOADS -0.2499
-3.2927 E -0.2498
-3.2927 ECHO -0.3005
-3.1678 EDIT -0.2492
-3.4688 EE -0.3008
-3.7698 EFF -0.3005
-3.0709 EIGHT -0.2481
-3.7698 EL -0.2499
-3.0709 EMAIL -0.2495
-3.7698 EMPTY -0.3009
-3.7698 ENABLED -0.2499
-3.4688 END -0.2499
-3.4688 ENGINE -0.3005
-2.5657 ENTER -0.2481
-2.9247 EQUALS -0.2470
-3.4688 ESCAPE -0.2499
-3.7698 ET -0.3008
-3.2927 EVINCE -0.2499
-2.9247 EX -0.2488
-3.7698 EXCLAMATION -0.3009
-3.7698 EXIT -0.2499
-3.2927 EXPRESSION -0.2499
-3.4688 EYE -0.2498
-3.1678 F -0.2489
-3.2927 FACE -0.2499
-3.7698 FASTER -0.2499
-3.7698 FIBER -0.3007
-3.2927 FIELD -0.2499
-3.7698 FIFTY -0.3002
-2.6237 FILE -0.2484
-3.1678 FILES -0.2495
-3.7698 FILTER -0.2499
-3.7698 FIND -0.3006
-3.7698 FIRE -0.2499
-3.1678 FIREFOX -0.2496
-3.2927 FIRST -0.3004
-3.1678 FIVE -0.2487
-3.7698 FIX -0.3010
-3.7698 FLAT -0.3008
-3.7698 FLUFFIEST -0.2499
-3.7698 FM -0.2499
-3.7698 FORMAT -0.3004
-3.4688 FORTUNE -0.2499
-3.4688 FORWARD -0.2499
-3.0709 FOUR -0.2487
-3.7698 FOURTY -0.3002
-3.7698 FRAME -0.2499
-3.7698 FROM -0.3005
-3.7698 FROWNEY -0.3008
-3.2927 FULL -0.3004
-3.7698 FUN -0.3005
-3.7698 FUNNY -0.2499
-3.7698 GAY -0.3007
-3.1678 GEANY -0.2495
-3.1678 GEE -0.3006
-3.4688 GET -0.3006
-3.2927 GIT -0.3007
-2.2016 GO -0.2967
-3.7698 GOOD -0.3010
-3.7698 GOOGLE -0.2993
-3.7698 GRAB -0.3007
-3.7698 GREETINGS -0.2499
-3.7698 GRIN -0.3008
-2.6237 H -0.2487
-3.7698 HALF -0.3009
-3.7698 HASH -0.3005
-2.7698 HEADER -0.2472
-3.1678 HEARTHSTONE -0.2498
-3.7698 HELLO -0.2499
-3.7698 HELP -0.3004
-3.7698 HERE -0.2499
-3.4688 HIGHLIGHTING -0.2499
-3.4688 HISTORY -0.2499
-3.7698 HOLD -0.2499
-3.4688 HOME -0.2495
-3.4688 HOOS -0.3008
-3.7698 HUGE -0.3010
-3.7698 HUNDERED -0.3002
-3.1678 HYPERLINK -0.2499
-3.7698 HYPHENATE -0.2993
-2.8667 I -0.2486
-3.7698 ICON -0.2499
-3.7698 IK -0.3010
-3.7698 IM -0.3010
-3.2927 IMAGE -0.2485
-3.1678 IN -0.2496
-3.2927 INBOX -0.2499
-3.7698 INFO -0.2499
-3.7698 INLINE -0.2499
-2.6237 INSERT -0.2985
-3.4688 INSTALL -0.2499
-2.9247 IS -0.2484
-3.2927 IT -0.2496
-3.7698 ITALICIZE -0.2499
-3.4688 ITALICS -0.2499
-3.4688 ITEM -0.2486
-3.4688 JAVASCRIPT -0.3001
-3.7698 JUST -0.3009
-3.7698 K -0.2499
-3.7698 KEEP -0.2499
-3.1678 KEY -0.2480
-3.1678 KILL -0.2990
-2.8667 L -0.2479
-3.4688 LABEL -0.2499
-3.7698 LABELS -0.3003
-3.4688 LAST -0.2996
-3.7698 LATEX -0.3009
-3.7698 LAUNCHER -0.2499
-2.8667 LEFT -0.2488
-3.2927 LIBREOFFICE -0.2499
-3.2927 LINE -0.2497
-3.4688 LINES -0.2499
-3.4688 LINK -0.2455
-3.2927 LIST -0.2998
-3.7698 LISTENING -0.2499
-3.7698 LOCAL -0.3007
-3.4688 LOCATION -0.2499
-3.7698 LOCK -0.3010
-3.7698 LOG -0.3007
-3.7698 LOWER -0.2998
-3.7698 LOWERCASE -0.2499
-3.7698 M -0.2499
-3.4688 MAIL -0.2496
-2.9917 MAKE -0.3003
-3.7698 MAN -0.2499
-3.1678 MANAGER -0.2499
-3.4688 MAP -0.2499
-3.7698 MARK -0.2499
-2.9917 MARKDOWN -0.2993
-3.7698 MATCH -0.2499
-3.7698 MATRIX -0.2499
-3.7698 MAX -0.2499
-3.7698 MAXIMIZE -0.3001
-3.7698 ME -0.2499
-2.8667 MENU -0.2499
-2.7284 META -0.2983
-3.7698 METAL -0.3007
-3.7698 MIDDLE -0.3006
-3.7698 MIN -0.2499
-3.7698 MINIMIZE -0.3001
-3.7698 MORNING -0.2499
-3.1678 MOUSE -0.3007
-2.5657 MOVE -0.2949
-3.2927 MUSIC -0.2490
-3.4688 MUTE -0.3009
-3.4688 N -0.2497
-3.1678 NAME -0.2499
-3.7698 NATURAL -0.3008
-3.7698 NET -0.3009
-3.7698 NETFLIX -0.2499
-2.7698 NEW -0.2967
-3.0709 NEXT -0.2987
-3.7698 NICK -0.3007
-3.7698 NIGHT -0.3010
-3.2927 NINE -0.2490
-3.7698 NINETY -0.3002
-3.1678 NO -0.2496
-3.7698 NONE -0.2499
-3.7698 NORMAL -0.3010
-3.4688 NOTE -0.2499
-3.7698 NOTES -0.2499
-3.1678 O -0.2495
-2.9247 OF -0.2990
-3.7698 OFFICE -0.3008
-2.9917 ON -0.2983
-3.0709 ONE -0.2490
-2.9917 ONEKO -0.2495
-3.7698 ONLY -0.2993
-3.4688 OP -0.2499
-2.1900 OPEN -0.2891
-3.7698 OPTIMAL -0.3010
-3.7698 OPTIONS -0.2499
-3.4688 OUT -0.2499
-3.1678 P -0.2493
-3.4688 PACKAGE -0.3002
-2.9247 PAGE -0.2482
-3.7698 PANEL -0.2499
-3.4688 PARAGRAPH -0.2999
-3.7698 PASS -0.3010
-3.4688 PASTE -0.2499
-3.4688 PAUSE -0.2496
-3.7698 PERENTHESIZE -0.2993
-3.7698 PERFECT -0.2499
-3.7698 PERIOD -0.2499
-3.7698 PERMISSIONS -0.2499
-3.2927 PHONE -0.2498
-3.7698 PHOTO -0.3010
-3.7698 PHOTOS -0.2499
-3.7698 PING -0.3010
-3.2927 PLAY -0.2496
-3.4688 POINT -0.2499
-3.4688 POPUP -0.2497
-3.7698 POST -0.3010
-3.2927 PREFERENCES -0.2499
-3.4688 PREFORMATTED -0.2495
-2.4274 PRESS -0.2412
-3.7698 PRETTY -0.3009
-3.7698 PREVIEW -0.2499
-2.9917 PREVIOUS -0.2984
-3.7698 PRINT -0.3010
-2.7284 PROCENT -0.2499
-3.7698 PULL -0.2499
-3.4688 PUT -0.3008
-3.7698 Q -0.2499
-3.2927 QUA -0.3008
-3.7698 QUARTER -0.3009
-3.7698 QUESTION -0.3010
-2.2785 QUIT -0.2384
-3.4688 QUOTE -0.2982
-3.7698 QUOTES -0.2499
-2.9917 R -0.3006
-2.8667 RADIO -0.2491
-3.7698 RAISE -0.2998
-3.7698 REBOOT -0.2499
-3.4688 RECENT -0.3001
-3.7698 RECIPIENT -0.2499
-3.4688 REF -0.2499
-3.7698 REFRESH -0.3005
-3.4688 REGION -0.2495
-3.7698 REMOVE -0.3007
-3.7698 REPEAT -0.3009
-3.7698 REPLAY -0.3007
-3.7698 REPLY -0.2499
-3.7698 REPORT -0.2499
-3.1678 RESTART -0.2998
-3.7698 RESTORE -0.3001
-3.7698 RETURN -0.3007
-3.2927 RHYTHMBOX -0.2499
-2.7698 RIGHT -0.2488
-3.7698 ROCK -0.2499
-3.7698 ROW -0.2499
-3.4688 RUDE -0.2499
-2.7698 S -0.2474
-3.4688 SAID -0.3007
-3.7698 SAKURA -0.2499
-3.1678 SAVE -0.2485
-3.4688 SAY -0.2499
-3.7698 SCHOOL -0.3005
-3.7698 SCOOBY -0.2499
-3.7698 SCORE -0.2499
-3.7698 SCREEN -0.2499
-2.9917 SCREENSHOT -0.2489
-3.4688 SCRIPT -0.3009
-3.4688 SCROLL -0.3001
-2.7698 SEARCH -0.2488
-3.4688 SECOND -0.3007
-3.4688 SECTION -0.3009
-3.7698 SED -0.3008
-3.2927 SEE -0.2497
-2.9247 SELECT -0.2983
-3.4688 SELECTION -0.2499
-3.7698 SEMICOLON -0.2499
-3.7698 SEND -0.3007
-3.4688 SENT -0.3009
-2.9917 SENTENCE -0.2499
-3.4688 SET -0.3009
-3.2927 SEVEN -0.2490
-3.7698 SEVENTY -0.3002
-3.7698 SHARP -0.3008
-3.7698 SHE -0.3010
-2.9917 SHIFT -0.2987
-3.7698 SHOPPING -0.2499
-3.7698 SHORTEN -0.3004
-2.7284 SHOW -0.2995
-3.7698 SHUT -0.3005
-3.4688 SIDE -0.2499
-3.7698 SIGN -0.2499
-3.7698 SING -0.2499
-3.2927 SINK -0.2499
-3.4688 SITE -0.2495
-3.4688 SITES -0.3009
-3.2927 SIX -0.2490
-3.7698 SIXTY -0.3002
-3.4688 SIZE -0.2499
-3.7698 SLAM -0.3010
-3.7698 SLASH -0.3010
-3.7698 SLEEP -0.3010
-3.7698 SMART -0.3010
-3.7698 SMILEY -0.3008
-3.7698 SO -0.3010
-3.7698 SORT -0.2993
-3.4688 SOUND -0.2499
-3.4688 SPACE -0.2498
-3.1678 SPACES -0.2455
-3.7698 SPACING -0.2499
-3.4688 SPAN -0.2480
-3.7698 SPANDEX -0.2499
-3.2927 SPEAK -0.2480
-3.7698 SPEAKING -0.2499
-3.4688 SPECIALTY -0.3006
-3.7698 SPECIFICATIONS -0.2499
-3.7698 SPECS -0.2499
-3.7698 SPEED -0.2499
-3.7698 SPLIT -0.3008
-3.7698 STAR -0.3010
-3.7698 START -0.3009
-3.7698 STATE -0.3009
-3.4688 STATUS -0.2498
-3.2927 STOP -0.3002
-3.7698 STREET -0.2499
-3.7698 SUBJECT -0.2499
-3.4688 SUDO -0.2497
-3.4688 SUPER -0.2495
-3.7698 SUPERSCRIPT -0.2499
-3.1678 SWITCH -0.2995
-3.2927 SYMBOL -0.2499
-3.7698 SYSTEM -0.3010
-2.6906 T -0.2984
-2.5657 TAB -0.2462
-3.1678 TABLE -0.2990
-2.9247 TAG -0.2499
-2.5937 TAGS -0.2499
-2.9917 TAKE -0.3006
-3.7698 TARGET -0.3005
-3.2927 TEE -0.3008
-3.7698 TEMPLATE -0.2499
-3.1678 TEN -0.2480
-3.7698 TERM -0.2999
-3.2927 TERMINAL -0.2499
-3.2927 TERMINATOR -0.2499
-3.7698 TEST -0.2499
-3.7698 TESTING -0.3009
-3.0709 TEXT -0.2490
-3.7698 THANK -0.3004
-3.7698 THANKS -0.2499
-3.0709 THAT -0.2490
-3.4688 THATS -0.3008
-3.2927 THE -0.3007
-3.0709 THINK -0.2497
-3.7698 THIRTY -0.3002
-2.4081 THIS -0.2475
-3.0709 THREE -0.2490
-2.9917 THUNDERBIRD -0.2496
-3.7698 TILDE -0.2499
-3.7698 TIME -0.3005
-3.7698 TIMER -0.2499
-3.4688 TITLE -0.2493
-2.0455 TO -0.2875
-3.7698 TODAYS -0.3009
-3.7698 TODO -0.2499
-3.1678 TOILET -0.2499
-3.7698 TOOL -0.3007
-3.7698 TOOLS -0.3004
-3.2927 TOP -0.2494
-3.7698 TORA -0.2499
-3.1678 TRACK -0.2499
-3.2927 TRACKER -0.2499
-3.4688 TRANSFER -0.3006
-3.4688 TRASH -0.2499
-3.7698 TRUE -0.2499
-3.7698 TUBE -0.2499
-3.7698 TWENTY -0.3002
-3.7698 TWITCH -0.2499
-2.9247 TWO -0.2490
-3.7698 TYPE -0.2499
-3.7698 U -0.3001
-3.7698 UN -0.3009
-3.7698 UNDERSCORES -0.2499
-3.7698 UNDO -0.2499
-3.7698 UNFORMATTED -0.3009
-3.0709 UNISON -0.2499
-3.7698 UNORDERED -0.3008
-3.4688 UNREAD -0.2499
-2.9247 UP -0.2495
-2.9917 UPDATE -0.2485
-3.2927 UPGRADE -0.2499
-3.7698 UPPERCASE -0.2499
-3.4688 USER -0.3007
-3.7698 USERNAME -0.3008
-2.8667 V -0.2474
-3.7698 VALUES -0.2499
-3.7698 VERBATIM -0.3007
-3.7698 VIDEO -0.2499
-3.7698 VIDEOS -0.2499
-3.7698 VIEW -0.3004
-3.7698 VOICE -0.2499
-2.5657 VOLUME -0.2465
-3.2927 W -0.2499
-3.7698 WARS -0.2499
-3.7698 WE -0.3009
-3.4688 WEB -0.3000
-3.7698 WEBSERVER -0.3010
-3.7698 WHADDAYA -0.3007
-3.1678 WHAT -0.3007
-3.7698 WHATS -0.3010
-3.4688 WHEEL -0.3001
-3.1678 WHO -0.3001
-3.7698 WIDTH -0.2499
-2.6559 WINDOW -0.2450
-3.1678 WINDOWS -0.2493
-3.7698 WITH -0.3009
-2.9917 WORD -0.2499
-3.7698 WORK -0.3007
-2.5657 WORKSPACE -0.2453
-3.7698 WRITE -0.3007
-3.2927 WRITER -0.2499
-2.9247 X -0.2485
-3.2927 YANK -0.2965
-3.7698 YES -0.2499
-2.8667 YOU -0.2487
-3.4688 YOUR -0.3009
-3.7698 YOUTUBE -0.3008
-3.7698 ZEE -0.3009
-3.2927 ZERO -0.2490
-3.2927 ZILLA -0.2499
-3.7698 ZIP -0.2499
-3.4688 ZOOM -0.3006

\2-grams:
-0.3010 3FM </s> -0.3010
-0.3010 538 </s> -0.3010
-3.1166 <s> AA 0.0000
-2.8156 <s> ADD 0.0000
-3.1166 <s> ADDRESS -0.2218
-3.1166 <s> ALIGN -0.2218
-3.1166 <s> ALTERNATE 0.0000
-3.1166 <s> ALWAYS 0.0000
-3.1166 <s> AMPLIFY 0.0000
-3.1166 <s> ANGLE 0.0000
-3.1166 <s> APACHE -0.1761
-3.1166 <s> APP 0.0000
-3.1166 <s> APPEND 0.0000
-2.2135 <s> APT 0.0000
-3.1166 <s> ARCHIVE 0.0000
-3.1166 <s> ARE -0.1761
-3.1166 <s> ARTICLE 0.0000
-3.1166 <s> ASCI 0.0000
-3.1166 <s> ASIDE 0.0000
-3.1166 <s> AUDIO -0.1249
-3.1166 <s> BACK -0.2430
-3.1166 <s> BASH -0.1761
-3.1166 <s> BE -0.1761
-3.1166 <s> BIN -0.2430
-3.1166 <s> BLADDER -0.1761
-3.1166 <s> BLIND 0.0000
-3.1166 <s> BLOCK -0.1761
-3.1166 <s> BORDER 0.0000
-3.1166 <s> BROWSER 0.0000
-2.8156 <s> C -0.2041
-3.1166 <s> CAMEL 0.0000
-2.8156 <s> CANCEL 0.0000
-3.1166 <s> CAPITALIZE 0.0000
-3.1166 <s> CATAPULT 0.0000
-3.1166 <s> CD 0.0000
-2.8156 <s> CENTER -0.2041
-3.1166 <s> CHANGE 0.0000
-3.1166 <s> CHECK 0.0000
-3.1166 <s> CITATION 0.0000
-2.6395 <s> CLASS -0.0969
-3.1166 <s> CLEAN 0.0000
-2.8156 <s> CLICK -0.2218
-2.2715 <s> CLOSE -0.0000
-2.5145 <s> COLON 0.0000
-3.1166 <s> COMMA 0.0000
-3.1166 <s> COMPRESS 0.0000
-3.1166 <s> COMPRESSION 0.0000
-3.1166 <s> CONCEDE 0.0000
-3.1166 <s> CONFIG -0.2730
-1.7944 <s> CONTROL -0.0362
-2.3385 <s> COPY 0.0000
-3.1166 <s> CORPORATE 0.0000
-2.8156 <s> COW -0.0669
-3.1166 <s> CUT 0.0000
-3.1166 <s> D -0.1549
-2.8156 <s> DEFINITION 0.0000
-2.5145 <s> DELETE -0.0792
-2.6395 <s> DISPLAY 0.0000
-3.1166 <s> DOCUMENT 0.0000
-3.1166 <s> DONT 0.0000
-3.1166 <s> DOUBLE 0.0000
-3.1166 <s> DOWN -0.2632
-3.1166 <s> DOWNLOADS 0.0000
-2.6395 <s> ECHO 0.0000
-3.1166 <s> EDIT -0.2430
-2.8156 <s> EIGHT -0.2041
-3.1166 <s> EMAIL -0.2553
-3.1166 <s> EMPTY 0.0000
-3.1166 <s> ENGINE 0.0000
-1.9705 <s> ENTER -0.0512
-3.1166 <s> EQUALS -0.2688
-3.1166 <s> ESCAPE 0.0000
-3.1166 <s> EX -0.1091
-3.1166 <s> EXCLAMATION 0.0000
-3.1166 <s> EXIT 0.0000
-2.6395 <s> FILE -0.2518
-3.1166 <s> FIND 0.0000
-3.1166 <s> FIREFOX -0.2430
-2.8156 <s> FIRST -0.1249
-2.8156 <s> FIVE -0.1761
-3.1166 <s> FIX 0.0000
-3.1166 <s> FLAT 0.0000
-3.1166 <s> FORMAT 0.0000
-2.8156 <s> FOUR -0.2041
-3.1166 <s> FROWNEY 0.0000
-3.1166 <s> FULL -0.2218
-3.1166 <s> GAY 0.0000
-3.1166 <s> GET -0.1761
-2.6395 <s> GIT 0.0000
-1.5484 <s> GO 0.0000
-3.1166 <s> GOOD 0.0000
-3.1166 <s> GOOGLE 0.0000
-3.1166 <s> GRAB 0.0000
-3.1166 <s> GREETINGS 0.0000
-2.0752 <s> H -0.0843
-3.1166 <s> HALF 0.0000
-3.1166 <s> HASH 0.0000
-3.1166 <s> HEARTHSTONE -0.2430
-3.1166 <s> HELLO 0.0000
-3.1166 <s> HELP 0.0000
-3.1166 <s> HISTORY 0.0000
-3.1166 <s> HOME -0.1761
-2.8156 <s> HOOS 0.0000
-3.1166 <s> HUGE 0.0000
-3.1166 <s> HYPHENATE 0.0000
-3.1166 <s> I -0.2730
-3.1166 <s> IK 0.0000
-2.8156 <s> IMAGE -0.1249
-3.1166 <s> IN -0.2430
-1.9705 <s> INSERT -0.0000
-2.8156 <s> IS -0.2341
-3.1166 <s> ITALICIZE 0.0000
-3.1166 <s> JAVASCRIPT -0.1761
-2.5145 <s> KILL 0.0000
-3.1166 <s> L -0.2730
-3.1166 <s> LABELS 0.0000
-3.1166 <s> LATEX 0.0000
-2.8156 <s> LEFT -0.2430
-3.1166 <s> LINK -0.1761
-3.1166 <s> LIST -0.1249
-3.1166 <s> LOCK 0.0000
-3.1166 <s> LOWER 0.0000
-2.3385 <s> MAKE 0.0000
-2.3385 <s> MARKDOWN 0.0000
-3.1166 <s> MAXIMIZE 0.0000
-2.0752 <s> META 0.0000
-3.1166 <s> METAL 0.0000
-3.1166 <s> MIDDLE 0.0000
-3.1166 <s> MINIMIZE 0.0000
-2.8156 <s> MOUSE -0.1761
-1.9125 <s> MOVE 0.0000
-3.1166 <s> MUTE 0.0000
-3.1166 <s> N -0.1761
-3.1166 <s> NATURAL 0.0000
-3.1166 <s> NET 0.0000
-2.1166 <s> NEW 0.0000
-2.4176 <s> NEXT 0.0000
-3.1166 <s> NINE -0.2218
-2.6395 <s> NO -0.0969
-3.1166 <s> NORMAL 0.0000
-3.1166 <s> ONE -0.2553
-2.5145 <s> ONEKO -0.1249
-1.5368 <s> OPEN -0.0000
-3.1166 <s> OPTIMAL 0.0000
-2.8156 <s> PACKAGE 0.0000
-2.5145 <s> PAGE -0.1549
-2.8156 <s> PARAGRAPH 0.0000
-3.1166 <s> PASS 0.0000
-3.1166 <s> PASTE 0.0000
-3.1166 <s> PAUSE -0.1761
-3.1166 <s> PERENTHESIZE 0.0000
-3.1166 <s> PERFECT 0.0000
-3.1166 <s> PERIOD 0.0000
-3.1166 <s> PHOTO 0.0000
-3.1166 <s> PING 0.0000
-2.8156 <s> PLAY -0.1249
-3.1166 <s> POPUP -0.1761
-3.1166 <s> POST 0.0000
-3.1166 <s> PREFORMATTED -0.1761
-1.7944 <s> PRESS -0.0193
-2.5145 <s> PREVIOUS -0.1249
-2.8156 <s> PUT 0.0000
-3.1166 <s> QUARTER 0.0000
-3.1166 <s> QUESTION 0.0000
-1.6395 <s> QUIT -0.0138
-3.1166 <s> QUOTE -0.1761
-2.4176 <s> RADIO -0.1383
-3.1166 <s> RAISE 0.0000
-3.1166 <s> REBOOT 0.0000
-2.8156 <s> RECENT 0.0000
-3.1166 <s> REFRESH 0.0000
-3.1166 <s> REMOVE 0.0000
-3.1166 <s> REPEAT 0.0000
-3.1166 <s> REPLAY 0.0000
-2.5145 <s> RESTART 0.0000
-3.1166 <s> RESTORE 0.0000
-2.8156 <s> RIGHT -0.2553
-3.1166 <s> S -0.2788
-2.6395 <s> SAVE -0.0969
-3.1166 <s> SCHOOL 0.0000
-2.8156 <s> SCROLL 0.0000
-2.2715 <s> SEARCH -0.1139
-2.8156 <s> SECOND 0.0000
-3.1166 <s> SECTION 0.0000
-2.8156 <s> SEE -0.1249
-2.2715 <s> SELECT 0.0000
-3.1166 <s> SEMICOLON 0.0000
-3.1166 <s> SEND 0.0000
-2.8156 <s> SET 0.0000
-3.1166 <s> SEVEN -0.2218
-3.1166 <s> SHARP 0.0000
-3.1166 <s> SHE 0.0000
-3.1166 <s> SHORTEN 0.0000
-2.0752 <s> SHOW 0.0000
-3.1166 <s> SHUT 0.0000
-3.1166 <s> SING 0.0000
-3.1166 <s> SITE -0.1761
-2.8156 <s> SITES 0.0000
-3.1166 <s> SIX -0.2218
-3.1166 <s> SLASH 0.0000
-3.1166 <s> SMART 0.0000
-3.1166 <s> SMILEY 0.0000
-3.1166 <s> SORT 0.0000
-3.1166 <s> SPACE -0.1761
-3.1166 <s> SPACES -0.2430
-3.1166 <s> SPAN -0.1761
-3.1166 <s> SPANDEX 0.0000
-3.1166 <s> SPEAK -0.2218
-2.8156 <s> SPECIALTY 0.0000
-3.1166 <s> SPLIT 0.0000
-3.1166 <s> STAR 0.0000
-3.1166 <s> START 0.0000
-3.1166 <s> STATE 0.0000
-3.1166 <s> STATUS -0.1761
-2.6395 <s> STOP 0.0000
-2.8156 <s> SUDO 0.0000
-3.1166 <s> SUPER -0.1761
-2.6395 <s> SWITCH 0.0000
-3.1166 <s> SYSTEM 0.0000
-2.1166 <s> TAB -0.1383
-2.6395 <s> TABLE -0.0969
-2.3385 <s> TAKE 0.0000
-3.1166 <s> TARGET 0.0000
-3.1166 <s> TEN -0.2430
-3.1166 <s> TESTING 0.0000
-2.8156 <s> TEXT -0.2041
-3.1166 <s> THANK 0.0000
-3.1166 <s> THANKS 0.0000
-2.8156 <s> THATS 0.0000
-3.1166 <s> THREE -0.2553
-2.8156 <s> THUNDERBIRD -0.2218
-3.1166 <s> TILDE 0.0000
-3.1166 <s> TITLE -0.1761
-3.1166 <s> TOILET 0.0000
-3.1166 <s> TOOLS 0.0000
-3.1166 <s> TOP -0.2218
-2.8156 <s> TRANSFER 0.0000
-3.1166 <s> TWO -0.2688
-3.1166 <s> U 0.0000
-3.1166 <s> UN 0.0000
-3.1166 <s> UNDO 0.0000
-3.1166 <s> UNFORMATTED 0.0000
-3.1166 <s> UNORDERED 0.0000
-3.1166 <s> UP -0.2688
-2.5145 <s> UPDATE -0.1249
-2.8156 <s> USER 0.0000
-3.1166 <s> USERNAME 0.0000
-3.1166 <s> VERBATIM 0.0000
-3.1166 <s> VIEW 0.0000
-2.0374 <s> VOLUME -0.0969
-3.1166 <s> WEB -0.1761
-3.1166 <s> WEBSERVER 0.0000
-3.1166 <s> WHADDAYA 0.0000
-2.5145 <s> WHAT 0.0000
-3.1166 <s> WHATS 0.0000
-2.6395 <s> WHO 0.0000
-2.4176 <s> WORKSPACE -0.1383
-3.1166 <s> WRITE 0.0000
-2.3385 <s> X -0.0580
-2.6395 <s> YANK 0.0000
-2.8156 <s> YOU -0.2430
-3.1166 <s> YOUR -0.1761
-3.1166 <s> YOUTUBE 0.0000
-3.1166 <s> ZEE 0.0000
-2.8156 <s> ZOOM 0.0000
-0.3010 A </s> -0.3010
-0.3010 AA FIRE 0.0000
-0.3010 ABOVE </s> -0.3010
-0.6021 ADD CONFIRM 0.0000
-0.6021 ADD CONFIRMATION 0.0000
-0.4771 ADDRESS </s> -0.3010
-0.7782 ADDRESS FIELD 0.0000
-0.6021 AFTER </s> -0.3010
-0.6021 AFTER ME 0.0000
-0.3010 AIGHTY PROCENT 0.0000
-0.3010 ALARM </s> -0.3010
-0.7782 ALIGN CENTER -0.2553
-0.7782 ALIGN LEFT -0.1383
-0.7782 ALIGN WITH 0.0000
-0.7270 ALL </s> -0.3010
-0.9031 ALL DESKTOPS 0.0000
-1.2041 ALL UNREAD 0.0000
-1.2041 ALL WINDOWS -0.1761
-1.2041 ALL WORKSPACE -0.2730
-0.6021 ALLOW </s> -0.3010
-0.6021 ALLOW TOP -0.2218
-0.3010 ALTERNATE TEXT -0.2553
-0.3010 ALTERNATIVES </s> -0.3010
-0.3010 ALWAYS ON -0.2632
-0.3010 AM I -0.2109
-0.3010 AMAZON </s> -0.3010
-0.3010 AMPLIFY THIS -0.1007
-0.5229 AND COPY -0.1761
-1.0000 AND HOLD 0.0000
-1.0000 AND QUIT -0.2940
-0.3010 ANGLE BRACKET 0.0000
-0.6021 APACHE </s> -0.3010
-0.6021 APACHE CONFIG -0.2109
-0.3010 APP LAUNCHER 0.0000
-0.3010 APPEND TO -0.2969
-0.3010 APPLICATION </s> -0.3010
-0.3010 APPLICATIONS </s> -0.3010
-1.2041 APT CASH 0.0000
-1.2041 APT DIST 0.0000
-1.2041 APT GET -0.1761
-1.2041 APT INSTALL 0.0000
-0.9031 APT UPDATE -0.2218
-0.9031 APT UPGRADE 0.0000
-0.3010 AQUARIUM </s> -0.3010
-0.3010 ARCHIVE THIS -0.1007
-0.9031 ARE </s> -0.3010
-0.9031 ARE EL 0.0000
-0.6021 ARE YOU -0.2109
-0.3010 ARENA TRACKER 0.0000
-0.3010 ARMITAGE </s> -0.3010
-0.3979 ARROW </s> -0.3010
-1.0000 ARROW CLASSIC 0.0000
-0.3010 ARTICLE TAGS 0.0000
-0.3010 AS </s> -0.3010
-0.3010 ASCI AQUARIUM 0.0000
-0.3010 ASIDE TAGS 0.0000
-0.3010 ATOM </s> -0.3010
-0.3010 ATTACK </s> -0.3010
-0.3010 AUDACITY </s> -0.3010
-0.7782 AUDIO </s> -0.3010
-0.4771 AUDIO BOOKS 0.0000
-0.3010 AVAILABLE </s> -0.3010
-0.3010 AWK EXPRESSION 0.0000
-0.3010 B </s> -0.3010
-0.4260 BACK </s> -0.3010
-0.9031 BACK SPACE -0.1761
-0.3010 BALL </s> -0.3010
-0.3010 BANG </s> -0.3010
-0.3010 BAR </s> -0.3010
-0.6021 BASH </s> -0.3010
-0.6021 BASH HEADER -0.1461
-0.3010 BAUKE </s> -0.3010
-0.3010 BAY </s> -0.3010
-0.6021 BE </s> -0.3010
-0.6021 BE BE -0.1761
-0.3010 BEFORE </s> -0.3010
-0.3010 BELOW </s> -0.3010
-0.3010 BEN BAUKE 0.0000
-0.4260 BIN </s> -0.3010
-0.9031 BIN BASH -0.1761
-0.3010 BIRD </s> -0.3010
-0.6021 BLADDER </s> -0.3010
-0.6021 BLADDER CONFIG -0.0512
-0.3010 BLANK </s> -0.3010
-0.3010 BLIND COPY -0.1761
-0.6021 BLOCK </s> -0.3010
-0.6021 BLOCK QUOTE -0.1761
-0.3010 BOARD </s> -0.3010
-0.3010 BOB </s> -0.3010
-0.3010 BOLD </s> -0.3010
-0.3010 BOOK TITLE -0.1761
-0.3010 BOOKS </s> -0.3010
-0.3010 BORDER TOILET 0.0000
-0.3010 BORED </s> -0.3010
-0.3010 BOX </s> -0.3010
-0.3010 BRACKET THIS -0.1007
-0.3010 BROWSER HISTORY 0.0000
-0.3010 BUFFER </s> -0.3010
-0.3010 BULLET POINT 0.0000
-0.3010 BULLSHIT </s> -0.3010
-0.3010 BUTTON </s> -0.3010
-0.3010 BY DANNY 0.0000
-0.5229 C </s> -0.3010
-0.6990 C S -0.2041
-0.3010 CALCULATOR </s> -0.3010
-0.3010 CAMEL CAPS 0.0000
-0.3010 CAN WE 0.0000
-0.6021 CANCEL </s> -0.3010
-0.6021 CANCEL MATCH 0.0000
-0.3010 CAPITALIZE THIS -0.1007
-0.3010 CAPS THIS -0.1007
-0.3010 CASH SEARCH -0.2304
-0.3010 CAT </s> -0.3010
-0.3010 CATAPULT </s> -0.3010
-0.3010 CD MIN 0.0000
-0.3010 CEL </s> -0.3010
-0.3010 CELL PHONE -0.1249
-1.0000 CENTER </s> -0.3010
-1.0000 CENTER CURSOR 0.0000
-0.6990 CENTER TAG 0.0000
-1.0000 CENTER TAGS 0.0000
-0.3010 CHANGE WORD 0.0000
-0.3979 CHAT </s> -0.3010
-1.0000 CHAT REPLY 0.0000
-0.3010 CHECK MAIL -0.1761
-0.3010 CHROME </s> -0.3010
-0.3010 CHROMIUM </s> -0.3010
-0.3010 CITATION TAGS 0.0000
-0.3010 CITY </s> -0.3010
-0.9031 CLASS </s> -0.3010
-0.6021 CLASS EQUALS -0.1091
-0.9031 CLASS IS -0.2688
-0.3010 CLASSIC ROCK 0.0000
-0.3010 CLEAN COMPUTER 0.0000
-0.4771 CLICK </s> -0.3010
-1.0792 CLICK AND -0.2553
-1.0792 CLICK HERE 0.0000
-0.3010 CLIP BOARD 0.0000
-1.1461 CLOSE CENTER -0.2041
-1.1461 CLOSE D -0.1549
-1.1461 CLOSE DIALOG 0.0000
-1.1461 CLOSE H -0.2688
-1.1461 CLOSE P -0.1761
-1.1461 CLOSE TAB -0.2109
-1.1461 CLOSE WINDOW -0.0902
-0.3010 CLUB </s> -0.3010
-0.3010 CODE </s> -0.3010
-0.9031 COLON </s> -0.3010
-0.9031 COLON DOLLAR 0.0000
-0.9031 COLON W 0.0000
-0.9031 COLON ZERO -0.1249
-0.3010 COLUMN WIDTH 0.0000
-0.3010 COLUMNS </s> -0.3010
-0.3010 COMMA </s> -0.3010
-0.3010 COMMANDO </s> -0.3010
-0.3010 COMMANDS </s> -0.3010
-0.3010 COMMENT </s> -0.3010
-0.3010 COMMIT ALL -0.2109
-0.3010 COMPRESS THIS -0.1007
-0.3010 COMPRESSION VALUES 0.0000
-0.3010 COMPUTER </s> -0.3010
-0.3010 CONCEDE </s> -0.3010
-0.7270 CONFIG </s> -0.3010
-0.7270 CONFIG DERR 0.0000
-1.2041 CONFIG FILE -0.2341
-1.2041 CONFIG HIGHLIGHTING 0.0000
-0.3010 CONFIRM </s> -0.3010
-0.3010 CONFIRMATION </s> -0.3010
-0.3010 CONTACTS </s> -0.3010
-1.3617 CONTROL </s> -0.3010
-1.6628 CONTROL A 0.0000
-1.6628 CONTROL ARE -0.2430
-1.6628 CONTROL B 0.0000
-1.6628 CONTROL C -0.1461
-1.6628 CONTROL D -0.2688
-1.6628 CONTROL E -0.1249
-1.6628 CONTROL ENTER -0.2730
-1.6628 CONTROL F -0.1761
-1.6628 CONTROL H -0.2852
-1.6628 CONTROL I -0.2109
-1.6628 CONTROL IN -0.0969
-1.6628 CONTROL K 0.0000
-1.6628 CONTROL L -0.2109
-1.6628 CONTROL O -0.1761
-1.6628 CONTROL P -0.1761
-0.8846 CONTROL SHIFT 0.0000
-0.6021 COPY </s> -0.3010
-1.3010 COPY THIS -0.2615
-0.6990 COPY TO -0.2757
-0.3010 CORPORATE BULLSHIT 0.0000
-1.0792 COW FORTUNE 0.0000
-0.7782 COW SAY 0.0000
-0.6021 COW THINK 0.0000
-0.6021 CURRENT DESKTOP 0.0000
-0.6021 CURRENT LINE -0.2218
-0.3010 CURSOR </s> -0.3010
-0.3010 CUT </s> -0.3010
-1.1461 D </s> -0.3010
-1.1461 D EQUALS -0.1549
-0.5441 D I -0.1761
-1.1461 D O -0.2430
-0.3010 DADS EMAIL -0.0792
-0.3010 DANNY </s> -0.3010
-0.3010 DATA TAGS 0.0000
-0.6021 DATE </s> -0.3010
-0.6021 DATE CODE 0.0000
-0.3010 DAY IS -0.2341
-0.3010 DECORATION </s> -0.3010
-0.6021 DEFINITION DATA 0.0000
-0.6021 DEFINITION TERM 0.0000
-1.0000 DELETE </s> -0.3010
-1.0000 DELETE LINES 0.0000
-1.0000 DELETE PREVIOUS -0.2218
-1.0000 DELETE THIS -0.2615
-1.0000 DELETE WORD 0.0000
-0.3010 DERR </s> -0.3010
-0.3010 DESIGNATION </s> -0.3010
-0.3010 DESKTOP </s> -0.3010
-0.3010 DESKTOPS </s> -0.3010
-0.3010 DIALOG </s> -0.3010
-0.3010 DIAMOND CLUB 0.0000
-0.7782 DISPLAY BLOCK -0.1761
-0.7782 DISPLAY INLINE 0.0000
-0.7782 DISPLAY NONE 0.0000
-0.3010 DIST UPGRADE 0.0000
-0.6021 DO IM 0.0000
-0.6021 DO YOU -0.2730
-0.3010 DOCUMENT MENU 0.0000
-0.3010 DOG </s> -0.3010
-0.3010 DOLLAR SIGN 0.0000
-0.3010 DONT SAVE -0.2430
-0.3010 DOUBLE CLICK -0.1249
-0.3802 DOWN </s> -0.3010
-1.0792 DOWN ARROW -0.0792
-0.3010 DOWNLOADS </s> -0.3010
-0.4771 E </s> -0.3010
-0.7782 E BAY 0.0000
-0.7782 ECHO EE 0.0000
-0.7782 ECHO MOUSE -0.1761
-0.7782 ECHO VOICE 0.0000
-0.4260 EDIT </s> -0.3010
-0.9031 EDIT MENU 0.0000
-0.3010 EE SPEAK -0.1249
-0.3010 EFF TWO -0.0580
-0.6990 EIGHT </s> -0.3010
-1.0000 EIGHT BALL 0.0000
-1.0000 EIGHT COLUMNS 0.0000
-1.0000 EIGHT HEADER -0.1461
-0.3010 EL </s> -0.3010
-0.3979 EMAIL </s> -0.3010
-1.0000 EMAIL HYPERLINK 0.0000
-0.3010 EMPTY TRASH 0.0000
-0.3010 ENABLED </s> -0.3010
-0.3010 END </s> -0.3010
-0.3010 ENGINE EX -0.2341
-1.2041 ENTER </s> -0.3010
-1.5051 ENTER CELL 0.0000
-1.5051 ENTER CITY 0.0000
-1.5051 ENTER DADS 0.0000
-1.5051 ENTER FIBER 0.0000
-1.5051 ENTER FIRST -0.2218
-1.2041 ENTER FULL -0.1249
-1.5051 ENTER GEE -0.2430
-1.5051 ENTER LAST -0.1761
-1.5051 ENTER NICK 0.0000
-1.5051 ENTER OFFICE 0.0000
-1.5051 ENTER STREET 0.0000
-1.5051 ENTER WORK 0.0000
-1.5051 ENTER ZIP 0.0000
-1.1461 EQUALS </s> -0.3010
-1.1461 EQUALS BLANK 0.0000
-1.1461 EQUALS RIGHT -0.1139
-0.5441 EQUALS THIS -0.1007
-0.3010 ESCAPE </s> -0.3010
-0.3010 ET SEE -0.2218
-0.3010 EVINCE </s> -0.3010
-1.1461 EX </s> -0.3010
-0.4472 EX CHAT 0.0000
-1.1461 EX CONFIG -0.2109
-0.3010 EXCLAMATION POINT 0.0000
-0.3010 EXIT </s> -0.3010
-0.3010 EXPRESSION </s> -0.3010
-0.6021 EYE </s> -0.3010
-0.6021 EYE FRAME 0.0000
-0.6021 F </s> -0.3010
-0.9031 F EIGHT -0.2553
-0.9031 F TWO -0.0580
-0.3010 FACE </s> -0.3010
-0.3010 FASTER </s> -0.3010
-0.3010 FIBER EMAIL -0.0792
-0.3010 FIELD </s> -0.3010
-0.3010 FIFTY PROCENT 0.0000
-0.8451 FILE </s> -0.3010
-1.4472 FILE AS 0.0000
-0.9700 FILE MANAGER 0.0000
-1.4472 FILE MENU 0.0000
-1.4472 FILE SPECIFICATIONS 0.0000
-1.4472 FILE SPECS 0.0000
-0.9700 FILE ZILLA 0.0000
-0.4260 FILES </s> -0.3010
-0.9031 FILES DERR 0.0000
-0.3010 FILTER </s> -0.3010
-0.3010 FIND ON -0.2632
-0.3010 FIRE </s> -0.3010
-0.4260 FIREFOX </s> -0.3010
-0.9031 FIREFOX PREFERENCES 0.0000
-0.7782 FIRST INBOX 0.0000
-0.7782 FIRST NAME 0.0000
-0.7782 FIRST SENT 0.0000
-0.6021 FIVE </s> -0.3010
-0.9031 FIVE COLUMNS 0.0000
-0.9031 FIVE SPACES -0.0969
-0.3010 FIX SPACING 0.0000
-0.3010 FLAT SYMBOL 0.0000
-0.3010 FLUFFIEST </s> -0.3010
-0.3010 FM </s> -0.3010
-0.3010 FORMAT MENU 0.0000
-0.3010 FORTUNE </s> -0.3010
-0.3010 FORWARD </s> -0.3010
-0.5229 FOUR </s> -0.3010
-1.0000 FOUR COLUMNS 0.0000
-1.0000 FOUR SPACES -0.0969
-0.3010 FOURTY PROCENT 0.0000
-0.3010 FRAME </s> -0.3010
-0.3010 FROM EX -0.1091
-0.3010 FROWNEY FACE 0.0000
-0.7782 FULL ADDRESS -0.1249
-0.7782 FULL NAME 0.0000
-0.7782 FULL SIZE 0.0000
-0.3010 FUN X -0.2688
-0.3010 FUNNY </s> -0.3010
-0.3010 GAY TOILET 0.0000
-0.4260 GEANY </s> -0.3010
-0.9031 GEANY FILES -0.0969
-0.4260 GEE EDIT -0.0969
-0.9031 GEE MAIL -0.1761
-0.6021 GET INSTALL 0.0000
-0.6021 GET MOUSE -0.1761
-0.7782 GIT COMMIT 0.0000
-0.7782 GIT PULL 0.0000
-0.7782 GIT STATUS -0.1761
-1.8692 GO BACK -0.0969
-1.8692 GO FORWARD 0.0000
-0.3252 GO TO -0.1146
-0.3010 GOOD MORNING 0.0000
-0.3010 GOOGLE THIS -0.1007
-0.3010 GRAB THAT -0.1461
-0.3010 GREETINGS </s> -0.3010
-0.3010 GRIN FACE 0.0000
-1.4472 H </s> -0.3010
-1.1461 H REF 0.0000
-0.4058 H T -0.0348
-0.3010 HALF SIZE 0.0000
-0.3010 HASH TAG 0.0000
-0.5229 HEADER </s> -0.3010
-1.3010 HEADER ONE -0.0792
-1.3010 HEADER TAGS 0.0000
-1.3010 HEADER THREE -0.0792
-1.3010 HEADER TWO -0.0580
-0.4260 HEARTHSTONE </s> -0.3010
-0.9031 HEARTHSTONE OPTIONS 0.0000
-0.3010 HELLO </s> -0.3010
-0.3010 HELP MENU 0.0000
-0.3010 HERE </s> -0.3010
-0.3010 HIGHLIGHTING </s> -0.3010
-0.3010 HISTORY </s> -0.3010
-0.3010 HOLD </s> -0.3010
-0.6021 HOME </s> -0.3010
-0.6021 HOME BIN -0.0969
-0.3010 HOOS THE -0.1249
-0.3010 HUGE GRIN 0.0000
-0.3010 HUNDERED PROCENT 0.0000
-0.3010 HYPERLINK </s> -0.3010
-0.3010 HYPHENATE THIS -0.1007
-0.7270 I </s> -0.3010
-1.2041 I D -0.2688
-0.6021 I V -0.1383
-0.3010 ICON </s> -0.3010
-0.3010 IK BEN 0.0000
-0.3010 IM BORED 0.0000
-0.7782 IMAGE </s> -0.3010
-0.7782 IMAGE C -0.2041
-0.7782 IMAGE D -0.1549
-0.4260 IN </s> -0.3010
-0.9031 IN IT -0.2218
-0.3010 INBOX </s> -0.3010
-0.3010 INFO </s> -0.3010
-0.3010 INLINE </s> -0.3010
-1.4472 INSERT AUDIO -0.2218
-1.4472 INSERT AWK 0.0000
-1.4472 INSERT EYE -0.1761
-1.4472 INSERT HYPERLINK 0.0000
-1.4472 INSERT IMAGE -0.2218
-1.1461 INSERT KEY -0.1761
-1.4472 INSERT MENU 0.0000
-1.4472 INSERT PANEL 0.0000
-1.4472 INSERT PHONE -0.2218
-1.4472 INSERT POPUP -0.1761
-1.4472 INSERT PRINT 0.0000
-1.4472 INSERT SED 0.0000
-1.4472 INSERT VIDEO 0.0000
-0.3010 INSTALL </s> -0.3010
-0.8451 IS </s> -0.3010
-0.8451 IS IT -0.1249
-1.1461 IS RIGHT -0.1139
-0.8451 IS THAT -0.2041
-0.4771 IT </s> -0.3010
-0.7782 IT EXPRESSION 0.0000
-0.3010 ITALICIZE </s> -0.3010
-0.3010 ITALICS </s> -0.3010
-0.6021 ITEM </s> -0.3010
-0.6021 ITEM TAGS 0.0000
-0.6021 JAVASCRIPT DATE -0.1761
-0.6021 JAVASCRIPT HEADER -0.1461
-0.3010 JUST SAID 0.0000
-0.3010 K </s> -0.3010
-0.3010 KEEP </s> -0.3010
-0.6021 KEY </s> -0.3010
-0.9031 KEY PRESS -0.2910
-0.9031 KEY TYPE 0.0000
-0.9031 KILL BE -0.1761
-0.9031 KILL BLADDER -0.1761
-0.9031 KILL ONEKO -0.2218
-0.9031 KILL RADIO -0.2109
-0.7270 L </s> -0.3010
-0.7270 L C -0.1461
-1.2041 L O -0.2430
-1.2041 L S -0.2304
-0.3010 LABEL </s> -0.3010
-0.3010 LABELS HEADER -0.1461
-0.6021 LAST NAME 0.0000
-0.6021 LAST TAB -0.2109
-0.3010 LATEX HIGHLIGHTING 0.0000
-0.3010 LAUNCHER </s> -0.3010
-0.5051 LEFT </s> -0.3010
-1.2041 LEFT ARROW -0.0792
-1.2041 LEFT CLICK -0.1249
-1.2041 LEFT SIDE 0.0000
-0.3010 LIBREOFFICE </s> -0.3010
-0.7782 LINE </s> -0.3010
-0.7782 LINE ABOVE 0.0000
-0.7782 LINE BELOW 0.0000
-0.3010 LINES </s> -0.3010
-0.6021 LINK </s> -0.3010
-0.6021 LINK TO -0.2969
-0.4771 LIST ITEM 0.0000
-0.7782 LIST TAGS 0.0000
-0.3010 LISTENING </s> -0.3010
-0.3010 LOCAL BIN -0.0969
-0.3010 LOCATION </s> -0.3010
-0.3010 LOCK SCREEN 0.0000
-0.3010 LOG DERR 0.0000
-0.3010 LOWER VOLUME -0.2730
-0.3010 LOWERCASE </s> -0.3010
-0.3010 M </s> -0.3010
-0.6021 MAIL </s> -0.3010
-0.6021 MAIL ADDRESS -0.1249
-1.0792 MAKE BOLD 0.0000
-1.0792 MAKE LOWERCASE 0.0000
-1.0792 MAKE NOTE 0.0000
-1.0792 MAKE SUPER -0.1761
-1.0792 MAKE SUPERSCRIPT 0.0000
-1.0792 MAKE UPPERCASE 0.0000
-0.3010 MAN </s> -0.3010
-0.3010 MANAGER </s> -0.3010
-0.3010 MAP </s> -0.3010
-0.3010 MARK </s> -0.3010
-1.0792 MARKDOWN BOLD 0.0000
-1.0792 MARKDOWN CODE 0.0000
-1.0792 MARKDOWN HEADER -0.1461
-1.0792 MARKDOWN HYPERLINK 0.0000
-1.0792 MARKDOWN ITALICS 0.0000
-1.0792 MARKDOWN PREVIEW 0.0000
-0.3010 MATCH </s> -0.3010
-0.3010 MATRIX </s> -0.3010
-0.3010 MAX </s> -0.3010
-0.3010 MAXIMIZE WINDOW -0.0902
-0.3010 ME </s> -0.3010
-0.3010 MENU </s> -0.3010
-1.3424 META BOB 0.0000
-1.3424 META C -0.1461
-1.3424 META EFF 0.0000
-1.3424 META EYE -0.1761
-1.3424 META F -0.2430
-1.3424 META L -0.2109
-1.3424 META M 0.0000
-1.3424 META N -0.1761
-1.3424 META P -0.1761
-1.3424 META SCOOBY 0.0000
-1.3424 META W 0.0000
-0.3010 METAL TOILET 0.0000
-0.3010 MIDDLE CLICK -0.1249
-0.3010 MIN </s> -0.3010
-0.3010 MINIMIZE WINDOW -0.0902
-0.3010 MORNING </s> -0.3010
-0.6021 MOUSE LOCATION 0.0000
-0.6021 MOUSE WHEEL 0.0000
-0.6021 MOVE TO -0.2580
-1.0280 MOVE WINDOW -0.0322
-0.8062 MOVE WORKSPACE -0.1383
-0.4771 MUSIC </s> -0.3010
-0.7782 MUSIC C -0.2041
-0.3010 MUTE SOUND 0.0000
-0.6021 N </s> -0.3010
-0.6021 N MAP 0.0000
-0.3010 NAME </s> -0.3010
-0.3010 NATURAL SYMBOL 0.0000
-0.3010 NET MAP 0.0000
-0.3010 NETFLIX </s> -0.3010
-1.3010 NEW BULLET 0.0000
-1.3010 NEW FILE -0.2341
-1.0000 NEW LINE -0.1249
-1.3010 NEW LIST -0.1249
-1.3010 NEW SECTION 0.0000
-1.3010 NEW TAB -0.2109
-1.3010 NEW TABLE -0.2430
-1.3010 NEW WEB -0.1761
-1.3010 NEW WINDOW -0.0902
-1.0000 NEXT BUFFER 0.0000
-1.0000 NEXT TAB -0.2109
-1.0000 NEXT TRACK 0.0000
-1.0000 NEXT UNREAD 0.0000
-1.0000 NEXT WORD 0.0000
-0.3010 NICK NAME 0.0000
-0.3010 NIGHT ATTACK 0.0000
-0.4771 NINE </s> -0.3010
-0.7782 NINE COLUMNS 0.0000
-0.3010 NINETY PROCENT 0.0000
-0.9031 NO </s> -0.3010
-0.9031 NO DECORATION 0.0000
-0.6021 NO SCRIPT 0.0000
-0.3010 NONE </s> -0.3010
-0.3010 NORMAL SPEED 0.0000
-0.3010 NOTE </s> -0.3010
-0.3010 NOTES </s> -0.3010
-0.6021 O </s> -0.3010
-0.9031 O FILES -0.0969
-0.9031 O TOOL 0.0000
-1.1461 OF ALL -0.2430
-1.1461 OF CURRENT -0.1761
-1.1461 OF MUSIC -0.2218
-0.8451 OF REGION 0.0000
-0.8451 OF WINDOW -0.0621
-0.3010 OFFICE PHONE -0.1249
-1.0792 ON ALL -0.2730
-1.0792 ON LEFT -0.1383
-1.0792 ON ONLY 0.0000
-1.0792 ON PAGE -0.2341
-1.0792 ON RIGHT -0.1139
-1.0792 ON TOP -0.2218
-0.3979 ONE </s> -0.3010
-1.0000 ONE COLUMNS 0.0000
-0.7782 ONEKO </s> -0.3010
-1.0792 ONEKO CAT 0.0000
-1.0792 ONEKO DOG 0.0000
-1.0792 ONEKO SAKURA 0.0000
-1.0792 ONEKO TORA 0.0000
-0.3010 ONLY THIS -0.2915
-0.3010 OP </s> -0.3010
-1.8808 OPEN ARMITAGE 0.0000
-1.8808 OPEN ATOM 0.0000
-1.8808 OPEN AUDACITY 0.0000
-1.5798 OPEN BLADDER -0.1761
-1.8808 OPEN CALCULATOR 0.0000
-1.8808 OPEN CENTER -0.2041
-1.8808 OPEN CHROME 0.0000
-1.8808 OPEN CHROMIUM 0.0000
-1.8808 OPEN CONTACTS 0.0000
-1.8808 OPEN D -0.1549
-1.8808 OPEN EVINCE 0.0000
-1.8808 OPEN EX -0.1091
-1.4037 OPEN FILE -0.1091
-1.8808 OPEN FIREFOX -0.0969
-1.8808 OPEN GEANY -0.0969
-1.8808 OPEN GEE -0.0969
-1.8808 OPEN H -0.2688
-1.8808 OPEN HEARTHSTONE -0.0969
-1.8808 OPEN LAST -0.1761
-1.8808 OPEN LIBREOFFICE 0.0000
-1.8808 OPEN NOTES 0.0000
-1.8808 OPEN P -0.1761
-1.8808 OPEN QUA 0.0000
-1.5798 OPEN R 0.0000
-1.8808 OPEN RHYTHMBOX 0.0000
-1.8808 OPEN TEE 0.0000
-1.8808 OPEN TERMINAL 0.0000
-1.8808 OPEN TERMINATOR 0.0000
-1.8808 OPEN THUNDERBIRD -0.1249
-1.8808 OPEN TODO 0.0000
-1.8808 OPEN UNISON 0.0000
-1.8808 OPEN V -0.2109
-1.8808 OPEN VOLUME -0.2730
-1.8808 OPEN WRITER 0.0000
-0.3010 OPTIMAL COLUMN 0.0000
-0.3010 OPTIONS </s> -0.3010
-0.3010 OUT </s> -0.3010
-0.6021 P </s> -0.3010
-0.6021 P TAG 0.0000
-0.6021 PACKAGE INFO 0.0000
-0.6021 PACKAGE SEARCH -0.2304
-0.8451 PAGE </s> -0.3010
-1.1461 PAGE BACK -0.0969
-1.1461 PAGE DOWN -0.0669
-1.1461 PAGE FORWARD 0.0000
-1.1461 PAGE TEMPLATE 0.0000
-1.1461 PAGE UP -0.0580
-0.3010 PANEL </s> -0.3010
-0.3010 PARAGRAPH TAGS 0.0000
-0.3010 PASS FILTER 0.0000
-0.3010 PASTE </s> -0.3010
-0.6021 PAUSE </s> -0.3010
-0.6021 PAUSE PLAY -0.2218
-0.3010 PERENTHESIZE THIS -0.1007
-0.3010 PERFECT </s> -0.3010
-0.3010 PERIOD </s> -0.3010
-0.3010 PERMISSIONS </s> -0.3010
-0.4771 PHONE </s> -0.3010
-0.7782 PHONE ICON 0.0000
-0.3010 PHOTO BY 0.0000
-0.3010 PHOTOS </s> -0.3010
-0.3010 PING TEST 0.0000
-0.7782 PLAY </s> -0.3010
-0.7782 PLAY FASTER 0.0000
-0.7782 PLAY PAUSE -0.1761
-0.3010 POINT </s> -0.3010
-0.6021 POPUP </s> -0.3010
-0.6021 POPUP JAVASCRIPT -0.1761
-0.3010 POST FROM 0.0000
-0.3010 PREFERENCES </s> -0.3010
-0.6021 PREFORMATTED </s> -0.3010
-0.6021 PREFORMATTED TEXT -0.2041
-1.6435 PRESS </s> -0.3010
-1.6435 PRESS DELETE -0.2553
-1.6435 PRESS EIGHT -0.2041
-1.6435 PRESS END 0.0000
-1.6435 PRESS ENTER -0.2730
-1.6435 PRESS ESCAPE 0.0000
-1.6435 PRESS F -0.1761
-1.6435 PRESS FIVE -0.1761
-1.6435 PRESS FOUR -0.1461
-1.6435 PRESS HOME -0.1761
-1.6435 PRESS I -0.2109
-1.6435 PRESS NINE -0.1249
-1.6435 PRESS NO -0.2430
-1.6435 PRESS ONE -0.0792
-1.6435 PRESS Q 0.0000
-1.6435 PRESS SEVEN -0.1249
-1.6435 PRESS SIX -0.1249
-1.6435 PRESS TAB -0.2109
-1.6435 PRESS THREE -0.0792
-1.6435 PRESS TWO -0.0580
-1.6435 PRESS YES 0.0000
-1.6435 PRESS ZERO -0.1249
-0.3010 PRETTY RUDE 0.0000
-0.3010 PREVIEW </s> -0.3010
-1.0792 PREVIOUS BUFFER 0.0000
-0.7782 PREVIOUS SENTENCE 0.0000
-1.0792 PREVIOUS TAB -0.2109
-1.0792 PREVIOUS TRACK 0.0000
-1.0792 PREVIOUS WORD 0.0000
-0.3010 PRINT BUTTON 0.0000
-0.3010 PROCENT </s> -0.3010
-0.3010 PULL </s> -0.3010
-0.6021 PUT AFTER -0.1761
-0.6021 PUT BEFORE 0.0000
-0.3010 Q </s> -0.3010
-0.3010 QUA CEL 0.0000
-0.3010 QUARTER NOTE 0.0000
-0.3010 QUESTION MARK 0.0000
-1.7924 QUIT </s> -0.3010
-1.7924 QUIT APPLICATION 0.0000
-1.7924 QUIT ATOM 0.0000
-1.7924 QUIT BE -0.1761
-1.7924 QUIT BLADDER -0.1761
-1.7924 QUIT CALCULATOR 0.0000
-1.7924 QUIT CHROME 0.0000
-1.7924 QUIT CHROMIUM 0.0000
-1.7924 QUIT EVINCE 0.0000
-1.7924 QUIT EX -0.1091
-1.4914 QUIT FILE -0.1963
-1.7924 QUIT FIREFOX -0.0969
-1.7924 QUIT GEANY -0.0969
-1.7924 QUIT GEE -0.0969
-1.7924 QUIT HEARTHSTONE -0.0969
-1.7924 QUIT LIBREOFFICE 0.0000
-1.7924 QUIT ONEKO -0.2218
-1.7924 QUIT QUA 0.0000
-1.4914 QUIT R 0.0000
-1.7924 QUIT RADIO -0.2109
-1.7924 QUIT RHYTHMBOX 0.0000
-1.7924 QUIT TERMINAL 0.0000
-1.7924 QUIT TERMINATOR 0.0000
-1.7924 QUIT THUNDERBIRD -0.1249
-1.4914 QUIT UNISON 0.0000
-1.7924 QUIT V -0.2109
-1.7924 QUIT WINDOW -0.0902
-1.7924 QUIT WRITER 0.0000
-0.6021 QUOTE TAGS 0.0000
-0.6021 QUOTE THIS -0.1007
-0.3010 QUOTES </s> -0.3010
-0.6021 R ARENA 0.0000
-0.6021 R SINK 0.0000
-1.2041 RADIO 3FM 0.0000
-1.2041 RADIO 538 0.0000
-0.7270 RADIO </s> -0.3010
-1.2041 RADIO ARROW -0.2553
-1.2041 RADIO FUN 0.0000
-1.2041 RADIO SLAM 0.0000
-0.3010 RAISE VOLUME -0.2730
-0.3010 REBOOT </s> -0.3010
-0.6021 RECENT GEANY -0.2430
-0.6021 RECENT L -0.2730
-0.3010 RECIPIENT </s> -0.3010
-0.3010 REF </s> -0.3010
-0.3010 REFRESH PAGE -0.2341
-0.6021 REGION </s> -0.3010
-0.6021 REGION AND -0.1461
-0.3010 REMOVE SPACES -0.0969
-0.3010 REPEAT AFTER -0.1761
-0.3010 REPLAY TRACK 0.0000
-0.3010 REPLY </s> -0.3010
-0.3010 REPORT </s> -0.3010
-0.9031 RESTART APACHE -0.1761
-0.9031 RESTART BLADDER -0.1761
-0.9031 RESTART ENGINE 0.0000
-0.9031 RESTART TRACK 0.0000
-0.3010 RESTORE WINDOW -0.0902
-0.3010 RETURN CODE 0.0000
-0.3010 RHYTHMBOX </s> -0.3010
-0.4559 RIGHT </s> -0.3010
-1.3010 RIGHT ARROW -0.0792
-1.3010 RIGHT CLICK -0.1249
-1.3010 RIGHT SIDE 0.0000
-0.3010 ROCK </s> -0.3010
-0.3010 ROW </s> -0.3010
-0.3010 RUDE </s> -0.3010
-0.8239 S </s> -0.3010
-1.3010 S COMMANDO 0.0000
-1.3010 S HEADER -0.1461
-1.3010 S L -0.2109
-0.6990 S S -0.1761
-0.3010 SAID THAT -0.1461
-0.3010 SAKURA </s> -0.3010
-0.9031 SAVE </s> -0.3010
-0.6021 SAVE FILE -0.2156
-0.9031 SAVE LINK -0.1761
-0.3010 SAY </s> -0.3010
-0.3010 SCHOOL OF -0.2688
-0.3010 SCOOBY </s> -0.3010
-0.3010 SCORE </s> -0.3010
-0.3010 SCREEN </s> -0.3010
-1.0792 SCREENSHOT </s> -0.3010
-1.0792 SCREENSHOT AND -0.1461
-0.4771 SCREENSHOT OF -0.1549
-0.3010 SCRIPT ALLOW 0.0000
-0.6021 SCROLL DOWN -0.0669
-0.6021 SCROLL UP -0.0580
-0.8239 SEARCH </s> -0.3010
-1.3010 SEARCH APPLICATIONS 0.0000
-1.3010 SEARCH FIELD 0.0000
-1.3010 SEARCH FILES -0.0969
-1.0000 SEARCH MUSIC -0.1249
-1.3010 SEARCH PHOTOS 0.0000
-1.3010 SEARCH VIDEOS 0.0000
-0.6021 SECOND INBOX 0.0000
-0.6021 SECOND SENT 0.0000
-0.3010 SECTION LABEL 0.0000
-0.3010 SED EXPRESSION 0.0000
-0.7782 SEE </s> -0.3010
-0.7782 SEE MATRIX 0.0000
-0.7782 SEE RETURN 0.0000
-0.6690 SELECT ALL -0.1761
-1.1461 SELECT PREVIOUS -0.2218
-0.6690 SELECT THIS -0.2511
-0.3010 SELECTION </s> -0.3010
-0.3010 SEMICOLON </s> -0.3010
-0.3010 SEND EMAIL -0.0792
-0.3010 SENT BOX 0.0000
-0.3010 SENTENCE </s> -0.3010
-0.6021 SET ALARM 0.0000
-0.6021 SET SLEEP 0.0000
-0.4771 SEVEN </s> -0.3010
-0.7782 SEVEN COLUMNS 0.0000
-0.3010 SEVENTY PROCENT 0.0000
-0.3010 SHARP SYMBOL 0.0000
-0.3010 SHE BANG 0.0000
-1.0792 SHIFT C -0.1461
-1.0792 SHIFT E -0.1249
-1.0792 SHIFT IN -0.0969
-1.0792 SHIFT O -0.1761
-1.0792 SHIFT V -0.2430
-1.0792 SHIFT W 0.0000
-0.3010 SHOPPING </s> -0.3010
-0.3010 SHORTEN YOU -0.2730
-1.0414 SHOW ALL -0.2109
-1.3424 SHOW CLIP 0.0000
-1.3424 SHOW DESKTOP 0.0000
-0.7404 SHOW ON -0.1249
-0.8653 SHOW WINDOWS 0.0000
-0.3010 SHUT UP -0.0580
-0.3010 SIDE </s> -0.3010
-0.3010 SIGN </s> -0.3010
-0.3010 SING </s> -0.3010
-0.3010 SINK </s> -0.3010
-0.6021 SITE </s> -0.3010
-0.6021 SITE MANAGER 0.0000
-0.6021 SITES AVAILABLE 0.0000
-0.6021 SITES ENABLED 0.0000
-0.4771 SIX </s> -0.3010
-0.7782 SIX COLUMNS 0.0000
-0.3010 SIXTY PROCENT 0.0000
-0.3010 SIZE </s> -0.3010
-0.3010 SLAM FM 0.0000
-0.3010 SLASH ET 0.0000
-0.3010 SLEEP TIMER 0.0000
-0.3010 SMART QUOTES 0.0000
-0.3010 SMILEY FACE 0.0000
-0.3010 SO FUNNY 0.0000
-0.3010 SORT THIS -0.1007
-0.3010 SOUND </s> -0.3010
-0.6021 SPACE </s> -0.3010
-0.6021 SPACE BAR 0.0000
-0.4260 SPACES </s> -0.3010
-0.9031 SPACES TO -0.2969
-0.3010 SPACING </s> -0.3010
-0.6021 SPAN </s> -0.3010
-0.6021 SPAN THIS -0.1007
-0.3010 SPANDEX </s> -0.3010
-0.4771 SPEAK </s> -0.3010
-0.7782 SPEAK THIS -0.1007
-0.3010 SPEAKING </s> -0.3010
-0.6021 SPECIALTY CLASS -0.2430
-0.6021 SPECIALTY SPAN -0.1761
-0.3010 SPECIFICATIONS </s> -0.3010
-0.3010 SPECS </s> -0.3010
-0.3010 SPEED </s> -0.3010
-0.3010 SPLIT BUFFER 0.0000
-0.3010 STAR WARS 0.0000
-0.3010 START SELECTION 0.0000
-0.3010 STATE YOUR -0.1761
-0.6021 STATUS </s> -0.3010
-0.6021 STATUS REPORT 0.0000
-0.7782 STOP RADIO -0.2109
-0.7782 STOP SELECTION 0.0000
-0.7782 STOP SPEAKING 0.0000
-0.3010 STREET </s> -0.3010
-0.3010 SUBJECT </s> -0.3010
-0.6021 SUDO </s> -0.3010
-0.6021 SUDO CLEAN 0.0000
-0.6021 SUPER </s> -0.3010
-0.6021 SUPER KEY -0.1761
-0.3010 SUPERSCRIPT </s> -0.3010
-0.9031 SWITCH BACK -0.0969
-0.9031 SWITCH SWITCH -0.1761
-0.6021 SWITCH WINDOW -0.0902
-0.3010 SYMBOL </s> -0.3010
-0.3010 SYSTEM LOG 0.0000
-1.3802 T BOLD 0.0000
-1.3802 T BOOK 0.0000
-1.3802 T CODE 0.0000
-1.3802 T COMMANDO 0.0000
-1.3802 T COMMENT 0.0000
-1.3802 T F -0.2430
-0.9031 T HEADER -0.2304
-1.3802 T ITALICS 0.0000
-1.3802 T PAGE -0.2688
-1.3802 T PREFORMATTED -0.1761
-0.7270 TAB </s> -0.3010
-1.5051 TAB EIGHT -0.2041
-1.5051 TAB FIVE -0.1761
-1.5051 TAB FOUR -0.1461
-1.5051 TAB NINE -0.1249
-1.5051 TAB ONE -0.0792
-1.5051 TAB SEVEN -0.1249
-1.5051 TAB SIX -0.1249
-1.5051 TAB TEN -0.2430
-1.5051 TAB THREE -0.0792
-1.5051 TAB TWO -0.0580
-0.9031 TABLE DATA 0.0000
-0.9031 TABLE HEADER -0.2788
-0.9031 TABLE ROW 0.0000
-0.9031 TABLE TAGS 0.0000
-0.3010 TAG </s> -0.3010
-0.3010 TAGS </s> -0.3010
-0.3010 TAKE SCREENSHOT 0.0000
-0.3010 TARGET EQUALS -0.2688
-0.3010 TEE BIRD 0.0000
-0.3010 TEMPLATE </s> -0.3010
-0.9031 TEN </s> -0.3010
-0.9031 TEN COLUMNS 0.0000
-0.9031 TEN COMMANDS 0.0000
-0.9031 TEN PROCENT 0.0000
-0.3010 TERM TAGS 0.0000
-0.3010 TERMINAL </s> -0.3010
-0.3010 TERMINATOR </s> -0.3010
-0.3010 TEST </s> -0.3010
-0.3010 TESTING EE 0.0000
-0.6990 TEXT </s> -0.3010
-0.6990 TEXT ALIGN -0.1249
-1.0000 TEXT EQUALS -0.1549
-0.3010 THANK YOU -0.2430
-0.3010 THANKS </s> -0.3010
-0.5229 THAT </s> -0.3010
-1.0000 THAT RIGHT -0.1139
-1.0000 THAT TRUE 0.0000
-0.6021 THATS PRETTY 0.0000
-0.6021 THATS RUDE 0.0000
-0.7782 THE END 0.0000
-0.7782 THE FLUFFIEST 0.0000
-0.7782 THE MAN 0.0000
-0.3979 THINK </s> -0.3010
-1.0000 THINK FORTUNE 0.0000
-0.3010 THIRTY PROCENT 0.0000
-0.4323 THIS </s> -0.3010
-1.0607 THIS SENTENCE 0.0000
-1.6628 THIS WORD 0.0000
-1.6628 THIS WORKSPACE -0.2730
-0.3979 THREE </s> -0.3010
-1.0000 THREE COLUMNS 0.0000
-0.4771 THUNDERBIRD </s> -0.3010
-0.7782 THUNDERBIRD PREFERENCES 0.0000
-0.3010 TILDE </s> -0.3010
-0.3010 TIME IS -0.2341
-0.3010 TIMER </s> -0.3010
-0.6021 TITLE </s> -0.3010
-0.6021 TITLE EQUALS -0.1549
-2.0253 TO AMAZON 0.0000
-2.0253 TO ATOM 0.0000
-2.0253 TO AUDACITY 0.0000
-2.0253 TO CALCULATOR 0.0000
-2.0253 TO CHROME 0.0000
-2.0253 TO CHROMIUM 0.0000
-2.0253 TO CURRENT -0.1761
-2.0253 TO DIAMOND 0.0000
-2.0253 TO E -0.2218
-2.0253 TO EVINCE 0.0000
-2.0253 TO EX -0.1091
-1.7243 TO FILE -0.1963
-2.0253 TO FIREFOX -0.0969
-2.0253 TO GEANY -0.0969
-2.0253 TO GEE -0.0969
-2.0253 TO HEARTHSTONE -0.0969
-2.0253 TO INBOX 0.0000
-1.7243 TO LEFT -0.0969
-2.0253 TO LIBREOFFICE 0.0000
-2.0253 TO NETFLIX 0.0000
-2.0253 TO NIGHT 0.0000
-2.0253 TO QUA 0.0000
-1.7243 TO R 0.0000
-2.0253 TO RECIPIENT 0.0000
-2.0253 TO RHYTHMBOX 0.0000
-1.7243 TO RIGHT -0.0792
-2.0253 TO SCORE 0.0000
-2.0253 TO SHOPPING 0.0000
-2.0253 TO SUBJECT 0.0000
-1.7243 TO TEE 0.0000
-2.0253 TO TERMINAL 0.0000
-2.0253 TO TERMINATOR 0.0000
-2.0253 TO THE -0.2218
-1.7243 TO THUNDERBIRD -0.1249
-2.0253 TO TRASH 0.0000
-2.0253 TO TWITCH 0.0000
-2.0253 TO UNDERSCORES 0.0000
-1.7243 TO UNISON 0.0000
-2.0253 TO V -0.2109
-2.0253 TO VOLUME -0.2730
-1.4232 TO WORKSPACE -0.2430
-2.0253 TO WRITER 0.0000
-2.0253 TO YOU -0.2730
-0.3010 TODAYS DATE -0.1761
-0.3010 TODO </s> -0.3010
-0.3010 TOILET </s> -0.3010
-0.3010 TOOL KEY -0.1761
-0.3010 TOOLS MENU 0.0000
-0.7782 TOP </s> -0.3010
-0.7782 TOP SITE -0.1761
-0.7782 TOP TEN -0.2430
-0.3010 TORA </s> -0.3010
-0.3010 TRACK </s> -0.3010
-0.3010 TRACKER </s> -0.3010
-0.6021 TRANSFER KEEP 0.0000
-0.6021 TRANSFER TEXT -0.2041
-0.3010 TRASH </s> -0.3010
-0.3010 TRUE </s> -0.3010
-0.3010 TUBE </s> -0.3010
-0.3010 TWENTY PROCENT 0.0000
-0.3010 TWITCH </s> -0.3010
-0.3680 TWO </s> -0.3010
-1.1461 TWO COLUMNS 0.0000
-0.3010 TYPE </s> -0.3010
-0.3010 U T -0.2825
-0.3010 UN MUTE 0.0000
-0.3010 UNDERSCORES </s> -0.3010
-0.3010 UNDO </s> -0.3010
-0.3010 UNFORMATTED PASTE 0.0000
-0.3010 UNISON </s> -0.3010
-0.3010 UNORDERED LIST -0.2218
-0.3010 UNREAD </s> -0.3010
-0.3680 UP </s> -0.3010
-1.1461 UP ARROW -0.0792
-0.7782 UPDATE </s> -0.3010
-1.0792 UPDATE ALTERNATIVES 0.0000
-0.7782 UPDATE BLADDER 0.0000
-1.0792 UPDATE CONFIG -0.2109
-0.3010 UPGRADE </s> -0.3010
-0.3010 UPPERCASE </s> -0.3010
-0.6021 USER BIN -0.0969
-0.6021 USER LOCAL 0.0000
-0.3010 USERNAME FIELD 0.0000
-0.9031 V </s> -0.3010
-0.7270 V L -0.2109
-0.9031 V TAG 0.0000
-1.2041 V TAGS 0.0000
-0.3010 VALUES </s> -0.3010
-0.3010 VERBATIM HYPERLINK 0.0000
-0.3010 VIDEO </s> -0.3010
-0.3010 VIDEOS </s> -0.3010
-0.3010 VIEW MENU 0.0000
-0.3010 VOICE </s> -0.3010
-1.2041 VOLUME </s> -0.3010
-1.5051 VOLUME AIGHTY 0.0000
-1.2041 VOLUME CONTROL -0.2817
-1.5051 VOLUME FIFTY 0.0000
-1.5051 VOLUME FOURTY 0.0000
-1.5051 VOLUME HUNDERED 0.0000
-1.5051 VOLUME MAX 0.0000
-1.5051 VOLUME NINETY 0.0000
-1.5051 VOLUME SEVENTY 0.0000
-1.5051 VOLUME SIXTY 0.0000
-1.5051 VOLUME TEN -0.2430
-1.5051 VOLUME THIRTY 0.0000
-1.5051 VOLUME TWENTY 0.0000
-1.5051 VOLUME ZERO -0.2218
-0.3010 W </s> -0.3010
-0.3010 WARS </s> -0.3010
-0.3010 WE DO -0.1761
-0.6021 WEB FILES -0.2430
-0.6021 WEB SEARCH -0.2304
-0.3010 WEBSERVER PERMISSIONS 0.0000
-0.3010 WHADDAYA THINK -0.0792
-0.9031 WHAT CAN 0.0000
-0.9031 WHAT DAY 0.0000
-0.9031 WHAT DO -0.1761
-0.9031 WHAT TIME 0.0000
-0.3010 WHATS TODAYS 0.0000
-0.6021 WHEEL DOWN -0.0669
-0.6021 WHEEL UP -0.0580
-0.9031 WHO AM 0.0000
-0.9031 WHO ARE -0.1761
-0.6021 WHO IS -0.2341
-0.3010 WIDTH </s> -0.3010
-0.4150 WINDOW </s> -0.3010
-1.4150 WINDOW AND -0.1461
-1.1139 WINDOW TO -0.2843
-0.6021 WINDOWS </s> -0.3010
-0.6021 WINDOWS OF -0.2341
-0.3010 WITH CURSOR 0.0000
-0.3010 WORD </s> -0.3010
-0.3010 WORK EMAIL -0.0792
-1.2041 WORKSPACE </s> -0.3010
-1.2041 WORKSPACE DOWN -0.0669
-1.5051 WORKSPACE FOUR -0.1461
-1.2041 WORKSPACE LEFT -0.1383
-1.5051 WORKSPACE ONE -0.0792
-1.2041 WORKSPACE OP 0.0000
-1.2041 WORKSPACE RIGHT -0.1139
-1.5051 WORKSPACE THREE -0.0792
-1.5051 WORKSPACE TWO -0.0580
-1.2041 WORKSPACE UP -0.0580
-0.3010 WRITE AND -0.2553
-0.3010 WRITER </s> -0.3010
-1.1461 X </s> -0.3010
-0.5441 X COW 0.0000
-1.1461 X D -0.2688
-1.1461 X WHO -0.1761
-0.7782 YANK LINES 0.0000
-0.7782 YANK TO -0.2969
-0.7782 YANK WORD 0.0000
-0.3010 YES </s> -0.3010
-0.9031 YOU </s> -0.3010
-1.2041 YOU ARE -0.2430
-1.2041 YOU JUST 0.0000
-1.2041 YOU LISTENING 0.0000
-1.2041 YOU SAID 0.0000
-1.2041 YOU THINK -0.0792
-1.2041 YOU TUBE 0.0000
-0.6021 YOUR DESIGNATION 0.0000
-0.6021 YOUR SO 0.0000
-0.3010 YOUTUBE AUDIO -0.1249
-0.3010 ZEE OUT 0.0000
-0.4771 ZERO </s> -0.3010
-0.7782 ZERO PROCENT 0.0000
-0.3010 ZILLA </s> -0.3010
-0.3010 ZIP </s> -0.3010
-0.6021 ZOOM IN -0.0969
-0.6021 ZOOM OUT 0.0000

\3-grams:
-0.3010 <s> AA FIRE
-0.6021 <s> ADD CONFIRM
-0.6021 <s> ADD CONFIRMATION
-0.3010 <s> ADDRESS FIELD
-0.3010 <s> ALIGN WITH
-0.3010 <s> ALTERNATE TEXT
-0.3010 <s> ALWAYS ON
-0.3010 <s> AMPLIFY THIS
-0.3010 <s> ANGLE BRACKET
-0.3010 <s> APACHE CONFIG
-0.3010 <s> APP LAUNCHER
-0.3010 <s> APPEND TO
-1.2041 <s> APT CASH
-1.2041 <s> APT DIST
-1.2041 <s> APT GET
-1.2041 <s> APT INSTALL
-0.9031 <s> APT UPDATE
-0.9031 <s> APT UPGRADE
-0.3010 <s> ARCHIVE THIS
-0.3010 <s> ARE YOU
-0.3010 <s> ARTICLE TAGS
-0.3010 <s> ASCI AQUARIUM
-0.3010 <s> ASIDE TAGS
-0.3010 <s> AUDIO BOOKS
-0.3010 <s> BACK SPACE
-0.3010 <s> BASH HEADER
-0.3010 <s> BE BE
-0.3010 <s> BIN BASH
-0.3010 <s> BLADDER CONFIG
-0.3010 <s> BLIND COPY
-0.3010 <s> BLOCK QUOTE
-0.3010 <s> BORDER TOILET
-0.3010 <s> BROWSER HISTORY
-0.3010 <s> C S
-0.3010 <s> CAMEL CAPS
-0.6021 <s> CANCEL </s>
-0.6021 <s> CANCEL MATCH
-0.3010 <s> CAPITALIZE THIS
-0.3010 <s> CATAPULT </s>
-0.3010 <s> CD MIN
-0.6021 <s> CENTER CURSOR
-0.6021 <s> CENTER TAGS
-0.3010 <s> CHANGE WORD
-0.3010 <s> CHECK MAIL
-0.3010 <s> CITATION TAGS
-0.4771 <s> CLASS EQUALS
-0.7782 <s> CLASS IS
-0.3010 <s> CLEAN COMPUTER
-0.6021 <s> CLICK AND
-0.6021 <s> CLICK HERE
-1.1461 <s> CLOSE CENTER
-1.1461 <s> CLOSE D
-1.1461 <s> CLOSE DIALOG
-1.1461 <s> CLOSE H
-1.1461 <s> CLOSE P
-1.1461 <s> CLOSE TAB
-1.1461 <s> CLOSE WINDOW
-0.9031 <s> COLON </s>
-0.9031 <s> COLON DOLLAR
-0.9031 <s> COLON W
-0.9031 <s> COLON ZERO
-0.3010 <s> COMMA </s>
-0.3010 <s> COMPRESS THIS
-0.3010 <s> COMPRESSION VALUES
-0.3010 <s> CONCEDE </s>
-0.3010 <s> CONFIG HIGHLIGHTING
-1.6232 <s> CONTROL A
-1.6232 <s> CONTROL ARE
-1.6232 <s> CONTROL B
-1.6232 <s> CONTROL C
-1.6232 <s> CONTROL D
-1.6232 <s> CONTROL E
-1.6232 <s> CONTROL ENTER
-1.6232 <s> CONTROL F
-1.6232 <s> CONTROL H
-1.6232 <s> CONTROL I
-1.6232 <s> CONTROL IN
-1.6232 <s> CONTROL K
-1.6232 <s> CONTROL L
-1.6232 <s> CONTROL O
-1.6232 <s> CONTROL P
-0.8451 <s> CONTROL SHIFT
-1.0792 <s> COPY </s>
-1.0792 <s> COPY THIS
-0.4771 <s> COPY TO
-0.3010 <s> CORPORATE BULLSHIT
-0.6021 <s> COW SAY
-0.6021 <s> COW THINK
-0.3010 <s> CUT </s>
-0.3010 <s> D I
-0.6021 <s> DEFINITION DATA
-0.6021 <s> DEFINITION TERM
-0.9031 <s> DELETE LINES
-0.9031 <s> DELETE PREVIOUS
-0.9031 <s> DELETE THIS
-0.9031 <s> DELETE WORD
-0.7782 <s> DISPLAY BLOCK
-0.7782 <s> DISPLAY INLINE
-0.7782 <s> DISPLAY NONE
-0.3010 <s> DOCUMENT MENU
-0.3010 <s> DONT SAVE
-0.3010 <s> DOUBLE CLICK
-0.3010 <s> DOWN ARROW
-0.3010 <s> DOWNLOADS </s>
-0.7782 <s> ECHO EE
-0.7782 <s> ECHO MOUSE
-0.7782 <s> ECHO VOICE
-0.3010 <s> EDIT MENU
-0.6021 <s> EIGHT BALL
-0.6021 <s> EIGHT COLUMNS
-0.3010 <s> EMAIL HYPERLINK
-0.3010 <s> EMPTY TRASH
-0.3010 <s> ENGINE EX
-1.4472 <s> ENTER CELL
-1.4472 <s> ENTER CITY
-1.4472 <s> ENTER DADS
-1.4472 <s> ENTER FIBER
-1.4472 <s> ENTER FIRST
-1.1461 <s> ENTER FULL
-1.4472 <s> ENTER GEE
-1.4472 <s> ENTER LAST
-1.4472 <s> ENTER NICK
-1.4472 <s> ENTER OFFICE
-1.4472 <s> ENTER STREET
-1.4472 <s> ENTER WORK
-1.4472 <s> ENTER ZIP
-0.3010 <s> EQUALS </s>
-0.3010 <s> ESCAPE </s>
-0.3010 <s> EX CHAT
-0.3010 <s> EXCLAMATION POINT
-0.3010 <s> EXIT </s>
-0.7782 <s> FILE MENU
-0.7782 <s> FILE SPECIFICATIONS
-0.7782 <s> FILE SPECS
-0.3010 <s> FIND ON
-0.3010 <s> FIREFOX PREFERENCES
-0.6021 <s> FIRST INBOX
-0.6021 <s> FIRST SENT
-0.6021 <s> FIVE COLUMNS
-0.6021 <s> FIVE SPACES
-0.3010 <s> FIX SPACING
-0.3010 <s> FLAT SYMBOL
-0.3010 <s> FORMAT MENU
-0.6021 <s> FOUR COLUMNS
-0.6021 <s> FOUR SPACES
-0.3010 <s> FROWNEY FACE
-0.3010 <s> FULL SIZE
-0.3010 <s> GAY TOILET
-0.3010 <s> GET MOUSE
-0.7782 <s> GIT COMMIT
-0.7782 <s> GIT PULL
-0.7782 <s> GIT STATUS
-1.8692 <s> GO BACK
-1.8692 <s> GO FORWARD
-0.3252 <s> GO TO
-0.3010 <s> GOOD MORNING
-0.3010 <s> GOOGLE THIS
-0.3010 <s> GRAB THAT
-0.3010 <s> GREETINGS </s>
-0.3010 <s> H T
-0.3010 <s> HALF SIZE
-0.3010 <s> HASH TAG
-0.3010 <s> HEARTHSTONE OPTIONS
-0.3010 <s> HELLO </s>
-0.3010 <s> HELP MENU
-0.3010 <s> HISTORY </s>
-0.3010 <s> HOME BIN
-0.3010 <s> HOOS THE
-0.3010 <s> HUGE GRIN
-0.3010 <s> HYPHENATE THIS
-0.3010 <s> I D
-0.3010 <s> IK BEN
-0.6021 <s> IMAGE C
-0.6021 <s> IMAGE D
-0.3010 <s> IN IT
-1.4472 <s> INSERT AUDIO
-1.4472 <s> INSERT AWK
-1.4472 <s> INSERT EYE
-1.4472 <s> INSERT HYPERLINK
-1.4472 <s> INSERT IMAGE
-1.1461 <s> INSERT KEY
-1.4472 <s> INSERT MENU
-1.4472 <s> INSERT PANEL
-1.4472 <s> INSERT PHONE
-1.4472 <s> INSERT POPUP
-1.4472 <s> INSERT PRINT
-1.4472 <s> INSERT SED
-1.4472 <s> INSERT VIDEO
-0.3010 <s> IS THAT
-0.3010 <s> ITALICIZE </s>
-0.3010 <s> JAVASCRIPT DATE
-0.9031 <s> KILL BE
-0.9031 <s> KILL BLADDER
-0.9031 <s> KILL ONEKO
-0.9031 <s> KILL RADIO
-0.3010 <s> L S
-0.3010 <s> LABELS HEADER
-0.3010 <s> LATEX HIGHLIGHTING
-0.6021 <s> LEFT ARROW
-0.6021 <s> LEFT CLICK
-0.3010 <s> LINK TO
-0.3010 <s> LIST ITEM
-0.3010 <s> LOCK SCREEN
-0.3010 <s> LOWER VOLUME
-1.0792 <s> MAKE BOLD
-1.0792 <s> MAKE LOWERCASE
-1.0792 <s> MAKE NOTE
-1.0792 <s> MAKE SUPER
-1.0792 <s> MAKE SUPERSCRIPT
-1.0792 <s> MAKE UPPERCASE
-1.0792 <s> MARKDOWN BOLD
-1.0792 <s> MARKDOWN CODE
-1.0792 <s> MARKDOWN HEADER
-1.0792 <s> MARKDOWN HYPERLINK
-1.0792 <s> MARKDOWN ITALICS
-1.0792 <s> MARKDOWN PREVIEW
-0.3010 <s> MAXIMIZE WINDOW
-1.3424 <s> META BOB
-1.3424 <s> META C
-1.3424 <s> META EFF
-1.3424 <s> META EYE
-1.3424 <s> META F
-1.3424 <s> META L
-1.3424 <s> META M
-1.3424 <s> META N
-1.3424 <s> META P
-1.3424 <s> META SCOOBY
-1.3424 <s> META W
-0.3010 <s> METAL TOILET
-0.3010 <s> MIDDLE CLICK
-0.3010 <s> MINIMIZE WINDOW
-0.3010 <s> MOUSE WHEEL
-0.6021 <s> MOVE TO
-1.0280 <s> MOVE WINDOW
-0.8062 <s> MOVE WORKSPACE
-0.3010 <s> MUTE SOUND
-0.3010 <s> N MAP
-0.3010 <s> NATURAL SYMBOL
-0.3010 <s> NET MAP
-1.3010 <s> NEW BULLET
-1.3010 <s> NEW FILE
-1.0000 <s> NEW LINE
-1.3010 <s> NEW LIST
-1.3010 <s> NEW SECTION
-1.3010 <s> NEW TAB
-1.3010 <s> NEW TABLE
-1.3010 <s> NEW WEB
-1.3010 <s> NEW WINDOW
-1.0000 <s> NEXT BUFFER
-1.0000 <s> NEXT TAB
-1.0000 <s> NEXT TRACK
-1.0000 <s> NEXT UNREAD
-1.0000 <s> NEXT WORD
-0.3010 <s> NINE COLUMNS
-0.7782 <s> NO DECORATION
-0.4771 <s> NO SCRIPT
-0.3010 <s> NORMAL SPEED
-0.3010 <s> ONE COLUMNS
-0.9031 <s> ONEKO CAT
-0.9031 <s> ONEKO DOG
-0.9031 <s> ONEKO SAKURA
-0.9031 <s> ONEKO TORA
-1.8808 <s> OPEN ARMITAGE
-1.8808 <s> OPEN ATOM
-1.8808 <s> OPEN AUDACITY
-1.5798 <s> OPEN BLADDER
-1.8808 <s> OPEN CALCULATOR
-1.8808 <s> OPEN CENTER
-1.8808 <s> OPEN CHROME
-1.8808 <s> OPEN CHROMIUM
-1.8808 <s> OPEN CONTACTS
-1.8808 <s> OPEN D
-1.8808 <s> OPEN EVINCE
-1.8808 <s> OPEN EX
-1.4037 <s> OPEN FILE
-1.8808 <s> OPEN FIREFOX
-1.8808 <s> OPEN GEANY
-1.8808 <s> OPEN GEE
-1.8808 <s> OPEN H
-1.8808 <s> OPEN HEARTHSTONE
-1.8808 <s> OPEN LAST
-1.8808 <s> OPEN LIBREOFFICE
-1.8808 <s> OPEN NOTES
-1.8808 <s> OPEN P
-1.8808 <s> OPEN QUA
-1.5798 <s> OPEN R
-1.8808 <s> OPEN RHYTHMBOX
-1.8808 <s> OPEN TEE
-1.8808 <s> OPEN TERMINAL
-1.8808 <s> OPEN TERMINATOR
-1.8808 <s> OPEN THUNDERBIRD
-1.8808 <s> OPEN TODO
-1.8808 <s> OPEN UNISON
-1.8808 <s> OPEN V
-1.8808 <s> OPEN VOLUME
-1.8808 <s> OPEN WRITER
-0.3010 <s> OPTIMAL COLUMN
-0.6021 <s> PACKAGE INFO
-0.6021 <s> PACKAGE SEARCH
-0.9031 <s> PAGE BACK
-0.9031 <s> PAGE DOWN
-0.9031 <s> PAGE FORWARD
-0.9031 <s> PAGE UP
-0.3010 <s> PARAGRAPH TAGS
-0.3010 <s> PASS FILTER
-0.3010 <s> PASTE </s>
-0.3010 <s> PAUSE PLAY
-0.3010 <s> PERENTHESIZE THIS
-0.3010 <s> PERFECT </s>
-0.3010 <s> PERIOD </s>
-0.3010 <s> PHOTO BY
-0.3010 <s> PING TEST
-0.6021 <s> PLAY FASTER
-0.6021 <s> PLAY PAUSE
-0.3010 <s> POPUP JAVASCRIPT
-0.3010 <s> POST FROM
-0.3010 <s> PREFORMATTED TEXT
-1.6232 <s> PRESS DELETE
-1.6232 <s> PRESS EIGHT
-1.6232 <s> PRESS END
-1.6232 <s> PRESS ENTER
-1.6232 <s> PRESS ESCAPE
-1.6232 <s> PRESS F
-1.6232 <s> PRESS FIVE
-1.6232 <s> PRESS FOUR
-1.6232 <s> PRESS HOME
-1.6232 <s> PRESS I
-1.6232 <s> PRESS NINE
-1.6232 <s> PRESS NO
-1.6232 <s> PRESS ONE
-1.6232 <s> PRESS Q
-1.6232 <s> PRESS SEVEN
-1.6232 <s> PRESS SIX
-1.6232 <s> PRESS TAB
-1.6232 <s> PRESS THREE
-1.6232 <s> PRESS TWO
-1.6232 <s> PRESS YES
-1.6232 <s> PRESS ZERO
-0.9031 <s> PREVIOUS BUFFER
-0.9031 <s> PREVIOUS TAB
-0.9031 <s> PREVIOUS TRACK
-0.9031 <s> PREVIOUS WORD
-0.6021 <s> PUT AFTER
-0.6021 <s> PUT BEFORE
-0.3010 <s> QUARTER NOTE
-0.3010 <s> QUESTION MARK
-1.7782 <s> QUIT APPLICATION
-1.7782 <s> QUIT ATOM
-1.7782 <s> QUIT BE
-1.7782 <s> QUIT BLADDER
-1.7782 <s> QUIT CALCULATOR
-1.7782 <s> QUIT CHROME
-1.7782 <s> QUIT CHROMIUM
-1.7782 <s> QUIT EVINCE
-1.7782 <s> QUIT EX
-1.4771 <s> QUIT FILE
-1.7782 <s> QUIT FIREFOX
-1.7782 <s> QUIT GEANY
-1.7782 <s> QUIT GEE
-1.7782 <s> QUIT HEARTHSTONE
-1.7782 <s> QUIT LIBREOFFICE
-1.7782 <s> QUIT ONEKO
-1.7782 <s> QUIT QUA
-1.4771 <s> QUIT R
-1.7782 <s> QUIT RADIO
-1.7782 <s> QUIT RHYTHMBOX
-1.7782 <s> QUIT TERMINAL
-1.7782 <s> QUIT TERMINATOR
-1.7782 <s> QUIT THUNDERBIRD
-1.4771 <s> QUIT UNISON
-1.7782 <s> QUIT V
-1.7782 <s> QUIT WINDOW
-1.7782 <s> QUIT WRITER
-0.3010 <s> QUOTE THIS
-1.0000 <s> RADIO 3FM
-1.0000 <s> RADIO 538
-1.0000 <s> RADIO ARROW
-1.0000 <s> RADIO FUN
-1.0000 <s> RADIO SLAM
-0.3010 <s> RAISE VOLUME
-0.3010 <s> REBOOT </s>
-0.6021 <s> RECENT GEANY
-0.6021 <s> RECENT L
-0.3010 <s> REFRESH PAGE
-0.3010 <s> REMOVE SPACES
-0.3010 <s> REPEAT AFTER
-0.3010 <s> REPLAY TRACK
-0.9031 <s> RESTART APACHE
-0.9031 <s> RESTART BLADDER
-0.9031 <s> RESTART ENGINE
-0.9031 <s> RESTART TRACK
-0.3010 <s> RESTORE WINDOW
-0.6021 <s> RIGHT ARROW
-0.6021 <s> RIGHT CLICK
-0.3010 <s> S L
-0.4771 <s> SAVE FILE
-0.7782 <s> SAVE LINK
-0.3010 <s> SCHOOL OF
-0.6021 <s> SCROLL DOWN
-0.6021 <s> SCROLL UP
-1.1461 <s> SEARCH APPLICATIONS
-1.1461 <s> SEARCH FIELD
-1.1461 <s> SEARCH FILES
-0.8451 <s> SEARCH MUSIC
-1.1461 <s> SEARCH PHOTOS
-1.1461 <s> SEARCH VIDEOS
-0.6021 <s> SECOND INBOX
-0.6021 <s> SECOND SENT
-0.3010 <s> SECTION LABEL
-0.6021 <s> SEE MATRIX
-0.6021 <s> SEE RETURN
-0.6690 <s> SELECT ALL
-1.1461 <s> SELECT PREVIOUS
-0.6690 <s> SELECT THIS
-0.3010 <s> SEMICOLON </s>
-0.3010 <s> SEND EMAIL
-0.6021 <s> SET ALARM
-0.6021 <s> SET SLEEP
-0.3010 <s> SEVEN COLUMNS
-0.3010 <s> SHARP SYMBOL
-0.3010 <s> SHE BANG
-0.3010 <s> SHORTEN YOU
-1.0414 <s> SHOW ALL
-1.3424 <s> SHOW CLIP
-1.3424 <s> SHOW DESKTOP
-0.7404 <s> SHOW ON
-0.8653 <s> SHOW WINDOWS
-0.3010 <s> SHUT UP
-0.3010 <s> SING </s>
-0.3010 <s> SITE MANAGER
-0.6021 <s> SITES AVAILABLE
-0.6021 <s> SITES ENABLED
-0.3010 <s> SIX COLUMNS
-0.3010 <s> SLASH ET
-0.3010 <s> SMART QUOTES
-0.3010 <s> SMILEY FACE
-0.3010 <s> SORT THIS
-0.3010 <s> SPACE BAR
-0.3010 <s> SPACES TO
-0.3010 <s> SPAN THIS
-0.3010 <s> SPANDEX </s>
-0.3010 <s> SPEAK THIS
-0.6021 <s> SPECIALTY CLASS
-0.6021 <s> SPECIALTY SPAN
-0.3010 <s> SPLIT BUFFER
-0.3010 <s> STAR WARS
-0.3010 <s> START SELECTION
-0.3010 <s> STATE YOUR
-0.3010 <s> STATUS REPORT
-0.7782 <s> STOP RADIO
-0.7782 <s> STOP SELECTION
-0.7782 <s> STOP SPEAKING
-0.6021 <s> SUDO </s>
-0.6021 <s> SUDO CLEAN
-0.3010 <s> SUPER KEY
-0.7782 <s> SWITCH BACK
-0.7782 <s> SWITCH SWITCH
-0.7782 <s> SWITCH WINDOW
-0.3010 <s> SYSTEM LOG
-1.3010 <s> TAB EIGHT
-1.3010 <s> TAB FIVE
-1.3010 <s> TAB FOUR
-1.3010 <s> TAB NINE
-1.3010 <s> TAB ONE
-1.3010 <s> TAB SEVEN
-1.3010 <s> TAB SIX
-1.3010 <s> TAB TEN
-1.3010 <s> TAB THREE
-1.3010 <s> TAB TWO
-0.7782 <s> TABLE DATA
-0.7782 <s> TABLE HEADER
-0.7782 <s> TABLE TAGS
-0.3010 <s> TAKE SCREENSHOT
-0.3010 <s> TARGET EQUALS
-0.3010 <s> TEN COLUMNS
-0.3010 <s> TESTING EE
-0.3010 <s> TEXT ALIGN
-0.3010 <s> THANK YOU
-0.3010 <s> THANKS </s>
-0.6021 <s> THATS PRETTY
-0.6021 <s> THATS RUDE
-0.3010 <s> THREE COLUMNS
-0.3010 <s> THUNDERBIRD PREFERENCES
-0.3010 <s> TILDE </s>
-0.3010 <s> TITLE EQUALS
-0.3010 <s> TOILET </s>
-0.3010 <s> TOOLS MENU
-0.3010 <s> TOP TEN
-0.6021 <s> TRANSFER KEEP
-0.6021 <s> TRANSFER TEXT
-0.3010 <s> TWO COLUMNS
-0.3010 <s> U T
-0.3010 <s> UN MUTE
-0.3010 <s> UNDO </s>
-0.3010 <s> UNFORMATTED PASTE
-0.3010 <s> UNORDERED LIST
-0.3010 <s> UP ARROW
-0.9031 <s> UPDATE ALTERNATIVES
-0.6021 <s> UPDATE BLADDER
-0.9031 <s> UPDATE CONFIG
-0.6021 <s> USER BIN
-0.6021 <s> USER LOCAL
-0.3010 <s> USERNAME FIELD
-0.3010 <s> VERBATIM HYPERLINK
-0.3010 <s> VIEW MENU
-1.3802 <s> VOLUME AIGHTY
-1.3802 <s> VOLUME FIFTY
-1.3802 <s> VOLUME FOURTY
-1.3802 <s> VOLUME HUNDERED
-1.3802 <s> VOLUME MAX
-1.3802 <s> VOLUME NINETY
-1.3802 <s> VOLUME SEVENTY
-1.3802 <s> VOLUME SIXTY
-1.3802 <s> VOLUME TEN
-1.3802 <s> VOLUME THIRTY
-1.3802 <s> VOLUME TWENTY
-1.3802 <s> VOLUME ZERO
-0.3010 <s> WEB FILES
-0.3010 <s> WEBSERVER PERMISSIONS
-0.3010 <s> WHADDAYA THINK
-0.9031 <s> WHAT CAN
-0.9031 <s> WHAT DAY
-0.9031 <s> WHAT DO
-0.9031 <s> WHAT TIME
-0.3010 <s> WHATS TODAYS
-0.7782 <s> WHO AM
-0.7782 <s> WHO ARE
-0.7782 <s> WHO IS
-1.0000 <s> WORKSPACE DOWN
-1.0000 <s> WORKSPACE LEFT
-1.0000 <s> WORKSPACE OP
-1.0000 <s> WORKSPACE RIGHT
-1.0000 <s> WORKSPACE UP
-0.3010 <s> WRITE AND
-0.4771 <s> X COW
-1.0792 <s> X D
-1.0792 <s> X WHO
-0.7782 <s> YANK LINES
-0.7782 <s> YANK TO
-0.7782 <s> YANK WORD
-0.6021 <s> YOU JUST
-0.6021 <s> YOU SAID
-0.3010 <s> YOUR SO
-0.3010 <s> YOUTUBE AUDIO
-0.3010 <s> ZEE OUT
-0.6021 <s> ZOOM IN
-0.6021 <s> ZOOM OUT
-0.3010 AA FIRE </s>
-0.3010 ADD CONFIRM </s>
-0.3010 ADD CONFIRMATION </s>
-0.3010 ADDRESS FIELD </s>
-0.3010 AFTER ME </s>
-0.3010 AIGHTY PROCENT </s>
-0.3010 ALIGN CENTER </s>
-0.3010 ALIGN LEFT </s>
-0.3010 ALIGN WITH CURSOR
-0.3010 ALL DESKTOPS </s>
-0.3010 ALL UNREAD </s>
-0.3010 ALL WINDOWS </s>
-0.3010 ALL WORKSPACE </s>
-0.3010 ALLOW TOP SITE
-0.3010 ALTERNATE TEXT EQUALS
-0.3010 ALWAYS ON TOP
-0.3010 AM I </s>
-0.3010 AMPLIFY THIS </s>
-0.3010 AND COPY </s>
-0.3010 AND HOLD </s>
-0.3010 AND QUIT </s>
-0.3010 ANGLE BRACKET THIS
-0.3010 APACHE CONFIG DERR
-0.3010 APP LAUNCHER </s>
-0.3010 APPEND TO CURRENT
-0.3010 APT CASH SEARCH
-0.3010 APT DIST UPGRADE
-0.3010 APT GET INSTALL
-0.3010 APT INSTALL </s>
-0.3010 APT UPDATE </s>
-0.3010 APT UPGRADE </s>
-0.3010 ARCHIVE THIS </s>
-0.3010 ARE EL </s>
-0.6021 ARE YOU </s>
-0.6021 ARE YOU LISTENING
-0.3010 ARENA TRACKER </s>
-0.3010 ARROW CLASSIC ROCK
-0.3010 ARTICLE TAGS </s>
-0.3010 ASCI AQUARIUM </s>
-0.3010 ASIDE TAGS </s>
-0.3010 AUDIO BOOKS </s>
-0.3010 AWK EXPRESSION </s>
-0.3010 BACK SPACE </s>
-0.3010 BASH HEADER </s>
-0.3010 BE BE </s>
-0.3010 BEN BAUKE </s>
-0.3010 BIN BASH </s>
-0.6021 BLADDER CONFIG </s>
-0.9031 BLADDER CONFIG DERR
-0.9031 BLADDER CONFIG FILE
-0.3010 BLIND COPY </s>
-0.3010 BLOCK QUOTE TAGS
-0.3010 BOOK TITLE </s>
-0.3010 BORDER TOILET </s>
-0.3010 BRACKET THIS </s>
-0.3010 BROWSER HISTORY </s>
-0.3010 BULLET POINT </s>
-0.3010 BY DANNY </s>
-0.3010 C S S
-0.3010 CAMEL CAPS THIS
-0.3010 CAN WE DO
-0.3010 CANCEL MATCH </s>
-0.3010 CAPITALIZE THIS </s>
-0.3010 CAPS THIS </s>
-0.3010 CASH SEARCH </s>
-0.3010 CD MIN </s>
-0.3010 CELL PHONE </s>
-0.3010 CENTER CURSOR </s>
-0.3010 CENTER TAG </s>
-0.3010 CENTER TAGS </s>
-0.3010 CHANGE WORD </s>
-0.3010 CHAT REPLY </s>
-0.3010 CHECK MAIL </s>
-0.3010 CITATION TAGS </s>
-0.6021 CLASS EQUALS RIGHT
-0.6021 CLASS EQUALS THIS
-0.3010 CLASS IS RIGHT
-0.3010 CLASSIC ROCK </s>
-0.3010 CLEAN COMPUTER </s>
-0.3010 CLICK AND HOLD
-0.3010 CLICK HERE </s>
-0.3010 CLIP BOARD </s>
-0.3010 CLOSE CENTER TAG
-0.3010 CLOSE D I
-0.3010 CLOSE DIALOG </s>
-0.3010 CLOSE H REF
-0.3010 CLOSE P TAG
-0.3010 CLOSE TAB </s>
-0.3010 CLOSE WINDOW </s>
-0.3010 COLON DOLLAR SIGN
-0.3010 COLON W </s>
-0.3010 COLON ZERO </s>
-0.3010 COLUMN WIDTH </s>
-0.3010 COMMIT ALL </s>
-0.3010 COMPRESS THIS </s>
-0.3010 COMPRESSION VALUES </s>
-0.3010 CONFIG DERR </s>
-0.3010 CONFIG FILE </s>
-0.3010 CONFIG HIGHLIGHTING </s>
-0.3010 CONTROL A </s>
-0.3010 CONTROL ARE </s>
-0.3010 CONTROL B </s>
-0.3010 CONTROL C </s>
-0.3010 CONTROL D </s>
-0.3010 CONTROL E </s>
-0.3010 CONTROL ENTER </s>
-0.3010 CONTROL F </s>
-0.3010 CONTROL H </s>
-0.3010 CONTROL I </s>
-0.3010 CONTROL IN </s>
-0.3010 CONTROL K </s>
-0.3010 CONTROL L </s>
-0.3010 CONTROL O </s>
-0.3010 CONTROL P </s>
-1.0792 CONTROL SHIFT C
-1.0792 CONTROL SHIFT E
-1.0792 CONTROL SHIFT IN
-1.0792 CONTROL SHIFT O
-1.0792 CONTROL SHIFT V
-1.0792 CONTROL SHIFT W
-0.3010 COPY THIS SENTENCE
-0.9031 COPY TO RECIPIENT
-0.9031 COPY TO SUBJECT
-0.9031 COPY TO TEE
-0.9031 COPY TO THUNDERBIRD
-0.3010 CORPORATE BULLSHIT </s>
-0.3010 COW FORTUNE </s>
-0.3010 COW SAY </s>
-0.4771 COW THINK </s>
-0.7782 COW THINK FORTUNE
-0.3010 CURRENT DESKTOP </s>
-0.3010 CURRENT LINE </s>
-0.3010 D EQUALS THIS
-0.3010 D I V
-0.3010 D O TOOL
-0.3010 DADS EMAIL </s>
-0.3010 DATA TAGS </s>
-0.3010 DATE CODE </s>
-0.3010 DAY IS IT
-0.3010 DEFINITION DATA TAGS
-0.3010 DEFINITION TERM TAGS
-0.3010 DELETE LINES </s>
-0.3010 DELETE PREVIOUS SENTENCE
-0.3010 DELETE THIS SENTENCE
-0.3010 DELETE WORD </s>
-0.3010 DIAMOND CLUB </s>
-0.3010 DISPLAY BLOCK </s>
-0.3010 DISPLAY INLINE </s>
-0.3010 DISPLAY NONE </s>
-0.3010 DIST UPGRADE </s>
-0.3010 DO IM BORED
-0.3010 DO YOU THINK
-0.3010 DOCUMENT MENU </s>
-0.3010 DOLLAR SIGN </s>
-0.3010 DONT SAVE </s>
-0.3010 DOUBLE CLICK </s>
-0.3010 DOWN ARROW </s>
-0.3010 E BAY </s>
-0.3010 ECHO EE SPEAK
-0.3010 ECHO MOUSE LOCATION
-0.3010 ECHO VOICE </s>
-0.3010 EDIT MENU </s>
-0.3010 EE SPEAK </s>
-0.3010 EFF TWO </s>
-0.3010 EIGHT BALL </s>
-0.3010 EIGHT COLUMNS </s>
-0.3010 EIGHT HEADER </s>
-0.3010 EMAIL HYPERLINK </s>
-0.3010 EMPTY TRASH </s>
-0.6021 ENGINE EX </s>
-0.6021 ENGINE EX CONFIG
-0.3010 ENTER CELL PHONE
-0.3010 ENTER CITY </s>
-0.3010 ENTER DADS EMAIL
-0.3010 ENTER FIBER EMAIL
-0.3010 ENTER FIRST NAME
-0.6021 ENTER FULL ADDRESS
-0.6021 ENTER FULL NAME
-0.3010 ENTER GEE MAIL
-0.3010 ENTER LAST NAME
-0.3010 ENTER NICK NAME
-0.3010 ENTER OFFICE PHONE
-0.3010 ENTER STREET </s>
-0.3010 ENTER WORK EMAIL
-0.3010 ENTER ZIP </s>
-0.3010 EQUALS BLANK </s>
-0.3010 EQUALS RIGHT </s>
-0.3010 EQUALS THIS </s>
-0.3010 ET SEE </s>
-0.3979 EX CHAT </s>
-1.0000 EX CHAT REPLY
-0.3010 EX CONFIG DERR
-0.3010 EXCLAMATION POINT </s>
-0.3010 EYE FRAME </s>
-0.3010 F EIGHT HEADER
-0.3010 F TWO </s>
-0.3010 FIBER EMAIL </s>
-0.3010 FIFTY PROCENT </s>
-0.3010 FILE AS </s>
-0.3010 FILE MANAGER </s>
-0.3010 FILE MENU </s>
-0.3010 FILE SPECIFICATIONS </s>
-0.3010 FILE SPECS </s>
-0.3010 FILE ZILLA </s>
-0.3010 FILES DERR </s>
-0.3010 FIND ON PAGE
-0.3010 FIREFOX PREFERENCES </s>
-0.3010 FIRST INBOX </s>
-0.3010 FIRST NAME </s>
-0.3010 FIRST SENT BOX
-0.3010 FIVE COLUMNS </s>
-0.3010 FIVE SPACES </s>
-0.3010 FIX SPACING </s>
-0.3010 FLAT SYMBOL </s>
-0.3010 FORMAT MENU </s>
-0.3010 FOUR COLUMNS </s>
-0.3010 FOUR SPACES </s>
-0.3010 FOURTY PROCENT </s>
-0.3010 FROM EX CHAT
-0.3010 FROWNEY FACE </s>
-0.3010 FULL ADDRESS </s>
-0.3010 FULL NAME </s>
-0.3010 FULL SIZE </s>
-0.3010 FUN X </s>
-0.3010 GAY TOILET </s>
-0.3010 GEANY FILES </s>
-0.3010 GEE EDIT </s>
-0.3010 GEE MAIL ADDRESS
-0.3010 GET INSTALL </s>
-0.3010 GET MOUSE LOCATION
-0.3010 GIT COMMIT ALL
-0.3010 GIT PULL </s>
-0.3010 GIT STATUS </s>
-0.3010 GO BACK </s>
-0.3010 GO FORWARD </s>
-1.8451 GO TO AMAZON
-1.8451 GO TO ATOM
-1.8451 GO TO AUDACITY
-1.8451 GO TO CALCULATOR
-1.8451 GO TO CHROME
-1.8451 GO TO CHROMIUM
-1.8451 GO TO DIAMOND
-1.8451 GO TO E
-1.8451 GO TO EVINCE
-1.8451 GO TO EX
-1.5441 GO TO FILE
-1.8451 GO TO FIREFOX
-1.8451 GO TO GEANY
-1.8451 GO TO GEE
-1.8451 GO TO HEARTHSTONE
-1.8451 GO TO INBOX
-1.8451 GO TO LIBREOFFICE
-1.8451 GO TO NETFLIX
-1.8451 GO TO NIGHT
-1.8451 GO TO QUA
-1.5441 GO TO R
-1.8451 GO TO RHYTHMBOX
-1.8451 GO TO TEE
-1.8451 GO TO TERMINAL
-1.8451 GO TO TERMINATOR
-1.8451 GO TO THUNDERBIRD
-1.8451 GO TO TWITCH
-1.5441 GO TO UNISON
-1.8451 GO TO V
-1.8451 GO TO VOLUME
-1.8451 GO TO WRITER
-1.8451 GO TO YOU
-0.3010 GOOD MORNING </s>
-0.3010 GOOGLE THIS </s>
-0.3010 GRAB THAT </s>
-0.3010 GRIN FACE </s>
-0.3010 H REF </s>
-1.3424 H T BOLD
-1.3424 H T BOOK
-1.3424 H T CODE
-1.3424 H T COMMANDO
-1.3424 H T COMMENT
-0.8653 H T HEADER
-1.3424 H T ITALICS
-1.3424 H T PAGE
-1.3424 H T PREFORMATTED
-0.3010 HALF SIZE </s>
-0.3010 HASH TAG </s>
-0.3010 HEADER ONE </s>
-0.3010 HEADER TAGS </s>
-0.3010 HEADER THREE </s>
-0.3010 HEADER TWO </s>
-0.3010 HEARTHSTONE OPTIONS </s>
-0.3010 HELP MENU </s>
-0.3010 HOME BIN </s>
-0.6021 HOOS THE FLUFFIEST
-0.6021 HOOS THE MAN
-0.3010 HUGE GRIN FACE
-0.3010 HUNDERED PROCENT </s>
-0.3010 HYPHENATE THIS </s>
-0.3010 I D EQUALS
-0.9031 I V </s>
-0.6021 I V TAG
-0.9031 I V TAGS
-0.3010 IK BEN BAUKE
-0.3010 IM BORED </s>
-0.3010 IMAGE C S
-0.3010 IMAGE D I
-0.3010 IN IT EXPRESSION
-0.3010 INSERT AUDIO </s>
-0.3010 INSERT AWK EXPRESSION
-0.3010 INSERT EYE FRAME
-0.3010 INSERT HYPERLINK </s>
-0.3010 INSERT IMAGE </s>
-0.6021 INSERT KEY PRESS
-0.6021 INSERT KEY TYPE
-0.3010 INSERT MENU </s>
-0.3010 INSERT PANEL </s>
-0.3010 INSERT PHONE ICON
-0.3010 INSERT POPUP </s>
-0.3010 INSERT PRINT BUTTON
-0.3010 INSERT SED EXPRESSION
-0.3010 INSERT VIDEO </s>
-0.3010 IS IT </s>
-0.3010 IS RIGHT </s>
-0.6021 IS THAT RIGHT
-0.6021 IS THAT TRUE
-0.3010 IT EXPRESSION </s>
-0.3010 ITEM TAGS </s>
-0.3010 JAVASCRIPT DATE CODE
-0.3010 JAVASCRIPT HEADER </s>
-0.3010 JUST SAID THAT
-0.3010 KEY PRESS </s>
-0.3010 KEY TYPE </s>
-0.3010 KILL BE BE
-0.3010 KILL BLADDER </s>
-0.3010 KILL ONEKO </s>
-0.3010 KILL RADIO </s>
-0.3010 L C </s>
-0.3010 L O FILES
-0.3010 L S </s>
-0.3010 LABELS HEADER </s>
-0.3010 LAST NAME </s>
-0.3010 LAST TAB </s>
-0.3010 LATEX HIGHLIGHTING </s>
-0.3010 LEFT ARROW </s>
-0.3010 LEFT CLICK </s>
-0.3010 LEFT SIDE </s>
-0.3010 LINE ABOVE </s>
-0.3010 LINE BELOW </s>
-0.3010 LINK TO SCORE
-0.6021 LIST ITEM </s>
-0.6021 LIST ITEM TAGS
-0.3010 LIST TAGS </s>
-0.3010 LOCAL BIN </s>
-0.3010 LOCK SCREEN </s>
-0.3010 LOG DERR </s>
-0.3010 LOWER VOLUME </s>
-0.3010 MAIL ADDRESS </s>
-0.3010 MAKE BOLD </s>
-0.3010 MAKE LOWERCASE </s>
-0.3010 MAKE NOTE </s>
-0.3010 MAKE SUPER </s>
-0.3010 MAKE SUPERSCRIPT </s>
-0.3010 MAKE UPPERCASE </s>
-0.3010 MARKDOWN BOLD </s>
-0.3010 MARKDOWN CODE </s>
-0.3010 MARKDOWN HEADER </s>
-0.3010 MARKDOWN HYPERLINK </s>
-0.3010 MARKDOWN ITALICS </s>
-0.3010 MARKDOWN PREVIEW </s>
-0.3010 MAXIMIZE WINDOW </s>
-0.3010 META BOB </s>
-0.3010 META C </s>
-0.3010 META EFF TWO
-0.3010 META EYE </s>
-0.3010 META F TWO
-0.3010 META L </s>
-0.3010 META M </s>
-0.3010 META N </s>
-0.3010 META P </s>
-0.3010 META SCOOBY </s>
-0.3010 META W </s>
-0.3010 METAL TOILET </s>
-0.3010 MIDDLE CLICK </s>
-0.3010 MINIMIZE WINDOW </s>
-0.3010 MOUSE LOCATION </s>
-0.6021 MOUSE WHEEL DOWN
-0.6021 MOUSE WHEEL UP
-1.2041 MOVE TO LEFT
-1.2041 MOVE TO RIGHT
-1.2041 MOVE TO SHOPPING
-1.2041 MOVE TO TRASH
-0.6021 MOVE TO WORKSPACE
-0.7782 MOVE WINDOW </s>
-0.4771 MOVE WINDOW TO
-1.0000 MOVE WORKSPACE DOWN
-1.0000 MOVE WORKSPACE LEFT
-1.0000 MOVE WORKSPACE OP
-1.0000 MOVE WORKSPACE RIGHT
-1.0000 MOVE WORKSPACE UP
-0.3010 MUSIC C S
-0.3010 MUTE SOUND </s>
-0.3010 N MAP </s>
-0.3010 NATURAL SYMBOL </s>
-0.3010 NET MAP </s>
-0.3010 NEW BULLET POINT
-0.3010 NEW FILE </s>
-0.6021 NEW LINE ABOVE
-0.6021 NEW LINE BELOW
-0.3010 NEW LIST ITEM
-0.3010 NEW SECTION LABEL
-0.3010 NEW TAB </s>
-0.3010 NEW TABLE ROW
-0.3010 NEW WEB SEARCH
-0.3010 NEW WINDOW </s>
-0.3010 NEXT BUFFER </s>
-0.3010 NEXT TAB </s>
-0.3010 NEXT TRACK </s>
-0.3010 NEXT UNREAD </s>
-0.3010 NEXT WORD </s>
-0.3010 NICK NAME </s>
-0.3010 NIGHT ATTACK </s>
-0.3010 NINE COLUMNS </s>
-0.3010 NINETY PROCENT </s>
-0.3010 NO DECORATION </s>
-0.3010 NO SCRIPT ALLOW
-0.3010 NORMAL SPEED </s>
-0.3010 O FILES </s>
-0.3010 O TOOL KEY
-0.3010 OF ALL DESKTOPS
-0.3010 OF CURRENT DESKTOP
-0.3010 OF MUSIC C
-0.6021 OF REGION </s>
-0.6021 OF REGION AND
-0.6021 OF WINDOW </s>
-0.6021 OF WINDOW AND
-0.3010 OFFICE PHONE </s>
-0.3010 ON ALL WORKSPACE
-0.3010 ON LEFT </s>
-0.3010 ON ONLY THIS
-0.3010 ON PAGE </s>
-0.3010 ON RIGHT </s>
-0.3010 ON TOP </s>
-0.3010 ONE COLUMNS </s>
-0.3010 ONEKO CAT </s>
-0.3010 ONEKO DOG </s>
-0.3010 ONEKO SAKURA </s>
-0.3010 ONEKO TORA </s>
-0.3010 ONLY THIS WORKSPACE
-0.3010 OPEN ARMITAGE </s>
-0.3010 OPEN ATOM </s>
-0.3010 OPEN AUDACITY </s>
-0.3010 OPEN BLADDER CONFIG
-0.3010 OPEN CALCULATOR </s>
-0.3010 OPEN CENTER TAG
-0.3010 OPEN CHROME </s>
-0.3010 OPEN CHROMIUM </s>
-0.3010 OPEN CONTACTS </s>
-0.3010 OPEN D I
-0.3010 OPEN EVINCE </s>
-0.3010 OPEN EX CHAT
-0.7782 OPEN FILE </s>
-0.7782 OPEN FILE MANAGER
-0.7782 OPEN FILE ZILLA
-0.3010 OPEN FIREFOX </s>
-0.3010 OPEN GEANY </s>
-0.3010 OPEN GEE EDIT
-0.3010 OPEN H REF
-0.3010 OPEN HEARTHSTONE </s>
-0.3010 OPEN LAST TAB
-0.3010 OPEN LIBREOFFICE </s>
-0.3010 OPEN NOTES </s>
-0.3010 OPEN P TAG
-0.3010 OPEN QUA CEL
-0.6021 OPEN R ARENA
-0.6021 OPEN R SINK
-0.3010 OPEN RHYTHMBOX </s>
-0.3010 OPEN TEE BIRD
-0.3010 OPEN TERMINAL </s>
-0.3010 OPEN TERMINATOR </s>
-0.3010 OPEN THUNDERBIRD </s>
-0.3010 OPEN TODO </s>
-0.3010 OPEN UNISON </s>
-0.3010 OPEN V L
-0.3010 OPEN VOLUME CONTROL
-0.3010 OPEN WRITER </s>
-0.3010 OPTIMAL COLUMN WIDTH
-0.3010 P TAG </s>
-0.3010 PACKAGE INFO </s>
-0.3010 PACKAGE SEARCH </s>
-0.3010 PAGE BACK </s>
-0.3010 PAGE DOWN </s>
-0.3010 PAGE FORWARD </s>
-0.3010 PAGE TEMPLATE </s>
-0.3010 PAGE UP </s>
-0.3010 PARAGRAPH TAGS </s>
-0.3010 PASS FILTER </s>
-0.3010 PAUSE PLAY </s>
-0.3010 PERENTHESIZE THIS </s>
-0.3010 PHONE ICON </s>
-0.3010 PHOTO BY DANNY
-0.3010 PING TEST </s>
-0.3010 PLAY FASTER </s>
-0.3010 PLAY PAUSE </s>
-0.3010 POPUP JAVASCRIPT HEADER
-0.3010 POST FROM EX
-0.3010 PREFORMATTED TEXT </s>
-0.3010 PRESS DELETE </s>
-0.3010 PRESS EIGHT </s>
-0.3010 PRESS END </s>
-0.3010 PRESS ENTER </s>
-0.3010 PRESS ESCAPE </s>
-0.3010 PRESS F </s>
-0.3010 PRESS FIVE </s>
-0.3010 PRESS FOUR </s>
-0.3010 PRESS HOME </s>
-0.3010 PRESS I </s>
-0.3010 PRESS NINE </s>
-0.3010 PRESS NO </s>
-0.3010 PRESS ONE </s>
-0.3010 PRESS Q </s>
-0.3010 PRESS SEVEN </s>
-0.3010 PRESS SIX </s>
-0.3010 PRESS TAB </s>
-0.3010 PRESS THREE </s>
-0.3010 PRESS TWO </s>
-0.3010 PRESS YES </s>
-0.3010 PRESS ZERO </s>
-0.3010 PRETTY RUDE </s>
-0.3010 PREVIOUS BUFFER </s>
-0.3010 PREVIOUS SENTENCE </s>
-0.3010 PREVIOUS TAB </s>
-0.3010 PREVIOUS TRACK </s>
-0.3010 PREVIOUS WORD </s>
-0.3010 PRINT BUTTON </s>
-0.3010 PUT AFTER </s>
-0.3010 PUT BEFORE </s>
-0.3010 QUA CEL </s>
-0.3010 QUARTER NOTE </s>
-0.3010 QUESTION MARK </s>
-0.3010 QUIT APPLICATION </s>
-0.3010 QUIT ATOM </s>
-0.3010 QUIT BE BE
-0.3010 QUIT BLADDER </s>
-0.3010 QUIT CALCULATOR </s>
-0.3010 QUIT CHROME </s>
-0.3010 QUIT CHROMIUM </s>
-0.3010 QUIT EVINCE </s>
-0.3010 QUIT EX CHAT
-0.6021 QUIT FILE MANAGER
-0.6021 QUIT FILE ZILLA
-0.3010 QUIT FIREFOX </s>
-0.3010 QUIT GEANY </s>
-0.3010 QUIT GEE EDIT
-0.3010 QUIT HEARTHSTONE </s>
-0.3010 QUIT LIBREOFFICE </s>
-0.3010 QUIT ONEKO </s>
-0.3010 QUIT QUA CEL
-0.6021 QUIT R ARENA
-0.6021 QUIT R SINK
-0.3010 QUIT RADIO </s>
-0.3010 QUIT RHYTHMBOX </s>
-0.3010 QUIT TERMINAL </s>
-0.3010 QUIT TERMINATOR </s>
-0.3010 QUIT THUNDERBIRD </s>
-0.3010 QUIT UNISON </s>
-0.3010 QUIT V L
-0.3010 QUIT WINDOW </s>
-0.3010 QUIT WRITER </s>
-0.3010 QUOTE TAGS </s>
-0.3010 QUOTE THIS </s>
-0.3010 R ARENA TRACKER
-0.3010 R SINK </s>
-0.3010 RADIO 3FM </s>
-0.3010 RADIO 538 </s>
-0.3010 RADIO ARROW CLASSIC
-0.3010 RADIO FUN X
-0.3010 RADIO SLAM FM
-0.3010 RAISE VOLUME </s>
-0.3010 RECENT GEANY FILES
-0.3010 RECENT L O
-0.3010 REFRESH PAGE </s>
-0.3010 REGION AND COPY
-0.3010 REMOVE SPACES </s>
-0.3010 REPEAT AFTER ME
-0.3010 REPLAY TRACK </s>
-0.3010 RESTART APACHE </s>
-0.3010 RESTART BLADDER </s>
-0.3010 RESTART ENGINE EX
-0.3010 RESTART TRACK </s>
-0.3010 RESTORE WINDOW </s>
-0.3010 RETURN CODE </s>
-0.3010 RIGHT ARROW </s>
-0.3010 RIGHT CLICK </s>
-0.3010 RIGHT SIDE </s>
-0.3010 S COMMANDO </s>
-0.3010 S HEADER </s>
-0.3010 S L </s>
-0.6021 S S </s>
-0.9031 S S COMMANDO
-0.9031 S S HEADER
-0.3010 SAID THAT </s>
-0.6021 SAVE FILE </s>
-0.6021 SAVE FILE AS
-0.3010 SAVE LINK </s>
-0.3010 SCHOOL OF MUSIC
-0.3010 SCREENSHOT AND COPY
-0.6021 SCREENSHOT OF REGION
-0.6021 SCREENSHOT OF WINDOW
-0.6021 SCRIPT ALLOW </s>
-0.6021 SCRIPT ALLOW TOP
-0.3010 SCROLL DOWN </s>
-0.3010 SCROLL UP </s>
-0.3010 SEARCH APPLICATIONS </s>
-0.3010 SEARCH FIELD </s>
-0.3010 SEARCH FILES </s>
-0.3010 SEARCH MUSIC </s>
-0.3010 SEARCH PHOTOS </s>
-0.3010 SEARCH VIDEOS </s>
-0.3010 SECOND INBOX </s>
-0.3010 SECOND SENT BOX
-0.3010 SECTION LABEL </s>
-0.3010 SED EXPRESSION </s>
-0.3010 SEE MATRIX </s>
-0.3010 SEE RETURN CODE
-0.4771 SELECT ALL </s>
-0.7782 SELECT ALL UNREAD
-0.3010 SELECT PREVIOUS SENTENCE
-0.4771 SELECT THIS SENTENCE
-0.7782 SELECT THIS WORD
-0.3010 SEND EMAIL </s>
-0.3010 SENT BOX </s>
-0.3010 SET ALARM </s>
-0.3010 SET SLEEP TIMER
-0.3010 SEVEN COLUMNS </s>
-0.3010 SEVENTY PROCENT </s>
-0.3010 SHARP SYMBOL </s>
-0.3010 SHE BANG </s>
-0.3010 SHIFT C </s>
-0.3010 SHIFT E </s>
-0.3010 SHIFT IN </s>
-0.3010 SHIFT O </s>
-0.3010 SHIFT V </s>
-0.3010 SHIFT W </s>
-0.3010 SHORTEN YOU ARE
-0.6021 SHOW ALL DESKTOPS
-0.6021 SHOW ALL WINDOWS
-0.3010 SHOW CLIP BOARD
-0.3010 SHOW DESKTOP </s>
-0.9031 SHOW ON ALL
-0.9031 SHOW ON LEFT
-0.9031 SHOW ON ONLY
-0.9031 SHOW ON RIGHT
-0.7782 SHOW WINDOWS </s>
-0.4771 SHOW WINDOWS OF
-0.3010 SHUT UP </s>
-0.3010 SITE MANAGER </s>
-0.3010 SITES AVAILABLE </s>
-0.3010 SITES ENABLED </s>
-0.3010 SIX COLUMNS </s>
-0.3010 SIXTY PROCENT </s>
-0.3010 SLAM FM </s>
-0.3010 SLASH ET SEE
-0.3010 SLEEP TIMER </s>
-0.3010 SMART QUOTES </s>
-0.3010 SMILEY FACE </s>
-0.3010 SO FUNNY </s>
-0.3010 SORT THIS </s>
-0.3010 SPACE BAR </s>
-0.3010 SPACES TO UNDERSCORES
-0.3010 SPAN THIS </s>
-0.3010 SPEAK THIS </s>
-0.3010 SPECIALTY CLASS </s>
-0.3010 SPECIALTY SPAN </s>
-0.3010 SPLIT BUFFER </s>
-0.3010 STAR WARS </s>
-0.3010 START SELECTION </s>
-0.3010 STATE YOUR DESIGNATION
-0.3010 STATUS REPORT </s>
-0.3010 STOP RADIO </s>
-0.3010 STOP SELECTION </s>
-0.3010 STOP SPEAKING </s>
-0.3010 SUDO CLEAN COMPUTER
-0.3010 SUPER KEY </s>
-0.3010 SWITCH BACK </s>
-0.3010 SWITCH SWITCH WINDOW
-0.3010 SWITCH WINDOW </s>
-0.3010 SYSTEM LOG DERR
-0.3010 T BOLD </s>
-0.3010 T BOOK TITLE
-0.3010 T CODE </s>
-0.3010 T COMMANDO </s>
-0.3010 T COMMENT </s>
-0.3010 T F EIGHT
-0.7782 T HEADER ONE
-0.7782 T HEADER THREE
-0.7782 T HEADER TWO
-0.3010 T ITALICS </s>
-0.3010 T PAGE TEMPLATE
-0.3010 T PREFORMATTED </s>
-0.3010 TAB EIGHT </s>
-0.3010 TAB FIVE </s>
-0.3010 TAB FOUR </s>
-0.3010 TAB NINE </s>
-0.3010 TAB ONE </s>
-0.3010 TAB SEVEN </s>
-0.3010 TAB SIX </s>
-0.3010 TAB TEN </s>
-0.3010 TAB THREE </s>
-0.3010 TAB TWO </s>
-0.3010 TABLE DATA TAGS
-0.3010 TABLE HEADER TAGS
-0.3010 TABLE ROW </s>
-0.3010 TABLE TAGS </s>
-1.0792 TAKE SCREENSHOT </s>
-1.0792 TAKE SCREENSHOT AND
-0.4771 TAKE SCREENSHOT OF
-0.3010 TARGET EQUALS BLANK
-0.3010 TEE BIRD </s>
-0.3010 TEN COLUMNS </s>
-0.3010 TEN COMMANDS </s>
-0.3010 TEN PROCENT </s>
-0.3010 TERM TAGS </s>
-0.3010 TESTING EE SPEAK
-0.6021 TEXT ALIGN CENTER
-0.6021 TEXT ALIGN LEFT
-0.3010 TEXT EQUALS THIS
-0.3010 THANK YOU </s>
-0.3010 THAT RIGHT </s>
-0.3010 THAT TRUE </s>
-0.3010 THATS PRETTY RUDE
-0.3010 THATS RUDE </s>
-0.3010 THE END </s>
-0.3010 THE FLUFFIEST </s>
-0.3010 THE MAN </s>
-0.3010 THINK FORTUNE </s>
-0.3010 THIRTY PROCENT </s>
-0.3010 THIS SENTENCE </s>
-0.3010 THIS WORD </s>
-0.3010 THIS WORKSPACE </s>
-0.3010 THREE COLUMNS </s>
-0.3010 THUNDERBIRD PREFERENCES </s>
-0.3010 TIME IS IT
-0.3010 TITLE EQUALS THIS
-0.3010 TO AMAZON </s>
-0.3010 TO ATOM </s>
-0.3010 TO AUDACITY </s>
-0.3010 TO CALCULATOR </s>
-0.3010 TO CHROME </s>
-0.3010 TO CHROMIUM </s>
-0.3010 TO CURRENT LINE
-0.3010 TO DIAMOND CLUB
-0.3010 TO E BAY
-0.3010 TO EVINCE </s>
-0.3010 TO EX CHAT
-0.6021 TO FILE MANAGER
-0.6021 TO FILE ZILLA
-0.3010 TO FIREFOX </s>
-0.3010 TO GEANY </s>
-0.3010 TO GEE EDIT
-0.3010 TO HEARTHSTONE </s>
-0.3010 TO INBOX </s>
-0.6021 TO LEFT </s>
-0.6021 TO LEFT SIDE
-0.3010 TO LIBREOFFICE </s>
-0.3010 TO NETFLIX </s>
-0.3010 TO NIGHT ATTACK
-0.3010 TO QUA CEL
-0.6021 TO R ARENA
-0.6021 TO R SINK
-0.3010 TO RECIPIENT </s>
-0.3010 TO RHYTHMBOX </s>
-0.6021 TO RIGHT </s>
-0.6021 TO RIGHT SIDE
-0.3010 TO SCORE </s>
-0.3010 TO SHOPPING </s>
-0.3010 TO SUBJECT </s>
-0.3010 TO TEE BIRD
-0.3010 TO TERMINAL </s>
-0.3010 TO TERMINATOR </s>
-0.3010 TO THE END
-0.3010 TO THUNDERBIRD </s>
-0.3010 TO TRASH </s>
-0.3010 TO TWITCH </s>
-0.3010 TO UNDERSCORES </s>
-0.3010 TO UNISON </s>
-0.3010 TO V L
-0.3010 TO VOLUME CONTROL
-0.9031 TO WORKSPACE FOUR
-0.9031 TO WORKSPACE ONE
-0.9031 TO WORKSPACE THREE
-0.9031 TO WORKSPACE TWO
-0.3010 TO WRITER </s>
-0.3010 TO YOU TUBE
-0.3010 TODAYS DATE </s>
-0.3010 TOOL KEY </s>
-0.3010 TOOLS MENU </s>
-0.3010 TOP SITE </s>
-0.3010 TOP TEN COMMANDS
-0.3010 TRANSFER KEEP </s>
-0.3010 TRANSFER TEXT </s>
-0.3010 TWENTY PROCENT </s>
-0.3010 TWO COLUMNS </s>
-0.3010 U T F
-0.3010 UN MUTE SOUND
-0.3010 UNFORMATTED PASTE </s>
-0.3010 UNORDERED LIST TAGS
-0.3010 UP ARROW </s>
-0.3010 UPDATE ALTERNATIVES </s>
-0.6021 UPDATE BLADDER </s>
-0.6021 UPDATE BLADDER CONFIG
-0.3010 UPDATE CONFIG </s>
-0.3010 USER BIN </s>
-0.3010 USER LOCAL BIN
-0.3010 USERNAME FIELD </s>
-0.3010 V L C
-0.3010 V TAG </s>
-0.3010 V TAGS </s>
-0.3010 VERBATIM HYPERLINK </s>
-0.3010 VIEW MENU </s>
-0.3010 VOLUME AIGHTY PROCENT
-0.3010 VOLUME CONTROL </s>
-0.3010 VOLUME FIFTY PROCENT
-0.3010 VOLUME FOURTY PROCENT
-0.3010 VOLUME HUNDERED PROCENT
-0.3010 VOLUME MAX </s>
-0.3010 VOLUME NINETY PROCENT
-0.3010 VOLUME SEVENTY PROCENT
-0.3010 VOLUME SIXTY PROCENT
-0.3010 VOLUME TEN PROCENT
-0.3010 VOLUME THIRTY PROCENT
-0.3010 VOLUME TWENTY PROCENT
-0.3010 VOLUME ZERO PROCENT
-0.3010 WE DO IM
-0.3010 WEB FILES DERR
-0.3010 WEB SEARCH </s>
-0.3010 WEBSERVER PERMISSIONS </s>
-0.3010 WHADDAYA THINK </s>
-0.3010 WHAT CAN WE
-0.3010 WHAT DAY IS
-0.3010 WHAT DO YOU
-0.3010 WHAT TIME IS
-0.3010 WHATS TODAYS DATE
-0.3010 WHEEL DOWN </s>
-0.3010 WHEEL UP </s>
-0.3010 WHO AM I
-0.3010 WHO ARE YOU
-0.3010 WHO IS </s>
-0.3010 WINDOW AND COPY
-0.6021 WINDOW TO LEFT
-0.6021 WINDOW TO RIGHT
-0.6021 WINDOWS OF ALL
-0.6021 WINDOWS OF CURRENT
-0.3010 WITH CURSOR </s>
-0.3010 WORK EMAIL </s>
-0.3010 WORKSPACE DOWN </s>
-0.3010 WORKSPACE FOUR </s>
-0.3010 WORKSPACE LEFT </s>
-0.3010 WORKSPACE ONE </s>
-0.3010 WORKSPACE OP </s>
-0.3010 WORKSPACE RIGHT </s>
-0.3010 WORKSPACE THREE </s>
-0.3010 WORKSPACE TWO </s>
-0.3010 WORKSPACE UP </s>
-0.3010 WRITE AND QUIT
-0.9031 X COW FORTUNE
-0.9031 X COW SAY
-0.6021 X COW THINK
-0.3010 X D O
-0.3010 X WHO IS
-0.3010 YANK LINES </s>
-0.3010 YANK TO THE
-0.3010 YANK WORD </s>
-0.3010 YOU ARE EL
-0.3010 YOU JUST SAID
-0.3010 YOU LISTENING </s>
-0.3010 YOU SAID THAT
-0.3010 YOU THINK </s>
-0.3010 YOU TUBE </s>
-0.3010 YOUR DESIGNATION </s>
-0.3010 YOUR SO FUNNY
-0.3010 YOUTUBE AUDIO BOOKS
-0.3010 ZEE OUT </s>
-0.3010 ZERO PROCENT </s>
-0.3010 ZOOM IN </s>
-0.3010 ZOOM OUT </s>

\end\
