Language model created by QuickLM on Sun Jul 30 14:34:59 EDT 2017
Copyright (c) 1996-2010 Carnegie Mellon University and Alexander I. Rudnicky

The model is in standard ARPA format, designed by Doug Paul while he was at MITRE.

The code that was used to produce this language model is available in Open Source.
Please visit http://www.speech.cs.cmu.edu/tools/ for more information

The (fixed) discount mass is 0.5. The backoffs are computed using the ratio method.
This model based on a corpus of 731 sentences and 607 words

\data\
ngram 1=607
ngram 2=1510
ngram 3=1599

\1-grams:
-3.8140 3FM -0.2494
-3.8140 538 -0.2494
-3.8140 61 -0.2494
-0.9501 </s> -0.3010
-0.9501 <s> -0.2223
-3.8140 A -0.2494
-3.8140 AA -0.3010
-3.8140 ABOVE -0.2494
-3.2119 ADD -0.2491
-3.3369 ADDRESS -0.2491
-3.8140 ADVENTURE -0.2494
-3.5130 AFTER -0.2493
-3.8140 AIGHTY -0.3003
-3.8140 ALARM -0.2494
-3.5130 ALIGN -0.3002
-2.8140 ALL -0.2460
-3.5130 ALLOW -0.2491
-3.8140 ALTERNATE -0.3008
-3.8140 ALTERNATIVES -0.2494
-3.8140 ALWAYS -0.3006
-3.8140 AM -0.3005
-3.0358 AND -0.2992
-3.8140 ANGLE -0.3010
-3.5130 APACHE -0.2488
-3.8140 APP -0.3010
-3.8140 APPEND -0.2989
-3.8140 APPLICATION -0.2494
-3.8140 APPLICATIONS -0.2494
-2.9109 APT -0.2997
-3.8140 AQUARIUM -0.2494
-3.3369 ARCH -0.2494
-3.2119 ARE -0.2487
-3.2119 ARENA -0.3004
-3.3369 ARMITAGE -0.2494
-3.1150 ARROW -0.2491
-3.8140 ARTICLE -0.3000
-3.8140 AS -0.2494
-3.8140 ASCI -0.3010
-3.8140 ASIDE -0.3000
-3.2119 ATTACK -0.2482
-3.3369 AUDIO -0.2492
-3.8140 AVAILABLE -0.2494
-3.8140 AWK -0.3008
-3.8140 B -0.2494
-3.1150 BACK -0.2492
-3.8140 BACKS -0.2494
-3.8140 BALL -0.2494
-3.8140 BANG -0.2494
-3.8140 BAR -0.2494
-3.3369 BASH -0.2485
-3.8140 BASIC -0.2494
-3.8140 BAUKE -0.2494
-3.0358 BE -0.2489
-3.8140 BEFORE -0.2494
-3.8140 BELOW -0.2494
-3.8140 BEN -0.3010
-3.2119 BIN -0.2491
-3.8140 BLACKROCK -0.2494
-2.8140 BLADDER -0.2488
-3.8140 BLANK -0.2494
-3.8140 BLATHER -0.3009
-3.5130 BLOCK -0.2489
-3.8140 BOB -0.2494
-3.3369 BOLD -0.2494
-3.8140 BOOK -0.3009
-3.5130 BOOKS -0.2494
-3.8140 BORDER -0.3008
-3.8140 BORED -0.2494
-3.8140 BRACKET -0.2996
-3.8140 BRAWL -0.2494
-3.8140 BROWSER -0.3009
-3.3369 BUFFER -0.2494
-3.8140 BULLET -0.3009
-3.8140 BULLSHIT -0.2494
-2.9689 BUTTON -0.2494
-3.8140 BUY -0.3006
-3.8140 BY -0.3010
-2.9689 C -0.2485
-3.8140 CAMEL -0.3010
-3.8140 CAN -0.3010
-3.5130 CANCEL -0.2493
-3.8140 CAPITALIZE -0.2996
-3.8140 CAPS -0.2996
-2.8140 CARD -0.2438
-2.9689 CARDS -0.2494
-3.8140 CASH -0.3002
-3.8140 CAT -0.2494
-3.8140 CATAPULT -0.2494
-3.8140 CD -0.3010
-3.3369 CEL -0.2494
-3.8140 CELL -0.3008
-3.1150 CENTER -0.2476
-3.8140 CHAN -0.2494
-3.8140 CHANGE -0.3006
-3.8140 CHAT -0.2494
-3.1150 CHOOSE -0.2454
-3.8140 CITATION -0.3000
-3.8140 CITY -0.2494
-2.6379 CLASS -0.2478
-3.3369 CLASSIC -0.2490
-3.5130 CLEAN -0.3008
-3.8140 CLEAR -0.3002
-3.0358 CLICK -0.2488
-2.9689 CLOSE -0.2968
-3.8140 CLUB -0.2494
-3.2119 CODE -0.2494
-3.8140 COLLECTION -0.2494
-3.2119 COLON -0.2488
-3.8140 COLUMN -0.3010
-3.8140 COMMA -0.2494
-3.5130 COMMANDO -0.2494
-3.8140 COMMANDS -0.2494
-3.8140 COMMENT -0.2494
-3.8140 COMMIT -0.3004
-3.2119 COMPUTER -0.2494
-3.5130 CONCEDE -0.2488
-2.9689 CONFIG -0.2481
-3.5130 CONFIRM -0.2494
-3.8140 CONFIRMATION -0.2494
-3.8140 CONSOLE -0.2494
-2.4918 CONTROL -0.2952
-3.1150 COPY -0.2478
-3.8140 CORPORATE -0.3010
-3.0358 COW -0.3004
-3.8140 CRAFTING -0.2494
-3.5130 CURRENT -0.3007
-3.8140 CURSOR -0.2494
-3.8140 CUT -0.2494
-2.9689 D -0.2480
-3.8140 DADS -0.3008
-3.8140 DANNY -0.2494
-3.5130 DATA -0.3000
-3.5130 DATE -0.2491
-3.8140 DAY -0.3006
-2.8597 DECK -0.2956
-3.8140 DECORATION -0.2494
-3.5130 DEFINITION -0.3008
-3.1150 DELETE -0.2463
-3.1150 DERR -0.2494
-3.8140 DESIGNATION -0.2494
-3.5130 DESKTOP -0.2494
-3.5130 DESKTOPS -0.2494
-3.8140 DIALOG -0.2494
-3.8140 DIAMOND -0.3010
-3.5130 DISENCHANT -0.2493
-3.3369 DISPLAY -0.3008
-3.8140 DIST -0.3008
-3.5130 DO -0.3004
-3.8140 DOCUMENT -0.3005
-3.8140 DOG -0.2494
-3.8140 DOLLAR -0.3010
-3.8140 DONT -0.3008
-3.8140 DOUBLE -0.3006
-3.0358 DOWN -0.2490
-3.8140 DOWNLOADS -0.2494
-3.8140 DROP -0.3004
-3.8140 DRUID -0.3000
-3.8140 DUMPERT -0.2494
-3.5130 E -0.2494
-3.3369 ECHO -0.3005
-3.2119 EDIT -0.2488
-3.5130 EE -0.3008
-3.8140 EFF -0.3002
-3.0358 EIGHT -0.2485
-3.8140 EL -0.2494
-3.2119 EMAIL -0.2491
-3.8140 EMOTE -0.2494
-3.5130 EMULATION -0.3009
-3.8140 ENABLED -0.2494
-3.3369 END -0.2493
-3.0358 ENEMY -0.2487
-3.5130 ENGINE -0.3009
-2.6099 ENTER -0.2478
-2.9689 EQUALS -0.2469
-3.5130 ESCAPE -0.2494
-3.8140 ET -0.3008
-3.5130 EX -0.2488
-3.8140 EXCLAMATION -0.3009
-3.8140 EXIT -0.2494
-3.5130 EXPLORERS -0.2494
-3.3369 EXPRESSION -0.2494
-3.8140 EXTRA -0.3006
-3.5130 EYE -0.2493
-3.1150 F -0.2479
-2.8597 FACE -0.2474
-3.8140 FAVORITE -0.2494
-3.8140 FIBER -0.3008
-3.3369 FIELD -0.2494
-3.8140 FIFTY -0.3003
-2.7726 FILE -0.2482
-3.5130 FILES -0.2490
-2.6099 FILTER -0.2951
-3.8140 FIND -0.3006
-3.8140 FIRE -0.2494
-3.8140 FIRST -0.3008
-2.9689 FIVE -0.2485
-3.8140 FIX -0.3010
-3.8140 FLAT -0.3008
-3.8140 FLUFFIEST -0.2494
-3.8140 FM -0.2494
-3.8140 FOLDER -0.2494
-3.8140 FORMAT -0.3005
-3.5130 FORTUNE -0.2494
-3.5130 FORWARD -0.2494
-2.4918 FOUR -0.2470
-3.8140 FOURTY -0.3003
-3.8140 FRAME -0.2494
-3.8140 FRIENDS -0.2494
-3.8140 FROWNEY -0.3004
-3.3369 FULL -0.3004
-3.8140 FUN -0.3006
-3.8140 FUNNY -0.2494
-3.8140 GAY -0.3008
-3.1150 GEE -0.3006
-3.2119 GET -0.2994
-3.0358 GIT -0.3003
-3.8140 GIVE -0.3005
-3.8140 GLADIS -0.2494
-3.8140 GLADOS -0.2494
-2.4918 GO -0.2984
-3.8140 GOBLINS -0.2494
-3.5130 GODS -0.2491
-3.8140 GOLDEN -0.3006
-3.8140 GOOD -0.3010
-3.8140 GOOGLE -0.2996
-3.8140 GRAB -0.3007
-3.5130 GRAND -0.3009
-3.8140 GREETINGS -0.2494
-3.8140 GRIN -0.3004
-2.6679 H -0.2483
-3.8140 HAL -0.2494
-3.8140 HASH -0.3006
-2.8140 HEADER -0.2458
-3.0358 HEARTHSTONE -0.2473
-3.2119 HELLO -0.2489
-3.8140 HELP -0.3005
-3.8140 HERE -0.2494
-2.5130 HERO -0.2406
-3.8140 HEROES -0.2494
-3.5130 HISTORY -0.2494
-3.8140 HOLD -0.2494
-3.5130 HOME -0.2491
-3.5130 HOOS -0.3008
-3.8140 HUGE -0.3010
-3.8140 HUNDERED -0.3003
-3.8140 HUNTER -0.3000
-3.2119 HYPERLINK -0.2494
-3.8140 HYPHENATE -0.2996
-2.9109 I -0.2485
-3.8140 ICON -0.2494
-3.8140 IK -0.3010
-3.8140 IM -0.3010
-3.3369 IMAGE -0.2483
-3.2119 IN -0.2491
-3.8140 INBOX -0.2494
-3.8140 INCLUDE -0.3010
-3.5130 INFO -0.2488
-3.8140 INLINE -0.2494
-2.6679 INSERT -0.2987
-3.5130 INSTALL -0.2494
-2.9689 IS -0.2480
-3.3369 IT -0.2491
-3.8140 ITALICIZE -0.2494
-3.5130 ITALICS -0.2494
-3.5130 ITEM -0.2482
-3.5130 JAVASCRIPT -0.3002
-3.8140 JUST -0.3009
-3.8140 K -0.2494
-3.8140 KEEP -0.2494
-3.2119 KEY -0.2476
-3.0358 KILL -0.2977
-3.2119 L -0.2485
-3.5130 LABEL -0.2494
-3.8140 LABELS -0.3004
-3.5130 LAST -0.2997
-3.8140 LAUNCHER -0.2494
-3.5130 LEAGUE -0.2998
-2.9109 LEFT -0.2484
-3.3369 LINE -0.2492
-3.5130 LINES -0.2494
-3.5130 LINK -0.2469
-3.3369 LIST -0.2999
-3.8140 LISTENING -0.2494
-3.8140 LOCAL -0.3008
-3.5130 LOCATION -0.2494
-3.8140 LOCK -0.3009
-3.8140 LOG -0.3007
-3.8140 LOLCAT -0.2494
-3.8140 LOWER -0.3001
-3.8140 LOWERCASE -0.2494
-3.5130 M -0.2485
-3.8140 MAGE -0.3000
-3.5130 MAIL -0.2491
-3.0358 MAKE -0.3004
-3.8140 MAN -0.2494
-2.9109 MANA -0.2494
-3.2119 MANAGER -0.2494
-3.5130 MAP -0.2494
-3.8140 MARK -0.2494
-3.0358 MARKDOWN -0.2994
-3.8140 MATCH -0.2494
-3.8140 MATRIX -0.2494
-3.8140 MAX -0.2494
-3.8140 MAXIMIZE -0.3000
-3.8140 ME -0.2494
-2.9109 MENU -0.2494
-3.8140 MERGE -0.2494
-2.7726 META -0.2989
-3.8140 METAL -0.3008
-3.8140 MIDDLE -0.3006
-3.8140 MIN -0.2494
-3.8140 MINIMIZE -0.3000
-3.3369 MON -0.2494
-3.8140 MORNING -0.2494
-3.2119 MOUSE -0.3008
-2.6379 MOVE -0.2967
-3.5130 MUSIC -0.2488
-3.5130 MUTE -0.3009
-3.8140 MY -0.3010
-3.5130 N -0.2492
-3.2119 NAME -0.2494
-3.8140 NATURAL -0.3008
-3.8140 NET -0.3009
-3.8140 NETFLIX -0.2494
-3.5130 NEUTRAL -0.2996
-2.8140 NEW -0.2971
-2.8140 NEXT -0.2963
-3.8140 NICK -0.3008
-3.8140 NIGHT -0.3008
-3.2119 NINE -0.2494
-3.8140 NINETY -0.3003
-3.2119 NO -0.2491
-3.8140 NONE -0.2494
-3.5130 NOTE -0.2494
-3.8140 NOTES -0.2494
-3.3369 O -0.2493
-3.8140 OEPS -0.2494
-2.5587 OF -0.2971
-3.8140 OFFICE -0.3008
-3.5130 OLD -0.3009
-2.9689 ON -0.2980
-2.8140 ONE -0.2474
-3.0358 ONEKO -0.2491
-3.5130 ONLY -0.2996
-3.8140 OOPS -0.2494
-3.5130 OP -0.2494
-2.4160 OPEN -0.2944
-3.8140 OPTIMAL -0.3010
-3.8140 OPTIONS -0.2494
-3.5130 OUT -0.2494
-3.2119 P -0.2488
-3.2119 PACK -0.2494
-3.5130 PACKAGE -0.3001
-3.8140 PACKS -0.2494
-2.7726 PAGE -0.2477
-3.8140 PALADIN -0.3000
-3.8140 PANEL -0.2494
-3.5130 PARAGRAPH -0.3000
-3.5130 PASTE -0.2494
-3.2119 PAUSE -0.2481
-3.8140 PERENTHESIZE -0.2996
-3.8140 PERFECT -0.2494
-3.8140 PERIOD -0.2494
-3.8140 PERMISSIONS -0.2494
-3.3369 PHONE -0.2493
-3.8140 PHOTO -0.3010
-3.8140 PHOTOS -0.2494
-3.5130 PID -0.2494
-3.8140 PING -0.3010
-3.0358 PLAY -0.2478
-3.8140 PLAYED -0.2494
-3.5130 POINT -0.2494
-3.3369 POKE -0.3008
-3.5130 POPUP -0.2492
-3.3369 POWER -0.2474
-3.8140 PREFERENCES -0.2494
-3.8140 PREFORMATTED -0.2494
-2.4716 PRESS -0.2381
-3.8140 PRETTY -0.3009
-3.8140 PREVIEW -0.2494
-2.7348 PREVIOUS -0.2959
-3.8140 PRIEST -0.3000
-3.5130 PRINT -0.2995
-2.7726 PROCENT -0.2494
-3.8140 PROPERTIES -0.2494
-3.3369 PSP -0.2494
-3.8140 PULL -0.2494
-3.5130 PUSH -0.2494
-3.5130 PUT -0.3008
-3.8140 Q -0.2494
-3.3369 QUA -0.3008
-3.8140 QUARTER -0.3009
-3.8140 QUESTION -0.3010
-3.8140 QUESTS -0.2494
-2.5130 QUIT -0.2413
-3.0358 QUOTE -0.2466
-3.8140 QUOTES -0.2494
-3.3369 R -0.3008
-2.9109 RADIO -0.2487
-3.8140 RAISE -0.3001
-3.8140 REBOOT -0.2494
-3.5130 REF -0.2494
-3.8140 REFRESH -0.3003
-3.5130 REGION -0.2489
-3.8140 REMOVE -0.3008
-3.8140 REPEAT -0.3009
-3.8140 REPLACE -0.3004
-3.8140 REPLAY -0.3008
-3.8140 REPORT -0.2494
-3.2119 RESTART -0.2998
-3.8140 RESTORE -0.3000
-3.3369 RETRO -0.3008
-3.8140 RETURN -0.3008
-2.8140 RIGHT -0.2484
-3.8140 ROCK -0.2494
-3.8140 ROGUE -0.3000
-3.8140 ROW -0.2494
-3.5130 RUDE -0.2494
-2.7726 S -0.2469
-3.5130 SAID -0.3007
-3.8140 SAKURA -0.2494
-3.2119 SAVE -0.2484
-3.5130 SAY -0.2494
-3.8140 SCHOOL -0.2998
-3.8140 SCOOBY -0.2494
-3.8140 SCORE -0.2494
-3.5130 SCREEN -0.2494
-3.0358 SCREENSHOT -0.2475
-3.5130 SCRIPT -0.3009
-3.5130 SCROLL -0.3001
-2.7348 SEARCH -0.2486
-3.5130 SECTION -0.3009
-3.8140 SED -0.3008
-3.3369 SEE -0.2492
-2.6099 SELECT -0.2968
-3.5130 SELECTION -0.2494
-3.5130 SELECTOR -0.2494
-3.8140 SELF -0.2494
-3.8140 SEMICOLON -0.2494
-3.0358 SENTENCE -0.2494
-3.5130 SET -0.3009
-3.1150 SEVEN -0.2488
-3.8140 SEVENTY -0.3003
-3.8140 SHAMAN -0.3000
-3.8140 SHARP -0.3008
-3.8140 SHE -0.3010
-3.0358 SHIFT -0.2994
-3.8140 SHOP -0.2494
-3.8140 SHORTEN -0.3005
-2.7726 SHOW -0.2994
-3.8140 SHUT -0.3005
-3.5130 SIDE -0.2494
-3.8140 SIGN -0.2494
-3.5130 SING -0.3009
-3.8140 SINGING -0.2494
-3.8140 SITE -0.2494
-3.5130 SITES -0.3009
-3.0358 SIX -0.2488
-3.8140 SIXTY -0.3003
-3.8140 SLAM -0.3010
-3.8140 SLASH -0.3010
-3.8140 SLEEP -0.3010
-3.8140 SMART -0.3010
-3.8140 SMILEY -0.3004
-3.8140 SO -0.3010
-3.5130 SOFTWARE -0.3006
-3.8140 SOLO -0.3006
-3.8140 SORT -0.2996
-3.5130 SOUND -0.2494
-3.5130 SPACE -0.2493
-3.2119 SPACES -0.2469
-3.8140 SPACING -0.2494
-3.5130 SPAN -0.2478
-3.8140 SPANDEX -0.2494
-3.3369 SPEAK -0.2478
-3.8140 SPEAKING -0.2494
-3.5130 SPECIALTY -0.2999
-3.8140 SPECIFICATIONS -0.2494
-3.8140 SPECS -0.2494
-3.8140 SPLIT -0.3008
-3.8140 STANDARD -0.2494
-3.8140 STAR -0.3010
-3.8140 START -0.3009
-3.8140 STATE -0.3009
-3.5130 STATION -0.2494
-3.5130 STATUS -0.2493
-3.2119 STOP -0.3002
-3.8140 STREET -0.2494
-3.5130 SUDO -0.2492
-3.5130 SUPER -0.2491
-3.8140 SUPERSCRIPT -0.2494
-3.1150 SWAP -0.2968
-3.2119 SWITCH -0.2994
-3.3369 SYMBOL -0.2494
-3.8140 SYNAPTIC -0.2494
-3.5130 SYNC -0.3004
-3.3369 SYSTEM -0.2486
-2.7348 T -0.2984
-2.6099 TAB -0.2430
-3.2119 TABLE -0.2992
-2.9689 TAG -0.2494
-2.6379 TAGS -0.2494
-3.0358 TAKE -0.3006
-3.8140 TARGET -0.3006
-3.8140 TAVERN -0.3010
-3.8140 TEE -0.3010
-3.8140 TEMPLATE -0.2494
-3.3369 TEN -0.2485
-3.8140 TERM -0.3000
-3.8140 TEST -0.2494
-3.8140 TESTING -0.3009
-3.2119 TEXT -0.2487
-3.8140 THANK -0.3005
-3.8140 THANKS -0.2494
-3.1150 THAT -0.2485
-3.5130 THATS -0.3008
-3.2119 THE -0.3006
-3.1150 THINK -0.2492
-3.8140 THIRTY -0.3003
-2.4918 THIS -0.2472
-3.8140 THREATHEN -0.2494
-2.8140 THREE -0.2474
-3.8140 TILDE -0.2494
-3.8140 TIME -0.3006
-3.8140 TIMER -0.2494
-3.5130 TITLE -0.2488
-2.3088 TO -0.2926
-3.8140 TODAYS -0.3009
-3.8140 TODO -0.2494
-3.2119 TOILET -0.2494
-3.8140 TOOL -0.3008
-3.8140 TOOLS -0.3005
-3.3369 TOP -0.2491
-3.8140 TORA -0.2494
-3.5130 TOURNAMENT -0.2491
-3.2119 TRACK -0.2494
-3.3369 TRACKER -0.2494
-3.5130 TRANSFER -0.3007
-3.8140 TRASH -0.2494
-3.8140 TRUE -0.2494
-3.8140 TUBE -0.2494
-3.8140 TURN -0.2494
-3.8140 TWENTY -0.3003
-3.8140 TWITCH -0.2494
-2.7348 TWO -0.2474
-3.8140 TYPE -0.2494
-3.8140 U -0.3002
-3.8140 UN -0.3009
-3.8140 UNCRAFTABLE -0.3006
-3.8140 UNDERSCORES -0.2494
-3.8140 UNDO -0.2494
-3.8140 UNFORMATTED -0.3009
-3.3369 UNISON -0.2494
-3.8140 UNORDERED -0.3008
-3.8140 UNREAD -0.2494
-2.9109 UP -0.2490
-2.8597 UPDATE -0.2475
-3.8140 UPDATES -0.2494
-3.3369 UPGRADE -0.2494
-3.8140 UPPERCASE -0.2494
-3.5130 USER -0.3007
-3.8140 USERNAME -0.3008
-3.1150 V -0.2477
-2.8140 VARIETY -0.2469
-3.8140 VERBATIM -0.3008
-3.8140 VIDEO -0.2494
-3.8140 VIDEOS -0.2494
-3.8140 VIEW -0.3005
-3.2119 VOCAL -0.2494
-3.5130 VOICE -0.2485
-2.6679 VOLUME -0.2481
-3.3369 W -0.2494
-3.1150 WALLPAPER -0.2492
-3.8140 WARLOCK -0.3000
-3.8140 WARRIOR -0.3000
-3.8140 WARS -0.2494
-3.8140 WE -0.3009
-3.5130 WEB -0.3001
-3.8140 WEBSERVER -0.3010
-3.8140 WELL -0.3010
-3.8140 WHADDAYA -0.3007
-3.2119 WHAT -0.3007
-3.8140 WHATS -0.3010
-3.5130 WHEEL -0.3001
-3.8140 WHISPERS -0.2998
-3.2119 WHO -0.3002
-3.8140 WHOOPS -0.2494
-3.8140 WIDTH -0.2494
-3.8140 WILD -0.2494
-2.6099 WINDOW -0.2463
-3.2119 WINDOWS -0.2480
-3.5130 WOLFRAM -0.2478
-3.0358 WORD -0.2494
-3.8140 WORK -0.3008
-2.6099 WORKSPACE -0.2428
-3.8140 WOW -0.2494
-3.8140 WRITE -0.3006
-2.9689 X -0.2481
-3.3369 YANK -0.2984
-3.8140 YES -0.2494
-2.9109 YOU -0.2483
-3.5130 YOUR -0.3009
-3.8140 YOUTUBE -0.3008
-3.8140 ZEE -0.3009
-3.2119 ZERO -0.2479
-3.8140 ZIP -0.2494
-3.5130 ZOOM -0.3006

\2-grams:
-0.3010 3FM </s> -0.3010
-0.3010 538 </s> -0.3010
-0.3010 61 </s> -0.3010
-3.1649 <s> AA 0.0000
-2.8639 <s> ADD -0.1761
-3.1649 <s> ADDRESS -0.2218
-3.1649 <s> ADVENTURE 0.0000
-3.1649 <s> ALTERNATE 0.0000
-3.1649 <s> ALWAYS 0.0000
-3.1649 <s> ANGLE 0.0000
-3.1649 <s> APACHE -0.1761
-3.1649 <s> APP 0.0000
-3.1649 <s> APPEND 0.0000
-2.2619 <s> APT 0.0000
-3.1649 <s> ARE -0.1761
-3.1649 <s> ARENA -0.2430
-3.1649 <s> ARTICLE 0.0000
-3.1649 <s> ASCI 0.0000
-3.1649 <s> ASIDE 0.0000
-2.8639 <s> ATTACK -0.0969
-3.1649 <s> AUDIO -0.1249
-2.8639 <s> BACK 0.0000
-2.8639 <s> BASH -0.1249
-3.1649 <s> BE -0.1761
-3.1649 <s> BIN -0.2430
-3.1649 <s> BLACKROCK 0.0000
-3.1649 <s> BLADDER -0.2041
-3.1649 <s> BLATHER 0.0000
-3.1649 <s> BLOCK -0.1761
-3.1649 <s> BORDER 0.0000
-3.1649 <s> BROWSER 0.0000
-3.1649 <s> BUY 0.0000
-2.8639 <s> C -0.1549
-3.1649 <s> CAMEL 0.0000
-2.8639 <s> CANCEL 0.0000
-3.1649 <s> CAPITALIZE 0.0000
-2.3198 <s> CARD -0.1139
-3.1649 <s> CARDS 0.0000
-3.1649 <s> CATAPULT 0.0000
-3.1649 <s> CD 0.0000
-2.8639 <s> CENTER -0.2041
-3.1649 <s> CHANGE 0.0000
-2.4660 <s> CHOOSE 0.0000
-3.1649 <s> CITATION 0.0000
-2.5629 <s> CLASS -0.2389
-3.1649 <s> CLASSIC -0.2218
-3.1649 <s> CLEAN 0.0000
-3.1649 <s> CLEAR 0.0000
-2.8639 <s> CLICK -0.2218
-2.3198 <s> CLOSE -0.0000
-2.5629 <s> COLON 0.0000
-3.1649 <s> COMMA 0.0000
-3.1649 <s> COMPUTER 0.0000
-2.8639 <s> CONCEDE 0.0000
-3.1649 <s> CONFIRM 0.0000
-1.8427 <s> CONTROL 0.0000
-2.8639 <s> COPY 0.0000
-3.1649 <s> CORPORATE 0.0000
-2.8639 <s> COW -0.0669
-3.1649 <s> CRAFTING 0.0000
-3.1649 <s> CUT 0.0000
-3.1649 <s> D -0.1549
-2.2107 <s> DECK 0.0000
-2.8639 <s> DEFINITION 0.0000
-2.5629 <s> DELETE -0.0792
-2.8639 <s> DISENCHANT 0.0000
-2.6878 <s> DISPLAY 0.0000
-3.1649 <s> DOCUMENT 0.0000
-3.1649 <s> DONT 0.0000
-3.1649 <s> DOUBLE 0.0000
-3.1649 <s> DOWN -0.2632
-3.1649 <s> DOWNLOADS 0.0000
-3.1649 <s> DROP 0.0000
-3.1649 <s> DRUID 0.0000
-2.6878 <s> ECHO 0.0000
-3.1649 <s> EDIT -0.2430
-3.1649 <s> EIGHT -0.2632
-3.1649 <s> EMAIL -0.2430
-3.1649 <s> EMOTE 0.0000
-3.1649 <s> END -0.2218
-2.8639 <s> ENEMY 0.0000
-3.1649 <s> ENGINE 0.0000
-2.0188 <s> ENTER -0.0512
-3.1649 <s> EQUALS -0.2688
-3.1649 <s> ESCAPE 0.0000
-3.1649 <s> EXCLAMATION 0.0000
-3.1649 <s> EXIT 0.0000
-2.8639 <s> FACE -0.2499
-2.6878 <s> FILE -0.2374
-1.9608 <s> FILTER 0.0000
-3.1649 <s> FIND 0.0000
-3.1649 <s> FIVE -0.2688
-3.1649 <s> FIX 0.0000
-3.1649 <s> FLAT 0.0000
-3.1649 <s> FORMAT 0.0000
-3.1649 <s> FOUR -0.2906
-3.1649 <s> FRIENDS 0.0000
-3.1649 <s> FROWNEY 0.0000
-3.1649 <s> FULL -0.2218
-3.1649 <s> GAY 0.0000
-2.6878 <s> GET -0.0969
-2.3868 <s> GIT 0.0000
-3.1649 <s> GIVE 0.0000
-1.8427 <s> GO 0.0000
-3.1649 <s> GOOD 0.0000
-3.1649 <s> GOOGLE 0.0000
-3.1649 <s> GRAB 0.0000
-3.1649 <s> GRAND 0.0000
-3.1649 <s> GREETINGS 0.0000
-2.1236 <s> H -0.0843
-3.1649 <s> HASH 0.0000
-2.6878 <s> HEARTHSTONE -0.1761
-2.5629 <s> HELLO 0.0000
-3.1649 <s> HELP 0.0000
-2.3198 <s> HERO -0.1903
-3.1649 <s> HEROES 0.0000
-3.1649 <s> HOME -0.1761
-2.8639 <s> HOOS 0.0000
-3.1649 <s> HUGE 0.0000
-3.1649 <s> HUNTER 0.0000
-3.1649 <s> HYPHENATE 0.0000
-3.1649 <s> I -0.2730
-3.1649 <s> IK 0.0000
-2.8639 <s> IMAGE -0.1249
-3.1649 <s> IN -0.2430
-3.1649 <s> INCLUDE 0.0000
-3.1649 <s> INFO -0.1761
-2.0188 <s> INSERT -0.0000
-2.8639 <s> IS -0.2341
-3.1649 <s> ITALICIZE 0.0000
-3.1649 <s> JAVASCRIPT -0.1761
-2.3868 <s> KILL 0.0000
-3.1649 <s> L -0.2430
-3.1649 <s> LABELS 0.0000
-3.1649 <s> LEAGUE 0.0000
-2.8639 <s> LEFT -0.2430
-3.1649 <s> LINK -0.1761
-3.1649 <s> LIST -0.1249
-3.1649 <s> LOCK 0.0000
-3.1649 <s> LOWER 0.0000
-3.1649 <s> M -0.1761
-3.1649 <s> MAGE 0.0000
-2.3868 <s> MAKE 0.0000
-2.3868 <s> MARKDOWN 0.0000
-3.1649 <s> MAXIMIZE 0.0000
-2.1236 <s> META 0.0000
-3.1649 <s> METAL 0.0000
-3.1649 <s> MIDDLE 0.0000
-3.1649 <s> MINIMIZE 0.0000
-2.8639 <s> MOUSE -0.1761
-1.9889 <s> MOVE 0.0000
-3.1649 <s> MUTE 0.0000
-3.1649 <s> MY 0.0000
-3.1649 <s> N -0.1761
-3.1649 <s> NATURAL 0.0000
-3.1649 <s> NET 0.0000
-2.8639 <s> NEUTRAL 0.0000
-2.1649 <s> NEW 0.0000
-2.2619 <s> NEXT 0.0000
-2.6878 <s> NO -0.0969
-3.1649 <s> OEPS 0.0000
-2.5629 <s> ONEKO -0.1249
-3.1649 <s> OOPS 0.0000
-1.7847 <s> OPEN -0.0170
-3.1649 <s> OPTIMAL 0.0000
-2.8639 <s> PACKAGE 0.0000
-2.5629 <s> PAGE -0.2139
-3.1649 <s> PALADIN 0.0000
-2.8639 <s> PARAGRAPH 0.0000
-3.1649 <s> PASTE 0.0000
-2.8639 <s> PAUSE -0.1761
-3.1649 <s> PERENTHESIZE 0.0000
-3.1649 <s> PERFECT 0.0000
-3.1649 <s> PERIOD 0.0000
-3.1649 <s> PHOTO 0.0000
-3.1649 <s> PING 0.0000
-2.5629 <s> PLAY -0.0669
-3.1649 <s> POPUP -0.1761
-1.8427 <s> PRESS -0.0193
-2.2619 <s> PREVIOUS -0.0669
-3.1649 <s> PRIEST 0.0000
-3.1649 <s> PRINT -0.1761
-2.8639 <s> PUT 0.0000
-3.1649 <s> QUARTER 0.0000
-3.1649 <s> QUESTION 0.0000
-3.1649 <s> QUESTS 0.0000
-1.8862 <s> QUIT -0.0212
-3.1649 <s> QUOTE -0.2632
-2.4660 <s> RADIO -0.1383
-3.1649 <s> RAISE 0.0000
-3.1649 <s> REBOOT 0.0000
-3.1649 <s> REFRESH 0.0000
-3.1649 <s> REMOVE 0.0000
-3.1649 <s> REPEAT 0.0000
-3.1649 <s> REPLACE 0.0000
-3.1649 <s> REPLAY 0.0000
-2.5629 <s> RESTART 0.0000
-3.1649 <s> RESTORE 0.0000
-2.8639 <s> RIGHT -0.2553
-3.1649 <s> ROGUE 0.0000
-3.1649 <s> S -0.2808
-2.6878 <s> SAVE -0.0969
-3.1649 <s> SCHOOL 0.0000
-2.8639 <s> SCROLL 0.0000
-2.3198 <s> SEARCH 0.0000
-3.1649 <s> SECTION 0.0000
-2.8639 <s> SEE -0.1249
-1.9608 <s> SELECT 0.0000
-3.1649 <s> SEMICOLON 0.0000
-2.8639 <s> SET 0.0000
-3.1649 <s> SHAMAN 0.0000
-3.1649 <s> SHARP 0.0000
-3.1649 <s> SHE 0.0000
-3.1649 <s> SHOP 0.0000
-3.1649 <s> SHORTEN 0.0000
-2.1236 <s> SHOW 0.0000
-3.1649 <s> SHUT 0.0000
-2.8639 <s> SING 0.0000
-2.8639 <s> SITES 0.0000
-3.1649 <s> SLASH 0.0000
-3.1649 <s> SMART 0.0000
-3.1649 <s> SMILEY 0.0000
-2.8639 <s> SOFTWARE 0.0000
-3.1649 <s> SOLO 0.0000
-3.1649 <s> SORT 0.0000
-3.1649 <s> SPACE -0.1761
-3.1649 <s> SPACES -0.2430
-3.1649 <s> SPAN -0.1761
-3.1649 <s> SPANDEX 0.0000
-3.1649 <s> SPEAK -0.2218
-2.8639 <s> SPECIALTY 0.0000
-3.1649 <s> SPLIT 0.0000
-3.1649 <s> STAR 0.0000
-3.1649 <s> START 0.0000
-3.1649 <s> STATE 0.0000
-3.1649 <s> STATUS -0.1761
-2.5629 <s> STOP 0.0000
-2.8639 <s> SUDO 0.0000
-3.1649 <s> SUPER -0.1761
-2.4660 <s> SWAP 0.0000
-2.6878 <s> SWITCH 0.0000
-3.1649 <s> SYNAPTIC 0.0000
-2.8639 <s> SYNC 0.0000
-2.8639 <s> SYSTEM -0.1249
-2.1649 <s> TAB -0.1383
-2.6878 <s> TABLE -0.0969
-2.3868 <s> TAKE 0.0000
-3.1649 <s> TARGET 0.0000
-3.1649 <s> TAVERN 0.0000
-3.1649 <s> TESTING 0.0000
-2.8639 <s> TEXT -0.1761
-3.1649 <s> THANK 0.0000
-3.1649 <s> THANKS 0.0000
-2.8639 <s> THATS 0.0000
-3.1649 <s> THREATHEN 0.0000
-3.1649 <s> TILDE 0.0000
-3.1649 <s> TITLE -0.1761
-3.1649 <s> TOILET 0.0000
-3.1649 <s> TOOLS 0.0000
-3.1649 <s> TOP -0.2218
-2.8639 <s> TRANSFER 0.0000
-3.1649 <s> U 0.0000
-3.1649 <s> UN 0.0000
-3.1649 <s> UNDO 0.0000
-3.1649 <s> UNFORMATTED 0.0000
-3.1649 <s> UNORDERED 0.0000
-3.1649 <s> UP -0.2730
-2.3868 <s> UPDATE -0.1249
-2.8639 <s> USER 0.0000
-3.1649 <s> USERNAME 0.0000
-2.2619 <s> VARIETY -0.0792
-3.1649 <s> VERBATIM 0.0000
-3.1649 <s> VIEW 0.0000
-3.1649 <s> VOICE -0.1761
-2.0858 <s> VOLUME -0.0580
-3.1649 <s> WALLPAPER -0.2553
-3.1649 <s> WARLOCK 0.0000
-3.1649 <s> WARRIOR 0.0000
-3.1649 <s> WEB -0.1761
-3.1649 <s> WEBSERVER 0.0000
-3.1649 <s> WELL 0.0000
-3.1649 <s> WHADDAYA 0.0000
-2.5629 <s> WHAT 0.0000
-3.1649 <s> WHATS 0.0000
-3.1649 <s> WHISPERS 0.0000
-2.6878 <s> WHO 0.0000
-3.1649 <s> WHOOPS 0.0000
-2.8639 <s> WOLFRAM 0.0000
-2.4660 <s> WORKSPACE -0.1383
-3.1649 <s> WOW 0.0000
-3.1649 <s> WRITE 0.0000
-2.3868 <s> X -0.0580
-2.6878 <s> YANK 0.0000
-2.8639 <s> YOU -0.2430
-3.1649 <s> YOUR -0.1761
-3.1649 <s> YOUTUBE 0.0000
-3.1649 <s> ZEE 0.0000
-2.8639 <s> ZOOM 0.0000
-0.3010 A </s> -0.3010
-0.3010 AA FIRE 0.0000
-0.3010 ABOVE </s> -0.3010
-0.9031 ADD </s> -0.3010
-0.9031 ADD CONFIRM 0.0000
-0.9031 ADD CONFIRMATION 0.0000
-0.9031 ADD FAVORITE 0.0000
-0.4771 ADDRESS </s> -0.3010
-0.7782 ADDRESS FIELD 0.0000
-0.3010 ADVENTURE </s> -0.3010
-0.6021 AFTER </s> -0.3010
-0.6021 AFTER ME 0.0000
-0.3010 AIGHTY PROCENT 0.0000
-0.3010 ALARM </s> -0.3010
-0.6021 ALIGN CENTER -0.2553
-0.6021 ALIGN LEFT -0.1383
-0.8239 ALL </s> -0.3010
-1.0000 ALL DESKTOPS 0.0000
-1.0000 ALL FOUR -0.0928
-1.3010 ALL UNREAD 0.0000
-1.3010 ALL WINDOWS -0.1761
-1.3010 ALL WORKSPACE -0.2730
-0.6021 ALLOW </s> -0.3010
-0.6021 ALLOW TOP -0.2218
-0.3010 ALTERNATE TEXT -0.2430
-0.3010 ALTERNATIVES </s> -0.3010
-0.3010 ALWAYS ON -0.2688
-0.3010 AM I -0.2109
-0.6021 AND COPY -0.0792
-1.0792 AND HOLD 0.0000
-1.0792 AND QUIT -0.2900
-1.0792 AND UPDATES 0.0000
-0.3010 ANGLE BRACKET 0.0000
-0.6021 APACHE </s> -0.3010
-0.6021 APACHE CONFIG -0.1963
-0.3010 APP LAUNCHER 0.0000
-0.3010 APPEND TO -0.2942
-0.3010 APPLICATION </s> -0.3010
-0.3010 APPLICATIONS </s> -0.3010
-1.2041 APT CASH 0.0000
-1.2041 APT DIST 0.0000
-1.2041 APT GET -0.2430
-1.2041 APT INSTALL 0.0000
-0.9031 APT UPDATE -0.2218
-0.9031 APT UPGRADE 0.0000
-0.3010 AQUARIUM </s> -0.3010
-0.3010 ARCH </s> -0.3010
-0.9031 ARE </s> -0.3010
-0.9031 ARE EL 0.0000
-0.6021 ARE YOU -0.2109
-0.9031 ARENA BUTTON 0.0000
-0.4260 ARENA TRACKER 0.0000
-0.3010 ARMITAGE </s> -0.3010
-0.3979 ARROW </s> -0.3010
-1.0000 ARROW CLASSIC -0.2218
-0.3010 ARTICLE TAGS 0.0000
-0.3010 AS </s> -0.3010
-0.3010 ASCI AQUARIUM 0.0000
-0.3010 ASIDE TAGS 0.0000
-0.9031 ATTACK </s> -0.3010
-0.6021 ATTACK ENEMY 0.0000
-0.9031 ATTACK FACE -0.0872
-0.7782 AUDIO </s> -0.3010
-0.4771 AUDIO BOOKS 0.0000
-0.3010 AVAILABLE </s> -0.3010
-0.3010 AWK EXPRESSION 0.0000
-0.3010 B </s> -0.3010
-0.3979 BACK </s> -0.3010
-1.0000 BACK SPACE -0.1761
-0.3010 BACKS </s> -0.3010
-0.3010 BALL </s> -0.3010
-0.3010 BANG </s> -0.3010
-0.3010 BAR </s> -0.3010
-0.7782 BASH </s> -0.3010
-0.7782 BASH HEADER -0.1461
-0.7782 BASH LOLCAT 0.0000
-0.3010 BASIC </s> -0.3010
-0.3010 BAUKE </s> -0.3010
-0.6021 BE </s> -0.3010
-0.6021 BE BE -0.1761
-0.3010 BEFORE </s> -0.3010
-0.3010 BELOW </s> -0.3010
-0.3010 BEN BAUKE 0.0000
-0.4260 BIN </s> -0.3010
-0.9031 BIN BASH -0.2218
-0.3010 BLACKROCK </s> -0.3010
-0.6021 BLADDER </s> -0.3010
-0.6990 BLADDER CONFIG 0.0000
-1.3010 BLADDER FOLDER 0.0000
-0.3010 BLANK </s> -0.3010
-0.3010 BLATHER HISTORY 0.0000
-0.6021 BLOCK </s> -0.3010
-0.6021 BLOCK QUOTE -0.2632
-0.3010 BOB </s> -0.3010
-0.3010 BOLD </s> -0.3010
-0.3010 BOOK TITLE -0.1761
-0.3010 BOOKS </s> -0.3010
-0.3010 BORDER TOILET 0.0000
-0.3010 BORED </s> -0.3010
-0.3010 BRACKET THIS -0.1091
-0.3010 BRAWL </s> -0.3010
-0.3010 BROWSER HISTORY 0.0000
-0.3010 BUFFER </s> -0.3010
-0.3010 BULLET POINT 0.0000
-0.3010 BULLSHIT </s> -0.3010
-0.3010 BUTTON </s> -0.3010
-0.3010 BUY BUTTON 0.0000
-0.3010 BY DANNY 0.0000
-0.6690 C </s> -0.3010
-0.5441 C S -0.2139
-0.3010 CAMEL CAPS 0.0000
-0.3010 CAN WE 0.0000
-0.6021 CANCEL </s> -0.3010
-0.6021 CANCEL MATCH 0.0000
-0.3010 CAPITALIZE THIS -0.1091
-0.3010 CAPS THIS -0.1091
-1.0000 CARD </s> -0.3010
-1.3010 CARD BACKS 0.0000
-1.3010 CARD FIVE -0.1091
-1.3010 CARD FOUR -0.0928
-1.3010 CARD ON -0.2688
-1.3010 CARD ONE -0.1139
-1.3010 CARD SIX -0.0669
-1.3010 CARD THREE -0.1139
-1.3010 CARD TWO -0.0969
-0.3010 CARDS </s> -0.3010
-0.3010 CASH SEARCH -0.1761
-0.3010 CAT </s> -0.3010
-0.3010 CATAPULT </s> -0.3010
-0.3010 CD MIN 0.0000
-0.3010 CEL </s> -0.3010
-0.3010 CELL PHONE -0.1249
-1.0000 CENTER </s> -0.3010
-1.0000 CENTER CURSOR 0.0000
-0.6990 CENTER TAG 0.0000
-1.0000 CENTER TAGS 0.0000
-0.3010 CHAN </s> -0.3010
-0.3010 CHANGE WORD 0.0000
-0.3010 CHAT </s> -0.3010
-1.0000 CHOOSE </s> -0.3010
-1.0000 CHOOSE FOUR -0.2798
-1.0000 CHOOSE ONE -0.2553
-1.0000 CHOOSE THREE -0.2553
-1.0000 CHOOSE TWO -0.2632
-0.3010 CITATION TAGS 0.0000
-0.3010 CITY </s> -0.3010
-0.4357 CLASS </s> -0.3010
-1.4771 CLASS CARDS 0.0000
-1.1761 CLASS EQUALS -0.1091
-1.4771 CLASS IS -0.2688
-0.7782 CLASSIC </s> -0.3010
-0.7782 CLASSIC PACK 0.0000
-0.7782 CLASSIC ROCK 0.0000
-0.3010 CLEAN COMPUTER 0.0000
-0.3010 CLEAR SEARCH -0.1761
-0.4771 CLICK </s> -0.3010
-1.0792 CLICK AND -0.2632
-1.0792 CLICK HERE 0.0000
-1.1461 CLOSE CENTER -0.2041
-1.1461 CLOSE D -0.1549
-1.1461 CLOSE DIALOG 0.0000
-1.1461 CLOSE H -0.2688
-1.1461 CLOSE P -0.1761
-1.1461 CLOSE TAB -0.2109
-1.1461 CLOSE WINDOW -0.1181
-0.3010 CLUB </s> -0.3010
-0.3010 CODE </s> -0.3010
-0.3010 COLLECTION </s> -0.3010
-0.9031 COLON </s> -0.3010
-0.9031 COLON DOLLAR 0.0000
-0.9031 COLON W 0.0000
-0.9031 COLON ZERO -0.1761
-0.3010 COLUMN WIDTH 0.0000
-0.3010 COMMA </s> -0.3010
-0.3010 COMMANDO </s> -0.3010
-0.3010 COMMANDS </s> -0.3010
-0.3010 COMMENT </s> -0.3010
-0.3010 COMMIT ALL -0.2304
-0.3010 COMPUTER </s> -0.3010
-0.6021 CONCEDE </s> -0.3010
-0.6021 CONCEDE BUTTON 0.0000
-0.6690 CONFIG </s> -0.3010
-0.6690 CONFIG DERR 0.0000
-1.1461 CONFIG FILE -0.2139
-0.3010 CONFIRM </s> -0.3010
-0.3010 CONFIRMATION </s> -0.3010
-0.3010 CONSOLE </s> -0.3010
-1.6232 CONTROL A 0.0000
-1.6232 CONTROL ARE -0.2430
-1.6232 CONTROL B 0.0000
-1.6232 CONTROL C -0.1963
-1.6232 CONTROL D -0.2688
-1.6232 CONTROL E 0.0000
-1.6232 CONTROL ENTER -0.2730
-1.6232 CONTROL F -0.2041
-1.6232 CONTROL H -0.2852
-1.6232 CONTROL I -0.2109
-1.6232 CONTROL IN -0.0969
-1.6232 CONTROL K 0.0000
-1.6232 CONTROL L -0.0969
-1.6232 CONTROL O -0.1249
-1.6232 CONTROL P -0.1761
-0.8451 CONTROL SHIFT 0.0000
-0.3979 COPY </s> -0.3010
-1.0000 COPY THIS -0.2576
-0.3010 CORPORATE BULLSHIT 0.0000
-1.0792 COW FORTUNE 0.0000
-0.7782 COW SAY 0.0000
-0.6021 COW THINK 0.0000
-0.3010 CRAFTING </s> -0.3010
-0.6021 CURRENT DESKTOP 0.0000
-0.6021 CURRENT LINE -0.2218
-0.3010 CURSOR </s> -0.3010
-0.3010 CUT </s> -0.3010
-1.1461 D </s> -0.3010
-1.1461 D EQUALS -0.1549
-0.5441 D I -0.1761
-1.1461 D O -0.2218
-0.3010 DADS EMAIL -0.0969
-0.3010 DANNY </s> -0.3010
-0.3010 DATA TAGS 0.0000
-0.6021 DATE </s> -0.3010
-0.6021 DATE CODE 0.0000
-0.3010 DAY IS -0.2341
-1.2553 DECK EIGHT -0.1249
-1.2553 DECK FIVE -0.1091
-1.2553 DECK FOUR -0.0928
-1.2553 DECK NINE 0.0000
-1.2553 DECK ONE -0.1139
-1.2553 DECK SEVEN -0.0792
-1.2553 DECK SIX -0.0669
-1.2553 DECK THREE -0.1139
-1.2553 DECK TWO -0.0969
-0.3010 DECORATION </s> -0.3010
-0.6021 DEFINITION DATA 0.0000
-0.6021 DEFINITION TERM 0.0000
-1.0000 DELETE </s> -0.3010
-1.0000 DELETE LINES 0.0000
-1.0000 DELETE PREVIOUS -0.2632
-1.0000 DELETE THIS -0.2576
-1.0000 DELETE WORD 0.0000
-0.3010 DERR </s> -0.3010
-0.3010 DESIGNATION </s> -0.3010
-0.3010 DESKTOP </s> -0.3010
-0.3010 DESKTOPS </s> -0.3010
-0.3010 DIALOG </s> -0.3010
-0.3010 DIAMOND CLUB 0.0000
-0.6021 DISENCHANT </s> -0.3010
-0.6021 DISENCHANT EXTRA 0.0000
-0.7782 DISPLAY BLOCK -0.1761
-0.7782 DISPLAY INLINE 0.0000
-0.7782 DISPLAY NONE 0.0000
-0.3010 DIST UPGRADE 0.0000
-0.6021 DO IM 0.0000
-0.6021 DO YOU -0.2730
-0.3010 DOCUMENT MENU 0.0000
-0.3010 DOG </s> -0.3010
-0.3010 DOLLAR SIGN 0.0000
-0.3010 DONT SAVE -0.2430
-0.3010 DOUBLE CLICK -0.1249
-0.3802 DOWN </s> -0.3010
-1.0792 DOWN ARROW -0.0792
-0.3010 DOWNLOADS </s> -0.3010
-0.3010 DROP CARD -0.2553
-0.3010 DRUID CLASS -0.1027
-0.3010 DUMPERT </s> -0.3010
-0.3010 E </s> -0.3010
-0.7782 ECHO EE 0.0000
-0.7782 ECHO MOUSE -0.1761
-0.7782 ECHO VOICE -0.1761
-0.4260 EDIT </s> -0.3010
-0.9031 EDIT MENU 0.0000
-0.3010 EE SPEAK -0.1249
-0.3010 EFF TWO -0.0969
-0.4771 EIGHT </s> -0.3010
-1.0792 EIGHT BALL 0.0000
-1.0792 EIGHT HEADER -0.1461
-0.3010 EL </s> -0.3010
-0.4260 EMAIL </s> -0.3010
-0.9031 EMAIL HYPERLINK 0.0000
-0.3010 EMOTE </s> -0.3010
-0.3010 EMULATION STATION 0.0000
-0.3010 ENABLED </s> -0.3010
-0.4771 END </s> -0.3010
-0.7782 END TURN 0.0000
-0.4771 ENEMY </s> -0.3010
-0.7782 ENEMY FACE -0.0872
-0.3010 ENGINE EX 0.0000
-1.2041 ENTER </s> -0.3010
-1.5051 ENTER CELL 0.0000
-1.5051 ENTER CITY 0.0000
-1.5051 ENTER DADS 0.0000
-1.5051 ENTER FIBER 0.0000
-1.5051 ENTER FIRST 0.0000
-1.2041 ENTER FULL -0.1249
-1.5051 ENTER GEE -0.2041
-1.5051 ENTER LAST -0.1761
-1.5051 ENTER NICK 0.0000
-1.5051 ENTER OFFICE 0.0000
-1.5051 ENTER STREET 0.0000
-1.5051 ENTER WORK 0.0000
-1.5051 ENTER ZIP 0.0000
-1.1461 EQUALS </s> -0.3010
-1.1461 EQUALS BLANK 0.0000
-1.1461 EQUALS RIGHT -0.1139
-0.5441 EQUALS THIS -0.1091
-0.3010 ESCAPE </s> -0.3010
-0.3010 ET SEE -0.2218
-0.6021 EX </s> -0.3010
-0.6021 EX CONFIG -0.1963
-0.3010 EXCLAMATION POINT 0.0000
-0.3010 EXIT </s> -0.3010
-0.3010 EXPLORERS </s> -0.3010
-0.3010 EXPRESSION </s> -0.3010
-0.3010 EXTRA CARDS 0.0000
-0.6021 EYE </s> -0.3010
-0.6021 EYE FRAME 0.0000
-0.6990 F </s> -0.3010
-1.0000 F CONSOLE 0.0000
-1.0000 F EIGHT -0.2632
-1.0000 F TWO -0.0969
-0.4102 FACE </s> -0.3010
-1.2553 FACE ENEMY -0.1249
-1.2553 FACE HERO -0.2672
-0.3010 FAVORITE </s> -0.3010
-0.3010 FIBER EMAIL -0.0969
-0.3010 FIELD </s> -0.3010
-0.3010 FIFTY PROCENT 0.0000
-0.7404 FILE </s> -0.3010
-1.3424 FILE AS 0.0000
-0.8653 FILE MANAGER 0.0000
-1.3424 FILE MENU 0.0000
-1.3424 FILE SPECIFICATIONS 0.0000
-1.3424 FILE SPECS 0.0000
-0.6021 FILES </s> -0.3010
-0.6021 FILES DERR 0.0000
-1.5051 FILTER BASIC 0.0000
-1.5051 FILTER CLASSIC -0.2218
-1.5051 FILTER FIVE -0.2688
-1.5051 FILTER FOUR -0.2906
-1.5051 FILTER GOBLINS 0.0000
-1.5051 FILTER GRAND 0.0000
-1.5051 FILTER LEAGUE 0.0000
-1.5051 FILTER OLD 0.0000
-1.5051 FILTER ONE -0.2788
-1.5051 FILTER SEVEN -0.2553
-1.5051 FILTER SIX -0.2632
-1.5051 FILTER STANDARD 0.0000
-1.5051 FILTER THREE -0.2788
-1.5051 FILTER TWO -0.2825
-1.5051 FILTER WILD 0.0000
-1.5051 FILTER ZERO -0.2430
-0.3010 FIND ON -0.2688
-0.3010 FIRE </s> -0.3010
-0.3010 FIRST NAME 0.0000
-0.4472 FIVE </s> -0.3010
-1.1461 FIVE MANA 0.0000
-1.1461 FIVE SPACES -0.0969
-0.3010 FIX SPACING 0.0000
-0.3010 FLAT SYMBOL 0.0000
-0.3010 FLUFFIEST </s> -0.3010
-0.3010 FM </s> -0.3010
-0.3010 FOLDER </s> -0.3010
-0.3010 FORMAT MENU 0.0000
-0.3010 FORTUNE </s> -0.3010
-0.3010 FORWARD </s> -0.3010
-0.4191 FOUR </s> -0.3010
-1.6232 FOUR CHAN 0.0000
-1.6232 FOUR MANA 0.0000
-1.3222 FOUR OF -0.1919
-1.6232 FOUR SPACES -0.0969
-0.3010 FOURTY PROCENT 0.0000
-0.3010 FRAME </s> -0.3010
-0.3010 FRIENDS </s> -0.3010
-0.3010 FROWNEY FACE -0.0872
-0.7782 FULL ADDRESS -0.1249
-0.7782 FULL NAME 0.0000
-0.7782 FULL SCREEN 0.0000
-0.3010 FUN X -0.2688
-0.3010 FUNNY </s> -0.3010
-0.3010 GAY TOILET 0.0000
-0.5229 GEE EDIT -0.0969
-0.6990 GEE MAIL 0.0000
-0.9031 GET INSTALL 0.0000
-0.9031 GET MOUSE -0.1761
-0.9031 GET PUSH 0.0000
-0.9031 GET WINDOW -0.2730
-1.0792 GIT ADD -0.2430
-1.0792 GIT COMMIT 0.0000
-1.0792 GIT MERGE 0.0000
-1.0792 GIT PULL 0.0000
-1.0792 GIT PUSH 0.0000
-1.0792 GIT STATUS -0.1761
-0.3010 GIVE UP -0.0512
-0.3010 GLADIS </s> -0.3010
-0.3010 GLADOS </s> -0.3010
-1.6232 GO BACK -0.0792
-1.6232 GO FORWARD 0.0000
-0.3445 GO TO -0.1481
-0.3010 GOBLINS </s> -0.3010
-0.6021 GODS </s> -0.3010
-0.6021 GODS PACK 0.0000
-0.3010 GOLDEN CARDS 0.0000
-0.3010 GOOD MORNING 0.0000
-0.3010 GOOGLE THIS -0.1091
-0.3010 GRAB THAT -0.1461
-0.3010 GRAND TOURNAMENT 0.0000
-0.3010 GREETINGS </s> -0.3010
-0.3010 GRIN FACE -0.0872
-1.4472 H </s> -0.3010
-1.1461 H REF 0.0000
-0.4058 H T -0.0348
-0.3010 HAL </s> -0.3010
-0.3010 HASH TAG 0.0000
-0.5229 HEADER </s> -0.3010
-1.3010 HEADER ONE -0.1139
-1.3010 HEADER TAGS 0.0000
-1.3010 HEADER THREE -0.1139
-1.3010 HEADER TWO -0.0969
-0.6021 HEARTHSTONE </s> -0.3010
-1.0792 HEARTHSTONE CHAT 0.0000
-1.0792 HEARTHSTONE OPEN -0.2923
-1.0792 HEARTHSTONE OPTIONS 0.0000
-0.9031 HELLO </s> -0.3010
-0.9031 HELLO COMPUTER 0.0000
-0.9031 HELLO HAL 0.0000
-0.9031 HELLO TEE 0.0000
-0.3010 HELP MENU 0.0000
-0.3010 HERE </s> -0.3010
-1.1249 HERO </s> -0.3010
-1.6021 HERO ATTACK -0.1761
-1.6021 HERO CARDS 0.0000
-1.6021 HERO EIGHT -0.1249
-1.6021 HERO FACE -0.0872
-1.6021 HERO FIVE -0.1091
-1.6021 HERO FOUR -0.0928
-1.6021 HERO NINE 0.0000
-1.6021 HERO ONE -0.1139
-1.3010 HERO PAGE -0.1627
-1.1249 HERO POWER 0.0000
-1.6021 HERO SEVEN -0.0792
-1.6021 HERO SIX -0.0669
-1.6021 HERO THREE -0.1139
-1.6021 HERO TWO -0.0969
-0.3010 HEROES </s> -0.3010
-0.3010 HISTORY </s> -0.3010
-0.3010 HOLD </s> -0.3010
-0.6021 HOME </s> -0.3010
-0.6021 HOME BIN -0.0969
-0.3010 HOOS THE -0.1761
-0.3010 HUGE GRIN 0.0000
-0.3010 HUNDERED PROCENT 0.0000
-0.3010 HUNTER CLASS -0.1027
-0.3010 HYPERLINK </s> -0.3010
-0.3010 HYPHENATE THIS -0.1091
-0.7270 I </s> -0.3010
-1.2041 I D -0.2688
-0.6021 I V 0.0000
-0.3010 ICON </s> -0.3010
-0.3010 IK BEN 0.0000
-0.3010 IM BORED 0.0000
-0.7782 IMAGE </s> -0.3010
-0.7782 IMAGE C -0.1549
-0.7782 IMAGE D -0.1549
-0.4260 IN </s> -0.3010
-0.9031 IN IT -0.2218
-0.3010 INBOX </s> -0.3010
-0.3010 INCLUDE UNCRAFTABLE 0.0000
-0.6021 INFO </s> -0.3010
-0.6021 INFO BUTTON 0.0000
-0.3010 INLINE </s> -0.3010
-1.4472 INSERT AUDIO -0.2218
-1.4472 INSERT AWK 0.0000
-1.4472 INSERT EYE -0.1761
-1.4472 INSERT HYPERLINK 0.0000
-1.4472 INSERT IMAGE -0.2218
-1.1461 INSERT KEY -0.1761
-1.4472 INSERT MENU 0.0000
-1.4472 INSERT PANEL 0.0000
-1.4472 INSERT PHONE -0.2218
-1.4472 INSERT POPUP -0.1761
-1.4472 INSERT PRINT -0.1761
-1.4472 INSERT SED 0.0000
-1.4472 INSERT VIDEO 0.0000
-0.3010 INSTALL </s> -0.3010
-0.8451 IS </s> -0.3010
-0.8451 IS IT -0.1249
-1.1461 IS RIGHT -0.1139
-0.8451 IS THAT -0.2041
-0.4771 IT </s> -0.3010
-0.7782 IT EXPRESSION 0.0000
-0.3010 ITALICIZE </s> -0.3010
-0.3010 ITALICS </s> -0.3010
-0.6021 ITEM </s> -0.3010
-0.6021 ITEM TAGS 0.0000
-0.6021 JAVASCRIPT DATE -0.1761
-0.6021 JAVASCRIPT HEADER -0.1461
-0.3010 JUST SAID 0.0000
-0.3010 K </s> -0.3010
-0.3010 KEEP </s> -0.3010
-0.6021 KEY </s> -0.3010
-0.9031 KEY PRESS -0.2910
-0.9031 KEY TYPE 0.0000
-1.0792 KILL BE -0.1761
-1.0792 KILL BLADDER -0.1761
-1.0792 KILL ONEKO -0.2218
-1.0792 KILL RADIO -0.2109
-1.0792 KILL VOCAL 0.0000
-1.0792 KILL WINDOW -0.1181
-0.4260 L </s> -0.3010
-0.9031 L S -0.2374
-0.3010 LABEL </s> -0.3010
-0.3010 LABELS HEADER -0.1461
-0.6021 LAST NAME 0.0000
-0.6021 LAST TAB -0.2109
-0.3010 LAUNCHER </s> -0.3010
-0.3010 LEAGUE OF -0.2762
-0.5051 LEFT </s> -0.3010
-1.2041 LEFT ARROW -0.0792
-1.2041 LEFT CLICK -0.1249
-1.2041 LEFT SIDE 0.0000
-0.7782 LINE </s> -0.3010
-0.7782 LINE ABOVE 0.0000
-0.7782 LINE BELOW 0.0000
-0.3010 LINES </s> -0.3010
-0.6021 LINK </s> -0.3010
-0.6021 LINK TO -0.2942
-0.4771 LIST ITEM 0.0000
-0.7782 LIST TAGS 0.0000
-0.3010 LISTENING </s> -0.3010
-0.3010 LOCAL BIN -0.0969
-0.3010 LOCATION </s> -0.3010
-0.3010 LOCK SCREEN 0.0000
-0.3010 LOG DERR 0.0000
-0.3010 LOLCAT </s> -0.3010
-0.3010 LOWER VOLUME -0.2688
-0.3010 LOWERCASE </s> -0.3010
-0.6021 M </s> -0.3010
-0.6021 M S -0.2808
-0.3010 MAGE CLASS -0.1027
-0.6021 MAIL </s> -0.3010
-0.6021 MAIL ADDRESS -0.1249
-1.0792 MAKE BOLD 0.0000
-1.0792 MAKE LOWERCASE 0.0000
-1.0792 MAKE NOTE 0.0000
-1.0792 MAKE SUPER -0.1761
-1.0792 MAKE SUPERSCRIPT 0.0000
-1.0792 MAKE UPPERCASE 0.0000
-0.3010 MAN </s> -0.3010
-0.3010 MANA </s> -0.3010
-0.3010 MANAGER </s> -0.3010
-0.3010 MAP </s> -0.3010
-0.3010 MARK </s> -0.3010
-1.0792 MARKDOWN BOLD 0.0000
-1.0792 MARKDOWN CODE 0.0000
-1.0792 MARKDOWN HEADER -0.1461
-1.0792 MARKDOWN HYPERLINK 0.0000
-1.0792 MARKDOWN ITALICS 0.0000
-1.0792 MARKDOWN PREVIEW 0.0000
-0.3010 MATCH </s> -0.3010
-0.3010 MATRIX </s> -0.3010
-0.3010 MAX </s> -0.3010
-0.3010 MAXIMIZE WINDOW -0.1181
-0.3010 ME </s> -0.3010
-0.3010 MENU </s> -0.3010
-0.3010 MERGE </s> -0.3010
-1.3424 META BOB 0.0000
-1.3424 META C -0.1963
-1.3424 META EFF 0.0000
-1.3424 META EYE -0.1761
-1.3424 META F -0.2553
-1.3424 META L -0.0969
-1.3424 META M -0.1761
-1.3424 META N -0.1761
-1.3424 META P -0.1761
-1.3424 META SCOOBY 0.0000
-1.3424 META W 0.0000
-0.3010 METAL TOILET 0.0000
-0.3010 MIDDLE CLICK -0.1249
-0.3010 MIN </s> -0.3010
-0.3010 MINIMIZE WINDOW -0.1181
-0.3010 MON </s> -0.3010
-0.3010 MORNING </s> -0.3010
-0.6021 MOUSE LOCATION 0.0000
-0.6021 MOUSE WHEEL 0.0000
-0.6320 MOVE TO -0.2352
-1.0000 MOVE WINDOW -0.0746
-0.7782 MOVE WORKSPACE -0.1383
-0.6021 MUSIC </s> -0.3010
-0.6021 MUSIC C -0.1549
-0.3010 MUTE SOUND 0.0000
-0.3010 MY COLLECTION 0.0000
-0.6021 N </s> -0.3010
-0.6021 N MAP 0.0000
-0.3010 NAME </s> -0.3010
-0.3010 NATURAL SYMBOL 0.0000
-0.3010 NET MAP 0.0000
-0.3010 NETFLIX </s> -0.3010
-0.6021 NEUTRAL CARDS 0.0000
-0.6021 NEUTRAL CLASS -0.1027
-1.3010 NEW BULLET 0.0000
-1.3010 NEW FILE -0.2139
-1.0000 NEW LINE -0.1249
-1.3010 NEW LIST -0.1249
-1.3010 NEW SECTION 0.0000
-1.3010 NEW TAB -0.2109
-1.3010 NEW TABLE -0.2430
-1.3010 NEW WEB -0.1761
-1.3010 NEW WINDOW -0.1181
-1.3010 NEXT BUFFER 0.0000
-1.3010 NEXT HERO -0.2788
-1.3010 NEXT PAGE -0.1627
-1.0000 NEXT QUOTE -0.1249
-1.3010 NEXT TAB -0.2109
-1.3010 NEXT TRACK 0.0000
-1.0000 NEXT WALLPAPER -0.0792
-1.3010 NEXT WORD 0.0000
-0.3010 NICK NAME 0.0000
-0.3010 NIGHT ATTACK -0.2430
-0.3010 NINE </s> -0.3010
-0.3010 NINETY PROCENT 0.0000
-0.9031 NO </s> -0.3010
-0.9031 NO DECORATION 0.0000
-0.6021 NO SCRIPT 0.0000
-0.3010 NONE </s> -0.3010
-0.3010 NOTE </s> -0.3010
-0.3010 NOTES </s> -0.3010
-0.4771 O </s> -0.3010
-0.7782 O TOOL 0.0000
-0.3010 OEPS </s> -0.3010
-1.5563 OF ALL -0.2553
-1.5563 OF CURRENT -0.1761
-1.2553 OF EXPLORERS 0.0000
-0.6532 OF FOUR -0.0928
-1.5563 OF MUSIC -0.1761
-1.2553 OF REGION 0.0000
-1.5563 OF THE -0.2430
-1.2553 OF WINDOW -0.0969
-0.3010 OFFICE PHONE -0.1249
-0.3010 OLD GODS 0.0000
-1.1461 ON ALL -0.2788
-1.1461 ON LEFT -0.1383
-1.1461 ON ONLY -0.1761
-1.1461 ON PAGE -0.1627
-1.1461 ON RIGHT -0.1139
-1.1461 ON SELF 0.0000
-1.1461 ON TOP -0.2218
-0.4559 ONE </s> -0.3010
-1.3010 ONE MANA 0.0000
-1.0000 ONE OF -0.1919
-0.7782 ONEKO </s> -0.3010
-1.0792 ONEKO CAT 0.0000
-1.0792 ONEKO DOG 0.0000
-1.0792 ONEKO SAKURA 0.0000
-1.0792 ONEKO TORA 0.0000
-0.6021 ONLY GOLDEN 0.0000
-0.6021 ONLY THIS -0.2906
-0.3010 OOPS </s> -0.3010
-0.3010 OP </s> -0.3010
-1.6990 OPEN ARMITAGE 0.0000
-1.3979 OPEN BLADDER -0.2041
-1.6990 OPEN CENTER -0.2041
-1.6990 OPEN D -0.1549
-1.6990 OPEN EMULATION 0.0000
-1.3979 OPEN FILE -0.1347
-1.3979 OPEN GEE 0.0000
-1.6990 OPEN H -0.2688
-1.6990 OPEN HEARTHSTONE -0.1761
-1.6990 OPEN LAST -0.1761
-1.6990 OPEN NOTES 0.0000
-1.6990 OPEN P -0.1761
-1.6990 OPEN PACK 0.0000
-1.6990 OPEN PACKS 0.0000
-1.6990 OPEN POKE 0.0000
-1.6990 OPEN PSP 0.0000
-1.6990 OPEN QUA 0.0000
-1.6990 OPEN R 0.0000
-1.6990 OPEN RETRO 0.0000
-1.6990 OPEN TODO 0.0000
-1.6990 OPEN UNISON 0.0000
-1.6990 OPEN VOCAL 0.0000
-0.3010 OPTIMAL COLUMN 0.0000
-0.3010 OPTIONS </s> -0.3010
-0.3010 OUT </s> -0.3010
-0.6021 P </s> -0.3010
-0.6021 P TAG 0.0000
-0.3010 PACK </s> -0.3010
-0.6021 PACKAGE INFO -0.1761
-0.6021 PACKAGE SEARCH -0.1761
-0.3010 PACKS </s> -0.3010
-0.5643 PAGE </s> -0.3010
-1.3424 PAGE BACK -0.0792
-1.3424 PAGE DOWN -0.0669
-1.3424 PAGE FORWARD 0.0000
-1.3424 PAGE TEMPLATE 0.0000
-1.3424 PAGE UP -0.0512
-0.3010 PALADIN CLASS -0.1027
-0.3010 PANEL </s> -0.3010
-0.3010 PARAGRAPH TAGS 0.0000
-0.3010 PASTE </s> -0.3010
-0.6021 PAUSE </s> -0.3010
-0.9031 PAUSE PLAY -0.2632
-0.9031 PAUSE VARIETY -0.2553
-0.3010 PERENTHESIZE THIS -0.1091
-0.3010 PERFECT </s> -0.3010
-0.3010 PERIOD </s> -0.3010
-0.3010 PERMISSIONS </s> -0.3010
-0.4771 PHONE </s> -0.3010
-0.7782 PHONE ICON 0.0000
-0.3010 PHOTO BY 0.0000
-0.3010 PHOTOS </s> -0.3010
-0.3010 PID </s> -0.3010
-0.3010 PING TEST 0.0000
-1.0792 PLAY </s> -0.3010
-0.7782 PLAY BUTTON 0.0000
-0.7782 PLAY CARD -0.2304
-1.0792 PLAY PAUSE -0.1761
-0.3010 PLAYED </s> -0.3010
-0.3010 POINT </s> -0.3010
-0.3010 POKE MON 0.0000
-0.6021 POPUP </s> -0.3010
-0.6021 POPUP JAVASCRIPT -0.1761
-0.7782 POWER </s> -0.3010
-0.7782 POWER ENEMY -0.1249
-0.7782 POWER HERO -0.2672
-0.3010 PREFERENCES </s> -0.3010
-0.3010 PREFORMATTED </s> -0.3010
-1.6435 PRESS </s> -0.3010
-1.6435 PRESS DELETE -0.2553
-1.6435 PRESS EIGHT -0.1249
-1.6435 PRESS END -0.1249
-1.6435 PRESS ENTER -0.2730
-1.6435 PRESS ESCAPE 0.0000
-1.6435 PRESS F -0.2041
-1.6435 PRESS FIVE -0.1091
-1.6435 PRESS FOUR -0.0928
-1.6435 PRESS HOME -0.1761
-1.6435 PRESS I -0.2109
-1.6435 PRESS NINE 0.0000
-1.6435 PRESS NO -0.2430
-1.6435 PRESS ONE -0.1139
-1.6435 PRESS Q 0.0000
-1.6435 PRESS SEVEN -0.0792
-1.6435 PRESS SIX -0.0669
-1.6435 PRESS TAB -0.2109
-1.6435 PRESS THREE -0.1139
-1.6435 PRESS TWO -0.0969
-1.6435 PRESS YES 0.0000
-1.6435 PRESS ZERO -0.1761
-0.3010 PRETTY RUDE 0.0000
-0.3010 PREVIEW </s> -0.3010
-1.3802 PREVIOUS BUFFER 0.0000
-1.3802 PREVIOUS HERO -0.2788
-1.3802 PREVIOUS PAGE -0.1627
-1.0792 PREVIOUS QUOTE -0.1249
-1.0792 PREVIOUS SENTENCE 0.0000
-1.3802 PREVIOUS TAB -0.2109
-1.3802 PREVIOUS TRACK 0.0000
-1.0792 PREVIOUS WALLPAPER -0.0792
-1.3802 PREVIOUS WORD 0.0000
-0.3010 PRIEST CLASS -0.1027
-0.6021 PRINT BUTTON 0.0000
-0.6021 PRINT WINDOW -0.2730
-0.3010 PROCENT </s> -0.3010
-0.3010 PROPERTIES </s> -0.3010
-0.3010 PSP </s> -0.3010
-0.3010 PULL </s> -0.3010
-0.3010 PUSH </s> -0.3010
-0.6021 PUT AFTER -0.1761
-0.6021 PUT BEFORE 0.0000
-0.3010 Q </s> -0.3010
-0.3010 QUA CEL 0.0000
-0.3010 QUARTER NOTE 0.0000
-0.3010 QUESTION MARK 0.0000
-0.3010 QUESTS </s> -0.3010
-1.6021 QUIT </s> -0.3010
-1.6021 QUIT APPLICATION 0.0000
-1.6021 QUIT ARMITAGE 0.0000
-1.6021 QUIT BE -0.1761
-1.6021 QUIT BLADDER -0.1761
-1.6021 QUIT EMULATION 0.0000
-1.6021 QUIT FILE -0.2374
-1.6021 QUIT GEE -0.1461
-1.6021 QUIT HEARTHSTONE -0.1761
-1.6021 QUIT ONEKO -0.2218
-1.6021 QUIT POKE 0.0000
-1.6021 QUIT PSP 0.0000
-1.6021 QUIT QUA 0.0000
-1.6021 QUIT R 0.0000
-1.6021 QUIT RADIO -0.2109
-1.6021 QUIT RETRO 0.0000
-1.6021 QUIT UNISON 0.0000
-1.6021 QUIT VARIETY -0.2553
-1.6021 QUIT VOCAL 0.0000
-1.6021 QUIT WINDOW -0.1181
-0.4771 QUOTE </s> -0.3010
-1.0792 QUOTE TAGS 0.0000
-1.0792 QUOTE THIS -0.1091
-0.3010 QUOTES </s> -0.3010
-0.3010 R ARENA -0.0969
-1.2041 RADIO 3FM 0.0000
-1.2041 RADIO 538 0.0000
-0.7270 RADIO </s> -0.3010
-1.2041 RADIO ARROW -0.2553
-1.2041 RADIO FUN 0.0000
-1.2041 RADIO SLAM 0.0000
-0.3010 RAISE VOLUME -0.2688
-0.3010 REBOOT </s> -0.3010
-0.3010 REF </s> -0.3010
-0.3010 REFRESH PAGE -0.1627
-0.6021 REGION </s> -0.3010
-0.6021 REGION AND -0.1761
-0.3010 REMOVE SPACES -0.0969
-0.3010 REPEAT AFTER -0.1761
-0.3010 REPLACE ALL -0.2553
-0.3010 REPLAY TRACK 0.0000
-0.3010 REPORT </s> -0.3010
-0.9031 RESTART APACHE -0.1761
-0.9031 RESTART BLADDER -0.1761
-0.9031 RESTART ENGINE 0.0000
-0.9031 RESTART TRACK 0.0000
-0.3010 RESTORE WINDOW -0.1181
-0.3010 RETRO ARCH 0.0000
-0.3010 RETURN CODE 0.0000
-0.4559 RIGHT </s> -0.3010
-1.3010 RIGHT ARROW -0.0792
-1.3010 RIGHT CLICK -0.1249
-1.3010 RIGHT SIDE 0.0000
-0.3010 ROCK </s> -0.3010
-0.3010 ROGUE CLASS -0.1027
-0.3010 ROW </s> -0.3010
-0.3010 RUDE </s> -0.3010
-0.8653 S </s> -0.3010
-1.3424 S COMMANDO 0.0000
-1.3424 S F -0.2553
-1.3424 S HEADER -0.1461
-1.3424 S L -0.0969
-0.7404 S S -0.1891
-0.3010 SAID THAT -0.1461
-0.3010 SAKURA </s> -0.3010
-0.9031 SAVE </s> -0.3010
-0.6021 SAVE FILE -0.1891
-0.9031 SAVE LINK -0.1761
-0.3010 SAY </s> -0.3010
-0.3010 SCHOOL OF -0.2888
-0.3010 SCOOBY </s> -0.3010
-0.3010 SCORE </s> -0.3010
-0.3010 SCREEN </s> -0.3010
-1.0792 SCREENSHOT </s> -0.3010
-1.0792 SCREENSHOT AND -0.1761
-0.4771 SCREENSHOT OF -0.2499
-0.3010 SCRIPT ALLOW 0.0000
-0.6021 SCROLL DOWN -0.0669
-0.6021 SCROLL UP -0.0512
-0.6021 SEARCH </s> -0.3010
-1.3802 SEARCH APPLICATIONS 0.0000
-1.3802 SEARCH FIELD 0.0000
-1.3802 SEARCH FILES -0.1761
-1.3802 SEARCH MUSIC -0.1761
-1.3802 SEARCH PHOTOS 0.0000
-1.3802 SEARCH VIDEOS 0.0000
-0.3010 SECTION LABEL 0.0000
-0.3010 SED EXPRESSION 0.0000
-0.7782 SEE </s> -0.3010
-0.7782 SEE MATRIX 0.0000
-0.7782 SEE RETURN 0.0000
-1.0280 SELECT ALL -0.2041
-0.5509 SELECT HERO -0.1903
-1.5051 SELECT PREVIOUS -0.2632
-1.0280 SELECT THIS -0.2460
-0.3010 SELECTION </s> -0.3010
-0.3010 SELECTOR </s> -0.3010
-0.3010 SELF </s> -0.3010
-0.3010 SEMICOLON </s> -0.3010
-0.3010 SENTENCE </s> -0.3010
-0.6021 SET ALARM 0.0000
-0.6021 SET SLEEP 0.0000
-0.3979 SEVEN </s> -0.3010
-1.0000 SEVEN MANA 0.0000
-0.3010 SEVENTY PROCENT 0.0000
-0.3010 SHAMAN CLASS -0.1027
-0.3010 SHARP SYMBOL 0.0000
-0.3010 SHE BANG 0.0000
-1.0792 SHIFT C -0.1963
-1.0792 SHIFT E 0.0000
-1.0792 SHIFT IN -0.0969
-1.0792 SHIFT O -0.1249
-1.0792 SHIFT V -0.2041
-1.0792 SHIFT W 0.0000
-0.3010 SHOP </s> -0.3010
-0.3010 SHORTEN YOU -0.2730
-1.0414 SHOW ALL -0.2304
-1.3424 SHOW DESKTOP 0.0000
-0.7404 SHOW ON -0.1549
-1.3424 SHOW ONLY -0.1761
-0.8653 SHOW WINDOWS 0.0000
-0.3010 SHUT UP -0.0512
-0.3010 SIDE </s> -0.3010
-0.3010 SIGN </s> -0.3010
-0.6021 SING GLADIS 0.0000
-0.6021 SING GLADOS 0.0000
-0.3010 SINGING </s> -0.3010
-0.3010 SITE </s> -0.3010
-0.6021 SITES AVAILABLE 0.0000
-0.6021 SITES ENABLED 0.0000
-0.3802 SIX </s> -0.3010
-1.0792 SIX MANA 0.0000
-0.3010 SIXTY PROCENT 0.0000
-0.3010 SLAM FM 0.0000
-0.3010 SLASH ET 0.0000
-0.3010 SLEEP TIMER 0.0000
-0.3010 SMART QUOTES 0.0000
-0.3010 SMILEY FACE -0.0872
-0.3010 SO FUNNY 0.0000
-0.6021 SOFTWARE AND -0.2632
-0.6021 SOFTWARE PROPERTIES 0.0000
-0.3010 SOLO PLAY -0.2218
-0.3010 SORT THIS -0.1091
-0.3010 SOUND </s> -0.3010
-0.6021 SPACE </s> -0.3010
-0.6021 SPACE BAR 0.0000
-0.4260 SPACES </s> -0.3010
-0.9031 SPACES TO -0.2942
-0.3010 SPACING </s> -0.3010
-0.6021 SPAN </s> -0.3010
-0.6021 SPAN THIS -0.1091
-0.3010 SPANDEX </s> -0.3010
-0.4771 SPEAK </s> -0.3010
-0.7782 SPEAK THIS -0.1091
-0.3010 SPEAKING </s> -0.3010
-0.6021 SPECIALTY CLASS -0.1027
-0.6021 SPECIALTY SPAN -0.1761
-0.3010 SPECIFICATIONS </s> -0.3010
-0.3010 SPECS </s> -0.3010
-0.3010 SPLIT BUFFER 0.0000
-0.3010 STANDARD </s> -0.3010
-0.3010 STAR WARS 0.0000
-0.3010 START SELECTION 0.0000
-0.3010 STATE YOUR -0.1761
-0.3010 STATION </s> -0.3010
-0.6021 STATUS </s> -0.3010
-0.6021 STATUS REPORT 0.0000
-0.9031 STOP RADIO -0.2109
-0.9031 STOP SELECTION 0.0000
-0.9031 STOP SINGING 0.0000
-0.9031 STOP SPEAKING 0.0000
-0.3010 STREET </s> -0.3010
-0.6021 SUDO </s> -0.3010
-0.6021 SUDO CLEAN 0.0000
-0.6021 SUPER </s> -0.3010
-0.6021 SUPER KEY -0.1761
-0.3010 SUPERSCRIPT </s> -0.3010
-1.0000 SWAP ALL -0.2553
-1.0000 SWAP FOUR -0.2798
-1.0000 SWAP ONE -0.2553
-1.0000 SWAP THREE -0.2553
-1.0000 SWAP TWO -0.2632
-0.9031 SWITCH BACK -0.0792
-0.9031 SWITCH SWITCH -0.1761
-0.6021 SWITCH WINDOW -0.1181
-0.3010 SYMBOL </s> -0.3010
-0.3010 SYNAPTIC </s> -0.3010
-0.3010 SYNC BLADDER -0.1461
-0.7782 SYSTEM </s> -0.3010
-0.7782 SYSTEM LOG 0.0000
-0.7782 SYSTEM UPDATE -0.2218
-1.3802 T BOLD 0.0000
-1.3802 T BOOK 0.0000
-1.3802 T CODE 0.0000
-1.3802 T COMMANDO 0.0000
-1.3802 T COMMENT 0.0000
-1.3802 T F -0.2553
-0.9031 T HEADER -0.2304
-1.3802 T ITALICS 0.0000
-1.3802 T PAGE -0.2808
-1.3802 T PREFORMATTED 0.0000
-0.7270 TAB </s> -0.3010
-1.5051 TAB EIGHT -0.1249
-1.5051 TAB FIVE -0.1091
-1.5051 TAB FOUR -0.0928
-1.5051 TAB NINE 0.0000
-1.5051 TAB ONE -0.1139
-1.5051 TAB SEVEN -0.0792
-1.5051 TAB SIX -0.0669
-1.5051 TAB TEN -0.2218
-1.5051 TAB THREE -0.1139
-1.5051 TAB TWO -0.0969
-0.9031 TABLE DATA 0.0000
-0.9031 TABLE HEADER -0.2788
-0.9031 TABLE ROW 0.0000
-0.9031 TABLE TAGS 0.0000
-0.3010 TAG </s> -0.3010
-0.3010 TAGS </s> -0.3010
-0.3010 TAKE SCREENSHOT 0.0000
-0.3010 TARGET EQUALS -0.2688
-0.3010 TAVERN BRAWL 0.0000
-0.3010 TEE 61 0.0000
-0.3010 TEMPLATE </s> -0.3010
-0.7782 TEN </s> -0.3010
-0.7782 TEN COMMANDS 0.0000
-0.7782 TEN PROCENT 0.0000
-0.3010 TERM TAGS 0.0000
-0.3010 TEST </s> -0.3010
-0.3010 TESTING EE 0.0000
-0.9031 TEXT </s> -0.3010
-0.6021 TEXT ALIGN 0.0000
-0.9031 TEXT EQUALS -0.1549
-0.3010 THANK YOU -0.2430
-0.3010 THANKS </s> -0.3010
-0.5229 THAT </s> -0.3010
-1.0000 THAT RIGHT -0.1139
-1.0000 THAT TRUE 0.0000
-0.6021 THATS PRETTY 0.0000
-0.6021 THATS RUDE 0.0000
-0.9031 THE END -0.1249
-0.9031 THE FLUFFIEST 0.0000
-0.9031 THE MAN 0.0000
-0.9031 THE OLD 0.0000
-0.3979 THINK </s> -0.3010
-1.0000 THINK FORTUNE 0.0000
-0.3010 THIRTY PROCENT 0.0000
-0.4472 THIS </s> -0.3010
-1.0212 THIS SENTENCE 0.0000
-1.6232 THIS WORD 0.0000
-1.6232 THIS WORKSPACE -0.2730
-0.3010 THREATHEN </s> -0.3010
-0.4559 THREE </s> -0.3010
-1.3010 THREE MANA 0.0000
-1.0000 THREE OF -0.1919
-0.3010 TILDE </s> -0.3010
-0.3010 TIME IS -0.2341
-0.3010 TIMER </s> -0.3010
-0.6021 TITLE </s> -0.3010
-0.6021 TITLE EQUALS -0.1549
-1.8062 TO ARMITAGE 0.0000
-1.8062 TO CURRENT -0.1761
-1.8062 TO DIAMOND 0.0000
-1.8062 TO DUMPERT 0.0000
-1.8062 TO FILE -0.2374
-1.8062 TO FOUR -0.2906
-1.8062 TO GEE -0.1461
-1.8062 TO HEARTHSTONE -0.1761
-1.8062 TO INBOX 0.0000
-1.5051 TO LEFT -0.0969
-1.8062 TO NETFLIX 0.0000
-1.8062 TO NIGHT 0.0000
-1.8062 TO POKE 0.0000
-1.8062 TO PSP 0.0000
-1.8062 TO QUA 0.0000
-1.8062 TO R 0.0000
-1.8062 TO RETRO 0.0000
-1.5051 TO RIGHT -0.0792
-1.8062 TO SCORE 0.0000
-1.8062 TO THE -0.2430
-1.8062 TO TRASH 0.0000
-1.8062 TO TWITCH 0.0000
-1.8062 TO UNDERSCORES 0.0000
-1.8062 TO UNISON 0.0000
-1.8062 TO VOCAL 0.0000
-1.2041 TO WORKSPACE -0.2430
-1.8062 TO YOU -0.2730
-0.3010 TODAYS DATE -0.1761
-0.3010 TODO </s> -0.3010
-0.3010 TOILET </s> -0.3010
-0.3010 TOOL KEY -0.1761
-0.3010 TOOLS MENU 0.0000
-0.7782 TOP </s> -0.3010
-0.7782 TOP SITE 0.0000
-0.7782 TOP TEN -0.2218
-0.3010 TORA </s> -0.3010
-0.6021 TOURNAMENT </s> -0.3010
-0.6021 TOURNAMENT PACK 0.0000
-0.3010 TRACK </s> -0.3010
-0.3010 TRACKER </s> -0.3010
-0.6021 TRANSFER KEEP 0.0000
-0.6021 TRANSFER TEXT -0.2430
-0.3010 TRASH </s> -0.3010
-0.3010 TRUE </s> -0.3010
-0.3010 TUBE </s> -0.3010
-0.3010 TURN </s> -0.3010
-0.3010 TWENTY PROCENT 0.0000
-0.3010 TWITCH </s> -0.3010
-0.4260 TWO </s> -0.3010
-1.3802 TWO MANA 0.0000
-1.0792 TWO OF -0.1919
-0.3010 TYPE </s> -0.3010
-0.3010 U T -0.2825
-0.3010 UN MUTE 0.0000
-0.3010 UNCRAFTABLE CARDS 0.0000
-0.3010 UNDERSCORES </s> -0.3010
-0.3010 UNDO </s> -0.3010
-0.3010 UNFORMATTED PASTE 0.0000
-0.3010 UNISON </s> -0.3010
-0.3010 UNORDERED LIST -0.2218
-0.3010 UNREAD </s> -0.3010
-0.3590 UP </s> -0.3010
-1.2041 UP ARROW -0.0792
-0.7782 UPDATE </s> -0.3010
-1.2553 UPDATE ALTERNATIVES 0.0000
-0.9542 UPDATE BLADDER -0.0414
-1.2553 UPDATE CONFIG -0.1963
-1.2553 UPDATE MANAGER 0.0000
-1.2553 UPDATE SYSTEM -0.2218
-0.3010 UPDATES </s> -0.3010
-0.3010 UPGRADE </s> -0.3010
-0.3010 UPPERCASE </s> -0.3010
-0.6021 USER BIN -0.0969
-0.6021 USER LOCAL 0.0000
-0.3010 USERNAME FIELD 0.0000
-0.6990 V </s> -0.3010
-0.6990 V TAG 0.0000
-1.0000 V TAGS 0.0000
-1.0000 VARIETY </s> -0.3010
-1.3010 VARIETY ADD -0.2430
-1.0000 VARIETY NEXT -0.2041
-1.3010 VARIETY PAUSE -0.1761
-1.3010 VARIETY PREFERENCES 0.0000
-1.0000 VARIETY PREVIOUS -0.2218
-1.3010 VARIETY SELECTOR 0.0000
-0.3010 VERBATIM HYPERLINK 0.0000
-0.3010 VIDEO </s> -0.3010
-0.3010 VIDEOS </s> -0.3010
-0.3010 VIEW MENU 0.0000
-0.3010 VOCAL </s> -0.3010
-0.6021 VOICE </s> -0.3010
-0.6021 VOICE SEARCH -0.1761
-1.1461 VOLUME </s> -0.3010
-1.4472 VOLUME AIGHTY 0.0000
-1.4472 VOLUME FIFTY 0.0000
-1.4472 VOLUME FOURTY 0.0000
-1.4472 VOLUME HUNDERED 0.0000
-1.4472 VOLUME MAX 0.0000
-1.4472 VOLUME NINETY 0.0000
-1.4472 VOLUME SEVENTY 0.0000
-1.4472 VOLUME SIXTY 0.0000
-1.4472 VOLUME TEN -0.2218
-1.4472 VOLUME THIRTY 0.0000
-1.4472 VOLUME TWENTY 0.0000
-1.4472 VOLUME ZERO -0.2430
-0.3010 W </s> -0.3010
-0.3979 WALLPAPER </s> -0.3010
-1.0000 WALLPAPER SELECTOR 0.0000
-0.3010 WARLOCK CLASS -0.1027
-0.3010 WARRIOR CLASS -0.1027
-0.3010 WARS </s> -0.3010
-0.3010 WE DO -0.1761
-0.6021 WEB FILES -0.1761
-0.6021 WEB SEARCH -0.1761
-0.3010 WEBSERVER PERMISSIONS 0.0000
-0.3010 WELL PLAYED 0.0000
-0.3010 WHADDAYA THINK -0.0792
-0.9031 WHAT CAN 0.0000
-0.9031 WHAT DAY 0.0000
-0.9031 WHAT DO -0.1761
-0.9031 WHAT TIME 0.0000
-0.3010 WHATS TODAYS 0.0000
-0.6021 WHEEL DOWN -0.0669
-0.6021 WHEEL UP -0.0512
-0.3010 WHISPERS OF -0.2888
-0.9031 WHO AM 0.0000
-0.9031 WHO ARE -0.1761
-0.6021 WHO IS -0.2341
-0.3010 WHOOPS </s> -0.3010
-0.3010 WIDTH </s> -0.3010
-0.3010 WILD </s> -0.3010
-0.4638 WINDOW </s> -0.3010
-1.5051 WINDOW AND -0.1761
-1.2041 WINDOW PID 0.0000
-1.2041 WINDOW TO -0.2730
-0.6021 WINDOWS </s> -0.3010
-0.6021 WINDOWS OF -0.2762
-0.6021 WOLFRAM </s> -0.3010
-0.6021 WOLFRAM THIS -0.1091
-0.3010 WORD </s> -0.3010
-0.3010 WORK EMAIL -0.0969
-1.2041 WORKSPACE </s> -0.3010
-1.2041 WORKSPACE DOWN -0.0669
-1.5051 WORKSPACE FOUR -0.0928
-1.2041 WORKSPACE LEFT -0.1383
-1.5051 WORKSPACE ONE -0.1139
-1.2041 WORKSPACE OP 0.0000
-1.2041 WORKSPACE RIGHT -0.1139
-1.5051 WORKSPACE THREE -0.1139
-1.5051 WORKSPACE TWO -0.0969
-1.2041 WORKSPACE UP -0.0512
-0.3010 WOW </s> -0.3010
-0.3010 WRITE AND -0.2632
-1.1461 X </s> -0.3010
-0.5441 X COW 0.0000
-1.1461 X D -0.2688
-1.1461 X WHO -0.1761
-0.7782 YANK LINES 0.0000
-0.7782 YANK TO -0.2942
-0.7782 YANK WORD 0.0000
-0.3010 YES </s> -0.3010
-0.9031 YOU </s> -0.3010
-1.2041 YOU ARE -0.2430
-1.2041 YOU JUST 0.0000
-1.2041 YOU LISTENING 0.0000
-1.2041 YOU SAID 0.0000
-1.2041 YOU THINK -0.0792
-1.2041 YOU TUBE 0.0000
-0.6021 YOUR DESIGNATION 0.0000
-0.6021 YOUR SO 0.0000
-0.3010 YOUTUBE AUDIO -0.1249
-0.3010 ZEE OUT 0.0000
-0.6021 ZERO </s> -0.3010
-0.9031 ZERO MANA 0.0000
-0.9031 ZERO PROCENT 0.0000
-0.3010 ZIP </s> -0.3010
-0.6021 ZOOM IN -0.0969
-0.6021 ZOOM OUT 0.0000

\3-grams:
-0.3010 <s> AA FIRE
-0.6021 <s> ADD CONFIRM
-0.6021 <s> ADD CONFIRMATION
-0.3010 <s> ADDRESS FIELD
-0.3010 <s> ADVENTURE </s>
-0.3010 <s> ALTERNATE TEXT
-0.3010 <s> ALWAYS ON
-0.3010 <s> ANGLE BRACKET
-0.3010 <s> APACHE CONFIG
-0.3010 <s> APP LAUNCHER
-0.3010 <s> APPEND TO
-1.2041 <s> APT CASH
-1.2041 <s> APT DIST
-1.2041 <s> APT GET
-1.2041 <s> APT INSTALL
-0.9031 <s> APT UPDATE
-0.9031 <s> APT UPGRADE
-0.3010 <s> ARE YOU
-0.3010 <s> ARENA BUTTON
-0.3010 <s> ARTICLE TAGS
-0.3010 <s> ASCI AQUARIUM
-0.3010 <s> ASIDE TAGS
-0.6021 <s> ATTACK ENEMY
-0.6021 <s> ATTACK FACE
-0.3010 <s> AUDIO BOOKS
-0.6021 <s> BACK </s>
-0.6021 <s> BACK SPACE
-0.6021 <s> BASH HEADER
-0.6021 <s> BASH LOLCAT
-0.3010 <s> BE BE
-0.3010 <s> BIN BASH
-0.3010 <s> BLACKROCK </s>
-0.3010 <s> BLADDER CONFIG
-0.3010 <s> BLATHER HISTORY
-0.3010 <s> BLOCK QUOTE
-0.3010 <s> BORDER TOILET
-0.3010 <s> BROWSER HISTORY
-0.3010 <s> BUY BUTTON
-0.3010 <s> C S
-0.3010 <s> CAMEL CAPS
-0.6021 <s> CANCEL </s>
-0.6021 <s> CANCEL MATCH
-0.3010 <s> CAPITALIZE THIS
-1.1461 <s> CARD BACKS
-1.1461 <s> CARD FIVE
-1.1461 <s> CARD FOUR
-1.1461 <s> CARD ONE
-1.1461 <s> CARD SIX
-1.1461 <s> CARD THREE
-1.1461 <s> CARD TWO
-0.3010 <s> CARDS </s>
-0.3010 <s> CATAPULT </s>
-0.3010 <s> CD MIN
-0.6021 <s> CENTER CURSOR
-0.6021 <s> CENTER TAGS
-0.3010 <s> CHANGE WORD
-1.0000 <s> CHOOSE </s>
-1.0000 <s> CHOOSE FOUR
-1.0000 <s> CHOOSE ONE
-1.0000 <s> CHOOSE THREE
-1.0000 <s> CHOOSE TWO
-0.3010 <s> CITATION TAGS
-0.9031 <s> CLASS CARDS
-0.6021 <s> CLASS EQUALS
-0.9031 <s> CLASS IS
-0.3010 <s> CLASSIC PACK
-0.3010 <s> CLEAN COMPUTER
-0.3010 <s> CLEAR SEARCH
-0.6021 <s> CLICK AND
-0.6021 <s> CLICK HERE
-1.1461 <s> CLOSE CENTER
-1.1461 <s> CLOSE D
-1.1461 <s> CLOSE DIALOG
-1.1461 <s> CLOSE H
-1.1461 <s> CLOSE P
-1.1461 <s> CLOSE TAB
-1.1461 <s> CLOSE WINDOW
-0.9031 <s> COLON </s>
-0.9031 <s> COLON DOLLAR
-0.9031 <s> COLON W
-0.9031 <s> COLON ZERO
-0.3010 <s> COMMA </s>
-0.3010 <s> COMPUTER </s>
-0.6021 <s> CONCEDE </s>
-0.6021 <s> CONCEDE BUTTON
-0.3010 <s> CONFIRM </s>
-1.6232 <s> CONTROL A
-1.6232 <s> CONTROL ARE
-1.6232 <s> CONTROL B
-1.6232 <s> CONTROL C
-1.6232 <s> CONTROL D
-1.6232 <s> CONTROL E
-1.6232 <s> CONTROL ENTER
-1.6232 <s> CONTROL F
-1.6232 <s> CONTROL H
-1.6232 <s> CONTROL I
-1.6232 <s> CONTROL IN
-1.6232 <s> CONTROL K
-1.6232 <s> CONTROL L
-1.6232 <s> CONTROL O
-1.6232 <s> CONTROL P
-0.8451 <s> CONTROL SHIFT
-0.6021 <s> COPY </s>
-0.6021 <s> COPY THIS
-0.3010 <s> CORPORATE BULLSHIT
-0.6021 <s> COW SAY
-0.6021 <s> COW THINK
-0.3010 <s> CRAFTING </s>
-0.3010 <s> CUT </s>
-0.3010 <s> D I
-1.2553 <s> DECK EIGHT
-1.2553 <s> DECK FIVE
-1.2553 <s> DECK FOUR
-1.2553 <s> DECK NINE
-1.2553 <s> DECK ONE
-1.2553 <s> DECK SEVEN
-1.2553 <s> DECK SIX
-1.2553 <s> DECK THREE
-1.2553 <s> DECK TWO
-0.6021 <s> DEFINITION DATA
-0.6021 <s> DEFINITION TERM
-0.9031 <s> DELETE LINES
-0.9031 <s> DELETE PREVIOUS
-0.9031 <s> DELETE THIS
-0.9031 <s> DELETE WORD
-0.6021 <s> DISENCHANT </s>
-0.6021 <s> DISENCHANT EXTRA
-0.7782 <s> DISPLAY BLOCK
-0.7782 <s> DISPLAY INLINE
-0.7782 <s> DISPLAY NONE
-0.3010 <s> DOCUMENT MENU
-0.3010 <s> DONT SAVE
-0.3010 <s> DOUBLE CLICK
-0.3010 <s> DOWN ARROW
-0.3010 <s> DOWNLOADS </s>
-0.3010 <s> DROP CARD
-0.3010 <s> DRUID CLASS
-0.7782 <s> ECHO EE
-0.7782 <s> ECHO MOUSE
-0.7782 <s> ECHO VOICE
-0.3010 <s> EDIT MENU
-0.3010 <s> EIGHT BALL
-0.3010 <s> EMAIL HYPERLINK
-0.3010 <s> EMOTE </s>
-0.3010 <s> END TURN
-0.6021 <s> ENEMY </s>
-0.6021 <s> ENEMY FACE
-0.3010 <s> ENGINE EX
-1.4472 <s> ENTER CELL
-1.4472 <s> ENTER CITY
-1.4472 <s> ENTER DADS
-1.4472 <s> ENTER FIBER
-1.4472 <s> ENTER FIRST
-1.1461 <s> ENTER FULL
-1.4472 <s> ENTER GEE
-1.4472 <s> ENTER LAST
-1.4472 <s> ENTER NICK
-1.4472 <s> ENTER OFFICE
-1.4472 <s> ENTER STREET
-1.4472 <s> ENTER WORK
-1.4472 <s> ENTER ZIP
-0.3010 <s> EQUALS </s>
-0.3010 <s> ESCAPE </s>
-0.3010 <s> EXCLAMATION POINT
-0.3010 <s> EXIT </s>
-0.6021 <s> FACE ENEMY
-0.6021 <s> FACE HERO
-0.7782 <s> FILE MENU
-0.7782 <s> FILE SPECIFICATIONS
-0.7782 <s> FILE SPECS
-1.5051 <s> FILTER BASIC
-1.5051 <s> FILTER CLASSIC
-1.5051 <s> FILTER FIVE
-1.5051 <s> FILTER FOUR
-1.5051 <s> FILTER GOBLINS
-1.5051 <s> FILTER GRAND
-1.5051 <s> FILTER LEAGUE
-1.5051 <s> FILTER OLD
-1.5051 <s> FILTER ONE
-1.5051 <s> FILTER SEVEN
-1.5051 <s> FILTER SIX
-1.5051 <s> FILTER STANDARD
-1.5051 <s> FILTER THREE
-1.5051 <s> FILTER TWO
-1.5051 <s> FILTER WILD
-1.5051 <s> FILTER ZERO
-0.3010 <s> FIND ON
-0.3010 <s> FIVE SPACES
-0.3010 <s> FIX SPACING
-0.3010 <s> FLAT SYMBOL
-0.3010 <s> FORMAT MENU
-0.3010 <s> FOUR SPACES
-0.3010 <s> FRIENDS </s>
-0.3010 <s> FROWNEY FACE
-0.3010 <s> FULL SCREEN
-0.3010 <s> GAY TOILET
-0.7782 <s> GET MOUSE
-0.7782 <s> GET PUSH
-0.7782 <s> GET WINDOW
-1.0792 <s> GIT ADD
-1.0792 <s> GIT COMMIT
-1.0792 <s> GIT MERGE
-1.0792 <s> GIT PULL
-1.0792 <s> GIT PUSH
-1.0792 <s> GIT STATUS
-0.3010 <s> GIVE UP
-1.6232 <s> GO BACK
-1.6232 <s> GO FORWARD
-0.3445 <s> GO TO
-0.3010 <s> GOOD MORNING
-0.3010 <s> GOOGLE THIS
-0.3010 <s> GRAB THAT
-0.3010 <s> GRAND TOURNAMENT
-0.3010 <s> GREETINGS </s>
-0.3010 <s> H T
-0.3010 <s> HASH TAG
-0.7782 <s> HEARTHSTONE CHAT
-0.7782 <s> HEARTHSTONE OPEN
-0.7782 <s> HEARTHSTONE OPTIONS
-0.9031 <s> HELLO </s>
-0.9031 <s> HELLO COMPUTER
-0.9031 <s> HELLO HAL
-0.9031 <s> HELLO TEE
-0.3010 <s> HELP MENU
-1.1461 <s> HERO </s>
-1.1461 <s> HERO ATTACK
-1.1461 <s> HERO CARDS
-1.1461 <s> HERO FACE
-0.6690 <s> HERO POWER
-0.3010 <s> HEROES </s>
-0.3010 <s> HOME BIN
-0.3010 <s> HOOS THE
-0.3010 <s> HUGE GRIN
-0.3010 <s> HUNTER CLASS
-0.3010 <s> HYPHENATE THIS
-0.3010 <s> I D
-0.3010 <s> IK BEN
-0.6021 <s> IMAGE C
-0.6021 <s> IMAGE D
-0.3010 <s> IN IT
-0.3010 <s> INCLUDE UNCRAFTABLE
-0.3010 <s> INFO BUTTON
-1.4472 <s> INSERT AUDIO
-1.4472 <s> INSERT AWK
-1.4472 <s> INSERT EYE
-1.4472 <s> INSERT HYPERLINK
-1.4472 <s> INSERT IMAGE
-1.1461 <s> INSERT KEY
-1.4472 <s> INSERT MENU
-1.4472 <s> INSERT PANEL
-1.4472 <s> INSERT PHONE
-1.4472 <s> INSERT POPUP
-1.4472 <s> INSERT PRINT
-1.4472 <s> INSERT SED
-1.4472 <s> INSERT VIDEO
-0.3010 <s> IS THAT
-0.3010 <s> ITALICIZE </s>
-0.3010 <s> JAVASCRIPT DATE
-1.0792 <s> KILL BE
-1.0792 <s> KILL BLADDER
-1.0792 <s> KILL ONEKO
-1.0792 <s> KILL RADIO
-1.0792 <s> KILL VOCAL
-1.0792 <s> KILL WINDOW
-0.3010 <s> L S
-0.3010 <s> LABELS HEADER
-0.3010 <s> LEAGUE OF
-0.6021 <s> LEFT ARROW
-0.6021 <s> LEFT CLICK
-0.3010 <s> LINK TO
-0.3010 <s> LIST ITEM
-0.3010 <s> LOCK SCREEN
-0.3010 <s> LOWER VOLUME
-0.3010 <s> M S
-0.3010 <s> MAGE CLASS
-1.0792 <s> MAKE BOLD
-1.0792 <s> MAKE LOWERCASE
-1.0792 <s> MAKE NOTE
-1.0792 <s> MAKE SUPER
-1.0792 <s> MAKE SUPERSCRIPT
-1.0792 <s> MAKE UPPERCASE
-1.0792 <s> MARKDOWN BOLD
-1.0792 <s> MARKDOWN CODE
-1.0792 <s> MARKDOWN HEADER
-1.0792 <s> MARKDOWN HYPERLINK
-1.0792 <s> MARKDOWN ITALICS
-1.0792 <s> MARKDOWN PREVIEW
-0.3010 <s> MAXIMIZE WINDOW
-1.3424 <s> META BOB
-1.3424 <s> META C
-1.3424 <s> META EFF
-1.3424 <s> META EYE
-1.3424 <s> META F
-1.3424 <s> META L
-1.3424 <s> META M
-1.3424 <s> META N
-1.3424 <s> META P
-1.3424 <s> META SCOOBY
-1.3424 <s> META W
-0.3010 <s> METAL TOILET
-0.3010 <s> MIDDLE CLICK
-0.3010 <s> MINIMIZE WINDOW
-0.3010 <s> MOUSE WHEEL
-0.6320 <s> MOVE TO
-1.0000 <s> MOVE WINDOW
-0.7782 <s> MOVE WORKSPACE
-0.3010 <s> MUTE SOUND
-0.3010 <s> MY COLLECTION
-0.3010 <s> N MAP
-0.3010 <s> NATURAL SYMBOL
-0.3010 <s> NET MAP
-0.6021 <s> NEUTRAL CARDS
-0.6021 <s> NEUTRAL CLASS
-1.3010 <s> NEW BULLET
-1.3010 <s> NEW FILE
-1.0000 <s> NEW LINE
-1.3010 <s> NEW LIST
-1.3010 <s> NEW SECTION
-1.3010 <s> NEW TAB
-1.3010 <s> NEW TABLE
-1.3010 <s> NEW WEB
-1.3010 <s> NEW WINDOW
-1.2041 <s> NEXT BUFFER
-1.2041 <s> NEXT HERO
-1.2041 <s> NEXT PAGE
-1.2041 <s> NEXT QUOTE
-1.2041 <s> NEXT TAB
-1.2041 <s> NEXT TRACK
-1.2041 <s> NEXT WALLPAPER
-1.2041 <s> NEXT WORD
-0.7782 <s> NO DECORATION
-0.4771 <s> NO SCRIPT
-0.3010 <s> OEPS </s>
-0.9031 <s> ONEKO CAT
-0.9031 <s> ONEKO DOG
-0.9031 <s> ONEKO SAKURA
-0.9031 <s> ONEKO TORA
-0.3010 <s> OOPS </s>
-1.6812 <s> OPEN ARMITAGE
-1.3802 <s> OPEN BLADDER
-1.6812 <s> OPEN CENTER
-1.6812 <s> OPEN D
-1.6812 <s> OPEN EMULATION
-1.3802 <s> OPEN FILE
-1.3802 <s> OPEN GEE
-1.6812 <s> OPEN H
-1.6812 <s> OPEN HEARTHSTONE
-1.6812 <s> OPEN LAST
-1.6812 <s> OPEN NOTES
-1.6812 <s> OPEN P
-1.6812 <s> OPEN PACKS
-1.6812 <s> OPEN POKE
-1.6812 <s> OPEN PSP
-1.6812 <s> OPEN QUA
-1.6812 <s> OPEN R
-1.6812 <s> OPEN RETRO
-1.6812 <s> OPEN TODO
-1.6812 <s> OPEN UNISON
-1.6812 <s> OPEN VOCAL
-0.3010 <s> OPTIMAL COLUMN
-0.6021 <s> PACKAGE INFO
-0.6021 <s> PACKAGE SEARCH
-0.9031 <s> PAGE BACK
-0.9031 <s> PAGE DOWN
-0.9031 <s> PAGE FORWARD
-0.9031 <s> PAGE UP
-0.3010 <s> PALADIN CLASS
-0.3010 <s> PARAGRAPH TAGS
-0.3010 <s> PASTE </s>
-0.6021 <s> PAUSE PLAY
-0.6021 <s> PAUSE VARIETY
-0.3010 <s> PERENTHESIZE THIS
-0.3010 <s> PERFECT </s>
-0.3010 <s> PERIOD </s>
-0.3010 <s> PHOTO BY
-0.3010 <s> PING TEST
-0.9031 <s> PLAY BUTTON
-0.6021 <s> PLAY CARD
-0.9031 <s> PLAY PAUSE
-0.3010 <s> POPUP JAVASCRIPT
-1.6232 <s> PRESS DELETE
-1.6232 <s> PRESS EIGHT
-1.6232 <s> PRESS END
-1.6232 <s> PRESS ENTER
-1.6232 <s> PRESS ESCAPE
-1.6232 <s> PRESS F
-1.6232 <s> PRESS FIVE
-1.6232 <s> PRESS FOUR
-1.6232 <s> PRESS HOME
-1.6232 <s> PRESS I
-1.6232 <s> PRESS NINE
-1.6232 <s> PRESS NO
-1.6232 <s> PRESS ONE
-1.6232 <s> PRESS Q
-1.6232 <s> PRESS SEVEN
-1.6232 <s> PRESS SIX
-1.6232 <s> PRESS TAB
-1.6232 <s> PRESS THREE
-1.6232 <s> PRESS TWO
-1.6232 <s> PRESS YES
-1.6232 <s> PRESS ZERO
-1.2041 <s> PREVIOUS BUFFER
-1.2041 <s> PREVIOUS HERO
-1.2041 <s> PREVIOUS PAGE
-1.2041 <s> PREVIOUS QUOTE
-1.2041 <s> PREVIOUS TAB
-1.2041 <s> PREVIOUS TRACK
-1.2041 <s> PREVIOUS WALLPAPER
-1.2041 <s> PREVIOUS WORD
-0.3010 <s> PRIEST CLASS
-0.3010 <s> PRINT WINDOW
-0.6021 <s> PUT AFTER
-0.6021 <s> PUT BEFORE
-0.3010 <s> QUARTER NOTE
-0.3010 <s> QUESTION MARK
-0.3010 <s> QUESTS </s>
-1.5798 <s> QUIT APPLICATION
-1.5798 <s> QUIT ARMITAGE
-1.5798 <s> QUIT BE
-1.5798 <s> QUIT BLADDER
-1.5798 <s> QUIT EMULATION
-1.5798 <s> QUIT FILE
-1.5798 <s> QUIT GEE
-1.5798 <s> QUIT HEARTHSTONE
-1.5798 <s> QUIT ONEKO
-1.5798 <s> QUIT POKE
-1.5798 <s> QUIT PSP
-1.5798 <s> QUIT QUA
-1.5798 <s> QUIT R
-1.5798 <s> QUIT RADIO
-1.5798 <s> QUIT RETRO
-1.5798 <s> QUIT UNISON
-1.5798 <s> QUIT VARIETY
-1.5798 <s> QUIT VOCAL
-1.5798 <s> QUIT WINDOW
-0.3010 <s> QUOTE THIS
-1.0000 <s> RADIO 3FM
-1.0000 <s> RADIO 538
-1.0000 <s> RADIO ARROW
-1.0000 <s> RADIO FUN
-1.0000 <s> RADIO SLAM
-0.3010 <s> RAISE VOLUME
-0.3010 <s> REBOOT </s>
-0.3010 <s> REFRESH PAGE
-0.3010 <s> REMOVE SPACES
-0.3010 <s> REPEAT AFTER
-0.3010 <s> REPLACE ALL
-0.3010 <s> REPLAY TRACK
-0.9031 <s> RESTART APACHE
-0.9031 <s> RESTART BLADDER
-0.9031 <s> RESTART ENGINE
-0.9031 <s> RESTART TRACK
-0.3010 <s> RESTORE WINDOW
-0.6021 <s> RIGHT ARROW
-0.6021 <s> RIGHT CLICK
-0.3010 <s> ROGUE CLASS
-0.3010 <s> S L
-0.4771 <s> SAVE FILE
-0.7782 <s> SAVE LINK
-0.3010 <s> SCHOOL OF
-0.6021 <s> SCROLL DOWN
-0.6021 <s> SCROLL UP
-1.1461 <s> SEARCH </s>
-1.1461 <s> SEARCH APPLICATIONS
-1.1461 <s> SEARCH FIELD
-1.1461 <s> SEARCH FILES
-1.1461 <s> SEARCH MUSIC
-1.1461 <s> SEARCH PHOTOS
-1.1461 <s> SEARCH VIDEOS
-0.3010 <s> SECTION LABEL
-0.6021 <s> SEE MATRIX
-0.6021 <s> SEE RETURN
-1.0280 <s> SELECT ALL
-0.5509 <s> SELECT HERO
-1.5051 <s> SELECT PREVIOUS
-1.0280 <s> SELECT THIS
-0.3010 <s> SEMICOLON </s>
-0.6021 <s> SET ALARM
-0.6021 <s> SET SLEEP
-0.3010 <s> SHAMAN CLASS
-0.3010 <s> SHARP SYMBOL
-0.3010 <s> SHE BANG
-0.3010 <s> SHOP </s>
-0.3010 <s> SHORTEN YOU
-1.0414 <s> SHOW ALL
-1.3424 <s> SHOW DESKTOP
-0.7404 <s> SHOW ON
-1.3424 <s> SHOW ONLY
-0.8653 <s> SHOW WINDOWS
-0.3010 <s> SHUT UP
-0.6021 <s> SING GLADIS
-0.6021 <s> SING GLADOS
-0.6021 <s> SITES AVAILABLE
-0.6021 <s> SITES ENABLED
-0.3010 <s> SLASH ET
-0.3010 <s> SMART QUOTES
-0.3010 <s> SMILEY FACE
-0.6021 <s> SOFTWARE AND
-0.6021 <s> SOFTWARE PROPERTIES
-0.3010 <s> SOLO PLAY
-0.3010 <s> SORT THIS
-0.3010 <s> SPACE BAR
-0.3010 <s> SPACES TO
-0.3010 <s> SPAN THIS
-0.3010 <s> SPANDEX </s>
-0.3010 <s> SPEAK THIS
-0.6021 <s> SPECIALTY CLASS
-0.6021 <s> SPECIALTY SPAN
-0.3010 <s> SPLIT BUFFER
-0.3010 <s> STAR WARS
-0.3010 <s> START SELECTION
-0.3010 <s> STATE YOUR
-0.3010 <s> STATUS REPORT
-0.9031 <s> STOP RADIO
-0.9031 <s> STOP SELECTION
-0.9031 <s> STOP SINGING
-0.9031 <s> STOP SPEAKING
-0.6021 <s> SUDO </s>
-0.6021 <s> SUDO CLEAN
-0.3010 <s> SUPER KEY
-1.0000 <s> SWAP ALL
-1.0000 <s> SWAP FOUR
-1.0000 <s> SWAP ONE
-1.0000 <s> SWAP THREE
-1.0000 <s> SWAP TWO
-0.7782 <s> SWITCH BACK
-0.7782 <s> SWITCH SWITCH
-0.7782 <s> SWITCH WINDOW
-0.3010 <s> SYNAPTIC </s>
-0.3010 <s> SYNC BLADDER
-0.6021 <s> SYSTEM LOG
-0.6021 <s> SYSTEM UPDATE
-1.3010 <s> TAB EIGHT
-1.3010 <s> TAB FIVE
-1.3010 <s> TAB FOUR
-1.3010 <s> TAB NINE
-1.3010 <s> TAB ONE
-1.3010 <s> TAB SEVEN
-1.3010 <s> TAB SIX
-1.3010 <s> TAB TEN
-1.3010 <s> TAB THREE
-1.3010 <s> TAB TWO
-0.7782 <s> TABLE DATA
-0.7782 <s> TABLE HEADER
-0.7782 <s> TABLE TAGS
-0.3010 <s> TAKE SCREENSHOT
-0.3010 <s> TARGET EQUALS
-0.3010 <s> TAVERN BRAWL
-0.3010 <s> TESTING EE
-0.3010 <s> TEXT ALIGN
-0.3010 <s> THANK YOU
-0.3010 <s> THANKS </s>
-0.6021 <s> THATS PRETTY
-0.6021 <s> THATS RUDE
-0.3010 <s> THREATHEN </s>
-0.3010 <s> TILDE </s>
-0.3010 <s> TITLE EQUALS
-0.3010 <s> TOILET </s>
-0.3010 <s> TOOLS MENU
-0.3010 <s> TOP TEN
-0.6021 <s> TRANSFER KEEP
-0.6021 <s> TRANSFER TEXT
-0.3010 <s> U T
-0.3010 <s> UN MUTE
-0.3010 <s> UNDO </s>
-0.3010 <s> UNFORMATTED PASTE
-0.3010 <s> UNORDERED LIST
-0.3010 <s> UP ARROW
-1.0792 <s> UPDATE ALTERNATIVES
-0.7782 <s> UPDATE BLADDER
-1.0792 <s> UPDATE CONFIG
-1.0792 <s> UPDATE MANAGER
-1.0792 <s> UPDATE SYSTEM
-0.6021 <s> USER BIN
-0.6021 <s> USER LOCAL
-0.3010 <s> USERNAME FIELD
-1.2041 <s> VARIETY ADD
-0.9031 <s> VARIETY NEXT
-1.2041 <s> VARIETY PAUSE
-1.2041 <s> VARIETY PREFERENCES
-0.9031 <s> VARIETY PREVIOUS
-1.2041 <s> VARIETY SELECTOR
-0.3010 <s> VERBATIM HYPERLINK
-0.3010 <s> VIEW MENU
-0.3010 <s> VOICE SEARCH
-1.3802 <s> VOLUME AIGHTY
-1.3802 <s> VOLUME FIFTY
-1.3802 <s> VOLUME FOURTY
-1.3802 <s> VOLUME HUNDERED
-1.3802 <s> VOLUME MAX
-1.3802 <s> VOLUME NINETY
-1.3802 <s> VOLUME SEVENTY
-1.3802 <s> VOLUME SIXTY
-1.3802 <s> VOLUME TEN
-1.3802 <s> VOLUME THIRTY
-1.3802 <s> VOLUME TWENTY
-1.3802 <s> VOLUME ZERO
-0.3010 <s> WALLPAPER SELECTOR
-0.3010 <s> WARLOCK CLASS
-0.3010 <s> WARRIOR CLASS
-0.3010 <s> WEB FILES
-0.3010 <s> WEBSERVER PERMISSIONS
-0.3010 <s> WELL PLAYED
-0.3010 <s> WHADDAYA THINK
-0.9031 <s> WHAT CAN
-0.9031 <s> WHAT DAY
-0.9031 <s> WHAT DO
-0.9031 <s> WHAT TIME
-0.3010 <s> WHATS TODAYS
-0.3010 <s> WHISPERS OF
-0.7782 <s> WHO AM
-0.7782 <s> WHO ARE
-0.7782 <s> WHO IS
-0.3010 <s> WHOOPS </s>
-0.6021 <s> WOLFRAM </s>
-0.6021 <s> WOLFRAM THIS
-1.0000 <s> WORKSPACE DOWN
-1.0000 <s> WORKSPACE LEFT
-1.0000 <s> WORKSPACE OP
-1.0000 <s> WORKSPACE RIGHT
-1.0000 <s> WORKSPACE UP
-0.3010 <s> WOW </s>
-0.3010 <s> WRITE AND
-0.4771 <s> X COW
-1.0792 <s> X D
-1.0792 <s> X WHO
-0.7782 <s> YANK LINES
-0.7782 <s> YANK TO
-0.7782 <s> YANK WORD
-0.6021 <s> YOU JUST
-0.6021 <s> YOU SAID
-0.3010 <s> YOUR SO
-0.3010 <s> YOUTUBE AUDIO
-0.3010 <s> ZEE OUT
-0.6021 <s> ZOOM IN
-0.6021 <s> ZOOM OUT
-0.3010 AA FIRE </s>
-0.3010 ADD CONFIRM </s>
-0.3010 ADD CONFIRMATION </s>
-0.3010 ADD FAVORITE </s>
-0.3010 ADDRESS FIELD </s>
-0.3010 AFTER ME </s>
-0.3010 AIGHTY PROCENT </s>
-0.3010 ALIGN CENTER </s>
-0.3010 ALIGN LEFT </s>
-0.3010 ALL DESKTOPS </s>
-0.3010 ALL FOUR </s>
-0.3010 ALL UNREAD </s>
-0.3010 ALL WINDOWS </s>
-0.3010 ALL WORKSPACE </s>
-0.3010 ALLOW TOP SITE
-0.3010 ALTERNATE TEXT EQUALS
-0.3010 ALWAYS ON TOP
-0.3010 AM I </s>
-0.3010 AND COPY </s>
-0.3010 AND HOLD </s>
-0.3010 AND QUIT </s>
-0.3010 AND UPDATES </s>
-0.3010 ANGLE BRACKET THIS
-0.3010 APACHE CONFIG DERR
-0.3010 APP LAUNCHER </s>
-0.3010 APPEND TO CURRENT
-0.3010 APT CASH SEARCH
-0.3010 APT DIST UPGRADE
-0.3010 APT GET INSTALL
-0.3010 APT INSTALL </s>
-0.3010 APT UPDATE </s>
-0.3010 APT UPGRADE </s>
-0.3010 ARE EL </s>
-0.6021 ARE YOU </s>
-0.6021 ARE YOU LISTENING
-0.3010 ARENA BUTTON </s>
-0.3010 ARENA TRACKER </s>
-0.3010 ARROW CLASSIC ROCK
-0.3010 ARTICLE TAGS </s>
-0.3010 ASCI AQUARIUM </s>
-0.3010 ASIDE TAGS </s>
-0.6021 ATTACK ENEMY </s>
-0.6021 ATTACK ENEMY FACE
-0.3010 ATTACK FACE </s>
-0.3010 AUDIO BOOKS </s>
-0.3010 AWK EXPRESSION </s>
-0.3010 BACK SPACE </s>
-0.3010 BASH HEADER </s>
-0.3010 BASH LOLCAT </s>
-0.3010 BE BE </s>
-0.3010 BEN BAUKE </s>
-0.3010 BIN BASH </s>
-0.6021 BLADDER CONFIG </s>
-0.9031 BLADDER CONFIG DERR
-0.9031 BLADDER CONFIG FILE
-0.3010 BLADDER FOLDER </s>
-0.3010 BLATHER HISTORY </s>
-0.3010 BLOCK QUOTE TAGS
-0.3010 BOOK TITLE </s>
-0.3010 BORDER TOILET </s>
-0.3010 BRACKET THIS </s>
-0.3010 BROWSER HISTORY </s>
-0.3010 BULLET POINT </s>
-0.3010 BUY BUTTON </s>
-0.3010 BY DANNY </s>
-0.3010 C S S
-0.3010 CAMEL CAPS THIS
-0.3010 CAN WE DO
-0.3010 CANCEL MATCH </s>
-0.3010 CAPITALIZE THIS </s>
-0.3010 CAPS THIS </s>
-0.3010 CARD BACKS </s>
-0.3010 CARD FIVE </s>
-0.3010 CARD FOUR </s>
-0.3010 CARD ON SELF
-0.3010 CARD ONE </s>
-0.3010 CARD SIX </s>
-0.3010 CARD THREE </s>
-0.3010 CARD TWO </s>
-0.3010 CASH SEARCH </s>
-0.3010 CD MIN </s>
-0.3010 CELL PHONE </s>
-0.3010 CENTER CURSOR </s>
-0.3010 CENTER TAG </s>
-0.3010 CENTER TAGS </s>
-0.3010 CHANGE WORD </s>
-0.3010 CHOOSE FOUR OF
-0.3010 CHOOSE ONE OF
-0.3010 CHOOSE THREE OF
-0.3010 CHOOSE TWO OF
-0.3010 CITATION TAGS </s>
-0.3010 CLASS CARDS </s>
-0.6021 CLASS EQUALS RIGHT
-0.6021 CLASS EQUALS THIS
-0.3010 CLASS IS RIGHT
-0.3010 CLASSIC PACK </s>
-0.3010 CLASSIC ROCK </s>
-0.3010 CLEAN COMPUTER </s>
-0.3010 CLEAR SEARCH </s>
-0.3010 CLICK AND HOLD
-0.3010 CLICK HERE </s>
-0.3010 CLOSE CENTER TAG
-0.3010 CLOSE D I
-0.3010 CLOSE DIALOG </s>
-0.3010 CLOSE H REF
-0.3010 CLOSE P TAG
-0.3010 CLOSE TAB </s>
-0.3010 CLOSE WINDOW </s>
-0.3010 COLON DOLLAR SIGN
-0.3010 COLON W </s>
-0.3010 COLON ZERO </s>
-0.3010 COLUMN WIDTH </s>
-0.3010 COMMIT ALL </s>
-0.3010 CONCEDE BUTTON </s>
-0.3010 CONFIG DERR </s>
-0.3010 CONFIG FILE </s>
-0.3010 CONTROL A </s>
-0.3010 CONTROL ARE </s>
-0.3010 CONTROL B </s>
-0.3010 CONTROL C </s>
-0.3010 CONTROL D </s>
-0.3010 CONTROL E </s>
-0.3010 CONTROL ENTER </s>
-0.3010 CONTROL F </s>
-0.3010 CONTROL H </s>
-0.3010 CONTROL I </s>
-0.3010 CONTROL IN </s>
-0.3010 CONTROL K </s>
-0.3010 CONTROL L </s>
-0.3010 CONTROL O </s>
-0.3010 CONTROL P </s>
-1.0792 CONTROL SHIFT C
-1.0792 CONTROL SHIFT E
-1.0792 CONTROL SHIFT IN
-1.0792 CONTROL SHIFT O
-1.0792 CONTROL SHIFT V
-1.0792 CONTROL SHIFT W
-0.3010 COPY THIS SENTENCE
-0.3010 CORPORATE BULLSHIT </s>
-0.3010 COW FORTUNE </s>
-0.3010 COW SAY </s>
-0.4771 COW THINK </s>
-0.7782 COW THINK FORTUNE
-0.3010 CURRENT DESKTOP </s>
-0.3010 CURRENT LINE </s>
-0.3010 D EQUALS THIS
-0.3010 D I V
-0.3010 D O TOOL
-0.3010 DADS EMAIL </s>
-0.3010 DATA TAGS </s>
-0.3010 DATE CODE </s>
-0.3010 DAY IS IT
-0.3010 DECK EIGHT </s>
-0.3010 DECK FIVE </s>
-0.3010 DECK FOUR </s>
-0.3010 DECK NINE </s>
-0.3010 DECK ONE </s>
-0.3010 DECK SEVEN </s>
-0.3010 DECK SIX </s>
-0.3010 DECK THREE </s>
-0.3010 DECK TWO </s>
-0.3010 DEFINITION DATA TAGS
-0.3010 DEFINITION TERM TAGS
-0.3010 DELETE LINES </s>
-0.3010 DELETE PREVIOUS SENTENCE
-0.3010 DELETE THIS SENTENCE
-0.3010 DELETE WORD </s>
-0.3010 DIAMOND CLUB </s>
-0.3010 DISENCHANT EXTRA CARDS
-0.3010 DISPLAY BLOCK </s>
-0.3010 DISPLAY INLINE </s>
-0.3010 DISPLAY NONE </s>
-0.3010 DIST UPGRADE </s>
-0.3010 DO IM BORED
-0.3010 DO YOU THINK
-0.3010 DOCUMENT MENU </s>
-0.3010 DOLLAR SIGN </s>
-0.3010 DONT SAVE </s>
-0.3010 DOUBLE CLICK </s>
-0.3010 DOWN ARROW </s>
-0.3010 DROP CARD </s>
-0.3010 DRUID CLASS </s>
-0.3010 ECHO EE SPEAK
-0.3010 ECHO MOUSE LOCATION
-0.3010 ECHO VOICE </s>
-0.3010 EDIT MENU </s>
-0.3010 EE SPEAK </s>
-0.3010 EFF TWO </s>
-0.3010 EIGHT BALL </s>
-0.3010 EIGHT HEADER </s>
-0.3010 EMAIL HYPERLINK </s>
-0.3010 EMULATION STATION </s>
-0.3010 END TURN </s>
-0.3010 ENEMY FACE </s>
-0.6021 ENGINE EX </s>
-0.6021 ENGINE EX CONFIG
-0.3010 ENTER CELL PHONE
-0.3010 ENTER CITY </s>
-0.3010 ENTER DADS EMAIL
-0.3010 ENTER FIBER EMAIL
-0.3010 ENTER FIRST NAME
-0.6021 ENTER FULL ADDRESS
-0.6021 ENTER FULL NAME
-0.3010 ENTER GEE MAIL
-0.3010 ENTER LAST NAME
-0.3010 ENTER NICK NAME
-0.3010 ENTER OFFICE PHONE
-0.3010 ENTER STREET </s>
-0.3010 ENTER WORK EMAIL
-0.3010 ENTER ZIP </s>
-0.3010 EQUALS BLANK </s>
-0.3010 EQUALS RIGHT </s>
-0.3010 EQUALS THIS </s>
-0.3010 ET SEE </s>
-0.3010 EX CONFIG DERR
-0.3010 EXCLAMATION POINT </s>
-0.3010 EXTRA CARDS </s>
-0.3010 EYE FRAME </s>
-0.3010 F CONSOLE </s>
-0.3010 F EIGHT HEADER
-0.3010 F TWO </s>
-0.3010 FACE ENEMY </s>
-0.3010 FACE HERO </s>
-0.3010 FIBER EMAIL </s>
-0.3010 FIFTY PROCENT </s>
-0.3010 FILE AS </s>
-0.3010 FILE MANAGER </s>
-0.3010 FILE MENU </s>
-0.3010 FILE SPECIFICATIONS </s>
-0.3010 FILE SPECS </s>
-0.3010 FILES DERR </s>
-0.3010 FILTER BASIC </s>
-0.3010 FILTER CLASSIC </s>
-0.3010 FILTER FIVE MANA
-0.3010 FILTER FOUR MANA
-0.3010 FILTER GOBLINS </s>
-0.3010 FILTER GRAND TOURNAMENT
-0.3010 FILTER LEAGUE OF
-0.3010 FILTER OLD GODS
-0.3010 FILTER ONE MANA
-0.3010 FILTER SEVEN MANA
-0.3010 FILTER SIX MANA
-0.3010 FILTER STANDARD </s>
-0.3010 FILTER THREE MANA
-0.3010 FILTER TWO MANA
-0.3010 FILTER WILD </s>
-0.3010 FILTER ZERO MANA
-0.3010 FIND ON PAGE
-0.3010 FIRST NAME </s>
-0.3010 FIVE MANA </s>
-0.3010 FIVE SPACES </s>
-0.3010 FIX SPACING </s>
-0.3010 FLAT SYMBOL </s>
-0.3010 FORMAT MENU </s>
-0.3010 FOUR CHAN </s>
-0.3010 FOUR MANA </s>
-0.3010 FOUR OF FOUR
-0.3010 FOUR SPACES </s>
-0.3010 FOURTY PROCENT </s>
-0.3010 FROWNEY FACE </s>
-0.3010 FULL ADDRESS </s>
-0.3010 FULL NAME </s>
-0.3010 FULL SCREEN </s>
-0.3010 FUN X </s>
-0.3010 GAY TOILET </s>
-0.3010 GEE EDIT </s>
-0.6021 GEE MAIL </s>
-0.6021 GEE MAIL ADDRESS
-0.3010 GET INSTALL </s>
-0.3010 GET MOUSE LOCATION
-0.3010 GET PUSH </s>
-0.3010 GET WINDOW PID
-0.3010 GIT ADD </s>
-0.3010 GIT COMMIT ALL
-0.3010 GIT MERGE </s>
-0.3010 GIT PULL </s>
-0.3010 GIT PUSH </s>
-0.3010 GIT STATUS </s>
-0.3010 GIVE UP </s>
-0.3010 GO BACK </s>
-0.3010 GO FORWARD </s>
-1.5798 GO TO ARMITAGE
-1.5798 GO TO DIAMOND
-1.5798 GO TO DUMPERT
-1.5798 GO TO FILE
-1.5798 GO TO FOUR
-1.5798 GO TO GEE
-1.5798 GO TO HEARTHSTONE
-1.5798 GO TO INBOX
-1.5798 GO TO NETFLIX
-1.5798 GO TO NIGHT
-1.5798 GO TO POKE
-1.5798 GO TO PSP
-1.5798 GO TO QUA
-1.5798 GO TO R
-1.5798 GO TO RETRO
-1.5798 GO TO TWITCH
-1.5798 GO TO UNISON
-1.5798 GO TO VOCAL
-1.5798 GO TO YOU
-0.3010 GODS PACK </s>
-0.3010 GOLDEN CARDS </s>
-0.3010 GOOD MORNING </s>
-0.3010 GOOGLE THIS </s>
-0.3010 GRAB THAT </s>
-0.6021 GRAND TOURNAMENT </s>
-0.6021 GRAND TOURNAMENT PACK
-0.3010 GRIN FACE </s>
-0.3010 H REF </s>
-1.3424 H T BOLD
-1.3424 H T BOOK
-1.3424 H T CODE
-1.3424 H T COMMANDO
-1.3424 H T COMMENT
-0.8653 H T HEADER
-1.3424 H T ITALICS
-1.3424 H T PAGE
-1.3424 H T PREFORMATTED
-0.3010 HASH TAG </s>
-0.3010 HEADER ONE </s>
-0.3010 HEADER TAGS </s>
-0.3010 HEADER THREE </s>
-0.3010 HEADER TWO </s>
-0.3010 HEARTHSTONE CHAT </s>
-0.3010 HEARTHSTONE OPEN PACK
-0.3010 HEARTHSTONE OPTIONS </s>
-0.3010 HELLO COMPUTER </s>
-0.3010 HELLO HAL </s>
-0.3010 HELLO TEE 61
-0.3010 HELP MENU </s>
-0.3010 HERO ATTACK ENEMY
-0.3010 HERO CARDS </s>
-0.3010 HERO EIGHT </s>
-0.3010 HERO FACE </s>
-0.3010 HERO FIVE </s>
-0.3010 HERO FOUR </s>
-0.3010 HERO NINE </s>
-0.3010 HERO ONE </s>
-0.3010 HERO PAGE </s>
-0.7782 HERO POWER </s>
-0.7782 HERO POWER ENEMY
-0.7782 HERO POWER HERO
-0.3010 HERO SEVEN </s>
-0.3010 HERO SIX </s>
-0.3010 HERO THREE </s>
-0.3010 HERO TWO </s>
-0.3010 HOME BIN </s>
-0.6021 HOOS THE FLUFFIEST
-0.6021 HOOS THE MAN
-0.3010 HUGE GRIN FACE
-0.3010 HUNDERED PROCENT </s>
-0.3010 HUNTER CLASS </s>
-0.3010 HYPHENATE THIS </s>
-0.3010 I D EQUALS
-0.9031 I V </s>
-0.6021 I V TAG
-0.9031 I V TAGS
-0.3010 IK BEN BAUKE
-0.3010 IM BORED </s>
-0.3010 IMAGE C S
-0.3010 IMAGE D I
-0.3010 IN IT EXPRESSION
-0.3010 INCLUDE UNCRAFTABLE CARDS
-0.3010 INFO BUTTON </s>
-0.3010 INSERT AUDIO </s>
-0.3010 INSERT AWK EXPRESSION
-0.3010 INSERT EYE FRAME
-0.3010 INSERT HYPERLINK </s>
-0.3010 INSERT IMAGE </s>
-0.6021 INSERT KEY PRESS
-0.6021 INSERT KEY TYPE
-0.3010 INSERT MENU </s>
-0.3010 INSERT PANEL </s>
-0.3010 INSERT PHONE ICON
-0.3010 INSERT POPUP </s>
-0.3010 INSERT PRINT BUTTON
-0.3010 INSERT SED EXPRESSION
-0.3010 INSERT VIDEO </s>
-0.3010 IS IT </s>
-0.3010 IS RIGHT </s>
-0.6021 IS THAT RIGHT
-0.6021 IS THAT TRUE
-0.3010 IT EXPRESSION </s>
-0.3010 ITEM TAGS </s>
-0.3010 JAVASCRIPT DATE CODE
-0.3010 JAVASCRIPT HEADER </s>
-0.3010 JUST SAID THAT
-0.3010 KEY PRESS </s>
-0.3010 KEY TYPE </s>
-0.3010 KILL BE BE
-0.3010 KILL BLADDER </s>
-0.3010 KILL ONEKO </s>
-0.3010 KILL RADIO </s>
-0.3010 KILL VOCAL </s>
-0.3010 KILL WINDOW </s>
-0.3010 L S </s>
-0.3010 LABELS HEADER </s>
-0.3010 LAST NAME </s>
-0.3010 LAST TAB </s>
-0.3010 LEAGUE OF EXPLORERS
-0.3010 LEFT ARROW </s>
-0.3010 LEFT CLICK </s>
-0.3010 LEFT SIDE </s>
-0.3010 LINE ABOVE </s>
-0.3010 LINE BELOW </s>
-0.3010 LINK TO SCORE
-0.6021 LIST ITEM </s>
-0.6021 LIST ITEM TAGS
-0.3010 LIST TAGS </s>
-0.3010 LOCAL BIN </s>
-0.3010 LOCK SCREEN </s>
-0.3010 LOG DERR </s>
-0.3010 LOWER VOLUME </s>
-0.3010 M S F
-0.3010 MAGE CLASS </s>
-0.3010 MAIL ADDRESS </s>
-0.3010 MAKE BOLD </s>
-0.3010 MAKE LOWERCASE </s>
-0.3010 MAKE NOTE </s>
-0.3010 MAKE SUPER </s>
-0.3010 MAKE SUPERSCRIPT </s>
-0.3010 MAKE UPPERCASE </s>
-0.3010 MARKDOWN BOLD </s>
-0.3010 MARKDOWN CODE </s>
-0.3010 MARKDOWN HEADER </s>
-0.3010 MARKDOWN HYPERLINK </s>
-0.3010 MARKDOWN ITALICS </s>
-0.3010 MARKDOWN PREVIEW </s>
-0.3010 MAXIMIZE WINDOW </s>
-0.3010 META BOB </s>
-0.3010 META C </s>
-0.3010 META EFF TWO
-0.3010 META EYE </s>
-0.3010 META F TWO
-0.3010 META L </s>
-0.3010 META M </s>
-0.3010 META N </s>
-0.3010 META P </s>
-0.3010 META SCOOBY </s>
-0.3010 META W </s>
-0.3010 METAL TOILET </s>
-0.3010 MIDDLE CLICK </s>
-0.3010 MINIMIZE WINDOW </s>
-0.3010 MOUSE LOCATION </s>
-0.6021 MOUSE WHEEL DOWN
-0.6021 MOUSE WHEEL UP
-1.1461 MOVE TO LEFT
-1.1461 MOVE TO RIGHT
-1.1461 MOVE TO TRASH
-0.5441 MOVE TO WORKSPACE
-0.7782 MOVE WINDOW </s>
-0.4771 MOVE WINDOW TO
-1.0000 MOVE WORKSPACE DOWN
-1.0000 MOVE WORKSPACE LEFT
-1.0000 MOVE WORKSPACE OP
-1.0000 MOVE WORKSPACE RIGHT
-1.0000 MOVE WORKSPACE UP
-0.3010 MUSIC C S
-0.3010 MUTE SOUND </s>
-0.3010 MY COLLECTION </s>
-0.3010 N MAP </s>
-0.3010 NATURAL SYMBOL </s>
-0.3010 NET MAP </s>
-0.3010 NEUTRAL CARDS </s>
-0.3010 NEUTRAL CLASS </s>
-0.3010 NEW BULLET POINT
-0.3010 NEW FILE </s>
-0.6021 NEW LINE ABOVE
-0.6021 NEW LINE BELOW
-0.3010 NEW LIST ITEM
-0.3010 NEW SECTION LABEL
-0.3010 NEW TAB </s>
-0.3010 NEW TABLE ROW
-0.3010 NEW WEB SEARCH
-0.3010 NEW WINDOW </s>
-0.3010 NEXT BUFFER </s>
-0.3010 NEXT HERO PAGE
-0.3010 NEXT PAGE </s>
-0.3010 NEXT QUOTE </s>
-0.3010 NEXT TAB </s>
-0.3010 NEXT TRACK </s>
-0.3010 NEXT WALLPAPER </s>
-0.3010 NEXT WORD </s>
-0.3010 NICK NAME </s>
-0.3010 NIGHT ATTACK </s>
-0.3010 NINETY PROCENT </s>
-0.3010 NO DECORATION </s>
-0.3010 NO SCRIPT ALLOW
-0.3010 O TOOL KEY
-0.3010 OF ALL DESKTOPS
-0.3010 OF CURRENT DESKTOP
-0.3010 OF EXPLORERS </s>
-0.3010 OF FOUR </s>
-0.3010 OF MUSIC C
-0.6021 OF REGION </s>
-0.6021 OF REGION AND
-0.3010 OF THE OLD
-0.6021 OF WINDOW </s>
-0.6021 OF WINDOW AND
-0.3010 OFFICE PHONE </s>
-0.6021 OLD GODS </s>
-0.6021 OLD GODS PACK
-0.3010 ON ALL WORKSPACE
-0.3010 ON LEFT </s>
-0.3010 ON ONLY THIS
-0.3010 ON PAGE </s>
-0.3010 ON RIGHT </s>
-0.3010 ON SELF </s>
-0.3010 ON TOP </s>
-0.3010 ONE MANA </s>
-0.3010 ONE OF FOUR
-0.3010 ONEKO CAT </s>
-0.3010 ONEKO DOG </s>
-0.3010 ONEKO SAKURA </s>
-0.3010 ONEKO TORA </s>
-0.3010 ONLY GOLDEN CARDS
-0.3010 ONLY THIS WORKSPACE
-0.3010 OPEN ARMITAGE </s>
-0.3010 OPEN BLADDER CONFIG
-0.3010 OPEN CENTER TAG
-0.3010 OPEN D I
-0.3010 OPEN EMULATION STATION
-0.6021 OPEN FILE </s>
-0.6021 OPEN FILE MANAGER
-0.6021 OPEN GEE EDIT
-0.6021 OPEN GEE MAIL
-0.3010 OPEN H REF
-0.3010 OPEN HEARTHSTONE </s>
-0.3010 OPEN LAST TAB
-0.3010 OPEN NOTES </s>
-0.3010 OPEN P TAG
-0.3010 OPEN PACK </s>
-0.3010 OPEN PACKS </s>
-0.3010 OPEN POKE MON
-0.3010 OPEN PSP </s>
-0.3010 OPEN QUA CEL
-0.3010 OPEN R ARENA
-0.3010 OPEN RETRO ARCH
-0.3010 OPEN TODO </s>
-0.3010 OPEN UNISON </s>
-0.3010 OPEN VOCAL </s>
-0.3010 OPTIMAL COLUMN WIDTH
-0.3010 P TAG </s>
-0.3010 PACKAGE INFO </s>
-0.3010 PACKAGE SEARCH </s>
-0.3010 PAGE BACK </s>
-0.3010 PAGE DOWN </s>
-0.3010 PAGE FORWARD </s>
-0.3010 PAGE TEMPLATE </s>
-0.3010 PAGE UP </s>
-0.3010 PALADIN CLASS </s>
-0.3010 PARAGRAPH TAGS </s>
-0.3010 PAUSE PLAY </s>
-0.3010 PAUSE VARIETY </s>
-0.3010 PERENTHESIZE THIS </s>
-0.3010 PHONE ICON </s>
-0.3010 PHOTO BY DANNY
-0.3010 PING TEST </s>
-0.3010 PLAY BUTTON </s>
-0.6021 PLAY CARD </s>
-0.6021 PLAY CARD ON
-0.3010 PLAY PAUSE </s>
-0.3010 POKE MON </s>
-0.3010 POPUP JAVASCRIPT HEADER
-0.3010 POWER ENEMY </s>
-0.3010 POWER HERO </s>
-0.3010 PRESS DELETE </s>
-0.3010 PRESS EIGHT </s>
-0.3010 PRESS END </s>
-0.3010 PRESS ENTER </s>
-0.3010 PRESS ESCAPE </s>
-0.3010 PRESS F </s>
-0.3010 PRESS FIVE </s>
-0.3010 PRESS FOUR </s>
-0.3010 PRESS HOME </s>
-0.3010 PRESS I </s>
-0.3010 PRESS NINE </s>
-0.3010 PRESS NO </s>
-0.3010 PRESS ONE </s>
-0.3010 PRESS Q </s>
-0.3010 PRESS SEVEN </s>
-0.3010 PRESS SIX </s>
-0.3010 PRESS TAB </s>
-0.3010 PRESS THREE </s>
-0.3010 PRESS TWO </s>
-0.3010 PRESS YES </s>
-0.3010 PRESS ZERO </s>
-0.3010 PRETTY RUDE </s>
-0.3010 PREVIOUS BUFFER </s>
-0.3010 PREVIOUS HERO PAGE
-0.3010 PREVIOUS PAGE </s>
-0.3010 PREVIOUS QUOTE </s>
-0.3010 PREVIOUS SENTENCE </s>
-0.3010 PREVIOUS TAB </s>
-0.3010 PREVIOUS TRACK </s>
-0.3010 PREVIOUS WALLPAPER </s>
-0.3010 PREVIOUS WORD </s>
-0.3010 PRIEST CLASS </s>
-0.3010 PRINT BUTTON </s>
-0.3010 PRINT WINDOW PID
-0.3010 PUT AFTER </s>
-0.3010 PUT BEFORE </s>
-0.3010 QUA CEL </s>
-0.3010 QUARTER NOTE </s>
-0.3010 QUESTION MARK </s>
-0.3010 QUIT APPLICATION </s>
-0.3010 QUIT ARMITAGE </s>
-0.3010 QUIT BE BE
-0.3010 QUIT BLADDER </s>
-0.3010 QUIT EMULATION STATION
-0.3010 QUIT FILE MANAGER
-0.3010 QUIT GEE EDIT
-0.3010 QUIT HEARTHSTONE </s>
-0.3010 QUIT ONEKO </s>
-0.3010 QUIT POKE MON
-0.3010 QUIT PSP </s>
-0.3010 QUIT QUA CEL
-0.3010 QUIT R ARENA
-0.3010 QUIT RADIO </s>
-0.3010 QUIT RETRO ARCH
-0.3010 QUIT UNISON </s>
-0.3010 QUIT VARIETY </s>
-0.3010 QUIT VOCAL </s>
-0.3010 QUIT WINDOW </s>
-0.3010 QUOTE TAGS </s>
-0.3010 QUOTE THIS </s>
-0.3010 R ARENA TRACKER
-0.3010 RADIO 3FM </s>
-0.3010 RADIO 538 </s>
-0.3010 RADIO ARROW CLASSIC
-0.3010 RADIO FUN X
-0.3010 RADIO SLAM FM
-0.3010 RAISE VOLUME </s>
-0.3010 REFRESH PAGE </s>
-0.3010 REGION AND COPY
-0.3010 REMOVE SPACES </s>
-0.3010 REPEAT AFTER ME
-0.3010 REPLACE ALL FOUR
-0.3010 REPLAY TRACK </s>
-0.3010 RESTART APACHE </s>
-0.3010 RESTART BLADDER </s>
-0.3010 RESTART ENGINE EX
-0.3010 RESTART TRACK </s>
-0.3010 RESTORE WINDOW </s>
-0.3010 RETRO ARCH </s>
-0.3010 RETURN CODE </s>
-0.3010 RIGHT ARROW </s>
-0.3010 RIGHT CLICK </s>
-0.3010 RIGHT SIDE </s>
-0.3010 ROGUE CLASS </s>
-0.3010 S COMMANDO </s>
-0.3010 S F CONSOLE
-0.3010 S HEADER </s>
-0.3010 S L </s>
-0.6021 S S </s>
-0.9031 S S COMMANDO
-0.9031 S S HEADER
-0.3010 SAID THAT </s>
-0.6021 SAVE FILE </s>
-0.6021 SAVE FILE AS
-0.3010 SAVE LINK </s>
-0.3010 SCHOOL OF MUSIC
-0.3010 SCREENSHOT AND COPY
-0.6021 SCREENSHOT OF REGION
-0.6021 SCREENSHOT OF WINDOW
-0.6021 SCRIPT ALLOW </s>
-0.6021 SCRIPT ALLOW TOP
-0.3010 SCROLL DOWN </s>
-0.3010 SCROLL UP </s>
-0.3010 SEARCH APPLICATIONS </s>
-0.3010 SEARCH FIELD </s>
-0.3010 SEARCH FILES </s>
-0.3010 SEARCH MUSIC </s>
-0.3010 SEARCH PHOTOS </s>
-0.3010 SEARCH VIDEOS </s>
-0.3010 SECTION LABEL </s>
-0.3010 SED EXPRESSION </s>
-0.3010 SEE MATRIX </s>
-0.3010 SEE RETURN CODE
-0.4771 SELECT ALL </s>
-0.7782 SELECT ALL UNREAD
-1.2553 SELECT HERO EIGHT
-1.2553 SELECT HERO FIVE
-1.2553 SELECT HERO FOUR
-1.2553 SELECT HERO NINE
-1.2553 SELECT HERO ONE
-1.2553 SELECT HERO SEVEN
-1.2553 SELECT HERO SIX
-1.2553 SELECT HERO THREE
-1.2553 SELECT HERO TWO
-0.3010 SELECT PREVIOUS SENTENCE
-0.4771 SELECT THIS SENTENCE
-0.7782 SELECT THIS WORD
-0.3010 SET ALARM </s>
-0.3010 SET SLEEP TIMER
-0.3010 SEVEN MANA </s>
-0.3010 SEVENTY PROCENT </s>
-0.3010 SHAMAN CLASS </s>
-0.3010 SHARP SYMBOL </s>
-0.3010 SHE BANG </s>
-0.3010 SHIFT C </s>
-0.3010 SHIFT E </s>
-0.3010 SHIFT IN </s>
-0.3010 SHIFT O </s>
-0.3010 SHIFT V </s>
-0.3010 SHIFT W </s>
-0.3010 SHORTEN YOU ARE
-0.6021 SHOW ALL DESKTOPS
-0.6021 SHOW ALL WINDOWS
-0.3010 SHOW DESKTOP </s>
-0.9031 SHOW ON ALL
-0.9031 SHOW ON LEFT
-0.9031 SHOW ON ONLY
-0.9031 SHOW ON RIGHT
-0.3010 SHOW ONLY GOLDEN
-0.7782 SHOW WINDOWS </s>
-0.4771 SHOW WINDOWS OF
-0.3010 SHUT UP </s>
-0.3010 SING GLADIS </s>
-0.3010 SING GLADOS </s>
-0.3010 SITES AVAILABLE </s>
-0.3010 SITES ENABLED </s>
-0.3010 SIX MANA </s>
-0.3010 SIXTY PROCENT </s>
-0.3010 SLAM FM </s>
-0.3010 SLASH ET SEE
-0.3010 SLEEP TIMER </s>
-0.3010 SMART QUOTES </s>
-0.3010 SMILEY FACE </s>
-0.3010 SO FUNNY </s>
-0.3010 SOFTWARE AND UPDATES
-0.3010 SOFTWARE PROPERTIES </s>
-0.3010 SOLO PLAY BUTTON
-0.3010 SORT THIS </s>
-0.3010 SPACE BAR </s>
-0.3010 SPACES TO UNDERSCORES
-0.3010 SPAN THIS </s>
-0.3010 SPEAK THIS </s>
-0.3010 SPECIALTY CLASS </s>
-0.3010 SPECIALTY SPAN </s>
-0.3010 SPLIT BUFFER </s>
-0.3010 STAR WARS </s>
-0.3010 START SELECTION </s>
-0.3010 STATE YOUR DESIGNATION
-0.3010 STATUS REPORT </s>
-0.3010 STOP RADIO </s>
-0.3010 STOP SELECTION </s>
-0.3010 STOP SINGING </s>
-0.3010 STOP SPEAKING </s>
-0.3010 SUDO CLEAN COMPUTER
-0.3010 SUPER KEY </s>
-0.3010 SWAP ALL FOUR
-0.3010 SWAP FOUR OF
-0.3010 SWAP ONE OF
-0.3010 SWAP THREE OF
-0.3010 SWAP TWO OF
-0.3010 SWITCH BACK </s>
-0.3010 SWITCH SWITCH WINDOW
-0.3010 SWITCH WINDOW </s>
-0.6021 SYNC BLADDER </s>
-0.6021 SYNC BLADDER FOLDER
-0.3010 SYSTEM LOG DERR
-0.3010 SYSTEM UPDATE </s>
-0.3010 T BOLD </s>
-0.3010 T BOOK TITLE
-0.3010 T CODE </s>
-0.3010 T COMMANDO </s>
-0.3010 T COMMENT </s>
-0.3010 T F EIGHT
-0.7782 T HEADER ONE
-0.7782 T HEADER THREE
-0.7782 T HEADER TWO
-0.3010 T ITALICS </s>
-0.3010 T PAGE TEMPLATE
-0.3010 T PREFORMATTED </s>
-0.3010 TAB EIGHT </s>
-0.3010 TAB FIVE </s>
-0.3010 TAB FOUR </s>
-0.3010 TAB NINE </s>
-0.3010 TAB ONE </s>
-0.3010 TAB SEVEN </s>
-0.3010 TAB SIX </s>
-0.3010 TAB TEN </s>
-0.3010 TAB THREE </s>
-0.3010 TAB TWO </s>
-0.3010 TABLE DATA TAGS
-0.3010 TABLE HEADER TAGS
-0.3010 TABLE ROW </s>
-0.3010 TABLE TAGS </s>
-1.0792 TAKE SCREENSHOT </s>
-1.0792 TAKE SCREENSHOT AND
-0.4771 TAKE SCREENSHOT OF
-0.3010 TARGET EQUALS BLANK
-0.3010 TAVERN BRAWL </s>
-0.3010 TEE 61 </s>
-0.3010 TEN COMMANDS </s>
-0.3010 TEN PROCENT </s>
-0.3010 TERM TAGS </s>
-0.3010 TESTING EE SPEAK
-0.6021 TEXT ALIGN CENTER
-0.6021 TEXT ALIGN LEFT
-0.3010 TEXT EQUALS THIS
-0.3010 THANK YOU </s>
-0.3010 THAT RIGHT </s>
-0.3010 THAT TRUE </s>
-0.3010 THATS PRETTY RUDE
-0.3010 THATS RUDE </s>
-0.3010 THE END </s>
-0.3010 THE FLUFFIEST </s>
-0.3010 THE MAN </s>
-0.3010 THE OLD GODS
-0.3010 THINK FORTUNE </s>
-0.3010 THIRTY PROCENT </s>
-0.3010 THIS SENTENCE </s>
-0.3010 THIS WORD </s>
-0.3010 THIS WORKSPACE </s>
-0.3010 THREE MANA </s>
-0.3010 THREE OF FOUR
-0.3010 TIME IS IT
-0.3010 TITLE EQUALS THIS
-0.3010 TO ARMITAGE </s>
-0.3010 TO CURRENT LINE
-0.3010 TO DIAMOND CLUB
-0.3010 TO DUMPERT </s>
-0.3010 TO FILE MANAGER
-0.3010 TO FOUR CHAN
-0.3010 TO GEE EDIT
-0.3010 TO HEARTHSTONE </s>
-0.3010 TO INBOX </s>
-0.6021 TO LEFT </s>
-0.6021 TO LEFT SIDE
-0.3010 TO NETFLIX </s>
-0.3010 TO NIGHT ATTACK
-0.3010 TO POKE MON
-0.3010 TO PSP </s>
-0.3010 TO QUA CEL
-0.3010 TO R ARENA
-0.3010 TO RETRO ARCH
-0.6021 TO RIGHT </s>
-0.6021 TO RIGHT SIDE
-0.3010 TO SCORE </s>
-0.3010 TO THE END
-0.3010 TO TRASH </s>
-0.3010 TO TWITCH </s>
-0.3010 TO UNDERSCORES </s>
-0.3010 TO UNISON </s>
-0.3010 TO VOCAL </s>
-0.9031 TO WORKSPACE FOUR
-0.9031 TO WORKSPACE ONE
-0.9031 TO WORKSPACE THREE
-0.9031 TO WORKSPACE TWO
-0.3010 TO YOU TUBE
-0.3010 TODAYS DATE </s>
-0.3010 TOOL KEY </s>
-0.3010 TOOLS MENU </s>
-0.3010 TOP SITE </s>
-0.3010 TOP TEN COMMANDS
-0.3010 TOURNAMENT PACK </s>
-0.3010 TRANSFER KEEP </s>
-0.3010 TRANSFER TEXT </s>
-0.3010 TWENTY PROCENT </s>
-0.3010 TWO MANA </s>
-0.3010 TWO OF FOUR
-0.3010 U T F
-0.3010 UN MUTE SOUND
-0.3010 UNCRAFTABLE CARDS </s>
-0.3010 UNFORMATTED PASTE </s>
-0.3010 UNORDERED LIST TAGS
-0.3010 UP ARROW </s>
-0.3010 UPDATE ALTERNATIVES </s>
-0.6021 UPDATE BLADDER </s>
-0.6021 UPDATE BLADDER CONFIG
-0.3010 UPDATE CONFIG </s>
-0.3010 UPDATE MANAGER </s>
-0.3010 UPDATE SYSTEM </s>
-0.3010 USER BIN </s>
-0.3010 USER LOCAL BIN
-0.3010 USERNAME FIELD </s>
-0.3010 V TAG </s>
-0.3010 V TAGS </s>
-0.3010 VARIETY ADD FAVORITE
-0.6021 VARIETY NEXT QUOTE
-0.6021 VARIETY NEXT WALLPAPER
-0.3010 VARIETY PAUSE </s>
-0.3010 VARIETY PREFERENCES </s>
-0.6021 VARIETY PREVIOUS QUOTE
-0.6021 VARIETY PREVIOUS WALLPAPER
-0.3010 VARIETY SELECTOR </s>
-0.3010 VERBATIM HYPERLINK </s>
-0.3010 VIEW MENU </s>
-0.3010 VOICE SEARCH </s>
-0.3010 VOLUME AIGHTY PROCENT
-0.3010 VOLUME FIFTY PROCENT
-0.3010 VOLUME FOURTY PROCENT
-0.3010 VOLUME HUNDERED PROCENT
-0.3010 VOLUME MAX </s>
-0.3010 VOLUME NINETY PROCENT
-0.3010 VOLUME SEVENTY PROCENT
-0.3010 VOLUME SIXTY PROCENT
-0.3010 VOLUME TEN PROCENT
-0.3010 VOLUME THIRTY PROCENT
-0.3010 VOLUME TWENTY PROCENT
-0.3010 VOLUME ZERO PROCENT
-0.3010 WALLPAPER SELECTOR </s>
-0.3010 WARLOCK CLASS </s>
-0.3010 WARRIOR CLASS </s>
-0.3010 WE DO IM
-0.3010 WEB FILES DERR
-0.3010 WEB SEARCH </s>
-0.3010 WEBSERVER PERMISSIONS </s>
-0.3010 WELL PLAYED </s>
-0.3010 WHADDAYA THINK </s>
-0.3010 WHAT CAN WE
-0.3010 WHAT DAY IS
-0.3010 WHAT DO YOU
-0.3010 WHAT TIME IS
-0.3010 WHATS TODAYS DATE
-0.3010 WHEEL DOWN </s>
-0.3010 WHEEL UP </s>
-0.3010 WHISPERS OF THE
-0.3010 WHO AM I
-0.3010 WHO ARE YOU
-0.3010 WHO IS </s>
-0.3010 WINDOW AND COPY
-0.3010 WINDOW PID </s>
-0.6021 WINDOW TO LEFT
-0.6021 WINDOW TO RIGHT
-0.6021 WINDOWS OF ALL
-0.6021 WINDOWS OF CURRENT
-0.3010 WOLFRAM THIS </s>
-0.3010 WORK EMAIL </s>
-0.3010 WORKSPACE DOWN </s>
-0.3010 WORKSPACE FOUR </s>
-0.3010 WORKSPACE LEFT </s>
-0.3010 WORKSPACE ONE </s>
-0.3010 WORKSPACE OP </s>
-0.3010 WORKSPACE RIGHT </s>
-0.3010 WORKSPACE THREE </s>
-0.3010 WORKSPACE TWO </s>
-0.3010 WORKSPACE UP </s>
-0.3010 WRITE AND QUIT
-0.9031 X COW FORTUNE
-0.9031 X COW SAY
-0.6021 X COW THINK
-0.3010 X D O
-0.3010 X WHO IS
-0.3010 YANK LINES </s>
-0.3010 YANK TO THE
-0.3010 YANK WORD </s>
-0.3010 YOU ARE EL
-0.3010 YOU JUST SAID
-0.3010 YOU LISTENING </s>
-0.3010 YOU SAID THAT
-0.3010 YOU THINK </s>
-0.3010 YOU TUBE </s>
-0.3010 YOUR DESIGNATION </s>
-0.3010 YOUR SO FUNNY
-0.3010 YOUTUBE AUDIO BOOKS
-0.3010 ZEE OUT </s>
-0.3010 ZERO MANA </s>
-0.3010 ZERO PROCENT </s>
-0.3010 ZOOM IN </s>
-0.3010 ZOOM OUT </s>

\end\
